0
weights:
[   0.6564751863,    0.2714234591,    0.1961309314,   -0.8607330322,   -0.5023903847,    0.3732521534,   -0.1933202296,  -0.08883395046,    0.4995417595,   -0.6475787163,    0.1466372013,   -0.6673582196,     0.496129632,    0.7778974771,   -0.4399159551,      0.35095191]
[  -0.2107661366,    0.4345939159,   -0.4021377861,    0.8979476094,   0.08533806354,   -0.6886003613,    0.6046524644,   -0.5528856516,   -0.2626729012,    -0.519875288,     0.511161685,   -0.2521672845,    0.2278381735,   -0.8460106254,   0.09221374989,  -0.03409945965]
[    0.555062294,   -0.7167948484,    0.2643588185,   0.05086356029,   -0.2576039732,     -0.14007999,    0.3541217744,   -0.6266955733,   -0.4116792679,    0.5955960751,   -0.8961223364,    0.8039234877,   -0.9565442204,    0.2994139194,    0.4385371208,  -0.03612834215]
[   0.6024424434,    0.2139377594,   0.06457994878,    -0.829477191,    0.5433263779,    0.7248489261,     0.782130003,   -0.4686873853,    -0.535476923,    0.4653087854,   -0.6843857765,     0.587623179,     0.443043381,   -0.5039117336,   -0.7734388709,   -0.3900886178]
[   0.8078139424,   -0.9673988819,  -0.02297609672,   -0.6175835133,   0.02183713391,    0.6272336841,  -0.05354959145,   0.09856642783,    0.1689770222,    0.3131272793,    0.9999871254,   -0.3050286472,    0.6224033833,    0.2589594126,  -0.05703312159,    0.4241745472]
[  -0.6336859465,   -0.5142264366,    0.9156808257,    0.3239903748,    0.3154277205,   -0.3689887822,   -0.5739019513,   -0.1758628935,   -0.5111745596,    0.9348102808,   -0.5913428068,   0.09811843932,    0.8110516667,   -0.5417260528,     0.185079813,   -0.6348884106]
[  -0.3104400933,   -0.7255368233,   -0.3744341433,    0.7775732875,    0.1219483986,    -0.602447331,     0.830037117,   -0.7104117274,   -0.6952204108,    0.2789167166,    0.7799112797,   0.07352364063,    0.6539382339,     0.401239872,    0.8886362314,     0.243645668]
[   0.5609868169,    0.6083534956,    0.5942091942,   -0.3055743575,   -0.8489365578,    0.7168189883,    0.7584006786,    0.7521535754,    0.4642970562,     0.519469738,    -0.749063015,   -0.1921999007,    0.5543056726,   -0.3662657142,  -0.09816485643,   -0.9182714224]
[  -0.4498434067,   -0.6866418123,   0.06208123267,   -0.8754141331,  -0.09416556358,   -0.3591791093,   -0.7528496981,   -0.8379638195,      -0.7490502,   -0.8130390644,    0.9955979586,    0.3191636205,    0.8702807426,     -0.34244591,   -0.3272977471,   -0.1720325351]
[  0.06223234534,   -0.1981112361,    0.4933165908,   -0.9641577601,    0.8378430009,    0.3277830482,    0.7596167326,   -0.7700247169,    0.5869407654,   -0.7301951647,   -0.8918848634,   -0.7981924415,    0.4260606468,   -0.5371440649,     0.695368886,     0.391967535]
[ -0.04899590835,   -0.7404191494,   -0.1835100353,  -0.08926358819,    0.9053680897,    0.8396134973,    0.2224479616,  -0.06887372583,   -0.6717961431,    0.0404201746,    0.7410796881, -0.004825488199,    0.6974321008,   -0.8516780734,   -0.1309733987,    0.3478729725]
[    0.243377313,    -0.782382369,    0.7851415277,   -0.8788844347,    0.4741436839,    0.1033783704,   -0.1868661195,     0.462959379,    0.4901428223,   -0.8435357213,   -0.8553423882,    0.4602731764,     0.858232975,    0.2661443949,   -0.9935370684,    0.2752803564]
[   -0.251101464,    0.9978489876,   -0.3797703683,   -0.5289979577,    -0.341850698,    0.2169288397,    0.1413032711,    0.8797617555,   -0.8509404063,   -0.8601871729,   -0.9916768074,    -0.501698494,    0.1839899272,   -0.5526871681,   -0.3101140857,   -0.3057682514]
[   0.0355357267,   -0.5634862185,   -0.2561593056,    0.9352773428,     0.554572165,    0.6193519831,   -0.5264322162,    0.7825446725,    0.9002081156,   -0.5906898379,    0.8461382389,    0.8860087991,   -0.1538829505,    0.3022642136,     0.196962595,   -0.6307550669]
[   0.8668791056,   0.02586483955,    0.5892642736,    0.7979747653,    0.2909423709,   -0.2009649128,    0.5369330645,      0.30904302,   -0.8949414492,  -0.07715904713,    0.1877843142,    0.1228988394,    -0.787075758,   0.02137196064,    0.6664866209,    0.2182117701]
[   0.8177187443,    0.6782244444,    0.8460242152,    0.6949666739,   -0.2407429665,    0.7499405146,    -0.453276217,   -0.3158482313,   0.04312670231,    0.6393545866,   -0.6392554641,    0.6844887137,    0.5150914192,    0.9429314137,   -0.5322165489,    0.2543157339]

biases:
[ 0.3463663757, -0.3432511091,  0.2708929181, -0.5957366824,  0.6059071422,  0.4305616319,  0.4533757865,  -0.353858918, 0.06488192081, -0.8247127533, -0.4790061116,   0.863519311,  0.5113899708, -0.8125195503, -0.7774487734, -0.2767981887]

1
weights:
[   0.1028155163]
[   0.1864229441]
[  0.07329056412]
[  -0.4216054976]
[   0.1254216731]
[ -0.03943876922]
[  -0.1108038202]
[-0.006832031533]
[   0.9687263966]
[  -0.9928428531]
[   0.6547822952]
[  -0.1434406936]
[ -0.04813805223]
[  -0.1270059943]
[   0.9172738791]
[   0.8378608227]

biases:
[0.0828474015]

2
weights:
[     0.433126539,    -0.7577136755,     0.3715715408,    -0.2323361039,     0.3362992108,     0.9258292317,     0.7249305844,      0.839894712,    -0.5929035544,     0.6290684938,    0.09608411789,    -0.4054231048,     0.7907634377,     0.6403377652,     0.5617610812,  -0.003712177277,     0.1523990631,    -0.6733477116,    -0.5084447861,      1.020052671,    -0.3547258675,   -0.08918292075,     0.8215873837,  -0.008045196533,    -0.1611829996,    -0.9742893577,     0.3683568239,     0.4179036021,    -0.8767969608,     0.2228470296,    -0.3383344114,     0.6320044398,     0.2409870625,    -0.5956907272,    -0.5560688972,   -0.00294905901,    -0.7574824095,    -0.8766524792,    -0.2791147828,    -0.7460845709,      1.173937917,     0.9954428673,     0.3124092519,     0.5795717835,     0.6555256844,    -0.3799780309,    -0.2575256526,    -0.2113456726,     0.2130337507,     0.3434261978,     -0.482187748,    -0.7346035838,    -0.8549100161,    -0.9002928734,     0.2944147587,    -0.2728034258,    -0.4234609604,    -0.3372283578,    -0.8636043668,    -0.1453445554,     0.7601130605,    0.07458593696,    -0.4690773487,     0.2045845985,     0.5358615518,   -0.02514624596,     -0.750316143,     0.7744553685,     0.2513306141,    0.03542947769,    -0.5843127966,     0.1023758352,    -0.1476012468,     0.4600046277,    -0.2112232447,    -0.5113459826,    -0.3479730487,      0.458720088,     0.2112318128,      1.129556537,    -0.3235141635,     0.7892074585,     -1.269787908,    -0.3716017604,     -1.024183869,     0.5059452653,     0.2950578332,    -0.4126438498,    -0.7706643939,     0.9057976604,      0.487732172,     -1.134902477,    -0.1017897725,     0.8766242266,     0.4995970726,    -0.6995242238,   -0.09585535526,     0.9756640792,    -0.8121609688,    -0.6420819759,    -0.1811694503,    -0.5603625774,     0.2859443426,     0.6489502192,    -0.7365957499,    -0.8969834447,     -0.893155396,    -0.4090024829,     0.5793100595,     0.5519172549,     -0.131343931,    -0.6682016253,    -0.1127324253,     0.1412186027,    0.08260560036,     0.6260650158,    -0.3248494864,    -0.3914290667,      1.233139873,     0.1045201719,    -0.6603595018,      0.253179878,    0.08646410704,     0.2378507853,     0.1923924685,    -0.5326875448,     0.4169913828,     -1.538806796,     -1.432700992,      1.133213401,    -0.7078408003,   -0.03653329611,    -0.5490181446,     0.6468689442,    -0.4183426499,    -0.2856138945,      0.877928853,    -0.3114981055,     0.5961949229,     0.3752727509,     -1.034874439,    -0.4850621819,      0.782107234,     0.2325026095,     0.7466433644,    -0.3836869001,    -0.5579812527,    -0.6039588451, -0.0007667482132,     -1.133390188,     0.3787131608,     0.4894751608,     0.7271198034,     -1.089736819,    -0.5438619256,     -0.560195148,    -0.1319828629,    -0.9166530371,    -0.2785800397,   -0.09561771154,    -0.8447086215,     0.1107954979,    -0.9708412886,    -0.2608784437,     -0.235665679,    -0.3891839981,     0.6815950871,    -0.4791103005,     0.5151484609,    0.08651674539,     0.7222140431,     0.3878132701,     0.7131583691,     0.3590458333,      -0.37609905,     0.2795324922,     -1.036750078,    0.06591963768,     0.7306094766,     0.2388644218,     0.3163178563,   -0.09759705514,     -0.198581934,    -0.3234049678,     0.5883549452,     0.5480448008,     0.4280977547,    -0.6942484379,    -0.9342147112,    -0.8728787899,     0.2966203094,    -0.6247671843,     0.4520686269,     0.2484224886,     0.1356621981,      -1.06906271,     -0.988581717,    -0.3895223737,    -0.4768593311,     0.2691609561,     0.8310998082,    -0.6376775503,     -0.317291081,     0.3346810341,     0.6511602402,     0.3374405801,    -0.5032619238,     0.8311560154,    -0.6895679832,    -0.6857216358,   0.006922006607,     0.6505740881,     0.3320809901,     0.7250517607,    -0.7602934837,     -0.210957408,     0.6146890521,     0.5431841612,     0.1297358274,     0.7126376033,      1.021787524,    -0.2795113027,      1.019970298,      0.128362745,     0.7343675494,    -0.2358715385,     0.1051368713,     0.9937185049,     0.6674014926,     0.8008285761,    0.05245922133,      0.489857167,      1.136435628,      1.010658145,    -0.3509171605,     0.6598281264,     0.1783133745,     0.2710213065,     0.5737796426,     0.6135613918,     0.6143749356,    -0.4744308591,     0.2173463702,   -0.05887156725,    -0.6660907865,     0.6654289961,       0.93244946,     0.8290771246,     0.3288288116,     -0.175034821,   -0.06616914272,    0.04957091436,    -0.1678024977,     0.1956992149,    -0.7033160925,     0.1580430269,    -0.9340732098,     0.6514975429,     0.1029997393,     0.7702378631,    -0.2100521922,    -0.7747040987,   -0.02038002014,    0.02069807053,    -0.9030006528,      0.823882103,     -0.606974721,     0.2753127813,   -0.08305785805,    -0.7120360136,     -0.194349274,    -0.5059349537,    -0.1864668727,    -0.9650868177,     0.6110881567,    0.06671644747,     0.6260650158, -0.0006169120898,    -0.1065149307,   -0.04527717829,     0.9941569567,     -1.323990464,     -1.285010695,     0.2815326452,      0.353068471,    -0.5547952652,    -0.5604243279,     0.5651210546,     0.9704350233,      0.535974741,   -0.07429552078,    -0.1228764057,     0.6295436025,     0.7383511066,     0.8273429871,      1.011305332,     0.6979760528,    -0.2251768112,   -0.07187155634,    -0.5617278814,    -0.3639884591,      1.012478471,   -0.06766283512,      1.062111259,      1.092146635,    -0.9345400929,   -0.08392202854,     0.5778474808,     0.5712051392,     0.9052854776,    -0.8747258186,     0.5093314648,       1.10365057,    -0.2601224482,    -0.2755447626,     0.4305540323,     0.1088963747,     0.2443332672,    -0.6179446578,    0.07292348146,    -0.2797897458,     0.1133148372,      0.799641788,    -0.7389225364,     0.1650722176,     0.6543260217,     -0.780444622,     -0.275557965,    -0.6670927405,     0.2688522935,     0.2120054662,     0.1858273894,     0.3348017335,    -0.8822790384,    -0.2215187252,     0.1272348166,     -1.159105659,    -0.9621784687,    -0.3123172522,     -1.310244918,      1.066648364,     0.2028534412,      0.545150876,     0.8354743719,     0.9751784205,      -1.13888967,    -0.2935710549,   -0.02455860376,     0.5145195723,     0.2780183554,      1.200567365,      -0.68932724,    -0.8620796204,     0.7822085619,    -0.2884706557,      1.160710692,     0.9019682407,   -0.04838871956,    -0.3455126286,     0.9155216813,    -0.7553483844,     0.5118834376,     0.3207597136,     0.6916906834,      1.307793975,    -0.8670163751,    -0.7266597748,     -0.665669322,    -0.7683070898,     0.2522503138,    -0.6475224495,    -0.7466615438,     -0.544896245,     0.9118930697,     -1.238182783,    -0.6783511639,    -0.8552525043,   -0.08150882274,     0.4605681002,      1.153462529,    -0.8515214324,     0.2284533978,    -0.8806936741,    -0.2866673768,     0.0127397012,    -0.2418241799,    -0.3637701869,    -0.5118625164,      0.878864944,     0.1839690208,    -0.6185815334,     -1.113804102,    -0.1363129616,     0.8672856688,     0.4623849094,    -0.4012752175,      0.969214499,    -0.9286671281,    0.04709672928,    -0.5981062651,     0.3705515862,     0.3808817863,    -0.3447677493,     0.9023165703,     0.2934236526,    -0.3170352578,    -0.8996642232,     0.4023505747,     0.4535588622,     0.4656197131,     0.2778995335,       1.11127615,    -0.3741205931,     0.6604558229,    -0.4407273233,     0.8500102758,    -0.6218727827,    0.04955196008,    -0.8931211829,    -0.7970917225,    -0.6854498386,    -0.8851103783,    -0.9830338359,     0.3155278265,    -0.8838954568,     0.8800029755,      1.206847429,    -0.8879556656,      1.223430872,   -0.06189996004,     -0.499193728,     0.1574675143,    -0.6623256803,     0.1722574532,    -0.1871204078,     0.6961087584,     0.9482560754,    0.07332262397,     0.1225881651,     0.5876415372,    -0.5495288372,    -0.6076812744,     0.3391338289, -0.0007104145479,    -0.9666988254,     0.9193015099,    -0.3049080968,     -1.256841421,    0.04525732994,    -0.2254775763,    -0.3856633306,     0.2675445676,     0.3944548368,    -0.3159236908,    -0.4619553089,     0.4225738943,    -0.3342158794,    -0.8850944638,     0.6051154733,    -0.9268125892,     0.3671480417,     -1.223802924,     0.8359630704,     0.6009745598,     0.1133159474,    -0.3570449352,     0.3530775607,    -0.0320684351,      0.732668221,      -0.49957937,    -0.4875442386,    -0.8535286784,     0.0287643671,      0.774707377,     0.2228218317,     0.2612008154,     0.6101242304,     0.9892482758,     0.5746126771,    -0.7554324269]

biases:
[  -0.2506576777,   -0.9121693969,   -0.9522736073,   -0.9898476005,    0.0309105292,   -0.4192655981,    0.4527057111,      0.66910851,    0.0148191452,  -0.08584876359,   -0.8434842229,   -0.6180329323,   -0.1144284084,    0.9987249374,    -1.023255348,   -0.8311780095,   -0.5102833509,    0.3109737337,    0.1945462376,   -0.5772968531,    0.9073330164,    0.8042191267,   -0.5598561764,  -0.04810529947,    0.3739485443,    0.5373186469,   -0.9860397577,    0.2009924054,     0.440854311,     0.549264133,    0.8742574453,   -0.8297473192,    0.5889908671,    0.8891709447,   -0.7970393896,   -0.4502069354,   -0.5213584304,    0.4136075675,   -0.8099144697,    0.3282288313,   -0.2486038804,   -0.4921229184,    0.8194644451,    0.4839369655,   -0.7954086065,    0.9835016727,    0.6548206806,   -0.3169206381,    0.5187701583,  -0.08432367444,   -0.1312038302,    0.1810941845,   -0.3520334959,    0.3117527366,   -0.7400480509,   -0.8374699354,   -0.2440056801,   -0.7260878086,    0.1636758894,   -0.7710819244,    0.8673174977,    0.1758112758,    -0.578273654,    0.3179887831,  -0.04155172035,   -0.3753130436,    0.7685157657,    0.4016986489,   -0.7558274865,   -0.9234703183,   0.02987194061,   -0.2081222981,   -0.5768690705,    0.1259213388,   -0.6796761751,   -0.3835062981,   -0.1324831843,    -0.989130199,    0.3869147003,   -0.6037531495,  -0.07610183954,   -0.8323026299,    0.4484290779,    0.6737404466,     0.241276294,    0.8241451979,    0.7449744344,   -0.8746520877,   -0.9056347609, 0.0006766200531,   -0.6208134294,    0.7097415924,   -0.7809508443,   -0.1466970742,    0.1394375563,     0.314134866,    0.4703993201,  -0.08551301062,   -0.1867699027,    0.6194909811,    0.1437078565,    0.8146922588,   -0.5712285042,    0.4896541834,   -0.2515982985,   -0.2362247109,   -0.8050188422,    0.9379144907,   -0.2638593912,    0.3529329002,    0.7418238521,    0.6351103187,    0.8351858258,    0.2904194295,    0.2337282598,  -0.08706685156,    0.0744811967,  0.004802584648,  -0.09140428901,    0.4620943964,   -0.9410475492,    0.3710381389,    0.2346683294,   -0.7219983935,   -0.7121167183,   -0.6082042456,    0.5417416692,    0.6156182289,    0.4553980827,   -0.4248984754,    0.1755229384,   -0.3740209341,   -0.7888473868,    0.7538093328,   -0.7955334783,  -0.04044574499,   -0.3915378749,   -0.6005523205,   -0.4471263587,    0.2844102383,    0.8210110068,   -0.5561649203,   -0.1363744438,    0.5909683108,    0.8912704587,   -0.7157628536,   -0.4107974172,     0.122014761,    0.4975577295,    0.6608633399,   -0.5190200806,    0.4427494109,    0.2276962101,    0.6650466323,     0.676600039,    0.4931712747,   -0.9430949092,    0.2823286951,   0.06084201857,    0.4737100899,    0.4797238111,   -0.4314214587,   -0.8464932442,    0.5393582582,    -0.654555738,   -0.6420267224,     -0.13599886,   -0.1139147282,   -0.1406542808,    0.3710946739,   -0.8769988418,   -0.3287317753,    0.6547954082,    0.1520464271,   -0.7916516066,    0.5226406455,    0.4806256294,   -0.2024490237,   -0.1686832458,   -0.2164570987,   -0.4408353567,    0.2648411989,   -0.8635303974,    0.8310252428,   0.05055826902,    0.8933628798,    0.2784301043,  -0.07869672775,  -0.05672240257,   -0.4151365161,   -0.5925822258,   -0.5078575611,   0.07769286633,   -0.4966734648,   -0.7478401661,    0.4506671131,  -0.03968900442,  -0.02826845646,   -0.6150283813,    0.6078075767,   -0.6253299117,   -0.4136570692,   -0.6308451295,   -0.9943444133,    0.7244913578,   -0.4089687169,    0.6698078513,    0.2349232882,    0.1721032262,   -0.6491737962,   -0.9105410576,    0.8574171066,    0.4566981792,   -0.8276756406,    0.8034520149,   -0.5854866505,    0.9121336937,  -0.00931783393,    0.4002248049,  -0.03005121648,    0.5718749166,    0.5792018771,    0.3047716022,   -0.1913044304,   -0.6912216544,    0.7825168967,   -0.6905789971,    0.3064550459,   -0.3110450506,    -0.200202629,    0.2029732615,  -0.09766682237,    0.3155223727,    0.4464002252,    -0.079865098,    0.1609167159,   -0.9883136153,   -0.4652599692,   -0.5855460763,    0.4236991405,   -0.1442687362,   -0.5272804499,    0.2324843109,   -0.5616902113,   -0.3013518453,   -0.0766447112,  -0.01506305207,   -0.2971102297,   -0.8990674615,     -0.81136024,    0.7528978586,    0.7959581017,     1.037575841,   -0.0049461741,    -0.431440115,    -0.639727354,   -0.2815066576,  -0.08537070453,    0.7023189664,    0.3239562213,    0.5822780132,   -0.2274026871,   -0.7193239927,   -0.1468909383,   -0.7932195663,  -0.01430273522,    0.8636767864,   -0.7815331221,    0.7486589551,   -0.6813511848,    0.5943043828,   -0.3736259937,   -0.2086315751,  -0.08861923218,   0.01303578727,    0.4148502946,    0.8425184488,    0.8177202344,   -0.8229433894,   -0.9589833021,   -0.8847571611,    0.6735206246,     0.592561841,   -0.9205659628,   -0.1044784859,   -0.6323982477,   -0.5602933168,    0.3658560216,    0.2188609391,   -0.8234047294,  -0.07702219486,     -0.18204391,    0.2558486462,    0.2498618364,    0.7779877186,   0.06347574294,   -0.4639878273,    0.5234411955,    0.3284265399,   -0.8573559523,     1.058134675,   -0.0958147645,   -0.2309820056,   -0.1904510409,    0.6790047884,    0.6951397657,   -0.7935128212,    0.7791387439,    0.6780483127,   -0.5226093531,    0.7842857838,    0.7973145247,    -0.656277895,    0.6634399295,    0.9291509986,    -0.102162905,   -0.9905470014,   -0.6235039234,   -0.4256210923,   0.08649226278,   -0.4762281775,    0.6056982875,   -0.9451229572,    0.4608232379,   -0.3263730407,     0.726991415,   -0.4297016263,   0.09874500334,    0.1472811848,    0.8910164833,    0.1127764955,    0.1977627724,  -0.09588895738,   -0.9828627706,     0.995647192,   -0.2725450397,    0.8243065476,   -0.8014297485,   -0.4707523584,    0.6272819638,   -0.2144999802,   -0.6279429197,    0.3166282475,   -0.1913116723,   -0.9169450402,    0.3900350928,    0.8800173998,   -0.9766386151,     0.798040092,   -0.6465992928,    0.2544091046,   -0.7035394907,    0.8290472031,    0.3248279989,    0.7256084681,   -0.2898847163,  -0.03306424245,   -0.6895962954,    0.6537348032,   -0.5379738212,   -0.7741775513,    0.0814294517,    0.6699848771,    0.1359988749,   -0.3041633368,    0.5841232538,    0.7497496009,   -0.2266614437,    0.7873893976,   -0.6517285109,   -0.6246136427,   -0.5056642294,   -0.2796714306,    0.7545880079,    0.4102890491,   -0.2657630444,    0.3066033125,   0.01945882849,   -0.1371534169,   -0.2421892434,     0.209383145,   -0.9640046358,    0.2201596946,    0.1788370609,    0.3017751873,   0.06209195033,    0.7110667229,   -0.5171701908,     0.365703702,    0.3765425086,  -0.07121425867,    0.5414105654,     -0.64668715,   -0.2168070376,   -0.3667941391,    0.1493408829,   -0.6528303623,   -0.5129446387,   -0.9508489966,   -0.7237725258,   -0.1447349191,   -0.5857915282,   -0.2294368148,    0.4127646387,   -0.7406731844,   -0.9736770988,   -0.7101076245,     0.570232749,   0.07961533219,    0.1923332065,   -0.5552094579,   -0.3589728177,   0.08348608017,     0.703630805,    0.4811853766,   -0.3462902009,   -0.1656528115,    0.4812235236,  -0.04629999399,   -0.8150125146,  -0.07311600447,    0.8757513165,    0.7457900047,    0.3866417706,   -0.4671600461,   -0.4891138971,   -0.2883747816,   -0.1031543016,   -0.1949274093,    -0.394839704,    0.1244315729,    0.8315323591,   0.02969765663,    0.9440088272,     0.309433639,    0.1997935027,    0.9568459392,     0.494338572,   -0.2450332642,  -0.09217842668,   -0.3550975323,    0.2482688427,    0.5580031276,    0.7464512587,   0.06742334366,    0.1106091142,   -0.8007413149,    0.9971741438,   -0.3524903059,   0.05632152781,   -0.9132419825,    0.5968877077,   0.01958887652,    0.8211342692,   -0.1454094052,     0.505921483,   -0.7223100662,    0.2892875373,   -0.4569149911,    0.2722739577,   -0.9842398167,    0.5163215995,    0.1070639268,   0.09019156545,    0.5411384702,   -0.7463896275,   -0.6567726731,    0.3291184306,    0.7372221947,    0.1138154268,    -0.417137444,    -0.504075408,   -0.6128718853,   -0.9406277537,   -0.7756868601,    0.4631448984,    0.2997589111,   -0.4916723371,    0.1902036816,     1.008751631]

3
weights:
[    0.5765304565,     0.9889577627,    -0.5279028416,    -0.9402260184,     0.5107889175,     0.8220661879,    -0.4555938244,     0.4557905793,   -0.09716787934,     0.5923060775,    -0.1922953725,      0.297256887,     -0.829837501,    -0.7583827972,    -0.4329797029,    -0.3035094738,     0.1850291193,     0.7179504633,    -0.7192254066,    -0.5577516556,     0.3485817313,      0.126401782,     0.9502207041,     0.1978381574,     0.5241757631,    -0.3206765354,     0.9307429194,    -0.0995035246,    -0.9664115906,    -0.8442179561,    -0.5117460489,     0.3732625246,    -0.9881893396,    -0.8809405565,    -0.5102522969,      0.867036581,      0.395054698,    -0.6477247477,     0.7529770136,     0.9795944691,     -0.777952373,     0.4441230297,     0.9667870998,    -0.6350318789,    -0.9897031784,    -0.5385617018,     0.5315024853,   -0.04642020911,    -0.7645951509,    -0.7594917417,     0.2478358746,    -0.5205395222,    -0.2515513301,     0.9045335054,     0.5073361397,    -0.6966682673,    -0.2429286689,     0.7016459107,    -0.1781397313,    -0.2185164988,    -0.2671732008,     0.3737171888,     0.6462568045,     0.5823047161,    -0.9244788885,    0.08632969856,     0.3283141255,     0.8110318184,    -0.1368746758,     0.8487565517,    -0.4750863314,    -0.4711513519,     0.1516214609,     0.4763651192,     0.7379562259,     0.6907345057,    -0.9483647943,    -0.2755938768,    -0.5500027537,     0.6571816206,     0.8906379938,    -0.2650102079,     0.9238099456,    -0.5095374584,     0.9134033918,    0.08481255919,     0.9678872824,    -0.5532084703,    -0.2483224571,   -0.09247493744,      0.257643342,    -0.9905198216,    -0.9636989236,    -0.5982978344,     0.4023063183,     0.7660897374,     0.1067640781,    -0.9776031375,    -0.7911688685,    -0.8035520315,     0.5420514345,    -0.7594491243,    -0.4723332822,     -0.974588871,     0.6529774666,    -0.6978774667,    0.08954331279,     0.6412051916,    -0.5750998259,     0.1738792211,    -0.1404542774,    -0.8772196174,     0.7294002175,    -0.1528862715,    -0.3628371954,      0.919124186,    -0.1976092309,    -0.2897664309,   -0.09998673201,     0.4475130737,    0.05739254877,    -0.5725142956,      0.317681551,     0.4925820827,     0.9345892668,    -0.8385237455,    -0.4345301986,      0.510355413,     0.5162373185,    -0.8739007115,   -0.03567641601,     0.7400634885,     0.6595618129,     0.2283270359,     0.4772166014,      -0.23276636,     0.8568943143,    -0.7706467509,    -0.5475270748,    -0.6368986964,     0.6075029373,    -0.9215507507,    -0.1357871443,     0.9274001718,    -0.1579917818,     0.2069390863,     0.8904889822,     -0.586210072,     0.2767292559,    -0.9146766663,   -0.03547412157,    -0.5556733012,    0.01972081512,     0.8872542381,     0.3641278744,    -0.6736754179,     0.4438092709,      0.509860754,    -0.7925996184,    -0.8981440663,      0.990562737,    -0.7613258958,     0.3323272467,     0.2328975499,     0.4251368046,    -0.8207199574,    -0.7930263877,     0.2905576229,    -0.7938072085,    -0.6442745924,     0.2922763526,    0.01404905319,    -0.5327268839,    -0.2246687859,    -0.6376048326,     0.6465452313,     0.3790284395,     0.5651146173,     0.4082079232,     0.3191403151,    -0.3163826466,     0.9009701014,     0.9123698473,     0.5569669008,    -0.8209978342,     0.1235630512,    -0.1038696766,    -0.9880513549,    -0.4502523839,     0.1868867874,     0.8916940093,    -0.6619126201,    -0.1050192714,    -0.9265799522,    -0.4846278429,     0.8128445745,      0.366550684,     0.5955799818,    -0.3449034691,    -0.2280073762,      0.399940908,    -0.6065138578,     0.6409995556,     0.3460094929,     0.5177328587,    -0.6693121195,    -0.3397265971,    -0.2655718625,     0.6471857429,    -0.5895761251,    -0.9139169455,    -0.5634303093,     0.8683745265,    -0.8579665422,    -0.8984498978,    0.02180278115,     0.3057510853,     0.4054894447,     0.9855051637,     0.6776826382,     0.9846888185,     0.2672651708,       0.81784904,    -0.2799249291,      0.305400908,    -0.4312951863,     0.9540727139,    -0.1012506187,     0.7812816501,     0.7433919311,     0.6748918295,     0.7816962004,     0.6013641953,     0.9607668519,    0.06869391352,     0.7543762922,    -0.6851729751,     0.7455661297,    -0.9178231359,      0.116179347,     0.6621474028,     0.5317294598,    -0.6400330663,    -0.3329837918,     0.9571504593,     0.9824770689,    -0.2027607411,    -0.2743775547,    -0.1165043414,     0.4243568778,    -0.4151117802,    -0.1772390604,     0.1147536561,     0.1049499512,     0.8845461607,    -0.8439807296,    -0.5490428209,    -0.5185521841,    -0.9701917171,    -0.7813022733,    -0.9884981513,      0.452059865,     0.6007207632,    -0.0887003988,     -0.499851048,    -0.8571914434,    -0.7644379139,     0.1574901044,     -0.837010622,     0.4999291897,    -0.1236802265,    -0.3461963236,     0.4160999954,    -0.8180669546,    -0.4536524713,    -0.1562880278,     0.4739473164,    -0.7145055532,    -0.4254654646,     0.6002590656,    -0.2035226226,     0.4910222292,      0.732734561,    -0.5526366234,    -0.5124623775,    -0.1941729635,     0.9758690596,     -0.414650023,      0.565443933,    -0.1251971871,    -0.3675788641,     0.6856226325,    -0.3749482632,   -0.03696221113,    -0.9111791253,     0.4519479275,   -0.08967423439,    -0.7960908413,    -0.8368761539,     0.2285766006,    -0.1573744863,    -0.2524407506,     0.1555072069,    -0.2769079804,     0.9739701152,     0.2170871496,     0.1427407265,    -0.2367601246,     0.5536221266,     0.2345831096,    -0.9180589914,    -0.3361483216,     0.9045354128,     0.8957824111,     0.4041008949,     0.4136208296,   -0.02106504701,     -0.817958951,     -0.702783823,  -0.005129163619,     0.7486879826,     0.8235225677,     0.9974971414,     -0.922447741,     0.5600211024,    -0.5484451652,    -0.1265891492,     0.6605153084,    0.05706870556,    -0.6978320479,    -0.9019858241,     0.3862160444,     0.4867523909,     0.5618319511,    -0.1268792152,    -0.2355888635,     0.4103384018,     0.6981441975,    -0.9569222331,     -0.214417696,     -0.378084898,     0.3509971499,     0.3042445481,      0.941106379,    -0.6122941971,     0.8682178259,      0.440625906,    -0.5980443954,    -0.9617233872,     0.4487223625,    -0.6841503382,    -0.8945616484,    -0.2062971592,   0.002060942817,      0.750557363,    -0.3587038815,   -0.02422226593,     -0.594363153,   -0.03628760576,    -0.9871861935,     0.9149730206,    -0.3524748087,    -0.7315686345,    -0.5713647604,    -0.2208679765,     0.5908129215,    -0.8059272766,    -0.8609963655,     -0.192928642,    -0.5302230716,    0.09397881478,     0.9134557247,     0.1258324385,     0.6326884031,     0.7032662034,     0.8287808895,    -0.9862440825,     0.1544419527,    -0.4429728687,     0.7649739385,    -0.7096111774,     0.5429376364,    -0.1385405809,    -0.1015344262,    0.07372120768,     0.3379813433,     0.7074234486,     0.2851465642,     0.6904330254,    -0.5413923264,     0.2440666854,     0.8169568181,     0.6525990963,     0.2570743561,    -0.6635205746,    -0.2535939813,    -0.1466576457,    -0.5450351238,     0.3584922552,    -0.6195556521,    -0.3113156557,    -0.5586850643,     0.5663416386,      0.793623805,    -0.7427781224,    -0.5790678263,   -0.05596254021,     0.7281452417,    0.01300545782,     0.9641965032,    -0.4905834794,     0.1701213419,     0.6395699382,    -0.9391253591,    -0.2616154552,     0.6257653832,    -0.7609434724,    -0.9901863933,     0.5509037971,     -0.175470531,    -0.8239884377,     0.6677765846,     0.5291367173,     0.6179178357,   -0.07306996733,     0.7544708252,     0.5167131424,    -0.2751452923,     0.9482761621,    -0.1414653063,     0.7412667871,    -0.4263418019,    -0.5049309134,    -0.9364928007,     0.5924496651,    -0.3027852178,    -0.8580062985,    -0.7533913255,     0.4467589557,    -0.6342229247,     0.6757656336,    -0.8115232587,     0.7572777867,    -0.8433511257,     0.8869223595,     -0.576695919,     0.6157888174,     0.5340015888,    -0.3878669441,    -0.3577713966,    -0.2580991387,    -0.9432988763,    -0.8952639699,    -0.3721610904,    0.04537875578,     0.1302537024,     0.5729855299,     0.2005994916,     0.7698644996,    -0.4947407842,    -0.7676545382,     0.3223496079,     0.8820614219,     0.3439913094,     0.2387888432,     0.3524980545,     0.9462169409,    -0.8146843314,    -0.9963562489,    -0.4632116854,   -0.09798832983,    -0.6854280829,    -0.5835824013,     0.0471441187,     0.4628217816,    -0.4845095873,    -0.3172599673,    -0.3063529134,    -0.8507387638,    -0.5386148691]
[    0.4430799484,     0.8193711042,      0.500054121,     0.7143186331,     -0.836253047,     0.8383510113,     0.5013587475,     0.4328696728,    -0.3146045804,    -0.8552369475,   -0.02100765705,     0.2732321024,     0.8463720083,     0.4835888147,     0.3246123791,    -0.5677310228,     0.3581709862,     0.1302103996,    -0.7024047375,   -0.06647861004,     0.7775563002,      0.137254715,    -0.7002055049,     0.7831130028,    -0.4027769566,    -0.6874803305,     0.1024385691,    -0.4645813107,     0.4964802265,     0.4061137438,     0.6931986809,   -0.05491816998,    -0.5559401512,     0.9706207514,    -0.4427242279,    -0.6210443974,    0.02687847614,     0.1324388981,    -0.9543069601,    -0.4004285336,    -0.7128062844,    -0.3406549096,     0.4454166889,     0.2512114048,    -0.9970309138,    -0.9342643619,     0.7440966368,     0.4597444534,     0.2682278156,     0.3682312965,    -0.1131988764,    -0.6960430145,    -0.5365028381,  -0.002165436745,     0.1452172995,     0.5095202923,     0.4073506594,     0.2871847153,     0.6321182251,    -0.9513210058,     0.3329190016,     0.5074311495,     -0.517947197,     0.7363415956,    -0.3146719933,      0.852848053,    -0.7414985299,    -0.7733822465,     0.5479850769,   -0.02061450481,    -0.6822850704,    -0.4047388434,     0.2761938572,    -0.3217440248,     0.5235104561,     0.6005446911,    -0.8303755522,    -0.9067267179,      -0.62974298,     0.8665063381,    -0.9423588514,    -0.6078215241,    -0.9629465342,      0.306068182,     0.2540278435,    -0.1563165188,    -0.9191627502,      0.742446661,    -0.1334326267,    -0.1547682285,     0.3709776402,    -0.3358315229,   -0.01261866093,    -0.1381804943,    -0.3556595445,    -0.5796021819,    -0.8846766353,     0.0555036068,     0.2076054811,    -0.5825992227,    -0.4766969085,    0.02126979828,    -0.2490472198,     0.7983818054,   -0.09169226885,     0.7865700722,      0.605281353,     0.7827401161,   -0.03665089607,     -0.145329833,    -0.9269699454,    -0.6870513558,    -0.6068300009,     0.8385556936,    -0.1085047722,     0.3058880568,     0.2226529121,     0.2104040384,     0.1347588301,    0.01774024963,     0.9948987961,    -0.8114404082,     0.5766154528,    -0.8276301026,    -0.8207098842,     0.2129141092,     0.2706991434,     0.2119704485,     0.3351705074,    -0.9812636375,    -0.4808244109,      0.932046175,     0.2051370144,     0.8926081657,     0.3862991333,     0.3622618914,     0.4330199957,      -0.58953619,     0.8018143177,    -0.4836142659,     0.3923653364,     0.7327158451,    -0.7695504427,     0.2175676823,    -0.7477561235,    -0.9204041362,     0.9524158239,    -0.9807689786,     0.7962254286,     0.8266859055,     0.1083574295,     0.4349956512,     0.9587831497,     0.6985406876,      0.212964654,    -0.3525750041,     0.7663577795,     0.8884385824,    -0.1173433065,   -0.01978415251,     0.8702850342,    -0.9311800003,     0.2083636522,    -0.3953153491,     0.9669606686,    -0.5530481935,    -0.6267256737,     0.9339740276,     -0.727942884,    -0.2892202735,    -0.8543167114,    -0.3861791492,    -0.7083668709,    -0.1617640853,     0.6067892313,     -0.019097507,     -0.381598711,     0.1327584982,    -0.6132657528,   -0.01375573874,    -0.5215644836,     0.3112823963,     0.7443809509,    -0.8110224605,    -0.2244827151,    -0.7561204433,    -0.4192755222,    -0.6165670753,    -0.6507692337,    -0.4462380409,    -0.1627906561,    -0.2345572114,     0.8469737768,    0.08071732521,     0.6447842121,      0.745023489,    -0.7369450331,     0.5055271387,     0.9515644312,     0.1176972389,     0.5839354992,     0.2089846134,     0.5536414385,     0.5233598948,    -0.5257049203,    -0.6260697246,    -0.8130393028,     0.9609358311,    -0.4544588327,     -0.102773428,     0.5997312069,    -0.9441179037,     0.8987892866,    -0.1964336634,      0.206215024,     0.3920129538,     0.1406632662,     0.8776232004,    -0.6484279633,     0.4960730076,    0.08623933792,  -0.008027613163,     0.3086012602,    -0.9197642803,     0.7631815672,    -0.9701880217,     0.3486768007,     0.9133582115,    0.03168427944,     0.1750936508,    -0.7913858891,     0.2678341866,     0.4854822159,    -0.8791252375,    -0.8756374121,     0.4028311968,     0.3539162874,     0.4265934229,    -0.5029053688,     0.2409323454,     -0.547893703,    -0.1489374638,    -0.9832231998,    -0.2884728312,     -0.418884933,    -0.4195155501,    -0.9857500792,     0.3375861645,    -0.2681766152,     0.8739621639,    -0.7651150227,    -0.9990310073,    -0.4578570724,    -0.4886491895,    0.05173242092,     0.9672034979,     0.6324784756,     0.9807133675,    -0.4217245579,      0.660520196,    -0.6191188693,     0.1222069263,    -0.6256909966,    -0.4229206443,    -0.7804946899,     -0.689404726,    -0.4904006124,     0.1724524498,  -0.007928729057,     0.9235162735,      0.143561244,    -0.7316246629,    -0.8806317449,      0.886392355,     0.9619008303,    -0.1881042123,    -0.9762004614,     0.2739093304,    -0.8200007081,    0.05853271484,    -0.3208065629,     0.7515228987,    -0.9841898084,     0.6674525738,     0.2128072977,     0.4087969065,     0.8470972776,     0.1907346249,    -0.2009705901,     0.3767501116,    -0.3640550375,     0.2940275669,    -0.6874555349,     0.3995338678,     0.4247611761,    -0.1096431613,    0.01684701443,    -0.8107286096,    -0.5802954435,     0.6852391958,     0.7667822838,     0.7079744339,     0.7402970791,    -0.5303180218,     0.1419651508,     0.6851044893,     0.0585334301,     0.9081684351,     0.3081240654,     0.8187530041,     0.4378764629,   -0.04249370098,    -0.6014294624,    -0.1989203691,    -0.1092970371,    -0.0842717886,     0.9656426907,     0.1840749979,    -0.5064306259,    -0.2774210572,    -0.7434204817,      0.434432745,    -0.1093865037,    0.09478807449,     0.5173933506,    -0.2137738466,    -0.5185365677,     0.3630034924,    -0.9103690982,     0.9056938887,    -0.8006292582,     0.5864346027,    0.07339382172,    -0.6354342699,    -0.5967872143,     0.8642419577,     0.7744960785,    0.06209945679,     -0.462618053,     0.9214744568,    -0.9509064555,     0.7843827009,     0.9463797808,     0.9382190704,     0.1375627518,     0.3360311985,     0.9550358057,     0.7131545544,     -0.764613688,    -0.6316144466,     0.3453717232,     0.4361668825,    -0.2122890949,    -0.9384667277,    -0.5972213745,      0.915733099,     0.1539928913,     0.4227255583,    -0.7889865637,     0.1436573267,    -0.6971828938,     0.9415758848,    0.09369289875,    -0.1846857667,      0.922082901,     0.8330894709,     0.9901841879,     0.6615078449,    -0.2274138331,      0.356574893,     0.3418469429,     0.7029577494,     0.5919812918,   -0.08836013079,      0.307924509,   -0.02925747633,    -0.8701620102,     0.4760138988,     0.2399425507,     -0.680711627,    -0.8345695734,     0.3646957874,     0.5314029455,    0.05235946178,    -0.6350021362,     0.7546010017,    -0.4944207668,     0.7988584042,     0.6583838463,    -0.9596903324,    -0.5311223269,    0.03349101543,    -0.5978095531,     0.3526809216,    -0.6476213932,    -0.7071942687,    -0.1327167749,    -0.1233093143,     0.8684009314,   -0.07390683889,     0.1907862425,     -0.405825913,    -0.3381329179,      0.460460186,    -0.1812337637,     -0.978063643,   0.008564829826,     0.9926943779,    -0.6944327354,     0.6122456789,    -0.5628629923,    -0.1185494661,     0.4736562967,    -0.7256501913,     0.7982296944,     0.3107472658,     0.9376378059,    -0.1249291301,     0.2637529373,   -0.07122915983,    -0.3713130355,    -0.8519086838,     0.1654086113,    -0.4162784219,    -0.6369050741,     0.3838524818,    -0.3913396597,     0.9799102545,    0.04866588116,     0.4264574051,    -0.4431603551,     0.5860586166,     0.9490253925,    -0.4677624702,    -0.9964173436,      0.457393527,      0.970502615,     0.5533058643,    -0.3097016811,    -0.6734911203,    -0.2929717302,    -0.8010607362,    -0.3715620041,     0.3794033527,     0.8285007477,     0.8521348238,   -0.08802646399,    -0.1282956004,    -0.1123284101,    -0.4063078165,    -0.6320423484,     -0.584633708,      0.233970046,   0.003139615059,    -0.2132735252,     0.3764227629,     0.9417328835,    0.01239085197,    0.04232633114,     -0.716194272,    -0.0429251194,     0.2675377131,     0.6509962082,     0.1428341866,   0.003275990486,     0.2695184946,     0.6533117294,    -0.5769056082,    -0.9012383223,     0.9063953161,    -0.9666702151,    -0.2690524459,   -0.04623371363,      0.321277976,     0.4952449799,    -0.9014844894,    -0.6986056566,     0.4653031826,    -0.8512793183,    -0.1548933983]
[     0.453692317,      0.772061944,     0.3398365974,     0.7318531275,    -0.3685576916,   -0.09765052795,     0.7241849899,       0.65531528,    -0.4212617874,    -0.2824366093,     0.1275990009,   -0.02100932598,    0.07314491272,    -0.2113447785,     0.9292761087,     0.0563467741,     -0.598708272,    -0.6577253342,     0.8791736364,     0.5399314165,     0.9130040407,     0.7335885763,    -0.7021665573,    -0.7681587338,     0.9830520153,     0.4367499352,    -0.4670757055,     0.9855052233,     0.8025709391,     0.5041329861,    -0.1000971794,    -0.5908788443,     0.3213530779,    -0.3025375009,    -0.2637727857,     0.6045757532,    -0.4469354749,     0.7951047421,      0.229416728,     0.9632868767,      0.837903142,    0.01483607292,     0.4373373985,    -0.3418627977,     0.8539165258,     0.4837906361,     0.9111310244,     0.1485850811,     0.6811269522,     0.4775350094,    -0.5673581362,     0.7631075382,    -0.9232817888,     0.2994272709,    -0.4636659026,     0.9439297915,    -0.3652251959,     0.8257600069,    -0.4507259727,    -0.3762950897,    -0.7495417595,      0.706989646,   -0.04981172085,     0.3883032799,    0.03798091412,     0.2056303024,     0.6765356064,    -0.8635642529,    -0.7625261545,    -0.6224222183,    -0.5511600375,     -0.983138442,     0.0227278471,    0.09660387039,    -0.5368590355,     0.5608017445,     0.3842682838,    -0.2939742804,     0.1956022978,    -0.6980952024,    -0.9083160758,     0.9907958508,   -0.07432121038,    -0.1380857825,     0.4415419102,   -0.04763221741,     0.5672667027,     0.3978161812,     0.7360733747,    -0.4562079906,    -0.1179907322,    -0.7640521526,    -0.0998044014,     0.8649098873,    -0.6121934652,    -0.9907682538,    -0.4404423833,     0.2970117331,     0.8461239338,     0.1807485819,      -0.38319695,   -0.06687539816,      0.447815299,    -0.3603989482,     0.7819685936,    -0.2747114897,     0.7680348158,    -0.6590998173,     0.2588145733,    -0.8976042867,    -0.1666690707,     0.5676696301,    -0.3126531243,    -0.9009957314,    -0.1608178616,    -0.4401479363,    -0.3186112046,    -0.2147026062,     0.4757113457,    -0.6665047407,     0.7304400206,    -0.7739684582,     0.3095864058,    -0.3719229698,     -0.296925962,    -0.4919221997,     0.9355312586,     0.2946052551,    -0.8749958277, -0.0004302859306,    -0.7743289471,     0.4312294722,    -0.8947766423,     0.2278506756,     0.8414623737,    -0.7088396549,     0.3729481697,    -0.3310636878,     0.2354650497,     0.2030342817,     0.3739562035,     0.7715681791,    0.07305335999,     0.5082648993,    -0.8753159642,    -0.9886443615,    -0.5093773603,    -0.3877458572,    0.04912447929,    -0.5160539746,     -0.307985425,    -0.2037530541,     -0.412325263,    -0.2107265592,     -0.121180892,    -0.3099444509,    -0.8170489669,     0.9264786243,     0.4895123243,   -0.04580914974,    -0.2723531127,    -0.2409803867,     0.4781868458,    -0.5360982418,    0.03375470638,    -0.7422308922,    -0.7773893476,     0.4217656851,     0.2551760674,    -0.3206256628,     0.6468954086,    -0.3668932915,    0.02189338207,     0.6775569916,    -0.2353023291,     0.7928984165,      0.599276185,      0.999563694,     0.1156742573,    -0.8636921048,     0.3055382967,     0.6159626245,    -0.5785826445,     0.3600955009,    -0.3757041693,     -0.453332901,     0.7657208443,    -0.8132664561,     0.4053663015,    -0.2792285085,    -0.3825278878,    0.08027565479,      0.320379138,    -0.5111398101,    -0.6797759533,     0.7658218145,    -0.5035833716,     0.9837183952,    -0.1800482869,     0.2675613165,    -0.5344230533,     0.4932773113,     0.6331288815,      0.262157917,    -0.7461836934,   0.002802848816,     0.2688440084,     0.9343802929,     0.1223791838,     0.3647171259,    -0.8699659705,     0.3787301779,    -0.7125480175,     0.9797290564,    -0.8762021661,    -0.7624102831,    -0.3996778727,     0.5351686478,    -0.6226192713,    0.07321608067,    -0.9516952634,    -0.6684755683,    -0.4198143482,   -0.01660996675,    -0.3225113153,    -0.7917752862,     0.4548697472,     0.9679906368,   -0.08859968185,     0.5541666746,   -0.08661663532,     0.6671228409,     0.1712018251,   -0.06418257952,    0.06267857552,    -0.4050371647,    -0.3761079311,     0.3706433773,     0.7650570869,     0.9225797653,     0.4284231663,     0.2785680294,     -0.766289115,   -0.07297748327,    -0.9117894769,     0.4644554853,     0.7935738564,     0.3023774624,    -0.3180299401,     0.8925300837,     0.7267894745,     0.6392613649,    -0.1583960056,    -0.2841715217,    0.04974508286,    -0.4317196012,     0.2316243649,     -0.135543704,    -0.4059389234,    -0.6986448765,    0.08442473412,    -0.1976356506,     0.4468861818,   -0.03117012978,    -0.6843094826,    0.07399582863,      0.203727603,     0.2033486366,     -0.705793798,     0.8333282471,     0.2867455482,    -0.4031660557,     0.1532301903,     0.1041345596,     0.9628989697,    -0.4333834052,     0.4894484282,     0.9403958321,     0.5283885002,     0.4018456936,    -0.8715000153,     0.4408831596,     0.2409840822,     0.3193466663,     0.4034407139,     0.6528203487,    -0.5377053618,    -0.2732557058,     0.4992164373,     0.9709113836,     0.6633071899,     0.1207652092,    -0.2094520926,    -0.7080541849,    0.01459896564,     -0.189062953,    -0.1792077422,    -0.4244539142,     0.8468004465,    -0.3601400256,    -0.1792117357,    -0.3436493278,     0.4790391922,     0.7029436827,      0.476801753,     0.9559594393,    -0.3157121539,     0.8902295828,    -0.4543991685,     0.6025203466,   -0.08745658398,     0.1112930775,   -0.01845276356,     0.5870918036,    -0.5383522511,    -0.9421434999,    -0.3868965507,     0.3205934763,    0.00534760952,    -0.1307433248,    -0.9102826715,   -0.07918184996,    -0.8934124708,     0.6811929941,    0.09890258312,     -0.300431788,     0.1870912313,     0.4970078468,    -0.4656985998,    -0.6618669033,    -0.4522521496,     0.5090343952,     0.9610930681,   -0.05495011806,    -0.3291939497,    -0.5179077983,      0.188370347,     0.4393634796,    -0.4536041021,     0.7279570103,     -0.687595129,    -0.4982623458,     0.4083843231,     0.7674553394,    0.05680394173,    -0.7286854982,   -0.09170413017,     0.9881030321,     0.5032287836,     0.6784076691,    -0.8703399301,    -0.8077356219,     0.1837096214,    -0.9834540486,    -0.6167507768,     0.6262345314,     0.8741075993,      0.477221489,    -0.7925323844,     0.3179543018,    -0.7000621557,     0.9379632473,    -0.9272898436,     0.2951749563,     0.8117768764,     0.6212688684,      -0.97214818,    -0.8849059939,     0.1558896303,    -0.7203569412,     0.5897109509,    -0.5154526234,    -0.8869896531,     0.4699242115,     0.4951859713,    -0.7420299053,    -0.1876264215,     0.1859295368,    0.04975128174,    0.06849014759,    -0.9073810577,    -0.6013284922,     0.4274497032,     0.9740178585,   0.001346707344,     -0.852807641,    -0.7961057425,    -0.9944357872,    -0.5817945004,     0.1912363768,    -0.6172653437,     0.8710851669,     0.1766765118,    -0.2319121361,     0.6830958128,    -0.5713131428,   -0.04712229967,    -0.2162820697,    -0.8923772573,     0.5355017185,     0.8381857872,    -0.9164033532,    -0.6911717653,     0.5215438604,    -0.1263049841,    -0.1029233932,    -0.1269663572,    -0.7046523094,    -0.1314406395,    -0.4454802275,      0.251768589,    0.06866502762,    -0.5259553194,    -0.1051492691,    -0.9522663355,    -0.5047867298,     0.5147145987,    -0.3866792917,    -0.2858684063,    -0.1577638984,    -0.8260041475,    -0.8256120682,   -0.08285361528,     0.4489634037,     0.3608334064,    0.07621335983,    -0.8658732176,    0.08031845093,     0.9354721308,      0.933917284,     0.1392031908,    0.02436006069,     0.1489166021,     0.8592828512,    -0.4169309139,     0.5444774628,    0.09372985363,    -0.3082168698,     0.2188969851,    -0.3955934644,     0.9643219709,     0.1297713518,    -0.2380592227,     0.1775602102,      0.277261138,     0.7857857943,    -0.9760043025,     0.2267836332,     0.3147617579,    -0.6108361483,     0.9019669294,    -0.8830123544,    -0.6254318953,     0.6344985962,    -0.6819580197,     0.3950418234,     0.4914337397,     0.7980765104,     0.2736672163,     0.9029606581,     0.7488173246,     0.8471531868,   -0.06027776003,    -0.5238314867,    0.08275139332,    -0.3765903711,      0.293738842,    -0.6193321943,    0.05199337006,     0.3207144737,     -0.778630197,    0.01012516022,     0.7607229948,    0.05388557911,    -0.2882270217,     0.9441159964,     -0.556208849,     0.4603680372,     0.5941696167,     0.7822164297]
[   -0.3880250454,    -0.4815260172,    0.03468120098,    -0.4063394666,     0.6866233349,     0.7785249949,     0.6566537619,    -0.1352360845,     -0.296043098,     0.5400050879,    -0.1954720616,     0.4484181404,    -0.9517986774,     0.8501527309,     0.7293206453,     0.1794611216,     0.1075870991,    0.04562067986,    -0.3113956451,    -0.1039220095,     0.9915001392,    -0.1112102866,     0.9922001362,    -0.9027356505,    -0.1204478145,     0.2653880119,    0.05943977833,  -0.002235591412,     0.4080264568,    -0.4556522369,     0.8932446241,     0.2484577894,    0.01591110229,    -0.1335662007,    -0.8754107952,     0.7087037563,      0.601326704,    -0.9127736092,    -0.8151074648,     0.2214118242,    -0.2751737833,   -0.09501600266,     0.5129941702,     0.8722145557,     0.1491527557,    -0.6472395062,    -0.6193218231,    -0.1158968806,    -0.1177733541,   -0.06605029106,    -0.4202826619,    -0.3892537951,     0.7807195187,     0.2572262287,    -0.3143848181,    -0.2870993614,     0.9962267876,     0.5089496374,    -0.4871438146,    -0.4315866828,    -0.3698113561,    -0.3351213336,    0.05807459354,    -0.8202784061,      0.741301775,    -0.9942466617,    -0.6865044832,      0.255492568,     0.2186957598,    -0.7977673411,     0.8383489847,    -0.6073628664,    -0.8534203172,     0.6735752821,    -0.1861959696,     0.0619969368,      0.247264266,     0.7335685492,   -0.07190746069,     0.2541091442,     0.7084519863,     0.6047992706,    -0.1817768216,    -0.9711285233,    -0.4704704881,    -0.6944181919,     0.2319982052,    -0.8078100681,     0.4450148344,     0.2628746033,    -0.1640997529,    -0.5965299606,   -0.01116609573,     0.4318311214,     0.9361000061,     0.2249132395,    -0.5336096883,     0.5253802538,    -0.8338776827,     0.8320988417,    -0.7301690578,    -0.9588635564,    -0.5399842262,     0.6356825829,     0.7858071327,    -0.3747127056,     0.5256119967,     0.9368648529,    -0.3711656332,     0.5986315012,     0.9780213833,     0.6484184265,     0.2636306286,     -0.912078619,     0.8141231537,   -0.01052206755,    -0.2029867768,   -0.07196378708,     0.9688998461,     0.3283768892,    -0.8428481221,    0.09166824818,     0.9145658016,    -0.3186171651,    -0.3490265012,     0.7690244913,    -0.5018523932,    -0.6349313259,     0.6772707701,   -0.06508678198,     0.9008511305,    -0.2292192578,    -0.2364234924,     0.3217154741,     0.6313605309,    -0.8524962664,     0.1141198874,   -0.09135586023,    -0.5049336553,     0.1624549627,   -0.06030118465,    -0.6104146242,     0.1566972733,    -0.7601277232,    0.05384755135,     0.2026567459,     0.7862647772,    -0.5798761845,   -0.07043033838,    -0.4975020885,    -0.4214544296,     0.5542771816,     0.4347667694,     0.5363214016,     0.6063359976,    -0.8840509653,   -0.06546795368,     0.5693606138,     0.1772792339,   -0.04040205479,    -0.4647401571,    -0.6178634167,    -0.1619924903,    -0.2710683942,     0.6753474474,     0.7861776352,      0.385900259,    -0.9685217738,    -0.6830918789,     0.8459781408,     0.2029007673,     0.9320741892,      0.619546771,    -0.2288924456,    -0.2278550863,     -0.866394639,   -0.09500986338,    -0.1304154992,    -0.1006250381,     0.2021272182,    -0.7156034112,     0.8199113607,     0.9695904255,     0.6287101507,       0.14014256,     0.6303066015,     0.3482923508,     0.9563440084,     0.1156007051,     0.3995113373,   -0.09761106968,     0.5841308832,    -0.1609797478,    -0.8660069108,    -0.4006828666,     -0.628702879,    -0.3189100027,    0.02047467232,    -0.9060509801,     0.5956443548,     0.6112551689,     0.8347485065,    -0.9914911985,     0.2357572317,  -0.005526959896,      0.878105402,     0.9876384735,     0.9838149548,     0.4619597197,    -0.3813962936,     0.4921833277,     -0.431483984,    0.08438527584,     0.3814835548,    -0.5255309343,     0.7563400269,    -0.6367306113,     0.4644496441,     0.5540601015,    -0.8844538927,    -0.5200455189,    -0.9714303017,    -0.8789510131,   -0.05733853579,    -0.3871574402,    -0.8547532558,    -0.6806700826,    -0.1626169086,    -0.4579231739,    0.07077586651,    -0.4721337557,  -0.002496361732,    -0.1824477315,    -0.2483918667,    -0.5086113214,     0.6594142914,    -0.2059584856,     0.8207802773,    -0.3686708212,     0.4278440475,    0.05959796906,    -0.7940278649,    -0.2266705632,     0.5780205727,    -0.1115319729,     0.1199109554,     0.4863545895,     0.8119932413,     0.4708385468,     0.7153451443,     -0.781304121,     0.9330260754,     0.2723329067,     0.1553049088,    -0.5438009501,    -0.6278614998,    -0.2644498944,     0.4798278809,    -0.3552219272,     0.8368669748,    -0.7252715826,      0.969971776,    -0.6000555158,    -0.3663754463,   0.007395148277,     0.7843708992,   -0.01664441824,    0.08637368679,    -0.8922621608,     0.3711344004,     0.7320991755,   -0.02483636141,     0.1127091646,     0.5569412708,    -0.2614667416,    -0.2145525217,    -0.4919367433,     0.3158880472,     0.5526664257,     0.7652052641,    -0.5067015886,     -0.281778574,     0.1856119633,     0.8732657433,    -0.8662968278,     0.9402369261,    -0.6080178618,     0.3470363617,   -0.04426157475,     0.2856955528,    -0.7957750559,    -0.8810100555,    -0.9809403419,     0.7446445227,    -0.7572602034,    -0.2565351129,     0.2971857786,     0.8370388746,    -0.4948036671,     0.6319736242,     0.5871547461,    -0.4023832083,    -0.8780012131,   -0.08349484205,    -0.4384058714,     -0.608052969,    -0.1356319189,    -0.0197430253,    -0.2186620235,     0.3410491943,     0.4966343641,   -0.01342308521,    -0.4772650003,    -0.1263799071,     0.1941245794,     0.2432551384,     0.5479940176,    0.00187265873,    -0.3170936108,     -0.340988338,    -0.9797123671,    -0.8313004375,     0.1195331812,     0.2359279394,    -0.6843601465,    -0.4727640152,    0.09862744808,     0.7867275476,      0.384136796,     0.1615246534,    -0.4067307115,    -0.9094705582,     0.6115863323,    -0.5963539481,  0.0004180669785,    -0.6917757988,    -0.3373772502,    -0.8887409568,    -0.5887511969,    -0.1375252008,    -0.1749510765,    -0.6119251847,     0.1708968878,    -0.3031793833,    -0.1296573281, -0.0005338191986,    -0.9340987206,       0.94993186,    -0.5547392368,    -0.6401185989,   -0.04169732332,     0.8552994728,     0.4242113829,      0.014985919,    -0.2145061493,    -0.6169003248,    -0.6716987491,    -0.2211443186,    -0.8607488871,    -0.3743332624,    -0.6288765669,    -0.1000676155,    -0.8049992323,    -0.1493542194,    -0.2445952892,     0.5246016979,     0.9292910099,     0.3379558325,     0.2448145151,    -0.1555887461,    -0.2068873644,     0.5574690104,    -0.2768525481,     0.3867274523,      0.662525177,    -0.9337512851,    -0.4023320675,   -0.05372047424,    0.00403213501,    -0.1295400858,     0.6515105963,     0.3713539839,     0.6043635607,    -0.2087248564,     -0.498965621,    -0.6588712931,    -0.4630191326,     0.3922455311,    0.08574938774,     0.5641485453,    0.04218280315,     0.6377749443,    -0.3763243556,    -0.8075718284,    -0.7392832041,     0.9496154785,    -0.5827034712,     0.8825349808,    -0.8411245346,    -0.3799042106,     0.6987022161,     0.8385643959,    -0.6564503908,    -0.2184752822,       0.81995368,    -0.9443441033,     0.8925616741,    -0.4832631946,     -0.884103477,      0.630513072,    -0.1087463498,     0.5880184174,    -0.2836748958,    -0.2940289974,     0.9529824257,    -0.9854677916,   0.001853704453,    -0.8061861396,     0.1423845291,     0.8478624821,     0.4276660681,     0.6291532516,     0.4830400944,    -0.9199898839,    -0.3235681653,      0.561614871,    -0.7032190561,    -0.6236413717,     0.0115571022,     0.5040724277,    -0.2386533618,    -0.8347654939,      0.342903614,     0.6891055107,     -0.235866785,       0.94036448,    -0.6071822643,    -0.7588049173,    -0.5748981237,     0.9504457712,    -0.3899797201,     0.6832675934,    -0.7698631287,     0.2660928965,    -0.8698830009,     0.8411884308,     0.5167335272,    -0.5307379961,    -0.5765746832,     0.1570695639,    0.03495335579,    0.01612782478,    0.00757932663,    -0.2598527074,     0.9066923857,     0.7439787388,    0.06523704529,    0.05397737026,    -0.2243098021,     0.3325597048,    -0.5748694539,     0.9351584911,   -0.00886297226,    -0.4304344058,      0.240858078,    -0.9062639475,     0.3726673126,     0.5832246542,     0.6014801264,    -0.5994099379,    -0.7518932223,    -0.2679728866,    -0.1838054061,    -0.5296047926,    -0.7317180634,     0.1015566587,     0.1116980314,     0.8971607685,     0.9998240471,   -0.02888190746]
[    0.2912881374,     -0.715367496,      0.134746924,   -0.04148465768,     0.3320108652,    -0.4706470966,    -0.8560348749,      0.692424655,     0.3086548448,     0.2779165804,     -0.465395391,     0.8350355625,    -0.6685910225,     0.8080604076,     0.8799859285,     0.7753821611,      0.190625146,    -0.6547085047,    -0.5751459599,    -0.3092061281,     0.4439027011,     0.3704336882,     0.5902820826,     0.7360560894,     0.2812901735,    -0.7372860909,    -0.2129949182,   -0.06131286547,     0.9581605196,     0.4277473092,    -0.1123198271,    0.01522266865,     0.5891985297,      0.556263864,     0.2257664204,    -0.1436339617,     0.6179503202,     0.0730805397,     0.2416455746,     0.4603344202,    -0.8264713883,     -0.509327054,     0.9354269505,     -0.241401732,     0.6785841584,    -0.7962005138,     0.6109012961,    0.02122140676,   -0.07502964139,    -0.3024997711,    -0.2370292693,     -0.596945405,    -0.1887968183,    -0.2678083181,    -0.3043012023,     0.6460801363,    -0.1310536414,    0.04742107913,     0.2046283484,     0.8156815171,     -0.658691287,    -0.1131431684,     0.6191038489,     0.8825682402,      0.670707643,    -0.3151994348,    0.09136392921,      0.405708909,     0.5683858395,    0.09613537788,      0.930177629,      0.844083786,      0.268355608,     0.3981854916,    -0.9709106088,     0.9388830662,    -0.9076536298,     0.9514840245,    -0.5212118626,     0.8298274279,    -0.3329696655,      0.588514328,    -0.2533038855,     0.6840934753,     0.9259867072,    -0.2779152393,    -0.6827969551,    -0.4451233149,    -0.2402497083,    -0.6993724108,    -0.8129530549,    -0.9964906573,    -0.7682014108,     0.1770896316,      1.000739098,   -0.02143803798,      0.747688055,     0.1333608627,     0.9786556363,     0.5217431784,     0.2963708937,    -0.2714372277,     0.6467342973,    -0.3271663785,    -0.2574077845,    -0.5286905766,     0.2498306632,     0.1737914085,    -0.8692019582,     0.8140117526,     0.7927589417,    -0.1473237723,     0.5685201287,    -0.1986698508,    -0.6439062357,     0.3591641784,    -0.6248666644,    -0.6103953123,     0.7518001795,    -0.8865571022,     0.8463332653,    -0.3988871276,    -0.3486405611,     0.6965391636,     0.9834524989,     0.5663377643,    -0.7950726151,    -0.5825859308,    0.06927568465,     0.5996527672,     0.7826206684,     0.1255376786,   -0.02687603422,    -0.1304457188,    -0.6296986938,     0.1464940757,   -0.03957124799,     0.1574974805,    -0.5682551861,     0.5698800683,    -0.7022207379,    -0.2558839619,    -0.4424948394,     0.1101860255,      -0.31126827,    -0.0185307879,     0.2847262919,    -0.4044287205,    -0.5720459223,    -0.5843572021,    -0.8322364688,     0.8404433727,     0.6944500804,    -0.5488362908,    -0.4402753413,    -0.4477164149,     0.2103007734,    -0.2841125131,     -0.758656621,    -0.8568615913,    -0.7065010667,     -0.710624814,    -0.5836744308,     0.2880704999,    -0.3746589422,     0.9160012007,    -0.3287158012,     0.9553838372,     0.3653663099,     0.8251136541,    -0.3250929713,     0.4059295654,     0.4061796665,     -1.000208616,    -0.1485175341,    -0.3949941695,    -0.7526640296,     0.3321950436,    -0.9574540257,    -0.3671556711,    -0.8282371759,     0.3044075966,    -0.6803970337,    -0.9623966217,    -0.4591147006,     0.2859742641,    -0.9470895529,     0.7995246649,      0.565515101,     -0.666806221,    -0.4123712182,    -0.7701125741,     0.3194391429,    -0.1139125153,    -0.6394073963,     0.9023343325,    -0.6970367432,    -0.8123881817,     0.4831749201,     0.7018780708,   -0.08692540228,     -0.513708353,    -0.9000583887,     0.8206787109,     0.4192939997,     0.3982934356,     0.7183369398,    -0.9779106379,     0.2468745857,     0.6566963196,    -0.5952234268,    -0.9221990108,     0.4282930791,    -0.9952358603,    -0.9190408587,    0.04098793864,     -0.774830997,    -0.5073291063,      0.522626698,    -0.9902356863,     0.3770492971,      0.329452306,    -0.9204816222,    -0.3970737457,    0.01801880449,     0.7011852264,    -0.7250090837,    -0.7930583358,    -0.3107302189,    -0.9522581697,     -0.401368022,    -0.9238158464,    -0.9900960922,     0.3364427388,    0.03750108182,     0.9940760136,    -0.4941260219,   -0.09783947468,     0.7483841777,    -0.6768686771,     0.7767436504,    -0.7840008736,    -0.3259244859,     0.6709980965,     -0.277256608,     0.9084508419,   -0.07562694699,    -0.9736099243,     0.4328199923,     0.1822375804,     0.3311895728,   0.006731766742,     0.4296393991,    -0.3118103743,     0.7319864035,    0.03679782152,    -0.5496811271,    -0.8442136049,   -0.01286925562,    -0.5485243201,    -0.3559469879,    -0.7969130278,    -0.8950062394,     0.1574266702,    -0.2836815715,     0.4428077936,     -0.750736177,     0.7007641792,     0.9601271152,    -0.9695304036,    -0.8886588216,     0.2305259854,     0.9816359878,     0.1903409958,     0.7862398028,     0.8851881027,    0.04384912178,    -0.5920043588,     -0.564124763,    -0.9051146507,    0.07741127908,      0.100652501,    0.09562432766,     0.7951797247,      -0.56635499,     0.1603319496,     0.4612968266,    -0.1541764736,     0.2786174417,      0.666125536,     0.3214947581,    -0.1496774703,     0.2738728225,    -0.1913007051,   -0.01956190355,     0.6548849344,   -0.02424246073,    -0.9972337484,     0.9335235357,   -0.08813716471,     0.5949707627,    0.08616205305,     0.4108030796,     0.4079922438,     0.4353920817,    -0.7849665284,     0.1535464525,     0.7343324423,     0.6468794942,    -0.3165756464,     0.7187879682,    -0.3059033155,     0.6123099327,    -0.9524378777,   0.009673423134,    -0.2600543201,    -0.4298848808,     0.8982288241,    -0.3540440798,     0.9596020579,     0.9803317785,     -0.512563467,     0.3841423988,     0.9029812813,   -0.04252662882,    -0.5147910714,    0.02775517292,     0.5343323946,     0.4309827089,    -0.6361559033,      0.794038713,    -0.7858729959,     0.7901220918,    -0.8160691261,     0.9842880368,    -0.2864834368,      0.132114023,     0.1968440861,    -0.5735378265,    -0.6534823179,    -0.4801504016,     0.6514424682,     0.3710432351,    -0.8904219866,   -0.08221670985,     0.1194092035,    -0.3687090278,    -0.1209601611,   -0.04097604379,     0.1474713087,     0.1372894049,    -0.8291512728,     0.4702764452,      0.976198256,     0.5464119315,     0.3273736238,     0.8092267513,     0.1093830168,     0.1776890755,    -0.0939552784,      0.046859622,      0.345240593,     0.5709671974,    -0.7744774818,    -0.2426520586,     0.6366281509,    -0.8821192384,     0.5824025869,     0.6297492385,    0.01364233717,     0.7275663614,     0.8165538311,     0.2004637718,     0.5672805309,     0.3695822358,     0.5336711407,    -0.7884708643,     -0.121616438,     0.8944661617,     0.9718105793,    -0.4700812995,    -0.2586030364,     0.7163472176,    -0.9870898128,    -0.1792548746,     0.6359498501,      0.325804472,      0.266806215,    -0.4691612124,    -0.2651558518,     0.3801849484,      0.208376959,    -0.4554553628,     0.5460305214,    -0.2212317288,     0.5702706575,    -0.6244584918,    -0.1848029494,    -0.4241202772,     0.6504046321,    -0.5563233495,      0.418816328,    -0.4375733137,    -0.6047844887,     0.8876343369,      0.967640996,    -0.0617913492,     0.3770545721,     0.9445480108,   -0.08291558921,    -0.1714029759,     0.8985752463,     0.7703987956,    0.06952802092,    -0.9609568119,    -0.8765105009,     0.9147675037,     -0.117470026,      0.584474206,   -0.07210129499,     0.9332362413,    -0.3519618213,     0.4301026762,   -0.03751726821,     0.7098245621,    -0.6832438707,   -0.02255577035,    -0.3484993577,   -0.07153115422,     0.9921497107,    -0.1064145193,     0.4317610562,    0.04526864737,    -0.6385833621,     0.7882601023,     0.3437457085,    -0.2885445356,     0.7417727113,      0.500862658,   0.006432652473,    0.09755444527,   -0.07343697548,    -0.4939549267,    -0.7527216673,   -0.03183424473,    -0.5171807408,    -0.7105618119,    -0.2961001098,    -0.1807193905,     0.5296467543,     0.1398069412,    -0.4279994965,    -0.4778639078,    0.05733442307,     0.3101955056,    -0.8209866285,    -0.9256882071,    -0.2024596035,    -0.7115713358,    -0.1375484467,     0.9283316135,     0.6875375509,     0.5671772957,    -0.2466971576,     0.6034060121,     0.5208675265,     0.7912598848,   -0.08096009493,    -0.3480795026,     0.3637464941,      0.938424468,     0.9409635067,    -0.3582165241,     0.9277088046,    -0.8810594082,     0.5253822207,    -0.2895992398,     0.4595078826,    -0.7637506127,     0.4253519475]
[   -0.6917170882,    -0.8265700936,    -0.3526317179,    -0.9531840086,    -0.5071108341,     0.4988446236,    -0.1131235287,     0.2310617715,     0.1027632654,    -0.4150151312,     -0.935904026,   -0.05723764002,     0.4842313826,     0.4057258368,     0.9854596853,     0.2369769812,    -0.3575931787,     0.7550159693,     0.5939143896,    -0.3317196369,     0.6383569837,    -0.8157337904,    -0.8016915917,      0.524697125,     0.4884876907,     0.5213465095,    -0.2836092114,     0.2855370641,    -0.2676786184,    -0.7520236373,    -0.7241607904,     0.4187757969,    -0.3780673146,   -0.03613781184,    -0.1504453421,  0.0004758834839,     0.8935400248,    -0.9862684608,    -0.8130108118,     0.4016610384,    -0.6009997725,    -0.4287726283,     0.3532880247,    -0.5170238018,    -0.5631187558,    -0.2227726579,    -0.7117116451,    -0.6063506007,     0.2154466659,     0.3067413568,    -0.4125356972,       0.69947052,    -0.1013388634,     0.4053262472,     0.2204706073,    -0.3632979095,     0.7715775371,     0.9574253559,    -0.7396461368,     0.5478491187,     0.4938482046,     0.7058822513,    -0.7612395883,      0.166216135,      -0.12763457,    -0.4574459195,     0.5456150174,     0.2355126441,     0.5626733303,    -0.9604673386,     0.9272292256,    -0.1013822779,    -0.9484269023,    -0.4765071869,    -0.1678357869,    -0.5210824013,    -0.1529816091,    -0.9102021456,     0.1684114039,         0.818039,    -0.5737080574,     0.5447123051,   -0.02014785632,     0.8866766691,  -0.001690316014,    -0.4337951541,     0.3298076391,     0.8317143917,    -0.4669388831,    0.04722012952,     0.5361483097,     0.5062385798,   -0.08591867983,    0.01046166848,     0.5279951692,     -0.646853447,     0.3581100702,     0.7883862257,    -0.3808507919,    -0.2432591319,     0.9136880636,    -0.6997978091,    -0.9317186475,     0.3448964357,    -0.8488654494,     0.9343856573,     0.5221620798,    -0.2004494071,     0.7807354331,    -0.1605615616,    -0.7561175823,    -0.4603632689,     0.7972806692,     0.2251113653,     0.9925366044,    0.07691065967,    -0.5504812598,     0.7525627613,      0.231085062,    -0.3027361035,     0.4412879944,     0.6911553741,    -0.5477707982,    -0.4374915957,    -0.4237161279,     0.5786623955,     0.8888478875,    -0.3656609058,    -0.4625549912,     0.5953174233,     0.1737343371,    -0.9094572663,     0.8536877632,    -0.5599845648,    -0.1531466246,     0.0854024142,      0.257543087,    -0.1951710433,     0.6856344938,     0.7636941671,    -0.2760007083,     0.5198014975,     0.5437959433,     0.7403631806,     0.9924197793,     0.9721252918,    -0.8687339425,     0.3594412506,     -0.199213922,     0.7217683196,    -0.6723194122,    -0.6000087261,    -0.0397092104,   0.002106276574,    -0.3731684089,      0.256452322,     -0.531884253,     0.5810559988,     0.3104758263,     0.6068533659,      0.507894516,    -0.9408990741,     0.9954953194,    -0.7609692216,     -0.604241848,    -0.6639078259,   -0.03326877952,    -0.2330403775,    -0.4167470634,    -0.7999836802,    -0.1632503718,     0.5193604231,     0.6308515668,     0.7353684306,    -0.8885441422,     -0.828786552,     0.1921314001,     0.4740481377,     0.6140385866,    -0.9718248248,     0.8304912448,     0.4373259544,     -0.492448926,    -0.1558576822,    -0.4067201316,     0.7684100866,    -0.4971878827,   -0.08133268356,    -0.3327032328,    -0.3242868781,    -0.4826389253,     0.4881704748,    -0.3038488626,     0.3267098963,      0.148051396,    -0.1700701565,     0.1874419451,     -0.986343503,     0.2520649433,     0.1264512241,     0.2433684021,     0.8970413804,    -0.3740557432,    -0.2625137568,    -0.4535629153,     0.2421070784,     0.1117832512,    -0.8058531284,   -0.03356581926,     0.2990217209,    -0.2015138417,     0.6417696476,    -0.8438712358,     0.9714252353,      -0.61243397,     0.8786116242,     -0.468265295,    -0.6197818518,    -0.6429608464,    -0.5947203636,    -0.8427918553,    -0.6882029772,    -0.4857386649,    -0.4942905307,     0.7820827365,    -0.2457895726,   -0.03225284815,     0.3648137748,     0.7217404246,    -0.4324409366,     0.1699377298,    -0.8867080808,    -0.9612185359,     0.6055647731,    0.07624160498,     -0.875816226,     0.4867239594,     0.5760238171,    -0.6988908052,    -0.1121577621,   -0.05768554285,    -0.2995194197,    -0.7853459716,    -0.5576856136,    -0.7524129152,      0.446667552,     0.3631384075,    -0.8131016493,     0.7221738696,     0.7663992643,    -0.9878709912,     0.2260541022,     0.9318527579,     0.7902781963,    -0.8899517059,     0.2922778428,     0.6332848072,     0.3345507383,   -0.09939290583,    -0.9371221066,    -0.7455257773,    -0.3236675262,     0.3485407829,     0.9447616935,    -0.1379996538,    -0.8994739652,     0.5306323171,     0.0624669902,     0.8735591173,     0.6349400282,    -0.5468485951,    -0.2490901649,    -0.7130002975,    -0.7153244019,     0.9884722829,     0.4384478331,    -0.5074873567,    -0.2657596171,    -0.5613423586,     0.5648360252,     0.8951215744,    -0.8890847564,     0.4967631102,    -0.7728564143,    -0.1515183449,    -0.7088910341,    -0.8622397184,    -0.5909005404,     0.1917351931,    -0.3280867338,     0.8727152348,    -0.5099103451,    -0.3049244583,     0.4914383292,     0.8496699929,     0.6432384253,     0.5661160946,    -0.6840651035,    -0.9829090834,     -0.432363987,    -0.7411624193,      1.005038619,   0.002025604248,    -0.3071264029,    -0.5330464244,     0.1600635052,    -0.9017769098,   -0.07278550416,     0.6417071819,    -0.4542718232,    -0.2932235897,      0.945052743,     0.0718767941,     0.8728404045,     0.5557075739,      0.392778188,    -0.5526713133,    -0.3954648376,     0.1515947729,    -0.8376751542,     0.9921746254,    -0.9658693671,     0.1908221394,    -0.1509621143,     0.2429824024,    -0.3341135681,     0.3192175925,    -0.1497937888,     0.1190576702,     0.7284876108,     0.6973843575,    -0.3010960221,     0.3552151024,    -0.3806357086,    -0.2339738756,     0.0459179841,     0.1397528648,   -0.09553851932,      0.851493299,     0.5767064095,    -0.6382880807,    0.03650711104,   -0.01317545958,     0.8626571298,     0.1007767841,    -0.6349758506,    -0.5972050428,    -0.8582072854,    -0.6548493505,     0.3583117723,     0.3381363153,    -0.9790035486,     0.6996308565,     0.3676259518,     0.1964436471,    -0.9399705529,    -0.2013937533,     0.8306228518,     0.2974513769,    -0.3092516065,    -0.4890602231,    -0.3911992311,     0.8200617433,    -0.6637814045,     0.4451380968,     0.9085723162,    -0.1124932766,     0.5449516773,     0.8828239441,      0.466422379,     0.8846446276,    -0.9344317913,     0.6096961498,    -0.4064943194,     0.1377400309,    -0.6626644731,     0.4938424826,     0.8945858479,     0.4294706583,     0.4997771084,     0.7802777886,     0.7358061671,     0.3889078498,    -0.5010986924,     0.4144644141,    -0.9323062897,    -0.2116726041,     0.6622422934,   -0.08785957098,     0.4479370117,      0.692597568,    -0.2857097089,    -0.2087007761,    -0.7766144276,     0.1367688179,    -0.8444547653,    -0.1528095156,     -0.140894413,    -0.9349361658,     0.4163735211,     0.6394426823,   -0.08452282101,     0.3714613914,    -0.5345380306,     0.8003299832,    0.04743587971,     0.8674784303,     0.2666929662,   -0.04556083307,     0.4926950336,    -0.6222289205,   -0.09149077535,     0.7240573764,     0.1507937461,   -0.09606099129,    -0.2834489942,    0.06293404102,    -0.3361375332,     0.7043708563,     0.8258039951,     0.2785831988,   -0.04784630239,    0.06760609895,    -0.3577646017,       0.61211133,    -0.5536395311,    0.01475822926,     0.3857492208,    -0.3565071225,    -0.5656926036,     0.8198573589,     0.9360173941,      0.900550127,  -0.006266450044,     0.2387109995,     0.7211939096,    0.08504271507,     0.5542244911,    -0.8350676894,     0.3605086803,    -0.8166563511,    -0.2710919976,    -0.3157612681,     0.3317737877,    -0.5572198629,   -0.04263757542,     0.3298937976,      -0.46633026,    -0.1746771485,     0.8926906586,     0.6320940852,     0.5158910751,    -0.1680006385,     0.8524178267,     0.3264759183,    0.08691511303,    0.01797713712,    -0.2228193134,     0.3068027496,    0.03277826309,     0.4957290888,    -0.3592669666,    -0.3146540523,     0.4823298156,     0.9831941128,    -0.8721684217,     0.9844971299,    -0.1731125861,     -0.272554189,     0.6056377888,     0.7466177344,     0.1731747389,     0.3566442132,    -0.8610639572,     0.7311312556,     0.3690794408,    -0.9742982388,     -0.126857385,     0.7414594889,     0.5774360299]
[   -0.8197405934,     0.3652151525,     0.2314278036,    -0.7388693094,    0.04316532612,    -0.1898047924,    -0.9007997513,    -0.4605645537,    -0.9732761979,     -0.150128141,     0.4814670086,    -0.4266760051,      -0.33676669,    -0.9074645042,    -0.7312168479,      0.639305234,     0.2658020854,    -0.9157509804,     0.2821321487,     0.3451043367,    -0.5147764087,     0.9046560526,    -0.5673633814,     0.8468412757,     0.6490215063,     0.7222548127,    -0.8847346306,    -0.6675231457,      -0.11201334,    0.09900531173,     0.7303677797,    -0.2795216441,     -0.839230895,     0.1145771965,   -0.01333963871,     0.9822241068,     0.9813585281,     0.6142363548,    0.05308020115,    -0.5904356241,     0.4758682549,    -0.7631521225,     0.8208168149,   -0.01564925909,   -0.08826031536,    -0.8800141811,    -0.4664877057,     0.1430976093,     0.3946003318,      0.447937727,    -0.1682279408,     0.8949229717,     0.3312327862,    -0.6966178417,      0.675506711,     0.1086512804,     0.2924048603,    -0.4516878426,    -0.1012768224,     0.3142101467,    -0.4022090137,     0.0772479251,     0.8226984143,   -0.09714573622,    -0.1981242299,     -0.376928091,    -0.9194555879,     0.8612456918,    -0.5064165592,     0.7126190662,    -0.1619337052,    -0.2175346166,     0.6506666541,     0.2437048256,     0.2538541853,     0.4780681133,     0.5793178678,       0.66307652,    -0.5047351122,    -0.6267648339,    -0.8137508631,    0.06685038656,    -0.3900458813,   -0.06914031506,     0.4597539008,    -0.9427408576,     0.8604028225,    -0.9776217937,    -0.4013884366,    -0.5350310206,    -0.2936384678,     0.5586432219,     0.6424444318,    -0.1582684666,    -0.5920566916,    -0.1605705619,    -0.7928190231,    -0.4673925042,    -0.7419713736,   -0.04734814167,      0.756621778,    -0.2705484033,     0.3771303892,     -0.107725203,     -0.599615097,    -0.6541233063,     0.8716736436,     0.1494874954,    -0.5572577715,      0.234807834,    -0.7305330038,    -0.3654702604,     0.5841973424,     0.3459744453,    -0.9326274395,     0.5634880066,    -0.4567147195,     0.8513260484,     0.8319182396,     0.1689211726,     0.5292343497,    -0.1691695154,    0.05828487873,     0.9222690463,     0.6603432298,    -0.1260524392,     0.9579644799,     0.5311139226,    -0.4682050943,    -0.3236785829,     0.4620980918,     -0.208435297,     -0.512121141,     0.4403632879,    -0.5742943883,     0.2207380831,     0.3227404058,    -0.9978654385,    -0.6896070838,      0.803573966,    -0.1473810226,     -0.434974879,    -0.6711554527,     0.8133752942,    -0.7450007796,     0.1095160842,     0.5061426759,    -0.5322035551,    -0.1931984723,    -0.7685214281,    -0.3978593349,    -0.9765492082,     0.6724423766,     0.4378569722,    -0.3666595817,    -0.3156556189,   -0.03172118217,    -0.1163589954,    -0.7421343923,    -0.1324902773,    0.09575181454,    -0.7894924879,     0.2564342022,    -0.1899568439,     0.8389532566,     0.9851094484,     0.9653831124,     0.4190497696,      0.448250562,   -0.07352250814,     0.6251270175,    -0.4755638242,    0.08531416953,     0.3005671203,    -0.3707866669,     0.5245499611,     0.2840927839,    -0.1318318248,      0.555175662,    -0.5790193081,  -0.002138734097,     -0.488578558,      0.744900167,    -0.5243691206,     0.3006773293,    -0.6173753738,     0.6645154953,    -0.7266572714,   0.007854487747,      0.720836401,     0.9744544625,    0.01563982479,     0.8092994094,     0.9814764261,    -0.5539557934,     0.7731761336,    0.02902126312,    -0.7402527332,     0.3132680655,     0.5276386142,    -0.6071686745,     0.2667911947,   -0.02008759975,    -0.3836231828,    -0.6968748569,     -0.633682847,     0.1427899748,   -0.03882432729,    -0.9053429961,   -0.06379771233,     0.6096520424,    -0.4230916202,    -0.4799026549,    -0.4590461254,    -0.3166316748,     0.9491977692,    -0.4101952314,    -0.5942707062,    -0.4847898185,     -0.675875783,     0.2091590315,     0.5460339785,    -0.8825643659,     0.3222020864,     0.4716006219,    -0.2407296002,   -0.07878434658,    -0.7192390561,    -0.5499277115,     0.8526286483,    0.08526730537,     0.2779244184,     0.6777139306,     0.5976236463,     0.6376137137,     0.8054662943,    -0.1522400081,    -0.4611341357,     0.3478185833,     0.2478820086,     0.8323425055,     0.0701726675,     0.3936136961,    -0.4665699601,     0.8520817161,    -0.1588704586,     0.2591088414,    -0.6402442455,    -0.8778954744,     0.2102025151,     0.1278150529,    -0.4493318796,    0.09192144871,    -0.5877524614,     0.5264971852,    -0.2477507889,    -0.5450416207,     0.2248001099,     0.7850660682,     0.3325405717,     0.2317556739,     -0.958950758,   -0.06768935919,     0.6832841039,    -0.8292087317,   -0.06566949934,    0.05803054944,    -0.5147638321,     -0.424749434,    -0.6135442257,      -0.38278988,     0.5373575687,     0.9316168427,   -0.08107423782,     0.8603244424,       0.87388587,     0.1452127993,     0.7612798214,     0.4722435474,    -0.4102801085,     0.2067350149,   -0.06925217062,    -0.9681787491,      0.987308383,    -0.5665299892,    -0.8716517687,    -0.2886104286,    -0.1461091638,    0.07173677534,     0.2228640467,     0.5278452635,     0.9832196236,     0.9937081933,    -0.1817201674,     -0.351349622,     0.5573563576,    -0.4888399243,     0.7385281324,    -0.6106945872,    -0.3394352794,    -0.3018054068,    -0.9920927286,     0.4990838766,     0.4716250896,     -0.153607741,      0.747282505,     0.1739192009,    0.02728599682,     0.0848897472,     -0.533364594,    -0.7523044348,    -0.8009386659,     0.5471449494,    -0.5529814959,    -0.1300802976,    -0.2860326767,     -0.888723433,     0.3379555345,    -0.6400977373,     0.1534610242,     0.5769088268,    -0.2544698119,    -0.8337988257,     0.8756217957,     0.6670334339,     0.3295403421,    -0.1908702403,    -0.9635840654,     0.6837248802,     0.7026896477,  -0.006276782602,     0.4396824837,    -0.3839340806,     0.6814745069,    -0.8468981385,     0.5956987739,     0.5655651689,     0.9018364549,     0.7783218622,    -0.7176966667,     0.7013839483,    -0.5690870285,    -0.7949340343,      1.003068328,     0.7812351584,    -0.5928475261,    -0.6463745832,    -0.2460185289,     0.4335801303,    -0.2119655609,    -0.1064428687,    -0.5097205639,    -0.4382325113,     0.3618210554,     -0.178031534,     0.5549739599,      0.394353658,     0.2403703928,    -0.6230125427,    -0.7999778986,     0.3195763826,     0.5203385353,    -0.4680093527,    -0.6410285234,     0.8600287437,     0.2903307676,    -0.9084804058,    -0.9969479442,     0.6567718983,     0.7020865083,    -0.2913041711,     0.1782774925,    -0.9496276975,    -0.7933583856,     0.6567986012,     -0.841535449,     0.6260014176,     0.2331683189,      -1.00231266,    0.08382491767,    -0.8478839993,    -0.5663971305,     0.6227371693,     -0.804068625,     -0.138702631,     0.7048069239,    -0.3308608532,      -0.27789554,     0.4624986649,    -0.5422431231,     0.5642807484,    -0.9814535379,    -0.1416971087,    -0.8410451412,    -0.5810713768,     0.7111337185,   0.004637968726,    -0.9202267528,     0.6775822043,    -0.2626590729,     0.4425020218,    0.09559381008,   -0.09424048662,    -0.5939344168,   -0.08492665738,     0.4386554956,    -0.5861172676,    -0.1166775823,     0.0364439562,    -0.9061139226,     0.2054379135,     0.2082501948,        0.4821392,    -0.1684760898,    0.08516764641,     0.4927104115,    -0.4886620045,    -0.7446135879,    -0.8785949349,     0.3973945379,    -0.8924740553,     -0.170429796,    -0.5354689956,     0.5576422811,    -0.7566449642,    -0.2114493847,     0.1557769626,     0.9717838764,    -0.2234507948,     0.8086434603,     -0.880550921,     0.8533374071,     -0.219261542,     0.4653798044,    -0.7755461335,    -0.4149199724,    -0.5177654028,    -0.5387259722,    -0.6723808646,    -0.5599499941,    -0.8311026096,     0.8271940947,  -0.001424091868,     0.7333797216,     0.5329277515,     0.2500109375,    -0.1537369341,     0.4014917016,    -0.7105992436,    -0.8057345152,    -0.3634732962,    -0.1826008558,     0.9266654253,     0.5630885363,    -0.2513675094,    -0.8743473291,    -0.1482533813,     -0.642260015,    -0.6149122715,     0.8628194332,     0.1544559002,    0.04629079252,   -0.04211384058,    -0.7556609511,    -0.5654554367,    -0.5996636748,    -0.6985402107,    -0.1503658295,     0.3612574339,    -0.8207175732,    -0.5618399382,    -0.2343825698,   0.007588227745,    -0.9530438185,      0.408403486,     0.8325232863,     0.1047278643,   -0.03046711348,     0.5176097155,    -0.9626630545]
[    0.5689780712,     -0.913381815,     0.1336622685,     0.9994894862,    -0.8952015042,     -0.856720686,     0.9258989692,    -0.9383746386,     0.6492973566,     0.1135655493,    -0.9188027382,    -0.9927133322,     0.9514883161,     0.6525301337,    -0.7800543308,    -0.5451360941,  -0.002824026393,     0.9131916761,     0.6694000363,     0.8003264666,     0.7562603354,     0.6019362211,     0.2517958879,    -0.8924105167,    -0.1647194028,     0.5873832703,    -0.8761667609,     0.6619172096,     0.2287572622,     0.1816099733,     -0.564440012,     0.2075555325,     0.1959418058,    -0.4358560741,     0.8709689379,    -0.9012393951,     0.8658573627,    -0.4425233603,     0.7664718628,    -0.7691671252,    -0.3848390877,    -0.8182460666,    0.07195322961,     0.8166632652,     0.5453944206,    -0.1187580228,    -0.1597613245,     0.8016114831,    -0.4968336821,    -0.8744038343,    -0.2069236785,     0.7313081026,     0.6398602724,     0.4762490988,      0.139529258,      0.898680687,    -0.5320722461,    -0.6920874119,    -0.8017435074,     0.2231145948,     0.5462164879,     -0.442155987,    0.06197430193,     0.4490494728,     0.6355978847,    -0.9968150258,   -0.03461741284,    -0.4262673557,    -0.4304700494,    -0.1014606953,     0.7876156569,    -0.9034785628,      0.980635345,    -0.3274282217,    -0.6236793995,     0.8728148937,     -0.231229037,    -0.8524957299,     0.9027071595,     0.4897863269,     0.4282341003,    -0.3154432476,    -0.1000744998,     0.4063389301,    0.02523123473,     0.4467273057,    -0.9049892426,    -0.5488653183,     0.8558124304,    -0.4639410079,    -0.9679810405,    -0.7813840508,     -0.791877985,     0.0524809882,    -0.2480664998,     0.7814903855,    -0.2041094899,    -0.9054079056,    -0.5992469788,     -0.490377605,     0.6464930773,     0.7732747793,     0.3460220098,     0.4341974258,   -0.02910858393,     0.5942542553,    -0.6521188021,    -0.3081454635,    -0.2897517979,     0.7701371908,     0.7677449584,    -0.9018993378,    -0.5762175918,     0.2032520771,     0.7225968838,    0.01821861416,     0.9479913116,     0.9521282315,    -0.4709174037,     0.6125997901,     0.3148346245,     0.8618585467,    -0.4629078507,    -0.7273952365,    -0.2168835998,    -0.7156980038,   -0.02575810067,    -0.6528759003,    -0.4609619379,     0.3413863182,    -0.9967733622,     0.4071037471,    -0.1301206648,     0.6166456938,     0.4152179658,     0.1313218474,     0.2986103892,     -0.163926363,    -0.8284020424,    -0.6548997164,     0.4323154986,     0.1709533632,      0.249700889,     0.5525636673,     0.1895029545,    -0.4202320278,    -0.5155184269,    -0.8151249886,    0.02232527174,     0.4968902469,     0.9011598825,     0.9455875754,     -0.368798852,   -0.07418197393,     0.8531452417,     0.9191240072,    -0.5744085908,    -0.7989371419,     0.9763541222, -0.0008688569069,    -0.1598426998,    -0.3259914815,     -0.257810533,      0.422200948,     0.2694936991,     -0.681599915,     0.7463709116,   -0.03285663202,    -0.6272349358,      0.500295639,     0.9620985985,     0.1987072229,     0.7920985222,     0.9458963871,     0.7969875336,    -0.7635066509,     0.8998883963,      0.072318241,    -0.4353545904,      0.686276257,     0.6634274721,     0.9931484461,  -0.003072677413,    -0.3527880311,    -0.3912486434,     0.7088509798,   -0.01992275193,     0.7289144993,      0.745846808,     0.3489800692,     0.7119343281,     0.3750494421,     0.7434081435,     0.5973166823,     0.8320173025,     -0.445880264,    -0.0728379488,     -0.401894033,   -0.07696324587,     -0.341522038,    -0.7861613631,     0.1194327921,   -0.07682824135,    -0.4640080333,  -0.007677078247,    -0.1325311363,     0.9411955476,     0.6575411558,   -0.05059668049,     0.7261805534,    0.02759655938,     0.2626521885,     0.9105368853,     0.3229160309,     0.3816436529,     0.1434284747,    -0.6375156641,     0.5880712271,     0.3479915559,     0.9491484165,    -0.7757354975,     0.7488765717,     0.4247905612,     0.7067494392,     0.8876872063,   -0.08101571351,    -0.8551209569,    -0.6584968567,     0.1387679726,     0.9235126376,    -0.1450579166,     0.9112850428,     0.6232442856,    -0.8811149001,    -0.8651573062,    -0.1728046536,    -0.1467104554,    -0.1180900335,   -0.02317231148,   -0.07734811306,     0.9984057546,   -0.09228742123,    -0.9881889224,    -0.4428382516,     0.5036076903,    -0.9942685962,    -0.8159812093,     0.4070617259,     0.6161870956,     0.3353272974,    -0.5253382325,    -0.5153870583,    -0.3508623838,     0.0389124155,    -0.8003172278,     0.9425933361,     0.6708679199,    -0.1460301876,     0.6035897732,    -0.8657166958,    -0.6026722789,    -0.6999354362,    -0.9446662664,    -0.2509381771,      0.567507267,    -0.9982202053,    -0.4500692189,    -0.6143740416,     -1.001760602,     0.4620825052,    -0.2833911479,    -0.6182270646,     0.5228455663,     0.3300427198,     0.6308220029,    0.05319726467,    -0.4305928946,     0.6807851791,    -0.1748998761,    -0.5931569338,  -0.009550953284,    -0.6270688176,      0.918877244,     0.5405143499,     0.5632590055,     0.2468690574,   -0.06522545964,    -0.3367742896,    -0.7595801353,   -0.06414932758,    -0.3864580691,     -0.205332756,   -0.06136303768,      0.374292016,    -0.6849390864,    -0.9842828512,     0.3682639599,     0.1875870228,    -0.4099429846,     0.2053842843,     0.4778324068,    -0.5458722711,    -0.1566057801,  -0.002724409103,      0.421983391,     -0.530719161,     0.5761002302,    -0.2638292909,     0.5195177197,     0.4872497022,     0.6851301789,   -0.04363588989,     0.5776469707,     0.5304152369,     0.2007006407,     0.9561548233,     0.5508179069,    -0.1117965057,    -0.9185917377,     0.9470482469,     0.5636110902,     0.3197864294,     0.3319925964,     0.5078779459,    -0.2556240559,     0.9642401338,     0.7383436561,    -0.7764006257,    -0.4957788289,     0.7655650377,     0.7577136159,     0.2478368282,     0.8196361661,    -0.5671445131,     0.7730790377,    -0.7637326121,    -0.8768258095,      0.615172565,     -0.325586915,    -0.3417642713,    -0.9427683353,     0.7340766788,    -0.1434912235,     0.7956182957,      0.287130475,     0.7126992941,     0.8278715611,    -0.7508743405,     0.2356485128,    -0.8101425171,     0.1320801973,     0.1312625408,    -0.6037816405,     0.1651834399,      0.291341275,     0.7290713787,     0.2272404432,      0.594964385,     0.2216540575,    -0.3693689704,     0.1766685247,   -0.08345979452,     0.5418502092,     0.8382098079,     -0.657192111,     0.8734463453,       0.58289814,     0.6719138622,    -0.1038666666,     0.1855307221, -0.0002282773057,     -0.336204052,     0.8762155771,    -0.5686820745,     0.1900608838,     0.4463759363,     0.3734028935,       0.45881477,    -0.8504559994,        0.8478055,    -0.6156196594,    -0.8287255168,     0.1649764925,     -0.849981308,     0.9971918464,     0.6820422411,     0.4828616381,    -0.3721229732,     0.2805396318,    -0.3546719551,    -0.4252094328,     0.2223710418,     0.7441188097,     0.9275581837,    -0.9969562292,    -0.9900239706,     0.6887658238,     -0.925205946,    -0.2341939956,     0.4527927935,    -0.4866710305,     0.3244539201,     0.5700230598,     0.6163054705,     0.4311061203,     0.1063895226,    -0.4609000981,     0.8654069901,    -0.6442474723,    0.09353403747,     0.5450448394,     0.3647925854,    -0.8445675373,     0.7343095541,     0.5200071335,     0.1979923695,    -0.6828234196,     0.7037662268,    -0.9754961729,    -0.4426895976,    -0.9021533728,    -0.8307373524,    -0.2580254376,     0.4484624267,    -0.1698984355,    -0.5912736654,    -0.2357073277,     0.1196419001,    -0.1049332991,    -0.2499693632,    -0.9566092491,     0.1977302879,    -0.2567555606,     0.1865332425,   -0.01296663284,     0.2564224005,   -0.07006013393,     0.7324769497,   0.003003974911,    -0.5073242188,    -0.9249176979,     0.8782024384,    -0.4266749024,    0.03909185156,    -0.4820204377,    -0.3012495339,    -0.4986943603,     0.9173094034,     0.7342932224,     0.9832902551,     0.9120465517,    -0.6366610527,     -0.897392869,    -0.6498721242,     0.1163138822,      -0.45735237,     0.3472971618,    -0.5803483725,     0.5637260079,     0.3616132736,    -0.4002782106,     0.9601837397,   -0.06581668556,     0.9525732398,     0.8043846488,     0.7604990005,    -0.3874466419,     0.2994137108,    -0.5556687713,      0.805147171,    -0.7924954295,    -0.0589697361,    -0.9372345209,     -0.466460377,    -0.0296912808,    -0.2127355635,     0.2077791691,     0.2951832712,      0.208373189,     0.5656325221]
[    0.7188827991,    -0.7595146894,     0.7865177393,     0.9660778046,     0.5136926174,     0.3498388529,     0.1746094227,    -0.2152987123,     0.8896725178,     0.3466117382,    -0.7411439419,     0.2129803896,    -0.6883757114,    -0.2585404515,     0.1825327873,     0.9738526344,    -0.2384968996,    -0.1581342816,    -0.8556029797,    -0.4561395645,     0.4383897781,     0.7406888008,    -0.3405395746,     0.5125316381,     0.9706966877,     0.1635481119,    -0.3636496663,      0.182061553,     0.4133975506,    -0.2220690846,    -0.1484851241,    -0.7690363526,    -0.3008209467,     -0.790835619,    -0.8296325207,     0.7356569767,    -0.1896123886,    -0.7413512468,    -0.6188577414,     0.8863472939,     0.8467075825,     0.3211753368,    -0.3244981766,     0.6921626329,    -0.6036083102,     0.7939276695,    -0.8663234115,    -0.6606185436,     0.7353179455,     0.5491733551,    0.02409923077,     0.8434089422,   -0.03594350815,    -0.1244677901,     0.7870481014,    -0.6904152036,     0.4657127857,     0.7292371988,    -0.1105409265,     0.6764543056,     -0.902441144,    -0.8664655685,     0.8360557556,     -0.772087276,    -0.1613759995,     0.7089233398,    -0.5875600576,     0.7867181301,    -0.3432562351,    -0.2022158504,   -0.06742787361,      0.479264617,    -0.1082645655,     0.5493525267,    -0.6713681221,    -0.3244524002,     0.8511258364,     -0.746581614,      0.703316927,    -0.2975282669,    -0.8614063859,    -0.4476112723,     0.8527704477,     0.5502023697,     0.9909021854,     0.9681078196,    -0.6124014258,      0.919300437,    -0.2518013716,    -0.6254106164,    -0.0369631052,     0.1071039438,     0.6236507893,    -0.2340823412,    -0.1625428796,    -0.5929043293,      0.206774354,     0.6319979429,    -0.5169048309,    -0.3993931413,     0.3959811926,     0.6152561903,     0.8012243509,     0.4174050093,      0.439961195,   -0.05503386259,    -0.3722530007,    -0.9444968104,    -0.8279609084,     0.8513313532,     0.8536307812,    0.06699776649,     0.3329519033,    -0.1465575099,    -0.0475935936,    -0.6835380197,    -0.3372083306,    -0.2112954259,     -0.326443851,     0.7320855856,    -0.2262614369,    -0.6813617945,     0.7852634192,    -0.5176081061,    -0.2151409984,     0.9102324247,     0.7227187157,    -0.6063405275,    -0.4853903055,    -0.1955737472,    -0.6028856635,     0.6219685078,    0.06364572048,    -0.1639626622,     0.1238783598,     0.4975502491,    -0.4391083121,     0.2023128271,    -0.4929022789,     0.9613593817,     0.8635501862,    -0.3054574132,    -0.7700499296,     0.9822456837,      0.669775486,     0.5828250647,    0.07218492031,     0.8407357931,     0.3155027628,     0.2368332148,    -0.8827071786,    0.02399098873,    -0.9283750057,     0.4210921526,    -0.8898483515,    -0.3497024179,     0.4907110929,     0.2478561401,     0.3991737366,    -0.1460778713,     0.3272250891,    -0.1798117757,    -0.8189399242,    -0.7298551798,    -0.3034639359,     0.2282140255,     0.3111301661,     0.9851078987,    -0.5223288536,    -0.9715953469,    -0.3990941644,      0.609592557,    -0.7626507282,    -0.1602468491,    0.01697850227,      0.495451808,     0.8880826235,    -0.9638585448,     0.2559455633,       0.78520298,   -0.01582014561,    -0.5194430351,    -0.6391496062,     -0.355239749,    -0.3899216652,     0.4815590382,    -0.5557639599,    0.05944025517,    -0.5314208269,     0.1735391617,   -0.03648483753,     0.3347426653,    0.03604793549,     0.4721701145,    -0.7314622402,    -0.1300173402,    -0.1639799476,    -0.3501420021,     0.4620943069,      0.531869173,     0.7257646322,     0.2939231396,      0.966925025,    0.04963755608,     0.4541302919,    -0.5475821495,    -0.6196893454,    -0.7341126204,    -0.2280461192,   -0.03219234943,     0.4884339571,     0.3243150711,    -0.4605411291,    -0.7152253389,    -0.8269225359,     0.3357605934,    -0.9863250852,    0.06211268902,    -0.2529116869,     0.7852802277,     0.4978194237,    0.06652104855,     0.6182948351,    -0.3220322728,    -0.7300142646,    -0.9642127156,      0.546216011,    -0.8776420355,    -0.4972110987,    -0.2194075584,     0.3448184729,     0.5729038715,     0.2119457722,     0.6117120981,     0.6909527779,     0.8381932974,    -0.3324873447,     0.4166431427,     0.4029655457,    0.04025769234,    0.08118331432,     0.0916864872,     0.5033893585,     0.9421908855,     0.2837435007,     0.1816589832,   -0.09103477001,     0.6654634476,    -0.7420198917,     0.4045439959,     0.5056018829,     -0.397218287,    -0.9445246458,    -0.5466966629,    -0.7764939666,     0.9921187162,     0.3459968567,    -0.4128347635,    0.08009576797,     0.4024574757,    -0.9500082135,     0.4601426125,    -0.1682302952,     0.2671943903,     -0.960808754,    -0.2817572951,    -0.2245516777,    -0.8022997379,     0.2401080132,     0.4906090498,     0.8324120045,    0.01857364178,    -0.5859873295,    -0.8683106899,     0.8022478819,    -0.4776363969,    -0.2877943516,    -0.9738023281,     0.7611796856,     0.9980551004,    -0.9817398787,    -0.2366040945,     0.4030660391,     0.1421804428,    -0.1012378335,    -0.4067118168,    -0.9707791209,    -0.9507519007,     0.5871002674,     0.3039106131,     0.3309321404,     -0.570887804,    -0.6673670411,      0.828908205,     0.4986027479,     0.2129311562,     -0.303258419,     0.6199424267,    -0.6521207094,    -0.1257851124,    0.08916330338,     0.9996689558,     0.3652567863,    -0.5399161577,     0.5952476263,   -0.02590352297,    -0.4869078398,     0.8619116545,     0.7918218374,   -0.07368302345,     0.2870724201,     0.9625732899,      0.858477354,    -0.6749859452,    -0.6985827684,     0.3088644743,    0.07895994186,      0.687132597,    0.03518199921,     0.3876030445,     0.9675058126,     -0.986402452,    -0.8097839952,     0.4644043446,     0.8289685249,     0.8022048473,      0.234177947,     0.8417170048,    -0.6681188345,     0.2544888258,   -0.04898554087,     0.9158228636,    -0.4958536029,     0.4833062887,    -0.8138281107,     0.8427391052,     0.7257891893,   -0.02753859758,     0.3868445158,     0.4007837772,    -0.5942995548,    -0.0115378499,     0.4113988876,     0.7431118488,     0.8634443283,    0.09935355186,     0.8815835714,    -0.4951714277,    -0.8727830648,     0.3613243103,    0.03615140915,     0.9828777313,     0.4629038572,    0.07978200912,     0.1033918858,    -0.3079407215,     0.6013748646,    -0.5062311888,    -0.5447098017,     0.5797601938,    -0.7279660702,   -0.04995167255,      0.696649313,    -0.4996905327,     0.6293554306,    -0.8613981009,     0.4907534122,    -0.2520307302,    -0.3257738352,     0.8117705584,    -0.9186912775,     0.3846408129,     0.4124981165,    -0.4387421608,   -0.06472456455,    -0.7059348822,     0.2312880754,     0.6050812006,    -0.7175599933,     0.9158530235,     0.1338151693,    -0.2578408122,    -0.9333016872,    -0.7033923864,     -0.276404798,     0.7777898312,    -0.2964189053,    0.04689538479,   -0.09167194366,      0.422388196,     0.4408724308,    -0.4574837089,    -0.8058987856,     0.6701047421,     0.8124887943,     0.5914028883,    -0.8304738998,     0.2794685364,    -0.7333762646,       0.17096591,     0.5454084873,     -0.240267396,    0.08311498165,   -0.03071886301,    -0.9040376544,     0.2179141045,     0.5414927006,    -0.8265861273,    -0.1869620085,      0.745243907,   -0.06376361847,    -0.8026351333,     0.9215973616,     0.2131111622,    -0.8010590672,    -0.4294452667,    -0.3017278314,    0.06214261055,     0.1452908516,     0.7931963205,    -0.9875565767,     -0.360024035,    -0.5256687403,     0.2029209137,    0.05717599392,   -0.08048355579,     0.9254112244,     -0.633440733,     0.1532063484,    -0.3699219227,     0.1268898249,     0.4158891439,   -0.01017737389,    -0.1875281334,    -0.8190122843,     0.4738966227,     0.4700855017,     0.6989067793,      0.949427247,    -0.9329153895,     0.2282701731,     -0.791544795,     0.4493949413,     0.2567580938,    -0.8386244178,     0.1100656986,      0.877143383,     0.7318871021,     0.6955629587,     0.7791856527,    -0.3615731001,  -0.007848262787,     0.7491563559,    -0.2966076136,   -0.06723117828,    -0.4361503124,    -0.2202019691,      0.139077425,    0.04870188236,    0.05931591988,     0.8937187195,      0.369877696,     0.2483600378,    -0.7463800907,     0.8818832636,     0.2323020697,     0.3049120903,     0.3557306528,    0.09029960632,     0.4088971615,     0.3465906382,    -0.3190963268,    -0.5010383129,   -0.03312951326,     0.2944762707,    -0.9123851657,     0.8526997566,     0.1680849791,     0.6622388363,     0.1321790218]
