0
weights:
[ 0.04262060672,   0.2726439834,     -0.4654679,   -2.397567272,   -0.483096391,   -2.051540375,  -0.8595781922,   -2.468379259,   0.5047150254,  -0.6524218917,   0.1498458087,    -2.32167697,   -2.180382252,   0.7773450017,  -0.4354910254,   0.3550201952]
[ -0.7808570266,   0.4353057742,   -1.023565054,   -0.406288594,  0.04812436551,   -2.771396637,  0.05300487578,   -2.566745758,  -0.2608582675,  -0.5215585232,   0.5127677917,   -1.644170523,   -2.071781158,  -0.8463167548,  0.09377680719,  -0.0326753743]
[ 0.06391571462,  -0.7163901925,  -0.2668796778,   -1.026157975,  -0.2957538068,   -1.905458331,  -0.1289503723,   -2.307978868,  -0.4128268957,   0.5968444347,  -0.8968082666,  -0.3852961361,   -2.918027163,    0.299340874,   0.4373748302, -0.03719203547]
[  0.1354330331,   0.2132187933,  -0.4529259503,   -1.766715169,   0.4590666294,  -0.8293194175,   0.3801486492,   -1.925912619,  -0.5391891003,   0.4692722559,  -0.6868201494,  -0.4399366677,   -1.275951982,  -0.5039067268,  -0.7770882845,   -0.393429786]
[  0.4255579412,  -0.9681915045,  -0.4456656873,   -1.339927435, -0.05213150382,  -0.6301842332,  -0.4001930654,   -1.047884941,   0.1622652709,   0.3199788034,   0.9954151511,   -1.156600475,  -0.7804282308,    0.259641856, -0.06336170435,   0.4183488488]
[ -0.9366645813,  -0.5157523155,   0.5856334567,  -0.1711345613,   0.2436351776,   -1.312597156,  -0.8562427163,  -0.9917448759,  -0.5208665133,   0.9445363283,  -0.5977604389,  -0.5550116897,   -0.259210676,  -0.5410788655,   0.1760334373,  -0.6430767775]
[ -0.5921810269,  -0.7276619077,   -0.699064672,   0.5159814358, -0.04375228286,   -1.188853741,   0.6936549544,   -1.140260696,  -0.7078270316,   0.2915254235,   0.7714951038,  -0.2788613737, -0.01347216219,   0.4026978016,   0.8768076897,   0.2328922898]
[  0.3107317388,   0.6055535674,   0.2934647501,  -0.4449466467,   -1.044117689,   0.3141204715,   0.6865152717,   0.5131263137,    0.449133724,   0.5346054435,  -0.7593365908,  -0.4156095982,  0.09887681901,  -0.3644028306,  -0.1124196351,  -0.9313374758]
[ -0.5690906048,  -0.6901521087, -0.07895360887,   -0.668664217,   -0.262065202,  -0.2920087576,  -0.7493398786,  -0.5798484087,  -0.7675626278,  -0.7946146131,   0.9830493331,    0.382591933,   0.8993574977,  -0.3401684165,  -0.3445654213,  -0.1877861768]
[ 0.04823274165,   -0.202426061,   0.4781626165,  -0.5365344286,   0.7115311623,   0.6884517074,   0.7944734097,  -0.2078491747,   0.5654512644,  -0.7089229226,  -0.9063715935,  -0.5835268497,   0.7587543726,  -0.5348935723,   0.6753544211,   0.3737031221]
[-0.07098139822,  -0.7450963855,  -0.2300606817,   0.4496718645,    0.694417119,    1.387089133,   0.3640889227,   0.6931524873,  -0.6958236694,  0.06422682852,   0.7248646617,   0.3851140141,    1.259125471,  -0.8490674496,  -0.1533731669,   0.3274094462]
[  0.2941336632,  -0.7877578139,   0.8200394511,  -0.1287205517,   0.2593516111,   0.9465133548,  0.02042220533,    1.535551906,    0.463323772,  -0.8169565797,   -0.873426199,    1.038895488,    1.737002492,    0.269480437,   -1.018582225,    0.252361089]
[ -0.1626285464,   0.9919358492,  -0.3169966936,   0.4675276577,  -0.6290293932,    1.425661922,   0.4785556495,    2.348332644,  -0.8807591796,  -0.8306170702,   -1.011826038,   0.3658313751,    1.467917204,  -0.5492572784,  -0.3379113078,  -0.3311571777]
[  0.1748574525,  -0.5699890852,  -0.1396038681,    2.065592051,   0.2638656795,    2.017730951,  -0.1431722194,    2.444522858,   0.8678229451,  -0.5584703684,   0.8241314888,    1.869181871,    1.340241671,   0.3063384295,   0.1666712761,  -0.6584501266]
[    1.14233911,  0.01864377409,   0.8724461198,    2.231965065,  0.05108971149,    1.602948785,   0.9667459726,    2.394845009,  -0.9305279851, -0.04189779609,   0.1636776328,    1.327931643,    1.122046232,  0.02584482357,   0.6332130432,   0.1877975911]
[   1.108049989,   0.6704798341,    1.133068323,    2.263249397,  -0.5353165269,    2.758761406,  0.06197246164,    1.988437057, 0.004899231251,   0.6771038175,  -0.6652454734,    2.055020809,    2.660061836,   0.9475523829,  -0.5679463148,   0.2216733843]

biases:
[ 0.09969390184,  -0.3425424099,   0.1215912625,   -1.283981562,   0.8365124464,  -0.8493772745, -0.09677913785,   -1.568609476,  0.06791166961,  -0.8280358315,  -0.4766898751, -0.06914485246,   -1.052604318,  -0.8128898144,  -0.7742651701,  -0.2739903331]

1
weights:
[-0.9979742765]
[ 0.2173076123]
[ -1.280171514]
[ -3.508660793]
[0.05557748303]
[ -4.787322998]
[-0.9071113467]
[ -5.242500305]
[  1.012699962]
[-0.9509996176]
[ 0.6870946884]
[ -3.312295675]
[ -4.839632511]
[-0.1208904758]
[ 0.9275718331]
[ 0.8479527235]

biases:
[0.8301705122]

2
weights:
[    1.191690207,    0.7107007504,     1.172850966,    0.5643490553,    0.4592465758,    0.9663175941,    0.7368291616,    0.2680419981,     9.082927704,    0.7025745511,    0.6749879122,     1.305368543,    0.5726181865,     1.963529825,     1.351117015,    0.6878497601,     1.407503128,     3.094204664,    0.6901400089,     3.865073204,    0.1982672215,    0.3540639877,    0.3865872025,  0.008652273566,    0.0176363606,     1.091152191,   0.02898899652, -0.001094580977,    0.1121522039,    0.3479079306]

biases:
[ 0.07459562272,  -0.2282101959,   0.1655319929,  -0.6286502481,  -0.4317267835,   0.2728510797,  -0.5354964733,  -0.6240540743,  -0.1107830852,  -0.1157440543, -0.06535311043,   -1.509376526,   0.3312474489,   0.5881276727,   0.4393025637,  -0.2044752836,  -0.5013787746,   -1.029547095,  -0.2539657354,   -4.456975937,  -0.4137164354,  -0.6820158362,  -0.6376925111,  -0.7124485373,  -0.2713191509, -0.05790537223,  -0.3046867251,  -0.4039321244,   -1.166463733,  -0.2012816817]

3
weights:
[    0.8690432906,     0.4474691153,    -0.6544588208,     0.3576794565,     0.3229960799,    0.00710887881,     0.5897954106,    -0.1729504913,    -0.0447730571,     0.1795973927,    -0.7545981407,    -0.6180782914,    -0.6366614103,    -0.3854480982,    -0.2852918506,     0.8681822419,      0.798353672,    -0.6310269833,    -0.9313842058,    -0.5342297554,      -0.44828704,    -0.8931105137,   -0.08167991042,     0.6202928424,     0.9264812469,     0.2559860349,    -0.7750856876,   -0.05900049955,   -0.05642266944,    -0.9103129506,     0.5843338966,     0.1789783537,    -0.3746829629,     0.1285154223,    -0.9869096875,     0.5836436152,      0.270242542,   -0.00505277561,     0.1717889458,     0.3604464531,     0.2794751227,     0.6841874719,    -0.2024745494,    -0.8775918484,     -0.389575243,      0.990128994,      1.006947994,     0.4555117488,     0.6967778802,      0.103187792,     0.3803771436,    -0.6552793384,     0.1030336246,    -0.1438876987,     0.8072401881,     0.3667640388,     0.1981397718,     0.3236508369,     0.7921820283,    -0.1067344621,    -0.7746965289,    -0.9694160819,    -0.5268804431,     -0.355679363,    0.01810408197,     0.7051747441,      0.312549144,    -0.1342566162,     0.3322653472,     0.2876475751,     -0.358384043,    0.06411361694,    -0.3736844063,    0.02826032974,    -0.5239607096,     0.7666497231,    -0.5522173047,      1.010091782,    -0.9405958652,   -0.05327741057,     0.3108287752,     0.7831349969,   -0.05474175885,    -0.9636282921,    -0.2221010178,    -0.5908958316,    -0.3671101928,     0.8204085827,    0.08917631954,    -0.0979488939,     0.8045230508,     0.2991704345,    -0.4863133729,    0.06670501083,     0.5114580989,    -0.8109683394,      0.601723969,     0.9745535254,    -0.2823061645,    -0.7921594977,    -0.0924917683,    -0.5865465403,    0.06193697825,     0.2289373279,     0.6661299467,     -0.166723147,     0.7424321175,    -0.7999013066,     0.2197450846,     0.1591626406,     0.8216172457,    -0.5811638832,    -0.1653458178,    -0.1193511188,    -0.2897624969,     -0.228376776,    -0.6729434729,    0.03494108468,     0.5472326279,     0.4236231446,   -0.07525590062,    -0.4285319149,    0.03853026405,    -0.8501175046,     0.3626707196,    -0.3387734294,    -0.4521532357,      0.386993736,     -0.263539046,      0.614151597,     0.2692661285,    -0.8479813337,     0.1669970453,   -0.03423146904,    -0.8817943931,    -0.2435881048,    -0.6669824719,     0.4434101284,    -0.5189783573,    -0.7519144416,    -0.6087484956,     0.5600984097,     0.4550441802,     0.9076520801,      1.003543258,    -0.4935768843,     0.4589633048,      0.821080029,    -0.1315785795,     -0.965606153,     0.6210355759,    -0.8532900214,     0.7930588722,     0.2558821142,    -0.6919566393,    -0.4902007282,    0.07273169607,     0.6568008065,    -0.1029377952,     0.1380097419,     0.2494206727,    -0.6484213471,    -0.1685215533,     0.6156556606,    -0.9571455717,   -0.03301958367,     0.8896784186,     0.5412808657,     0.2548850775,     0.4143566489,      0.609367907,    -0.7356272936,     0.8101946712,     0.6267597079,     0.5867908597,     0.2859008312,    -0.8159672618,     0.3108362257,     -0.887589395,    -0.1586492211,    -0.1712350249,    0.01380385552,     0.5339519978,    -0.9239877462,      0.143491447,    -0.1977405399,      0.143061161,    -0.7951704264,    -0.3492993712,     0.3294830918,    -0.1770869792,     0.2623885274,    -0.8970890641,     -0.887716949,    -0.6729326844,     0.1399268806,    -0.4436554313,    -0.5610004663,    -0.8129968643,     0.2507966161,    -0.4693800807,    -0.9586197138,     0.0726820752,     0.6999935508,    -0.1206546426,     0.2775806189,     0.3070567548,     0.2266845852,      0.767775774,    -0.3581925333,     0.2929398417,     0.9842554927,      0.816208601,     0.2724874318,     0.4354815185,    -0.7786733508,     -0.088731125,    -0.4627198577,    -0.3710680604,     -0.849583447,    -0.1294825524,    0.08392648399,    -0.8324612379,    -0.2988841832,     0.1701451838,    -0.6608626246,    -0.3857804835,    -0.8480598927,    -0.7600101829,     0.3558418453,    -0.2047971785,     0.8500356674,    -0.7382971644,    -0.1206318215,     0.6938092113,     0.4953472614,     0.6374719143,    -0.9745823145,    -0.7357133031,    -0.2818787098,    -0.3005478084,    -0.7491760254,     0.6304250956,    -0.2455769926,    -0.9117885232,     0.8303133249,    -0.7714654207,     0.5832229853,    -0.3263112605,     0.0244969707,     0.7877544165,    -0.9911972284,   -0.04049345851,     0.6710438728,    -0.4330148697,     0.6635449529,    -0.9368177056,    -0.2992571592,    -0.4309845567,     0.7535455823,     0.1454269737,    -0.6592822671,   -0.03713260219,     0.4211412072,     0.4670732915,     0.5840925574,     0.5461646318,    -0.8636096716,      0.841160655,    -0.9745192528,    -0.2773258984,    -0.7613444924,    -0.3332972229,    -0.3870768547,    -0.3473146856,     0.4026340544,    -0.8207402229,    -0.8581642509,    -0.7758868337,   -0.09265480191,     0.4867657125,     0.8412758708,      0.578481853,     0.8755485415,     0.8868890405,    -0.1365001351,     0.2169606239,      -0.88969028,    -0.2269630283,     0.1163056493,    -0.9329320192,     0.4357934892,    -0.7063385844,     0.8701831102,    -0.7227722406,   -0.03295005485,    -0.4704903364,   -0.04235263541,     -0.515348196,     0.7033236623,    -0.7529582977,    -0.4453265369,     0.7161989212,     0.1781317443,   -0.02438864671,    -0.3397581875,     0.7678400278,    -0.4289270937,      0.113166675,    -0.6597953439,    -0.3971363008,    -0.3525219262,    -0.4504871666,     0.3605315089,     0.8590704799,     -0.143202588,     0.6967697144,     0.8339425325,    -0.7157105207,     0.2788775563,    -0.1751429886,    -0.1170689911,      0.138576746,     0.7595145702,    -0.1484051198,     0.8234375715,    -0.1216906235,    -0.1326282024,    -0.4360700548,    -0.6013424397,     0.3581827283,      0.245962128,    -0.7125964761,     0.8795318604,    -0.5541404486,    -0.7556121945,     0.3913779557,     0.5397666693,    0.08689595759,     0.7114158273,    -0.2508744001,    -0.7265329957,     0.6665095687,    0.09905970097,    -0.3379377723,     0.7274606824,     0.6687676311,    -0.8217948675,    -0.5197246671,     0.6622406244,     0.3476885557,     0.2302424163,    -0.2915421128,     0.9253930449,     0.2207941264,     0.3097802997,    -0.8753159046,     -0.826944232,     0.3056749403,     0.9618998766,     0.6554328203,     0.8472756743,    -0.7971899509,    0.06830809265,    -0.4415188432,   -0.05244519934,     0.1269139498,    -0.7752029896,    0.01857553236,    -0.9548804164,    -0.3298089206,   -0.02254431322,    -0.6613366008,     -0.882299602,     0.1220696419,     0.3392889798,    -0.6258101463,     0.8963156343,     -0.649440825,     0.8425975442,    0.07256338745,    -0.7165657282,      0.967397511,    0.06306542456,    -0.6044411063,     0.6276856065,     0.6854586601,     0.3860944808,     0.6219109297,   -0.02320985869,    0.08841067553,     0.5871310234,    -0.1349207014,    0.04371256009,    -0.2647924423,    -0.6349363327,    -0.8285606503,      0.388476938,     0.2009343505,     0.9229137301,    -0.6420256495,     0.7577012181,     0.1518319845,     0.6167010665,    0.04644325003,     0.5327347517,    -0.9176902771,     0.8936328292,    0.08533665538,     -0.482912451,    -0.5366880894,     0.4771040082,     0.8427562118,    -0.2838278115,     0.5242112875,     0.4969391525,    0.03822765127,   -0.02173132449,    -0.9853949547,     0.1749324799,    -0.1809706092,    -0.9832692742,  -0.008030915633,    -0.8984063864,    -0.6312090755,   -0.06283675879,     0.2819026411,    -0.1171529144,    -0.9397490621,     0.5831900239,    -0.3183608353,     0.7099235654,    -0.1591420472,   -0.08969397843,     0.4778936803,     0.1524954587,    -0.9737258554,     0.2358988076,     0.2983402908,     0.8156323433,     0.1683885604,      0.770413816,     -0.722450912,     0.5759308338,     0.4972004592,     0.6017594337,     0.9349412322,    -0.8705385327,     0.5202800035,     0.3653544188,     0.4846171737,     0.4140925109,     0.2914109528,    -0.8563246131,     0.7762402892,      0.602383554,    0.01750367694,     0.4598976374,    -0.3684670031,     0.0274681244,     -0.664563477,    -0.4360129535,   -0.09131935984,     0.8658382297,     0.6829581261,    0.05655808002,     0.4592575729,      0.451718688,     0.2223134041,    -0.0662971586,     0.5533298254,     0.2063105851,     0.7251365781,    -0.8736998439,    0.04733880982,   -0.00330436253,     0.7749300003,     0.5577981472,     -0.922713697,    0.03535771742,    0.03341007233,    -0.8164153099,       0.99745363,     0.5806006789,    -0.1682507843,    -0.2136107534,    -0.5308754444,    -0.1223262325,    -0.1761163324,   -0.01552596502,    -0.3710759282,    -0.4085420072,     0.7735669017,    -0.9273871779,     -0.857565701,    -0.2702150345,     0.9686177373,     0.6828466654,    -0.7393696308,    -0.8932893276,     0.2556649745,    -0.6752531528,    -0.3413848877,     0.9230923057,    -0.6672340631,    -0.7423363924,    -0.8344515562,    -0.4093447924,    -0.8191270232,    -0.8225847483,    -0.5197282434,    -0.6869361997,    -0.4656709135,     -0.178216815,     0.9853610992,     0.6817766428,    -0.8846130967,     0.7092667222,     0.7480152845,     0.4832902849,    -0.6059089303,    -0.8026667237,    -0.2288580239,    -0.5099620819,     0.2826643288,     0.2621799111,     0.3806887865,    -0.4277303219,     0.8705823421,    -0.7750783563,    -0.8261592984,    -0.1450940818,     0.3137914538,     0.4362056553,    -0.6750733256,    -0.1213284135,      0.856520772,    -0.1253518313,    -0.6741985679,    -0.9748445749,    -0.4761202037,     0.7547550201,    -0.9863592386,     0.1325030029,   -0.01671125554,     0.2584585249,     0.6037869453,    -0.6471782923,     0.2052652687,    -0.8877897859,    -0.2967694402,    -0.8896138072,  -0.001175411744,     0.4762212336,    0.07525917143,       0.95539397,     0.4015624523,     -0.553812921,    -0.8659929633,    -0.9553101659,    -0.3170974851,     0.4827418327,     0.7255314589,    -0.6818500161,     0.5378370285,    -0.1272557527,    -0.9199742675,    -0.9246892333,    -0.7555983067,    -0.1260511577,     0.2175891697,    0.07499334961,     0.6871285439,    -0.5695003867,    -0.5042751431,    -0.4384196997,     0.1047708318,      0.572422564,     0.4272840917,     -0.498886466,      1.033037543,     0.7077499628,     0.9086565971,     -0.212691769,     0.8206307292,     0.3625625968,    -0.9363990426,    -0.5269975066,    -0.2957212031,     0.9634575248,     0.8652976155,     0.3059551716,    -0.5288341641,     0.4961226285,    -0.9728799462,    -0.1031820774,    -0.8957426548,    -0.1209685728,    0.03144778684,    -0.1723033637,     0.2533850372,     0.4918697178,     -0.279899627,    -0.9917236567,    -0.2716782987,      1.022195458,     0.3958420753,    -0.6232904196,    -0.1583163738,     0.9508962035,   -0.05392888561,    -0.2115342915,    -0.2974308133,    -0.1819322705,      0.683008492,     0.9493672848,     0.4551183879,     0.5378167629,    -0.2059935331,     0.0559791103,   -0.02003921196,   -0.01429975498,    -0.6286068559,    0.03652520105,     0.3740240037,    -0.6874732971,     0.4244100153,    -0.4804606736,     0.6059900522,     0.7446707487,     0.1036052182,     0.2728813887,      0.345528245,     0.9751896262,     0.3268030882,     0.9835722446,     0.8526853919,    -0.2351895124,     0.7614053488,    -0.1981910765,   -0.08009397984,     0.9658735991,    -0.7765398026,     0.7744582891,     0.6056836247,      0.088678509,    -0.1110131368,     0.3619735539,    -0.5383087397,     0.8148889542,     0.9757094979,    -0.7053721547,    -0.8056266308,    0.07779598981,     0.9806846976,     0.6330651045,     0.0915062353,    -0.6615623832,   -0.01065774169,    -0.4422618747,     0.3209733069,     0.4362661242,    -0.9703400135,    -0.3353236616,    -0.2732292414,    -0.6388708949,     0.5486904383,     0.4204705358,     0.4317874312,    0.06129414216,    -0.7776991129,     -0.444614917,     0.7811114788,    -0.2547029555,    -0.7654871941,    -0.1511730552,     0.3306103945,    0.04038455337,     0.1598857939,     -0.247296527,      0.692994833,      0.493206948,      0.811006248,    -0.8952694535,    -0.4414422214,     0.2048351467,     0.4439674616,    -0.7513263226,    -0.4599510431,      0.902989924,     0.7198534608,   0.008199434727,    -0.8924098015,     0.8646404743,      0.677572906,     0.1242868677,      0.982707262,    -0.2591336071,     0.8740752339,     0.8168906569,    -0.4066299796,     -0.946575284,     0.9607021809,       0.10334488,    -0.1791189909,    -0.6726464629,     0.8645333648,     0.3808531165,       1.00728631,     0.2107926607,    -0.8891760707,     0.5983177423,     0.1242846027,     0.7999361157,     0.6674505472,     0.5190327764,     0.6119883657,    -0.3505606651,    -0.6350519657,     0.7548788786,   -0.02315313742,    -0.2113919407,     0.2241255939,    -0.6660704613,    -0.6726998091,     -0.906123817,    -0.8466317654,     0.5002031922,    -0.4238886237,     0.7118472457,     0.6218069196,    0.04789678007,   -0.02315122634,     0.1697686166,    -0.9874498248,     0.9149316549,     0.6859197617,     0.1052248999,    -0.5551815629,     0.2614713907,    -0.8570274115,    0.03385514766,     -0.308760047,     0.7654575706,     0.2463981509,    -0.6505175233,     0.2910491824,    -0.3228062987,     0.2496801317,     0.7681292295,    -0.5416184068,    -0.8401775956,      0.309828341,    -0.4092872739,     0.4536836147,    -0.1595007479,      -0.11464753,    -0.9202015996,     0.2443122268,     0.4391459227,    0.04657198861,     0.2579547167,    -0.7725277543,     0.7866636515,     0.9522855282,     0.9168897867,     0.5338710546,     0.4467611909,     0.7739831805,     0.9657331705,    -0.7510405779,    0.05801086873,   0.007338453084,     0.4878513813,    -0.2830569148,     0.7498722672,     0.8225952387,     0.3109200299,    0.05209629238,     0.5802044272,    -0.7089673281,     0.1079793796,   -0.04152360559,      0.664968431,    -0.1040424854,    -0.5443218946,    -0.2095820457,     0.4609291852,    -0.1684114039,   -0.06992767006,    -0.1643519402,    -0.6289667487,     0.2805691957,     0.2107349932,    -0.3334231079,    -0.1495090276,    -0.5843402147,    -0.6347585917,    -0.7613127232,    -0.4566214681,    -0.1097161546,   -0.09734710306,    -0.1969453543,    -0.8113914728,    -0.6262136102,   0.002783077769,     0.3520995378,    -0.2513090372,      0.980217576,     0.7792462707,     0.4983791113,     0.1581384987,     0.4835413694,    -0.5851130486,    -0.7599098086,    -0.5764427185,     0.6777721643,    -0.8367395997,    -0.9244475961,     0.4257335663,     0.4541823864,    -0.4265316427,    -0.4399614036,     0.6194588542,     0.2950441837,     0.3359692693,     0.6215919852,     0.8920413852,     0.7014644742,    -0.7432286739,     0.3003537059,    -0.4857625961,    -0.3971267641,     0.7285319567,     0.3053321838,     0.7372476459,     0.2392746657,     0.2145231962,     0.2734206617,     0.1833735555,     0.6877527833,     0.8549696207,    -0.5128583908,     0.1685502976,     0.1771453619,     0.3803897202,    -0.5004515052,    -0.3771566451,     0.2238467336,      0.410154283,     0.2469237894,  -0.007423708215,    0.08873661608,   -0.08316631615,    -0.2884684801,    0.01052384358,     0.2515432537,     0.8597726822,    0.04571929201,    -0.3135924041,     0.6258981824,     0.1936641335,    -0.2562488914,     0.1410631835,     0.6863934398,     0.5327312946,     0.7763715982,     0.2813563943,     0.7474994063,    -0.3338545263,    -0.3300991952,     0.1191509888,    -0.5390973687,    -0.1397970766,    -0.6077232361,    -0.9203602076,    0.08666704595,      -0.04672518,     0.9117555022,    0.06331939995,    0.07254436612,     0.3720011413,    -0.2257281095,    -0.6625786424,     0.2886213064,   -0.07371955365,     0.6927776337,    -0.9750908017,    -0.2223977745,     0.1926945001,    -0.4925560951,     0.4246170521,     0.9589330554,      0.251398921,     0.5885477066,    -0.9585058093,     0.4947846532,      0.597198844,    -0.1871816516,     0.5735481381,    0.05561733618,     0.1254047602,    -0.2417538464,    -0.5654539466,    0.01509628538,     0.9374437928,     0.7288177013,   -0.00352782663,    -0.4027181268,    -0.1314982474,    -0.7018640637,    -0.6213309169,    -0.6378026605,    -0.6212078333,    -0.3245718479,    -0.9733115435,    -0.9173782468,    -0.7608503103,  0.0005414723419,   -0.06982438266,     0.7526359558,    -0.5022105575,    -0.5384780169,    -0.2742527723,    -0.4477849305,     0.2673133612,    -0.2129204124,    -0.4275535345,     0.6215325594,    -0.6703855395,      0.564362824,     0.3493590355,     0.7321957946,    -0.1089666858,     0.3297186196,    -0.9554614425,    -0.4959066808,     0.7659701109,    -0.3123080134,     0.3890960515,    -0.7314783335,     0.3411743641,     0.7119352818,     0.9640432596,     0.4327995479,    -0.5126034617,     0.3450642228,     0.6331135631,     0.8449043632,     0.8832349777,   -0.04459458962,     0.9596624374,    -0.1555854827,      -0.59417665,    -0.6602025628,    -0.7444067001,    -0.8394981623,    -0.9928181767,    -0.1704305112,     0.7433297634,    -0.3477466702,      0.886443913,    0.03374278545,   -0.04234807938,       0.37631464,      1.021069527,    -0.6610202789,     0.5203273892,    -0.7051808834,     0.5877748728,    -0.3214450777,    -0.5392783284,    -0.5468475223,     -0.814242959,    -0.2152643204,    -0.4536716044,    -0.6094545722,    -0.7266433239,    -0.4088107049,       -0.9178406,     0.1852020621,    -0.6345014572,     0.5856308341,    -0.4712425768,     0.9296841025,     -0.359141171,    -0.6935225725,     0.7847549319,    -0.2645054758,    -0.3828266263,    -0.2509379089,     0.1685797423,      0.514518559,     0.7148916125,    0.03539644182,     0.4951700866,     0.3475513756,     0.3355193734,    -0.5148630142,     0.6220240593,    -0.9809005857,    -0.3602357507,     0.5532360673,      -0.90987885,   -0.04939788207,     0.2187001854,     0.3693293333,    -0.4401507378,     0.2775057554,     0.9868635535,     0.1392105669,     0.2447499335,     0.2470176816,     0.2099746317,     -0.925165832,    -0.5805156827,     -0.515271306,    -0.6490947008,     0.4242016971,     0.5800628066,     0.8799228668,     0.1706817001,     0.6455152631,    -0.3884644806,    -0.4648394883,     0.1825860888,    -0.5031343102,     0.7259130478,     0.9908885956,    -0.8905185461,     0.5373858809,    -0.2484229952,    -0.2407343239,     0.8472595811,    -0.7191157937,    -0.6697109342,     0.4042932987,    -0.9860803485,     0.5949399471,     0.9005509615,     0.4446037412,     0.2110983878,    -0.6090599895,     0.7751403451,      0.858214736,     0.8126081228,    -0.9562205672,    -0.6230300665,    -0.6162705421,     -0.713765204,    -0.7361425757,    -0.7439264059,    -0.2975332439,    -0.7608585954,    -0.9221346378,     0.6707559228,     0.0402146019,    0.02153714001,     0.4775360823,    0.04566271603,    -0.2999625504,     0.4392395914,    -0.5646910071,     0.4659213126,    -0.3539004028,     0.3616211414,     0.2489926219,    -0.6915022135,    -0.5658943653,    -0.2716390193,    0.08596005291,    -0.7019917965,    -0.2089941055,    -0.9853550196,     0.4133251309,    -0.4086363614,     0.3345879018,    -0.1370121539,     0.6111600399,     0.4000889063,      0.815711081,     -0.986123383,    -0.3416267633,     -0.417861253,     0.5663931966,     0.0982087329,     0.3206603229,    -0.2254742682,     0.2205371559,    -0.7348434925,     0.3595863879,     0.8794074059,     0.2579539716,     -0.433303684,     0.5972872376,    -0.4288490713,     0.9654147625,    -0.6282897592,    -0.5905136466,    -0.8905938864,    -0.2979135811,     0.3530304432,     0.8342193365,     0.4298200607,     0.4522439837,    -0.9967504144,     0.9596546292,    -0.6354546547,     0.3370323479,     0.5288914442,     0.4079511464,     0.1806226969,    -0.1471547037,     0.3708986342,    -0.6526554227,    -0.1820564419,    0.00059751136,     0.5479343534,    -0.1115817875,     0.1367680877,    -0.4044934809,    -0.2154491544,    -0.6467344761,    -0.3504648209,     0.7472866774,     0.4697169065,    -0.1798765957,    0.02213093638,     0.1240758821,    -0.4960645139,     0.8919857144,     0.2687083483,     0.4407874048,     0.4242018163,     0.8711286783,    -0.5863565207,    -0.6778072715,    -0.4282469153,   -0.04266468808,    -0.5618408918,    -0.7236871719,    -0.8990362883,     0.4068571329,    -0.1603332907,     -0.947045207,     0.3014799654,    0.09584757686,    -0.9710743427,    -0.5823242664,     0.1001234651,    -0.4920665026,     0.9848464727,   0.002916706726,     0.1227550283,     0.5528848171,    -0.5411463976,     0.2203674465,     0.5608130097,      0.312554121,    -0.3974353075,    0.01164350566,     0.9947314858,     0.7469586134,    -0.8112072349,     0.1800628453,    -0.1627797186,    -0.4727048278,     0.4492957592,    -0.8565322757,   -0.07150679082,     0.7035628557,    -0.7086016536,   -0.05642593279,    -0.7456814051,     0.0507244207,     0.8149834871,    -0.2926682234,     0.6968715191,     0.8306103349,     0.7087347507,     0.3728264272,    -0.9520447254,     0.1627995819,     0.0567336157,     0.5993298888,    -0.6930608749,    -0.8544330597,    -0.5089776516,    -0.6700921655,    -0.8206797242,    -0.9209486842,    -0.6033657789,    -0.9805358648,     0.4049858749,    -0.3511733711,    -0.3728546202,     -0.559715271,     0.5221040845,     0.4878096581,    -0.9328346848,    -0.7008526921,     0.7191982269,      0.296872586,    -0.9152199626,    -0.7795584798,    -0.4795844853,    -0.9462507367,     0.7099476457,     0.6518485546,   -0.02851434983,    0.06716725975,    -0.5695332885,    -0.8982215524,    -0.6274940372,     0.7333170772,     0.6745501161,   -0.09373287112,     0.5486474633,    -0.1367669553,     0.5708834529,    -0.9170259237,     0.3623141646,     0.2367972136,      0.266666621,     -0.529905498,     -0.911427021,     0.7561115623,    -0.3363221586,    -0.2247793674,     0.5987086296,     0.6954982281,    0.08513832092,     0.1926406324,   -0.04028338194,   -0.02652154118,    -0.7653036118,     0.2782500684,     0.7745706439,    -0.6886834502,    -0.8014481664,    -0.4231717587,    0.07538212836,     0.2550643086,    -0.4425956905,     0.9587440491,   -0.03931536898,    -0.9188674092,     0.6130456328,     0.7452995777,     0.0350394398,     0.1382934153,     -0.437104851,   -0.02299972251,    -0.4894678891,     0.5339919925,    -0.4280890226,    -0.1258203089,    -0.7000558376,     0.5767575502,    -0.8047503233,    -0.8309811354,     0.7530109882,    -0.2734161317,     0.4608945251,     0.5058610439,     0.8229944706,     0.3533962965,      0.384670645,     0.1315714419,    -0.8032544851,    -0.4207306504,    -0.8816313744,     0.1747365743,    0.05411222205,     0.3237686455,    -0.1347441077,    -0.6496319175,    -0.7372889519,    -0.4719486535,    -0.2711441815,     0.9265309572,   -0.02844757214,    -0.6578668952,     0.4473552406,     0.5302578211,     0.1144690812,     0.9267812967,     0.1418655366,     0.2436006665,     0.9488959908,    -0.7302284837,    -0.6132329702,   -0.01851018891,    -0.5368936658,     0.6571969986,    -0.5746853352,     0.4638265073,    0.01912413538,     0.4951644242,      -0.85285151,    -0.4731685817,    -0.3644060493,      0.466037482,     0.6587288976,    0.04225027561,    -0.6940956116,     0.5033913851,    0.01370547153,    -0.8446649909,    -0.3401032984,     0.9035243392,     -0.855335772,     0.0610698536,    -0.3133222759,   -0.09305786341,    -0.7277033925,    -0.5978268981,     0.5765047073,     0.8902642131,     0.2118151784,  -0.002650160342,      0.777636826,     0.2375973314,    0.04377987981,    -0.7790849209,      0.534445703,     -0.242499277,    -0.1259930879,     0.9675194025,      0.757651031,      0.148800388,    -0.5445228219,     0.3756459057,    -0.5216018558,    -0.3955608606,    -0.1612989753,     0.9414708018,     0.4478380084,    0.03721217066,    -0.8699557781,    -0.3651887178,     -0.833447814,     0.9212901592,     0.9154956937,     0.8703264594,     -0.470458895,    -0.2742497027,     0.2692418098,    -0.5470809937,    -0.4267030656,    -0.3570080996,     0.9783810973,      0.388430208,     0.9798348546,    -0.3110153377,       1.00143218,    -0.4592746794,    -0.7219109535,    -0.5103961229,    -0.1614419222,    -0.4087933302,    -0.6004363894,      -0.79144907,    -0.6312640309,    0.07248160243,    -0.3842827678,    -0.7614594698,     0.8350556493,    -0.1104463041,  -0.003388896119,       0.85653615,   -0.08727183193,      0.989181459,    -0.7386894822,     0.9137228131,   -0.09498610348,     0.7945479155,     0.6486855745,  -0.008496982977,     0.4849508405,    0.07842262834,     0.7672988772,     0.2607785165,     0.2252525389,    -0.3929616809,    -0.2813398242,     0.9839108586,     0.5520631671,    -0.9683713317,     0.6522567868,    0.08706820756,    -0.7312568426,    -0.1153741255,    -0.9604175091,    -0.8809083104,     0.3626899123,    -0.1130716875,    -0.9006089568,    -0.3140644133,    -0.4844703078,    -0.2932147086,     0.3998779058,    -0.4142850339,      0.280446291,     -0.803658843,     0.7568423748,     0.9889104366,    -0.9527028799,     0.3507529795,    -0.1197822988,    -0.5805905461,     0.1088347137,     0.4305378795,     0.4897746444,     0.6544507742,    -0.5892799497,    -0.6435884237,   -0.08914124221,    -0.4802556336,     0.8000357151,     0.7728257179,     0.7510545254,    -0.5545117855,     0.7859514356,     0.4789554775,     0.3541966379,      0.702526629,      0.797029376,     0.8217214942,    0.02894212492,    -0.6392415166,     0.8964988589,     0.9544040561,     -0.564522922,     0.3763719499,     0.1800638884,     0.9047877192,   -0.04402505234,    -0.2370643914,     0.8452790976,    -0.7670298815,     0.2905709743,     0.4421740174,     0.4974118769,    -0.1217715144,     0.3729275465,    -0.2681129575,    -0.9067735672,     -0.737447083,    -0.7040964365,     -0.842846334,    -0.5923528671,    0.04948396981,    -0.1614219099,   -0.07446704805,     -0.724390626,     0.4669009745,    -0.6284739971,   -0.01097906101,    -0.8080554008,     0.9001495838,     0.7565487027,    -0.2233109623,    -0.4575117528,      0.763135612,      0.923794508,    -0.9640408754,    -0.1703818589,   -0.03694846481,    -0.2322654873,     0.2724832594,      0.692053318,    -0.1144503951,     0.3635095358,    -0.1456755698,    -0.1263409406,     0.3211385012,    -0.8117051125,     0.7566802502,     0.9306104183,     0.4117927253,    0.04848755151,     0.9657748938,     0.2585248351,     0.7474503517,    -0.5069268346,    -0.9906680584,     0.1691626608,     0.9712025523,      0.867818892,    -0.3508765101,    -0.9913883805,     0.8542014956,     0.1297940016,    -0.9713659883,    -0.6822157502,    -0.4556338191,    -0.1189938858,      0.731353879,    0.03153319657,    -0.4710796177,     0.3884599805,    -0.9635205865,     0.6868964434,      0.335636735,    -0.8268238902,     0.6855146289,      0.466545254,    -0.1293963194,     0.1947328895,    -0.7801487446,     0.4543392956,   -0.04385020956,     0.1237989813,    -0.8401976228,    -0.8952258229,     0.2770664096,    -0.5752353668,     -0.586204946,      1.004215598,     0.9853377938,     0.9838660955,    -0.7949850559,     -0.912006259,   -0.04798588529,    -0.5894181132,     0.6858087778,    -0.9891395569,     0.2824340761,     0.1763612181,     0.4351663589,    0.06993382424,     0.9472785592,     0.1094625592,     0.4090560377,     0.3352773488,     0.2206204683,    -0.1624699086,    -0.7308189273,     0.3077634275,     0.2853855193,     0.7860639095,     0.8082908988,     0.5389148593,   -0.03321207687,     0.8102805018,    -0.7924472094,     0.1804668456,     0.7818863988,     0.1242528036,     0.7642408609,    -0.8474600315,    -0.1167732105,     0.3294163644,     0.3421576023,   -0.08213274926,   -0.09166077524,    0.03910680115,   -0.01669756509,      0.666574657,     0.9197157025,    -0.4565623403,     0.6082028747,      0.845908761,     -0.240043506,    -0.5115389824,      0.105984278,     -0.935411036,     0.1699602455,     0.2812347114,     -0.087503694,     0.1393685341,     -0.961987555,    -0.5675281882,     -0.812220633,    -0.4791482985,    -0.1451568455,     0.3085783124,     0.7107519507,    -0.9055700898,    -0.5838974118,     0.4906987548,    -0.9645056725,     0.5411472917,     0.3388829231,   -0.04709287733,    -0.2169902176,    -0.4550043643,     0.3955491185,     0.6635886431,    -0.7954773307,    -0.5973154902,      0.317042172,     0.5541794896,     0.8315466046,     0.9714105725,     0.6341283917,      1.005611658,    -0.7893689275,     0.4676342309,    -0.1783662736,     0.6103281379,     -0.398519516,     0.1770645231,    -0.4653688669,    -0.1328930259,    -0.9332309365,    -0.5392711163,     -0.958509028,    0.05128950253,    -0.2890059948,     0.9556732178,     0.1808841228,  -0.001957822125,    -0.8027296662,    0.02134998888,     0.3280294538,    -0.9746870399,    -0.4953638017,     0.6343617439,    0.01406373922,     0.2092525065,     0.8949415088,    -0.3786996305,    0.03908202425,    -0.8501989245,     0.7152020335,     0.4507827759,     -0.526961863,     0.5777737498,      0.547439754,     -0.892003119,    -0.8886368871,     0.1817385852,     0.2890443206,     0.3682407141,     0.5664986968,   -0.04216177389,      0.219454065,    -0.1031037569,    -0.7095686793,    -0.9685345292,     0.8994609714,    -0.3070661426,     -0.560131073,     0.1466144621,    -0.7579047084,    -0.4548769295,    -0.3040773571,    -0.5243896246,     0.2244196534,     0.4294677675,   -0.06513453275,     0.9047117233,    -0.3973367512,     0.2989344597,    -0.5488390326,    -0.1022797525,     0.5354601145,    0.08208730072,     0.3899140358,     0.9939851761,    -0.4529082179,    -0.5067843199,     0.7849202156,    -0.8494437337,     0.7682614923,     0.3689495921,    0.08384922147,    -0.4403761625,    -0.6479045749,     0.7338478565,    -0.9454052448,    -0.5229008198,    -0.9044213295,    -0.5196564198,    -0.9448756576,    -0.7698579431,    -0.9742643237,     0.4926590621,   -0.05190687999,    0.05960781872,     0.5554137826,     0.3581804931,     0.2756541073,    -0.5298589468,    -0.7619944215,     0.7919927835,     0.8439924121,     0.9419789314,     0.3229147494,      0.865790844,     0.2077569962,    -0.8459646702,     0.6613534689,     0.4170566201,      0.409227252,     0.9689679146,     0.5671110153,     0.2305551618,      0.404148519,       0.74996984,    -0.1843672991,    -0.7133752704,    -0.2466577142,     0.8291560411,     0.3571584225,     0.6208771467,    -0.3706317246,     0.2892920077,    -0.6745957732,    -0.1351285875,     0.7869009376,     0.9539548755,    -0.5620855689,    -0.5753599405,      0.591815412,    -0.9691272378,   -0.09398081899,    -0.9352827668,    -0.4085602462,     0.2792542875,      0.492341429,    -0.2608498335,     0.9207540751,     0.2431868315,     0.1022382379,    -0.9039906859,     -0.469943285,   -0.01267077494,     0.2748109996,    -0.9373389482,     -0.829071641,   -0.08893901855,     -0.663711071,   -0.05396630615,     0.4380172491,     0.5301026106,    -0.9795019031,    -0.4344656169,     0.1988326758,    -0.4437556565,     0.6412235498,    -0.8849816918,     0.7005788684,    -0.6228911877,    -0.1572102904,     0.1045885459,    -0.2424179167,   -0.06122251973,    -0.9593896866,    -0.6981417537,    -0.1932655275,     0.3155933917,     0.2674661577,    0.09608641267,   -0.08132369071,    -0.7529660463,    -0.5457963347,    -0.5011098385,    -0.6081804633,    -0.2634937763,     0.1176132783,     0.2922230661,    -0.8814250231,     0.3384896815,     0.6619877815,     0.4476880431,     0.2061093301,     0.4067808092,    -0.8063520789,    -0.9013521075,     0.4788118005,    -0.6567658186,     0.1674439609,    -0.3906959891,     0.2147912383,    -0.2760745585,    -0.9056994319,    -0.5339503288,     0.7773324251,     0.6388375163,      0.741309166,     0.8934377432,    -0.1975750476,     0.2525601685,    -0.3814538121,    -0.9776906967,     0.6863634586,     0.8433873653,    -0.1379211694,     0.9224621058,     0.9893938899,     0.4421611428,    -0.3010499775,     0.7409028411,     -0.238526985,     0.2556170821,     0.1538780779,    -0.8588677645,    -0.2906392515,     -0.929496944,     0.7661821246,     0.1160079688,    -0.5078075528,     0.8455705047,    -0.8728867769,    -0.4162356257,     0.1937137544,    -0.9029509425,     0.7758619785,     0.5462878346,     0.2926220894,     0.0542983301,      -0.31522578,     0.6582292318,    -0.7866819501,     0.1249803528,    -0.2277989089,    -0.3924054801,     0.5925345421,    0.04303633422,     0.7570507526,    -0.1683271229,    -0.7335551977,     0.3377625346,    -0.5784497261,     0.8518569469,    -0.2008659095,     0.2587116659,     0.3765966594,     0.4755921066,     0.7007468939,     0.1180964634,     -0.807729125,    -0.9628824592,    -0.7868658304,     0.4784220755,    -0.1412102282,    -0.6537023187,    -0.6047871709,    -0.3958877325,    -0.6120753884,     0.8568575382,   -0.07101470232,    0.05637096614,     0.3485472202,      0.861113131,      0.585921526,    -0.8434565067,    0.04774692282,     0.2663336694,    -0.6436793208,     0.1243207753,    -0.3682038486,     0.8485865593,   -0.09095621854,     0.4182785451,      -0.66950351,    -0.9402213097,     0.7956149578,     -0.720879674,    0.07721877098,     0.3032621443,     0.5845640302,     0.8185369372,    -0.2600160837,    -0.3226958215,     0.1105855405,     0.2317567021,      0.923515141,    -0.8157145977,     0.2318928242,    -0.0114623215,    -0.2758329809,    -0.4764837325,     0.6103192568,     0.5886284113,     0.3241292834,     0.6958318353,    -0.9508066773,    -0.1737786531,     -0.155185163,     0.8155170679,     0.4548538923,    -0.9429762363,    -0.1574293226,      0.434828192,     0.2837168872,     0.9332956672,    -0.4042474329,    -0.5686109066,    -0.5150942206,     0.7826060057,    -0.1078639179,    -0.9597004056,     0.2686376572,    0.06993275881,    -0.3546835184,     0.7036723495,     0.8311748505,     0.9410095811,    -0.2877399623,    -0.9028731585,     0.1858503222,     0.8990645409,    -0.6432501078,     -0.227719456,     -0.292236656,    -0.3773463964,     0.3702402115,    -0.2389302254,    -0.9299736023,   -0.02431711741,     0.9496352077,     0.2418842614,    -0.2485681027,     0.7344419956,   -0.08092965931,    -0.5856508017,     0.7095940709,     0.6408736706,    -0.2806319296,     -0.715231061,     0.6381239891,    -0.4553155899,    -0.1726119518,     0.4028031528,    -0.2177408338,     0.9844262004,     0.8287673593,    0.04250744358,     0.5080541968,    -0.9770201445,     0.4525006115,     0.3550622165,     0.8969227672,     0.4403217733,    -0.3532037437,   -0.01221125852,      0.495289892,     0.3352865577,     0.8126795292,     0.8834217191,    -0.8731734753,    -0.4892258048,     0.1578291506,     0.3255688548,    -0.3663190901,     0.4140068591,    0.06962446123,      1.015714526,    -0.3427120745,     0.7770956755,     0.3647413552,     0.3302943408,     0.1970756054,    -0.8325353265,     0.7909263968,    -0.9098549485,     0.2244309038,      0.292298317,   -0.03950301558,     0.9672678113,     0.8647346497,     0.1852070838,    -0.5278398395,    -0.4767140746,     0.3476390243,    -0.3767383099,    -0.2840464413,    -0.1084088013,    -0.5444680452,     0.4544121623,     0.4107794166,     0.8996204734,     -0.382555604,     0.6736554503,   -0.05122347549,    -0.8232002854,     0.9292166233,    -0.9002888799,     0.3168501258,    -0.4788609445,    -0.4328897893,      0.117676951,     0.9243432283,    -0.2077059895,      0.675285995,     0.3495728374,    -0.6494134665,    -0.7754951119,      -0.91875422,     0.0617614463,    -0.8340749741,    -0.4288146794,     0.1437195539,     0.6954577565,     0.4926251471,     0.9611825347,    -0.7861014605,     0.7372653484,       -0.3732391,   -0.05556444451,     0.2220183611,    -0.5742135048,     0.7309508324,     0.1699440628,     0.7998735905,      0.839425981,    0.05233344808,    -0.4406232238,     0.1014203578,    -0.2241629362,     0.9612336755,     0.9188842177,     0.6581573486,    -0.2388537228,    -0.4931030869,     0.4649238586,     0.4821828008,     0.9816155434,    -0.5514271259,     0.4351034462,    0.05830021203,    -0.3591779172,     0.5385098457,     0.2822132409,    -0.5252181292,    -0.5080333352,    -0.8388105035,    -0.5571323037,     0.9049915075,    -0.3195909262,    0.03269764036,    -0.9128541946,     -0.155949086,     0.6867451668,    -0.7870277166,    -0.6679899693,    -0.3652358949,     0.8905079961,     0.4872555137,     0.0282973107,    -0.8075860739,    -0.5068148375,     -0.434538573,     0.3880538642,     0.6682472229,    -0.9449021816,     0.4384300411,     0.7477449179,     0.3106477857,    -0.5158778429,    -0.5341331959,     0.8341367841,     0.9138569236,     0.7941785455,    -0.2248175293,   -0.08530455828,     0.5983974934,     0.8044463992,     0.5193155408,     0.4229368865,      0.207138136,     0.8762550354,    0.01757561602,     0.5842494965,     0.6891711354,     0.6143088341,    -0.1269822568,     0.2399113476,     0.7684012055,     -0.589966476,    -0.8123717308,      -0.65676862,     0.7231600285,     0.6636694074,     0.5107773542,    -0.4147063792,    -0.3170190156,     -0.798743546,    -0.5909787416,    -0.5223290324,    -0.5050585866,    -0.2026398927,     0.4973101318,    -0.1821258515,     0.2742418051,      -0.35919559,    -0.8855705261,     0.7406706214,    -0.7602040172,    -0.5484565496,    -0.8573855758,     0.2635322809,     0.6853880882,    -0.5756610036,     0.4051961601,     0.5186059475,     0.6553658247,   -0.08700179309,      -0.97617203,     0.2608239055,     0.4307721853,    -0.7331292033,    -0.6045274138,     0.3415927887,      0.871971786,     0.1500331461,   -0.04102231935,     0.9190859795,     0.1561454087,     0.5989453197,     0.8734419942,     0.1516890526,    -0.8615748286,      0.821880579,    -0.9819510579,    -0.5599226356,    -0.2449166328,     0.9372366071,     0.7882758975,     0.5149900913,    0.09757324308,    -0.5001562834,     0.7419365048,     0.6632854342,    -0.9086326957,    -0.9035661817,    -0.5421481729,     0.9617219567,     0.5916558504,     0.7651097775,     0.9592024088,     0.4974354804,    -0.2243633866,    -0.5566186309,     0.8342512846,     0.5891684294,    0.08165113628,    -0.1302924305,     0.6777992249,     0.7748721242,    -0.7354694605,    -0.4695045352,     0.4956365228,    0.01112877205,   0.006948201451,     0.2626173198,    -0.1013423055,     0.3913521469,    -0.3994641304,    -0.8640628457,     0.8979772329,    -0.3163802624,     0.2275444716,     0.1404645592,     0.2285346687,    -0.2550673783,     0.7076131701,    -0.1253666133,     0.0228605438,     0.8586142659,    -0.7307537198,     0.7010867596,   -0.01065393351,    -0.2239172459,     0.8696981072,     0.7315425277,    -0.8987829089,     0.2085110843,    -0.5436685085,    -0.1932242066,     0.4769705832,    -0.4694810212,     0.7091638446,    -0.1461526453,    -0.0628778711,     0.2057824731,    -0.8961313367,     0.6694386005,    -0.8972865343,     0.5464352965,    0.06498981267,    -0.3515324593,     0.2105460167,     0.5220222473,    -0.6241288781,    -0.5323494077,    -0.2324694097,    -0.3063909113,     0.6492425799,     0.6743806005,     0.5857192278,    0.01740777865,    -0.6547746062,     0.1285152286,      0.433442384,     0.3953665197,     0.4553564191,     -0.432479918,    -0.7513270974,     0.6521973014,    -0.8582814932,     0.6654297113,     0.8589584827,     0.6151812673,    0.05538861454,    -0.1606248617,    -0.5933300257,    -0.4551808536,     0.3368970752,     0.7111335993,    -0.2402347028,    -0.9182050824,     0.5595033169,    -0.5837970972,    0.02649528161,   0.002412237227,    -0.1616791189,    -0.1322865784,    -0.7647144198,     0.1532856673,     0.4218481779,     0.1766540408,    0.07915973663,    -0.5092127919,     0.1229380295,     0.5288126469,     0.9262671471,     0.6311538219,     0.8081041574,      0.375466764,    -0.1610283405,    -0.7929173112,     0.5426449776,     0.5128415823,    -0.5168334842,    -0.5735123158,    -0.3961625695,    -0.8220690489,     0.2273950875,    0.02093793452,    -0.6439626217,    -0.5924705863,    0.04085900262,      1.006445646,     0.3067338169,    -0.8928834796,     0.2788191438,    -0.3462876678,      0.864215374,    -0.0519884415,    -0.6353268027,     0.8846108913,     0.2121834457,    -0.1830303371,    -0.4400846362,   -0.03171448782,    -0.1764853448,     0.7847338915,    -0.5925918818,   -0.01969162561,    -0.4536798298,    -0.6103532314,     0.3224296868,    -0.5152257681,      0.173996985,     0.2124847621,     0.6443930864,     0.8066406846,     0.2612980902,     0.5514033437,    -0.2697491646,     0.8609641194,    -0.6641058922,     -0.879607439,    -0.5577710271,   -0.02000807784,    -0.5093895197,     0.4860121906,     0.6761211157,      0.178477779,    -0.2885293067,    -0.5098763704,    -0.9219338298,       0.92558074,    -0.6155697107,   0.004753552377,     0.8849547505,     0.1564788073,    -0.5476852059,    -0.1694231629,    -0.5682958364,    -0.8832417727,    -0.3709867597,    -0.7141388655,     0.2118786424,    -0.4076752961,    -0.6381161809,    -0.2528724372,    -0.1340059191,     0.2344441414,    -0.2681489885,    -0.2837715745,      0.264326334,     0.6987221241,     0.5800732374,    -0.2870789468,    -0.3005979359,    -0.1357876211,     0.2671287656,     -0.162039578,     0.9388635159,     0.2693620324,    -0.5738683939,     0.1663601995,     0.9329584837,    -0.1760330498,     0.2537972331,     0.5975971222,      0.123070471,    -0.4092082679,     0.4443930984,    -0.4888164401,     0.7030123472,    -0.9737466574,    -0.3384957016,     0.4006933868,    -0.3776328266,    -0.8819755912,    -0.5221973658,     0.8734197617,    -0.1470958143,     0.3739327192,     0.7244738936,    -0.4859255254,    -0.7412836552,    -0.9341742992,     0.5312955976,     0.5143200159,    -0.2047264874,    -0.7566375136,     0.6655988097,     0.2354664356,      0.783598125,     0.1940213293,    -0.9599604607,     0.2539741099,     0.2213895917,    0.07659651339,    -0.4804172516,     0.1614131629,     0.6390111446,    -0.1079277173,    -0.8026247025,     -0.238850221,     0.6544704437,     0.2405451238,   -0.01237206999,     0.4111747444,     0.7061747313,     0.7424929738,    -0.6728461981,     0.6230821609,      0.892729044,     -0.707295835,   -0.04115673155,     0.8199698329,     0.7017067075,     0.4236014485,    -0.2736492455,    -0.2029990703,    -0.4015079439,     0.8698853254,    -0.3601936996,     0.7162616253,    -0.5698959827,   -0.03658728302,    0.07054133713,     0.3273155391,    -0.5595213771,     0.7276091576,    -0.1979257315,    -0.1167404726,    -0.2290181965,    -0.7263488173,    -0.8804482818,    -0.6808890104,    -0.9636340737,    -0.4819037318,    -0.9056638479,    -0.4033868909,    -0.5361355543,     0.9660128951,    -0.5636686683,     -0.916105628,     0.2818853855,    -0.3009177148,    -0.2601010501,     0.7678354383,     0.7130166292,    -0.7889432907,    -0.4143652618,     -0.920168221,     0.3965964317,    -0.4894779325,    0.05490428209,    -0.9374624491,    -0.5513319969,     0.9618362188,     0.2209049314,    -0.5367251039,    -0.9026297331,    -0.7358602285,     0.2294602096,     -0.385696888,    -0.1751449257,    -0.6882759333,     0.1114577129,    -0.5866447687,     -0.634939611,     0.8914430737,     0.1470955312,     0.6573960781,    -0.7588273883,     0.9692694545,    -0.1181877628,    -0.8224616647,   -0.01863268949,    -0.5310316086,     0.8175755739,     0.0411660336,     0.7965688705,    -0.8780335784,      0.972433567,     0.8496108651,     0.3682924807,    -0.8265071511,    -0.4746968746,    -0.9031962156,    -0.3817159534,    -0.2942410111,     0.6067450047,    -0.6664053798,    -0.5538968444,     0.7713942528,    -0.7279506922,     0.8983915448,     -0.496109575,    -0.4031188786,    -0.1265731603,     0.1950804591,    -0.9593961239,    -0.4194725156,     0.7695416808,   -0.05895956233,    -0.9123405814,    -0.2557891011,    -0.9537053108,     0.2844887972,    0.02224432863,    -0.1428005844,    -0.6179558635,      1.015747309,    -0.7698938847,     -0.465367347,    -0.5377104878,    0.06101829559,     0.8440124989,   -0.05760908872,    -0.2031386644,    -0.8464500904,    -0.1695474833,    -0.5260596275,     0.3732284009,     0.4373846352,     0.9046716094,    -0.4850551486,    -0.6002801061,     0.5122905374,    -0.1710371375,      0.154576689,      0.775400579,    -0.7212762237,    -0.8224110603,    -0.2149876952,    -0.6860502362,       0.69157511,     0.5811678171,     0.9792308807,    -0.0716490075,     0.2171518803,     0.3595689237,     0.3041950464,     0.9082190394,     0.9274113774,    -0.9477908015,     0.8721272349,     0.7973248363,     0.3624387383,     0.7543874383,     0.7268095613,     0.7986053824,    -0.8777747154,    -0.9405521154,    -0.2942353785,    -0.6261892915,     0.7016711235,    -0.6717534661,     0.3364355266,     0.9196147323,    -0.6191856861,    -0.3813493848,     0.8675782681,   -0.05004641041,     0.6954949498,     0.1559484303,     0.8941841722,      0.614462018,     0.5688663125,     0.1608417928,     0.5675113797,     -0.324449122,   -0.06645611674,     0.4447255135,     0.5569967031,     0.8953635693,    -0.7585519552,     0.1211892664,     0.8312994838,    -0.4853226542,    -0.8568933606,     -0.556735456,   -0.08075201511,     0.7455503345,    -0.9462962747,     0.8117218614,     0.9601656795,     0.4421903789,     0.3639036119,     0.5106245875,     0.2024893016,     0.8155201077,    0.07667093724,      0.673286438,    0.06657598168,     0.6902900934,    -0.5138026476,     0.2326476127,    -0.4453425705,     0.1974864602,     0.7905655503,     0.3516466022,    -0.1451202184,    -0.7161732912,    -0.1284187138,    -0.7909526825,    -0.8702303171]
[    0.1722075045,    -0.8979123831,      0.223190859,     0.5661307573,    0.07220221311,     0.6570683122,    -0.4743646979,    -0.4933135808,     0.9001384377,     0.3422581255,      0.719520092,    -0.9210179448,    -0.4893198013,     0.3588250875,     -0.919467628,    -0.7921623588,     0.2091617882,      0.860253036,     0.5133834481,     0.3450250328,     0.2036984861,     0.9276606441,    -0.5055587292,    -0.3539493382,   -0.04043660685,     0.2810201049,    -0.0982619375,     0.5843058825,     0.8980872631,     0.5863296986,     0.4462760985,     -0.482177645,    -0.9274539351,     0.6016258001,     0.5319926739,    -0.9194985032,     0.1912927032,    -0.7998800278,  -0.003022833029,     0.8308837414,    -0.3887016773,     0.1525955349,     0.3845429718,     -0.474571228,     0.8252519369,    -0.8869454861,     0.8410577774,     0.4617938995,     -0.708425343,      0.524558723,    -0.1860617101,     0.5557276011,    -0.7232384086,      0.186556682,       0.38060835,    -0.8537268639,      0.456697017,    -0.3135972023,   -0.09698343277,    -0.8804242611,     0.4060254395,    0.02073634788,     0.4971532822,     0.9306842685,    -0.4826069474,     0.1009909809,    0.01014882699,    -0.1032412723,      0.796746552,    -0.7973350286,     0.8498052359,    -0.8673567772,     0.7193742394,    -0.2226481289,     0.8124637008,    0.04881325364,    -0.2057363391,   -0.01861058921,     0.7133406997,    -0.2251513004,    -0.4350822568,      0.424364239,     -0.470513761,      0.776258111,     0.5280188918,    -0.8195887208,    -0.2284605056,    -0.3484326303,    -0.5538718104,     -0.333716929,    -0.4541617334,    -0.6969453096,    -0.4163766205,      0.655221045,    -0.8631924987,     0.3136546314,       0.24975425,      0.750813663,    -0.9477570653,    -0.9280442595,     0.2768861651,    -0.6787953973,     0.3157126307,     0.7202968597,     0.8214185238,     0.9643802047,    -0.6514208317,     0.9535741806,  -0.001301620854,    -0.7199345231,      0.841468811,      0.528018117,     -0.522659719,   -0.07099378109,     0.4638148844,     0.1494440287,     0.9494254589,    -0.3454082906,    -0.6803022623,     -0.961322248,   -0.02625320107,    -0.7232761383,    0.04045988619,    -0.3410407901,   -0.02273475751,    -0.9252436161,     0.5010229349,     0.2337316871,    -0.1380588859,    0.02570055425,    -0.7829492688,     0.1981874406,   -0.06680975109,   -0.08188923448,   -0.09326791763,    -0.3252680004,      -0.43640396,     0.3999302089,   -0.03058205917,     -0.922328651,    -0.2769328952,     0.3513507843,      0.425051868,    -0.9180791378,   -0.06979794055,     0.6484565139,     0.6045883298,    -0.8314611316,     0.3623318672,     0.7442270517,    -0.3669863939,     0.8032799959,    -0.3875669539,    -0.4402339756,     0.8649305105,    -0.3946803808,    0.06174196675,      0.384766072,    -0.3146256804,     0.7528853416,    -0.8562226892,      0.431096524,    -0.8924818635,    -0.1843000054,     0.8612067699,     0.7070630789,    -0.8577903509,     0.7520997524,     0.8521957994,   -0.05032216012,     0.6178447008,     0.7790462971,    -0.9279463291,     0.6475560069,    -0.8590111732,     -0.158154726,    -0.5728547573,   -0.04792680964,    -0.2874368727,     0.3961463571,     0.6201457977,     -0.723950088,   -0.00270464248,    -0.0106691448,     0.1590407193,     0.5865139961,    -0.6437969208,     0.3382709622,     0.2865186334,    -0.2329532802,  -0.007587426808,     0.4688161016,    0.03810698912,   -0.06714634597,    -0.7903452516,    -0.9396619797,     0.7152556181,    -0.2993608415,     0.6332008839,     -0.279032439,     0.1913248003,    -0.5655058026,    -0.7745264769,   -0.09355100989,    -0.5332906246,     0.6473841071,     0.2775052786,     0.6611010432,     0.5442986488,     0.3058169782,     0.1514358968,     0.6352966428,     0.3566402197,     0.8712365031,     0.1481466591,    -0.3189839125,     0.2465937585,     -0.137318328,    -0.7043629289,     0.3636778295,    -0.1123034507,     0.7384084463,     0.8463100791,    -0.6422917247,     0.6667237878,     0.4952521324,    -0.4604462981,     0.2025423199,    -0.2343949229,     0.3192796409,    -0.9660668969,     0.1422264725,     -1.017170787,      0.492051363,    -0.5376337767,    0.01936404221,     0.2959076166,    -0.2985768318,     0.5001066923,     0.2181708664,      0.903658092,     0.6941782832,   -0.09675255418,     0.3191697299,     0.9778417349,     0.9740136266,      0.948056519,     0.8998071551,    -0.4712730944,      0.481764853,    -0.5624518394,   -0.09123187512,     0.7284811139,     -0.617660284,     0.3167327046,    -0.1422317624,    -0.2005973756,     0.3984001279,    -0.9663453698,    -0.1506876945,   0.002937283367,    -0.4171561599,     0.3572590053,     0.6362662911,      0.102880314,     -0.812051177,    -0.2544027269,     0.2578445673,    0.02460073493,    0.03154087439,     -0.539763093,    -0.2918744087,     0.4056723416,    -0.4138830006,     0.7250475287,     0.1312479973,    -0.3684010506,    -0.3052824736,    -0.4240445793,     0.1252031624,    -0.7227318287,     0.7374800444,      0.132215485,    -0.7891584039,     0.4101291001,     0.3463267982,     0.3919657469,     0.8772284985,    -0.8942257762,     0.9223021865,   -0.07104323059,     0.4240619838,    0.06387390941,    -0.3973986208,    -0.1447174698,     0.6429903507,     -0.530831337,    -0.7087180614,    -0.2552575171,     0.7305633426,    -0.7488487959,     0.7198652029,     0.1314168721,    -0.4989146292,    -0.9003631473,    -0.4910392463,    -0.6846883297,    -0.1264716536,    -0.8585992455,     0.9021281004,    -0.3057026565,      0.562455833,    -0.9394498467,    -0.6317638755,    -0.5664135814,      0.752451241,    -0.6051495075,    -0.5192072392,    -0.6994492412,    -0.5740996003,      0.558526516,     0.1135368794,    -0.5663337708,     0.4819414616,    -0.3398868442,    -0.7583602667,     0.2497662902,    0.07226407528,     0.2096521109,    -0.4566817284,    -0.2276155204,     -0.203421101,     0.7262436152,    -0.2537770271,   -0.06528404355,    -0.3332995772,     -0.533924222,     0.6989378929,    -0.0946514979,    -0.2508711219,     0.3455292881,    -0.0125264246,    -0.7875075936,    -0.3828365803,    -0.4096758664,     0.3416314125,     0.9909706712,     0.1851156354,   -0.04906305671,     0.9615662098,     0.7775617838,    -0.9772307277,  -0.001524705905,    -0.3769885302,     0.9712372422,    0.08777102828,     0.8509859443,    -0.3663764894,     0.8869981766,     0.1176275611,     0.4062655568,     0.6588012576,    -0.3154272139,     0.9159056544,     0.8854800463,     0.3990561962,     0.1378364712,    -0.5193203092,      0.954780221,     0.0488377437,     0.5819039345,    0.09788704664,    -0.1196795031,    -0.3013489246,    -0.6525350213,    -0.8798337579,    -0.6901934147,   -0.01348457579,    -0.4693665206,     0.8096488118,    -0.8949528337,    -0.7787413597,    -0.6948359013,         0.614914,     0.6909707189,     0.1505452245,    -0.8389143944,     0.5260786414,     0.4268420339,    -0.1110600159,     0.5920132399,    -0.8485106826,     0.3505703211,    -0.9544291496,     0.9898465276,     0.2660361528,     0.4678878486,    -0.8421277404,     0.7822088003,     0.6382520199,    -0.9327999353,    0.06644259393,     0.4102682173,    -0.3798012733,     0.6600221992,     0.5371038318,    -0.1824318022,     0.3418370783,   -0.08162323385,    -0.4294908941,    -0.2272115946,     0.7391100526,     0.7215261459,    -0.3107260764,    -0.4031666815,     0.5737633705,    -0.8793172836,    -0.6894969344,     0.9746637344,     0.4010350406,     0.7664166093,     0.4092157185,    -0.3827003241,    -0.8308122158,     -0.883438766,    -0.2245648205,    -0.5231484771,    -0.7062984109,      0.786442697,    -0.1896842867,    -0.6590164304,      0.912347436,    -0.8471841216,     0.4545200169,   -0.06442507356,    -0.8483496904,     0.3765231967,    -0.9027892947,     0.4533433318,    -0.8024718761,     0.4712588489,     0.5654143691,    -0.9477809668,     0.1165079176,     0.3019981682,    -0.6585416198,     0.1082616746,    0.06002436206,    -0.7288060784,    -0.1638482064,     0.9885849357,     0.8954015374,    -0.1106067076,     0.3984405696,      -0.53419137,     0.5952873826,      0.566937983,  -0.009838814847,    -0.8859254122,   -0.07547167689,    -0.8132987022,     0.6161200404,    -0.4555136859,     0.2091754079,    -0.5682625771,    -0.5035754442,    -0.7214231491,     0.3368598819,     0.1037633568,     0.6656295061,      0.823532939,    -0.1724376529,      0.272810638,    -0.8325653672,   0.006335663144,      0.425165087,    -0.8761429191,    -0.1193208173,      0.531645298,    -0.8994238973,    -0.7730165124,     0.1538157165,     0.9175650477,   -0.06661459059,    -0.8422789574,     0.9609651566,    -0.9425266385,     0.9634325504,     0.9449529052,     -0.969504416,    -0.3207306266,    0.01119407918,    -0.3201178908,    -0.0159925241,     0.4060626924,     0.1460271776,    0.04251401499,    -0.1372548789,   -0.03058206663,    -0.7747186422,     0.9374339581,    -0.5857486725,    -0.9557195306,      0.488843888,    -0.4950124621,   -0.09584066272,   -0.09758131206,   0.006621387322,      0.255989641,   0.002839435823,     0.6875112653,   -0.01720313914,    -0.6805163622,     0.9508574009,    -0.3997456431,     0.4721607864,     -0.225808382,    -0.4022590816,     0.5981502533,    -0.5379295945,      0.151429832,    -0.8169752955,      0.681671977,    -0.1070741862,     0.6759850383,    -0.9360228181,   -0.04807722196,    -0.2929512858,   -0.05400970951,     0.4338358343,      -0.21831204,    -0.3532611728,     0.2775815129,     0.6743790507,    -0.2723516524,    -0.2817792892,    -0.9376672506,    -0.3855986595,     0.4713747203,    -0.7171053886,    -0.3528609574,    -0.2602954805,    -0.5527120829,    -0.8513900042,    -0.5777267814,    -0.2931764424,     0.8913914561,      -0.39807868,    -0.1532522291,     0.6251363158,      0.584749341,    -0.5315445065,     0.5917384028,     0.5923655033,     0.4196864963,     0.4776712358,    -0.1604957134,    -0.7607937455,     0.9899840355,    -0.6947538853,     0.3847136796,     0.4560627341,     0.3233004808,     0.1814838201,     -0.220586881,    0.08371705562,    -0.7351027131,     0.8566926718,    -0.5696199536,    -0.2086540759,     0.7144883275,      0.322473973,     0.2353785485,     -0.710680902,    -0.4385330677,    -0.2578854561,     0.4814108014,     0.6532239318,   -0.09734939039,     0.5344629884,    -0.1855044663,     0.4424741566,     -0.435559839,      0.420594424,    -0.8725582361,   -0.02687971294,     0.5727264285,     0.5997536182,     0.3386441469,   -0.02472534403,     -0.635963738,  -0.008293897845,     0.0145743452,     0.1454252005,    -0.3148120344,    -0.1641065925,      0.485203594,     0.3424536586,    -0.6762982607,     0.9138991237,      0.746170342,    0.08238726109,    -0.0146993408,      1.009756565,    0.08545041084,     0.8670501709,    0.02737707458,    -0.2959469855,     0.4121717215,     0.3614899814,    -0.3185583055,    -0.5272572041,    -0.5524572134,     0.8743278384,     0.4377574921,     0.7973899245,     0.8874072433,   -0.07947784662,    -0.8592339158,      0.895411551,     0.6524394751,    0.03603006154,     0.1389530152,    -0.5501794815,     0.1546424031,     0.4002729356,    -0.9362190962,    -0.8235871196,   -0.08070992678,     0.5838523507,   -0.08138623834,    0.07198958844,   -0.04281495139,     0.7749352455,     0.4466121197,     0.8053840995,    -0.1784609407,     0.9785952568,    -0.9471131563,    -0.4104420543,     0.8376011848,    0.02918120474,     -0.862187922,    -0.6475582123,     0.9585719705,      0.128133148,     0.6463521123,    -0.3157438338,     0.7935343385,     -0.945977509,    -0.4747694433,    -0.7423568368,    -0.4553511441,    -0.8500650525,    -0.3984013498,    -0.1848951876,     0.5253745914,      0.415168643,     0.5448067188,     0.6947411895,     0.2461167574,    -0.3812361658,     0.8317597508,     0.8418591619,     0.7983866334,     0.5322061181,    -0.5912605524,    -0.2464692295,     0.8289894462,     0.6136425734,    -0.7197344899,    -0.7625076175,    -0.1857953519,   -0.02258214913,    0.07701005042,    -0.1753960252,    -0.3667495847,    -0.4750875533,    -0.6463883519,    -0.4668778479,     0.6701551676,     0.8307107091,    -0.3480937183,      0.243425712,     0.1134408489,    -0.9645704627,    -0.3399942517,     0.3941705525,    -0.9047322273,    0.02016041987,    -0.1774021238,     0.7744464874,    -0.2737845182,    -0.6336001158,    -0.8492851257,     0.7064279914,      0.413063556,     0.2561670244,     0.9592095017,     -0.789285481,    -0.5580097437,      0.478084892,     0.4341071248,    -0.9779347181,     -1.003048658,    -0.7076513171,   -0.05697822198,     0.4472418725,    0.08782882988,     0.9783195853,    -0.6641435623,     0.9458381534,     -0.735758543,     -0.314179033,    -0.5053147674,     0.5780317783,    -0.9699199796,    -0.6326929331,     0.2524387836,     -0.580550313,     -0.797798872,    -0.8052791953,    -0.7165453434,    -0.6290412545,    -0.2997943461,    -0.5841491818,    0.01381330937,     0.4947671294,     0.1263944507,     0.6464010477,     0.3564384878,     0.8498058319,   -0.09380663931,      0.833311975,     -1.003365397,     0.5352941751,      0.386044383,    -0.3925290704,    -0.9438798428,     0.4258261323,    -0.7556054592,    -0.7011352777,     0.4123373032,    -0.5193604827,      0.882778883,    -0.3558608592,    -0.2738746703,    -0.6247002482,    0.09426119924,     0.3411383033,    -0.9380279183,     0.2728673518,   -0.06322836876,      0.618445456,   -0.09218736738,   -0.05538620427,     0.6691629291,    -0.5061668754,     0.3407261372,    -0.2999058366,    -0.6006361246,    -0.1187358126,    -0.4348333478,    -0.4407313168,     0.2414138019,    -0.1564409584,     0.7520484924,     0.8714029789,     0.6101176143,     0.6042966843,     0.2299442589,    -0.3998163342,     0.9828443527,    -0.1410534531,     0.8478588462,    -0.9892397523,      0.137268886,    -0.3942540288,    -0.7937923074,     0.7127023935,    -0.2487028986,     0.8997801542,     0.4640592933,     0.6138307452,    0.06977075338,     0.5918881297,    -0.7289663553,    -0.9564465284,     0.5846860409,     -0.534432292,     0.1427654028,     0.3099163473,   -0.07523865253,   -0.08463090658,     0.4263808131,    -0.8158001304,    0.05875998363,    -0.4418563545,     0.2673457861,     -0.164284721,     0.5680965781,    -0.5566543937,    -0.3163455725,    -0.6250700355,      0.792640686,     0.7640708089,    -0.6717473269,     0.6099851727,    -0.2650999725,     0.2235944867,    0.03644891456,     -0.629167974,    -0.8947892785,     -0.768260777,     0.3658795953,      0.383759737,    -0.6002184749,     0.3394383788,      0.722731173,    0.09338797629,    -0.2619069517,    -0.5629932284,     0.9334331155,    -0.4601017237,    -0.2939819992,     0.1993318796,    -0.4259010553,    0.03499436006,      -0.57555902,     -0.950525105,   -0.06995720416,    -0.1772574931,    -0.3707208037,    -0.6021966338,    -0.2955292463,     0.9062640071,      0.745065093,     0.3588801622,    -0.6858465672,     0.5517673492,      0.301192075,    -0.5731779337,    -0.7204498053,     0.6574565172,    -0.8871033788,     0.9777828455,    -0.6856464148,    -0.2404473275,    -0.2838341296,    -0.4630396068,    -0.7137964964,    -0.3779559135,     0.3018836081,     0.4343040287,   -0.05123284832,     0.4412481785,    -0.4610046744,    -0.6390554905,    -0.1629478484,   0.009612478316,     0.7669363022,     0.5305290818,    -0.5440891981,      -0.10090027,     0.1968546957,    0.06771934032,     0.1026414409,    -0.9577000737,    -0.9171715379,    -0.4557808638,    -0.6287468672,    -0.6862086058,     0.2682392597,      0.140514791,     0.6599538326,    -0.6827502847,    -0.7275768518,    -0.4502215981,   -0.01351940911,      0.245586738,     0.6406263709,     0.6550537348,    -0.9737807512,     0.1701582372,     0.9659336805,     0.8674373627,    0.07159292698,     0.7158251405,    -0.7478511333,     0.2149125487,    -0.2854591906,      0.894872427,   -0.05630238354,     0.2400152683,     0.2033316046,    -0.4624301195,    -0.4241974652,    -0.2764689624,    -0.3197869062,     0.3778974116,    -0.5828971863,      0.766353786,    -0.5627670884,     0.7466962337,    -0.7707235813,     0.9031535387,    -0.3728802204,     0.3162196279,    -0.8250728846,    -0.6937168837,     0.5196222067,     0.5527444482,    -0.7852024436,     0.9708827734,     -0.724496603,     0.9135882258,    -0.5816038847,     0.3851005435,    -0.7078932524,      0.230162099,    -0.6813964248,     0.7912871838,     0.7018222809,     0.1489021331,    -0.4575202167,     0.4866856039,     0.4364426136,     0.3162333667,     0.8043190241,     0.1995128989,    -0.8843158484,     0.9704496861,    -0.8212602735,     0.7417962551,     0.3840556145,    -0.3168605864,     0.8194476962,    -0.6131623983,     0.3627924323,    0.04286900535,    -0.8672233224,     0.3216427863,     0.2866078019,   -0.04150207341,    -0.2402045131,     0.7317851782,     -0.612793386,      0.195917666,    -0.7746648788,    -0.1882240921,     0.3930767179,    0.05354019254,     0.6367092729,    -0.8509619236,     0.1471724212,    -0.9728279114,     0.5336276293,   -0.06671897322,     0.6264733672,     0.4328185022,     0.3685333729,     0.8281615376,     0.7529595494,    -0.6236717701,     0.8907307386,      0.646474421,     0.7843515873,    -0.6859049797,     0.6667945385,     -0.530200839,   -0.07764261216,    -0.4898707569,    -0.7089987993,   -0.01556789503,    -0.9513378739,     0.9526376724,    -0.5962524414,    -0.9528075457,     0.0877757296,     0.2146783471,     0.4866245687,     0.7907158732,    -0.1594189107,     0.6346331835,    -0.3150704205,    -0.7573001385,      0.861707747,     0.9316611886,    -0.6552738547,     -0.343876183,     0.3460834622,     0.7711600065,     0.3547992706,     0.1650338322,    0.01520838402,    -0.4201093614,    -0.3616115749,   -0.08063290268,     0.4770139456,     0.4828904867,    -0.8400506973,     -0.492677629,     0.5619007945,    -0.9757539034,     0.1608410478,      0.340403676,     0.5048885345,     0.3389815986,    -0.7352945805,     0.6038491726,    -0.8313749433,     0.1542441696,    -0.5756019354,    -0.8867619634,     0.4088969827,    -0.8332399726,    -0.4053768814,     0.1046895161,    -0.1046176106,     0.7312629819,     0.3744421899,    -0.3172031939,    -0.5171647668,    -0.8244510293,     0.7498098016,    -0.1223493367,     0.2096457034,    -0.3920601308,    -0.5301273465,     0.8951258659,     0.9947606921,      1.000800252,    -0.5453049541,    -0.8653096557,     0.8212619424,    -0.5309402347,     0.0308986064,     0.5349340439,     0.7253912091,    -0.9881005883,    -0.8975375295,     -0.844088614,    -0.9743477106,    -0.3530972004,    -0.4219305813,     0.4530406296,    0.05817003921,    0.01978434063,    -0.0745613873,     0.2726834416,     0.8247137666,    -0.4205037057,     0.7552396655,    -0.7586001158,    -0.3287847042,    -0.2258162796,     0.5887564421,     0.9685280919,     0.3583192229,   -0.05047503486,     0.6533602476,     0.7209250927,     0.2378953099,     0.8398631215,     0.3961337805,    -0.7717413902,     0.4436776042,     0.6334108114,     0.4284510911,     0.6102348566,     0.8398145437,    -0.8379250169,     0.9669188261,     0.4806483984,    -0.1842193007,    -0.4466876686,    0.09167164564,     0.0288652163,    -0.1901744306,     0.7884182334,     0.5749456882,   -0.07026245445,    -0.7815910578,      0.684011817,     -0.985127449,    -0.5629665256,    -0.7504028082,    -0.2657318711,   -0.07718097419,     0.7330300808,    -0.6488077641,    -0.7059544921,     -0.554451108,    -0.3747147024,    0.07936603576,      0.738212049,      0.199895978,    -0.5385157466,    -0.5712294579,     0.7176405191,     0.6794366837,     0.8040983677,    -0.7560740709,     0.6814329028,    0.04802310094,     0.4270649254,      0.817810297,     0.3716313541,     0.4618494809,    -0.3824229538,     0.9659323692,     0.8791856766,     0.3231987655,    -0.1425154954,     0.8923398852,     0.8616309166,    -0.7082628608,     0.6961545348,     0.5852226615,    0.07739672065,     0.7119831443,     0.9027200937,      0.594034493,      0.956728816,    -0.7733783126,    -0.9261748195,     0.4742270708,     0.9089758992,    -0.5058706999,     0.3523207307,    -0.4777241945,     0.4094258249,   -0.04748903215,    -0.0838580355,   -0.00654699374,    -0.3656967878,     -0.529628396,     -0.518997848,    -0.5378850698,     0.2455986291,    -0.5338312387,    -0.7165805697,     0.6553285122,     -0.612460494,     0.7083110213,     0.8030776978,     -0.759190321,    -0.6056790948,     0.4721398652,     0.3975187242,    -0.6954710484,      0.584625423,     0.9406448007,    -0.5703347921,     0.3166623712,    -0.6441340446,   -0.06543198973,     0.4152232111,    -0.1537365317,     0.4006552696,    -0.4962103069,     0.5111188889,     0.1288181841,     0.5694613457,    -0.2590682209,     0.7093008161,    -0.4040087163,     0.7959527969,     0.3970391154,     0.8235401511,     0.3755061924,    -0.4201814234,    -0.5758897066,    -0.5694658756,    -0.5349964499,   -0.06073846295,      0.667765379,     0.1165538952,    -0.5928398967,    -0.3101620078,    -0.7207590938,     0.3144552112,     0.2849833369,    -0.6667692661,    -0.2465626448,     0.1392156035,     0.4091535211,      0.416683495,     0.4117066264,    0.07365255803,     0.4618780911,   -0.05237053707,     0.2815980911,    -0.8412079811,     -0.745403111,     0.5210327506,     0.6432400942,     -0.638663888,    -0.3145296872,    -0.4102746248,     0.6549467444,    -0.4663863182,    -0.2461695373,     0.8154735565,     0.9704470038,     0.9331752062,    -0.8390135169,     0.1352388859,     0.1883729249,   -0.05048792064,    -0.5809026957,     0.8801817894,    0.01009664964,    -0.3183814585,     0.4980012178,     0.2750263214,     0.3732726276,     0.6936267018,    -0.9972000122,    -0.7148758769,     0.2926680744,     0.1673796624,     0.7037500143,    -0.9500691295,     0.2728725374,     0.9398570061,     0.2028193325,      0.386281848,     -0.545059979,    -0.3010143936,      0.593770206,    -0.7396780252,    -0.5669714212,     0.4641661942,    -0.4369005561,     0.1939060092,     0.4867981672,    -0.5917335153,   -0.09247563779,     0.7207301259,    -0.5879747868,    -0.9025145173,     0.6127755642,    -0.8659947515,     0.6712451577,    -0.1926456094,    -0.8100473881,     0.2297514528,   -0.03932289034,    -0.8662369847,     0.4856497943,     0.4771457911,     0.8363536596,    0.02403558418,     0.8777500987,    -0.1329189539,    -0.3950496614,     0.9427915812,    -0.6294905543,    -0.4952089787,     0.5253412724,     0.9547045827,    -0.9036348462,     0.3267121911,     0.4616860151,    -0.8775987029,    -0.8728402257,      0.430821836,    0.02702760696,    -0.1892799735,    -0.4087693095,    0.03056453355,     0.1837419271,    -0.2992982566,    -0.4264351726,    -0.3966151476,     0.1370112598,     -0.834379077,    -0.5597470403,    0.03317403048,    -0.6962384582,      0.404907912,    -0.5953288078,     -0.576751411,     0.4026814997,     0.2920957506,   -0.07635614276,    -0.1724345684,      0.822763741,     0.4198250175,     0.6612610221,    -0.6682088375,      -0.12804389,     0.3518860936,     0.8684965372,    -0.6532242298,     0.9813897014,    -0.5791649222,     -0.319267869,    -0.2374629378,     0.1979322135,     0.9547933936,    -0.7896540165,     0.6118330359,     0.3856762052,    -0.8576030731,     0.2527682185,    -0.3706063032,    -0.3403044939,    -0.9561040401,    -0.9390943646,    0.03720139712,  -0.002052919008,     0.9566683769,     0.3198169172,    -0.7787855268,      0.318248868,     0.1770935953,     0.1249223799,     0.8753374815,    -0.8029490113,     0.9283338785,     0.4833079875,     0.7883306146,     0.3258243203,     0.8037055135,    -0.5844213367,     0.8828385472,    -0.6851710081,     -0.543674469,     0.3408051133,     0.9650232792,     0.3076919913,     0.5323020816,     0.2469850928,     0.5636557341,     0.4578187168,    -0.7109906077,    -0.6207705736,    0.01286797132,     0.3559794426,     0.3603804111,    -0.9623804092,     0.7986356616,    -0.7208046913,     0.5936787724,     0.3344756961,    -0.5770056844,    -0.6373871565,    0.04342073202,  -0.004198552109,       0.19558236,    -0.7611090541,    -0.6081182361,    -0.3171248436,    -0.7581952214,     0.4848732352,   -0.04978371039,     0.3011932969,     0.8091880679,     0.4313831031,    -0.6625186801,    -0.2860463262,    -0.7062296271,     0.2072298527,    -0.6498270631,     0.4470106959,     0.5642514825,     0.7499169111,     0.7160040736,     0.4235559702,    -0.4174556732,     0.6789885163,    -0.7937735319,     0.2641136646,     0.5258420706,    -0.2686358988,     0.2299778759,      0.986395359,      0.542981863,    -0.1917299628,     0.6713809371,    -0.4338209033,    -0.1319734603,    -0.4197665453,    -0.6676407456,     0.5327103734,    -0.8997554779,    -0.2051559985,     0.4194648564,    -0.1514946073,     0.8498834968,     0.2729887664,     0.7985467911,    -0.3354430199,    -0.4910606146,    -0.8041801453,     -0.150728479,    -0.8834437728,    -0.4780712426,     0.9429644942,     0.2259767056,    -0.4503692091,     0.8493649364,    -0.2168071866,     0.2896637917,    -0.9070822001,    -0.2498044819,    -0.9710385203,    -0.2303707302,    -0.3806509376,     0.1947008818,     0.5322588086,    -0.5645084381,    -0.8245459199,     0.3501375914,    0.06145806238,      0.481631428,     -0.318946898,    -0.9470645785,     0.8169688582,    -0.6788927317,      0.731474936,     0.8449875116,    -0.7272213697,    -0.4141266048,     0.8168768287,    -0.4266582131,    -0.5933392048,    -0.8548188806,     0.4563833177,   -0.04934255034,    -0.9372791648,     0.7830699086,    -0.9223554134,     0.7723413706,     0.7619264722,   -0.02790717036,    -0.1261664033,    0.06056422368,     -0.961966455,    -0.6618373394,    -0.1709915102,    -0.7821928263,     0.8532837033,     0.1465539932,     0.8592287302,     0.2574175596,    -0.3915455043,     0.3782911301,     0.5660024881,     0.8519029021,     0.2943058312,    -0.4851761758,    -0.1370426416,    0.06550545245,     0.1946894974,      0.517990768,     -0.469840616,     0.4975675344,     0.4037232399,    -0.2517744601,    -0.6867709756,      0.840480268,     0.5395385623,     0.7572584152,     0.4548417926,    -0.6416691542,     0.4815058708,     0.7823699117,     0.3811336458,    -0.5192050934,    -0.4143821299,     0.8796599507,     0.9041096568,    -0.3653502762,     0.9488041997,     0.2442571819,      0.759986341,    0.03909103945,    -0.4807887971,     0.3789815903,     0.6783946753,    -0.7296554446,     0.1415148824,    -0.6986564398,    -0.3376911283,     0.6385836601,     0.2913488746,    -0.9466614723,     0.3527174294,      0.614244163,     0.8730189204,    -0.6844369173,     -0.882173717,     -0.440067023,    -0.3814787567,     0.4581398368,    0.08692513406,    -0.3940743506,     0.0511110276,     0.1448576599,   -0.00662609702,     0.5006960034,    -0.3873859644,     0.9314023256,    -0.6681838036,   0.005712862592,    0.05351058021,     0.6019816995,     0.5249864459,     0.9075276256,     0.1178372428,      0.573433578,     0.2761576176,    -0.3753921092,    -0.4775585234,      0.189905256,    -0.1356735528,    -0.1510804147,     0.4237803817,    -0.7635549307,    -0.4133459032,     0.3421563208,     0.4265322387,    -0.2241109759,    -0.5608537197,   -0.09158040583,    -0.3312124908,     0.9869787693,      0.720189929,     0.8275600672,    -0.5072784424,      0.110007152,    -0.3533222973,    -0.2057052106,      0.842669487,     0.3888006806,    -0.1527884305,    -0.6109728217,     0.5692948699,     0.5306602716,     0.4912708402,      0.164592281,     0.9237681627,    -0.6682909131,     0.4886637032,     0.1004974395,    0.05010190234,    -0.8556959033,    -0.5790156126,     0.3956849575,    -0.9875196218,    -0.3632975519,     0.7653349638,    -0.4353477061,    -0.3335301876,    -0.7146359682,    -0.6906079054,    -0.2305044979,   -0.05975335836,     0.6711630225,    -0.1886508614,     0.5075607896,     0.3174123466,     0.1036015302,    -0.8845447302,     0.4023523629,     0.6694174409,    -0.9000661969,     -0.656306386,    -0.7326322198,    -0.8940843344,    -0.6561619043,    -0.4303952754,    -0.6433680058,    -0.9300983548,    -0.9214677811,     0.4381219149,    -0.5713817477,     0.6402215362,    -0.7420520782,     0.0538902767,     0.3461247087,     0.2349901199,    -0.6325145364,    -0.6158074141,     0.3916521668,     0.3566306531,    -0.7040619254,     0.2216098458,     0.7200850844,     0.8642775416,     0.8064013124,     0.2970216274,     0.9739527106,    -0.4067847431,    -0.6039361358,     0.2092077583,    -0.8644867539,     0.3860177696,     0.6531677246,    0.01422247849,     0.4966906607,    -0.6551286578,     0.0676164031,    -0.4392801523,     0.4258691669,     0.1406731606,      0.303232491,    -0.1583077461,     0.5181039572,    -0.6026617885,    -0.9775167704,    -0.5813392997,     0.1986089796,    -0.7151736617,    -0.5602559447,     0.9805749655,    -0.2880506516,    -0.2711913586,    -0.7983319163,    -0.7206756473,     0.7478901148,     0.3304377496,     0.7939628959,    -0.1628554016,    -0.3138626814,    -0.6044312716,     0.1719382554,    -0.4786982834,      0.343805939,     0.7453984618,     0.1703029424,     0.6663857102,    -0.3040224612,     0.7056936622,    0.05004953593,    -0.6489877105,    -0.2480984628,    -0.2760041058,    -0.7717531919,     0.4301996529,     0.7856292129,    0.04048742354,    -0.6467282772,  -0.005618760828,     0.1895968467,     -0.856180191,     0.6426634192,      0.971211195,    -0.4834143221,    -0.8708077669,    -0.6587933898,      0.899659276,     0.1568188667,    -0.8524726033,     -0.800409615,    -0.5081853271,    -0.3949610293,    -0.5512191057,    -0.8050256371,    -0.2185586393,     0.5964075923,     0.7826497555,     0.7151432037,   -0.07216016203,  -0.006040767301,      1.029374838,     0.8287759423,      0.377384901,    -0.1977703571,     0.7813380957,     0.1505661458,    -0.5064581037,    -0.4959355295,     0.0758587569,     0.3728638589,     0.8009486198,     0.2610054016,   -0.08443678916,    -0.4864445925,    -0.1939174831,    -0.3961663842,     -0.882055223,     0.4779011309,     0.7207803726,     0.8272719383,    -0.8062444329,    -0.3535839617,     0.9345662594,    0.02592091076,     0.4609122872,     0.6566934586,    -0.0889582634,    -0.2892501652,    0.03945750371,    -0.4799198508,    -0.3819231093,    -0.7291278243,   0.002707164735,     0.7265002728,    0.05720812827,    -0.3971797526,    -0.2628830671,    -0.8897919655,    -0.5399966836,    -0.5692729354,    -0.9424188733,     0.2793827057,      0.799041152,     0.1126147956,     0.4741302431,    -0.1508329362,     0.6044027209,    -0.2564439178,    -0.6554200053,     0.7638090849,   -0.03602691367,     0.1970489025,    -0.5899883509,    -0.4526956081,     0.5457613468,    -0.2246184349,    -0.2195034623,     0.8203729391,      0.603562057,     0.2377214134,    -0.0167130325,     0.6843987703,     0.5244963169,   -0.09870743006,     0.2715983093,     -0.698811233,    -0.9013680816,    -0.5524062514,     0.8933488727,     0.8443302512,     0.6546547413,     0.9191078544,    0.02626998164,  -0.002318784362,     0.7819654942,   0.004998910706,     0.9316432476,    -0.7512868643,    -0.4951987565,     0.2959748209,     0.7687222362,     -0.619033277,      0.988889873,    -0.6384621263,    0.02944367193,    -0.1848060191,    -0.3734741807,     0.5782603025,     0.1913546622,     0.8752709627,  -0.004545862786,    -0.2702899873,    -0.8929638267,     0.9198274016,     0.6395128369,     0.8718534112,     0.3037371337,    -0.5808649063,   -0.04171508551,     0.5290635824,     0.6670934558,    -0.8192902207,     0.6237065792,     0.2213546187,     0.3211488128,     0.3836915195,    -0.1542157233,     0.4237146378,     0.1784387976,     0.7033323646,     0.6573775411,     0.7256694436,     0.5007873774,     0.6255283356,    -0.6872153282,    -0.2630161345,     0.4751134515,    -0.7225357294,     0.3491600156,     0.9904720187,     0.5116302967,    -0.5910451412,    -0.9304514527,    -0.1233136281,    -0.3030979037,      0.276181668,     0.5188467503,     0.3031247556,     0.3630461395,     0.3688101172,    -0.2148057967,    -0.9690127969,     -0.447748661,    -0.6509250402,    -0.6850286126,     0.6339876056,     0.5538547635,     0.8800752163,    -0.6928805113,     0.7566258907,    -0.7254983187,     0.5561102629,     0.7058695555,    0.01552619878,     0.2720931172,     0.4562583864,    -0.1961849928,   -0.08033204079,      0.403514564,     0.4928300083,    -0.8372319937,     0.4733227491,    0.06749919802,    -0.4915010631,    -0.5930185318,    -0.3124523163,    -0.3170548081,     0.2537812293,    -0.3896462321,     0.3670422733,     0.1510101259,     0.8768283725,    -0.9936760068,   -0.09430425614,    -0.5729852319,    -0.1261466891,     0.9642165899,     0.6272857785,   -0.06618424505,    -0.2423736155,      0.848236382,    -0.4870946109,     0.6038983464,      0.809615314,    -0.1025528908,    -0.2850017548,     0.0832536146,    -0.9495455623,    -0.4196899235,    -0.8030003309,    0.02134729177,     0.7210898399,    -0.2386269271,     0.1327908933,    -0.8866164088,    -0.3935394585,    -0.1265620589,    0.02556025237,    -0.3550489247,   -0.05514208227,     0.7886011004,     -0.583679378,    -0.2540429235,     0.8669092655,    -0.8250153065,    -0.4308864772,   -0.07615543902,      0.941558063,    -0.8177678585,     -0.475913614,     0.9177642465,     0.6463482976,      0.312225908,    -0.2179202884,      0.139652729,     0.5052171946,     0.8521319032,  -0.009400083683,     0.8022227883,   -0.07429330051,    -0.7011021972,     0.9292129874,    -0.5344393849,     0.4274482131,    -0.3953286111,     0.8458574414,     0.1622306257,    -0.1658174098,     0.2584830523,     0.4042171836,     0.6935415864,    -0.3793981373,    -0.6284977198,    -0.4622064531,     0.7416779399,     -0.334618926,    -0.0669849515,     0.8620306253,     0.8598909378,    -0.6118991971,     0.3934646249,   -0.03384074941,   -0.04926248267,     0.6430161595,     0.2109573931,     -0.894156456,    -0.2258070409,     0.8551527858,     0.3892656863,    -0.8022857904,    -0.8129078746,     0.1847878695,     0.9023395777,     0.9317569137,    -0.8974124789,    -0.2407707423,     -0.905082345,    -0.5760136843,      0.640907228,    -0.6225532293,      0.146993041,     0.2784852684,    -0.7991225719,    -0.3242062628,    -0.8202921748,      0.112305671,   -0.09635614604,   -0.06456371397,     0.9521994591,    -0.7812480927,     0.5487229228,     -0.827066958,     0.9014772773,     0.7512346506,    -0.2311802357,    -0.8863683939,     0.0252475515,     0.6358326077,    -0.5974774361,    -0.1319629997,     0.7521433234,     0.3987728655,     0.2071731836,     0.3260302544,     0.9360224605,    -0.8403143883,     0.1857870668,     0.3094915152,     0.3880827725,     0.1956906021,     0.5645603538,     0.1480852813,      1.001966119,     0.5096768141,    -0.1380078346,     -0.786801219,     0.4120419323,     0.3403092325,     0.2070801407,    -0.2556952238,     0.1392115653,     0.2060481906,     0.1555254757,    -0.4396265745,     0.4912252426,    -0.7231305838,     0.7011640072,   -0.04441744834,    -0.7805912495,    -0.5600466132,     0.5811368823,     0.9269111753,    -0.7703989148,     -0.927959621,    -0.6746006012,    -0.6328185201,     0.7198503017,     0.7453933954,     0.2630287707,     0.5509975553,    -0.6791507006,    -0.3981084228,    -0.3151239753,     0.6757803559,     0.5675346255,    -0.8533359766,    -0.2792620063,    -0.6026907563,    -0.6308425069,    0.08999380469,      0.224816978,    -0.3743658662,     0.3511221111,     0.8633568287,    -0.1665160954,    -0.3437372744,    -0.7130199075,     0.6413605809,    -0.8503771424,    0.06405048072,    -0.8307027221,     0.6757388115,     0.2122251242,    -0.3196903467,     0.7357261181,    -0.7635660768,     0.2932773232,     0.9609139562,    -0.3869728744,     0.3103807569,     0.1055914387,      1.017906666,     0.8820016384,    -0.3725662827,    -0.1299406737,      0.796446085,    -0.8031160235,     0.4639546871,    -0.9613367915,    -0.5316366553,    -0.2095472664,    0.06876308471,     0.4509637356,     0.7588281631,     0.5791887641,     -0.694265008,     0.6779574156,    -0.8103528619,      0.128459394,     -0.820787847,     0.1976020783,    -0.4068198502,     0.2155088484,   -0.02656145766,     0.3009147942,     0.6206649542,   -0.07832179219,     0.7972557545,    -0.1009775177,     0.6783883572,    -0.2651489079,     0.7226384282,    -0.5996027589,     0.7127290964,     0.6817985177,     0.2379399091,     0.1285213381,     0.9377561212,     0.2395558059,    -0.8920258284,    -0.9446494579,     0.5847917795,     0.6438905001,    -0.5051505566,    0.06262756884,     -0.936927855,  -0.009127015248,    -0.2294242978,     0.1843129843,     0.1989592016,    -0.1393561512,    -0.4833961725,    -0.3795434237,     0.1351295859,     0.2223560661,    -0.9752514362,     0.1652437896,    0.01996681094,    -0.9790579081,      -0.89347893,    -0.9651256204,    -0.4301180542,    -0.1519527733,    -0.4729291201,    -0.3004429042,    -0.7369655967,     -0.104971759,    -0.6158007383,    -0.6033937335,     0.5748669505,     0.3406129479,     0.1726495326,     0.7475492954,     0.3571034968,     0.7605853081,    -0.3203150034,    -0.5724397302,     0.1777432114,     -0.388699621,   -0.06401026994,    -0.2079941928,    0.01890369132,     0.2997001708,    -0.6423817873,    -0.6312640905,     0.8174757957,    -0.9678481817,    -0.3531285822,     0.0751677677,   -0.03950472549,   -0.09881743789,     0.9040620327,    -0.2384220064,    -0.5153605342,     0.8021464348,     0.5574448705,     0.0984859243,     0.7419224977,     0.1259516627,    0.02545139939,    -0.4769332707,     -0.222589761,    -0.4868143201,     0.6025028229,    -0.6174009442,     0.2453883886,     0.6977629662,    -0.8177681565,    -0.3596533239,    -0.1780968904,     0.2791133225,     0.2667144835,     0.0436527282,     -0.744508028,      0.558811903,    -0.4449661374,    -0.5800861716,    -0.6639661193,     0.9246667624,    -0.4321110845,       0.69797647,      -0.16842255,     0.8965726495,    -0.6027430892,   -0.01104798354,    -0.6421281695,    0.02730159275,   -0.05121148005,     0.3263153136,     0.1142554581,     0.2261132151,    -0.1713006347,    -0.3432355821,   -0.09068068862,     0.2002560496,    -0.0503769964,     0.4913749993,    -0.6342030764,    -0.2971317172,    -0.8578364849,   -0.03489195928,     0.6790392995,     0.8779794574,    -0.6571881175,     0.6913771629,    0.09989801794,    -0.7664082646,     0.3402703106,    -0.8794651628,      0.161496982,     0.8888049126,     0.7704994082,     0.6697199345,     0.1112750247,    0.04097273201,    -0.8195198178,     0.1480817646,     0.4284783304,     0.3888221979,      -0.48052302,    -0.2315102816,    -0.8637274504,    -0.2287227362,   -0.02324043214,    -0.2711874545,     0.4763444662,     0.3661158085,    -0.1982872784,    -0.7767699361,     0.6173448563,     0.4326827526,     0.5888959169,     0.1616349667,    -0.3048525155,    -0.5546246171,     0.6273187995,    -0.1141541377,     0.9037576914,     0.1406926066,    -0.3046214879,    -0.4879600406,     0.8263085485,     0.3675027788,    -0.3536394835,     0.3381248713,    0.01983089559,    -0.6020847559,     0.7159097791,    0.07726857066,     0.5727131367,    -0.2118333429,     0.4997155368,    -0.1426413059,     0.7371537685,    -0.6488876343,     0.3002530038,     -0.167286396,    -0.2033030093,     0.4206471443,    -0.8264945745,    -0.6019722819,      0.131194666,    -0.8647614121,     0.2500012219,    -0.5812662244,     0.4026222825,    -0.3914986849,    -0.4116717279,     0.2449222058,     0.4823680818,     0.2928007841,    -0.7565683722,    -0.1588465422,     0.3141536415,    -0.6319177747,    -0.6626024246,    -0.8833950162,     0.7339175344,    -0.7760182023,     0.6306071281,     0.8671273589,     0.6902671456,    -0.5238285661,     0.6032833457,     0.4887406528,     0.2908979654,    -0.3811527789,     -0.454151541,   -0.04265861586,     0.9805906415,     0.8232095242,     0.1578481495,    -0.5494118333,    -0.4192104042,    -0.6361520886,    -0.6846644282,      0.700286448,    -0.6499693394,    -0.5592469573,     0.1412571967,     -0.372210294,     0.2855292559,    -0.4652301669,     0.4615626633,    -0.5757218599,    -0.7844358683,    -0.4857068062,     0.3818096519,     0.6606834531,     0.3695400059,    -0.5214127898,    -0.3344902992,     0.2536747158,    -0.5259100795,     0.9250926971,   -0.01554116979,      1.004484892,     0.8257560134,     0.2596154511,    0.02658205479,     0.6252519488,     -0.500903666,     0.4195825756,      0.408007741,   -0.04030374438,     0.5911048651,    -0.6383166313,     0.3415444791,    -0.4406893253,    -0.6237170696,    -0.2252858281,     0.3842342198,     0.9098239541,    0.02039732225,   -0.08319598436,     0.8892349601,      0.818875134,    -0.2801013589,      0.727291286,      0.376065731,    -0.3352247179,     -0.319090724,    -0.2434295416,    -0.3348037302,   -0.04534193501,   0.003281777957,     0.4443454146,    -0.9066917896,    -0.8645132184,     0.4958199263,   -0.01234681252,     -0.377928406,     0.6613999009,    -0.7670198083,    -0.7698472738,    -0.7370012999,    -0.3095864058,    -0.3927423656,     0.7318105698,      0.221863538,    -0.4041413665,    -0.8662680984,     0.7659582496,    -0.4988465309,     0.4304240942,    -0.2661326826,     0.8561341763,    -0.5200493336,    -0.5466088057,     0.3848188818,     0.2092698961,    -0.1494581848,     0.7253155708,        0.8956092,      0.651822567,    -0.8448135853,    0.05509451777,     0.7605863214,   -0.03654369712,     0.8234044909,     0.9406247735,     0.6546353698,     0.4243981838,     0.8651898503,     0.4008159041,    -0.1127311289,    -0.7438631058,     0.2623102963,     0.7159852386,    -0.4360804558,    -0.3982825279,    -0.3584739566,     0.2659267485,    -0.8240965009,    -0.9729034305,     0.7334110737,     0.7994930148,     0.4405174255,     0.1490963846,     0.8343595266,    -0.8793410659,     0.4874958992,    -0.9136668444,     -0.815930903,     -0.256600827,      0.472442925,    0.01364589855,    -0.5128468871,    -0.7994297743,     0.1701320261,    -0.7588127851,    -0.6642277837,     -0.648293674,    -0.1167284548,    -0.3911731541,     0.1321171969,     0.4967473745,    -0.7655809522,     0.9569775462,    -0.3886384964,    0.06498182565,     0.1148335263,     0.9468570948,     0.3293986022,    -0.5677143335,     0.8217502832,     0.4481483698,     0.3869686723,     0.7631472349,    0.07253074646,      0.345970571,    -0.5747089386,     0.4243390262,     0.6912963986,     -0.963086307,    -0.4239421785,    -0.8418368101,     0.3987879157,   -0.06066388264,    -0.4279643595,    0.03954917192,     0.3321854174,    -0.5970337987,     0.6569976211,    -0.9088356495,      0.536072731,     0.9590021372,     0.1463483423,     0.6281012893,     0.6597139239,     0.7995722294,     0.4575708508,     0.2917220294,    -0.7911269665,    -0.1617923677,   -0.03423664719,     0.8986945748,     0.1092589572,    -0.2285939604,    -0.7510931492,     0.8863631487,     -0.251622349,     0.6890177131,     0.1888712496,     0.1803008765,     0.7736129165,      0.828958571,     0.3000016809,    -0.0544044897,     0.2174820155,     0.4421837628,     0.6134377122,    -0.4597987831,     0.3982739747,    -0.8085294366,     0.7388030887,    -0.2665641904,     0.2692029774,   -0.06615782529,     0.8141461611,      0.946588099,    -0.8016655445,     0.1129308492,    -0.4648323953,     0.3079897165,     0.3847049177,     0.2511261702,     0.1698169112,    -0.3019261062,     0.5869310498,     -0.504562676,     0.8096863627,     0.3634752333,    -0.4592404366,     -0.455460906,     0.4999388158,     0.8048757315,    -0.3581073284,      0.435986191,     0.6562366486,     0.6517275572,     0.8574948311,    -0.8507798314,    -0.7146267891,     0.4396804273,     0.9207292795,     0.8642196655,    0.08025829494,     -0.181723386,    -0.7295167446,    0.01854269579,     0.7467896938,      0.603856802,     0.2914624512,     0.9525541067,   -0.03315122053,     0.8332651258,     0.1966049075,    -0.1464532912,     0.4768283963,    -0.4272786081,     0.3250727057,     0.2815561891,     0.2586331367,    -0.4579589963,    -0.1674639881,    -0.7571982741,      0.575199008,    -0.0134821916,    -0.1258294582,     0.7088859677,     0.7610096335,     0.4197482765,      0.488180548,     -0.468839407,    -0.8685863614,     0.8529301286,     0.7876018882,     0.4918223023,    -0.7259047031,     0.3635367453,    -0.7726054192,     0.9066070318,    -0.2703754902,      0.178441003,     0.4881999195,     0.2165767252,   -0.05942933634,     0.9649147391,     0.3256814778,    -0.8788542151,     0.2735665739,    -0.1452694982,   -0.09683322906,     0.1466671228,     0.1925696731,    -0.4022019207,     0.2471078634,     0.2261597067,     0.7387135625,    -0.3874239922,     0.8910018206,    -0.3519190252,   -0.02988943085,    -0.9709060192,    -0.7606251836,     0.1593244076,    -0.9599176049,     -0.133567825,     0.2062149793,   -0.01849757321,    -0.8981904984,     0.2614298761,     0.1278663129,     0.4856762886,     0.8536741138,    -0.4059630036,   -0.06323609501,     0.7543937564,   -0.04289319739,     0.9892956614,    -0.7669502497,     0.6836312413,     0.3558171391,    -0.4595858753,     0.1442098767,    -0.1926008612,    -0.7740199566,     -0.397911191,     -0.581964314,   -0.08420016617,    -0.1149663925,     0.3102925122,     0.4860132933,     0.8921001554,     0.3275463283,    -0.5126216412,    -0.5308620334,     0.1137222871,    -0.2492507547,    -0.0866028741,    -0.5546380281,    -0.6773257852,     0.1988467574,    0.00996093452,    -0.6909903288,     0.2166831642,     0.4077883065,    -0.7541916966,    -0.6643217802,    -0.1346320659,    -0.4784624577]
