0
weights:
[    0.689018786,    0.2714245319,    0.2408660948,   -0.8770807385,   -0.4433412254,    0.3609945774,   -0.2148016095,   -0.1320152432,     0.499882102,    -0.647656858,    0.1469547451,   -0.6861186624,    0.4749737382,    0.7778967023,   -0.4396187663,    0.3511849046]
[  -0.2029156983,    0.4346074462,   -0.3928555846,    0.8839761615,    0.1021500379,   -0.6823305488,    0.6182124019,   -0.5730323792,   -0.2621199191,    -0.520537734,    0.5114116669,   -0.2287137508,    0.2377247214,   -0.8460119367,   0.09256925434,  -0.03377012163]
[   0.5740680099,   -0.7167879939,    0.2895663679,   0.03932568431,   -0.2278844714,   -0.1336001754,    0.3575113714,   -0.6490989923,   -0.4113394022,    0.5949809551,   -0.8956677318,    0.8144282103,   -0.9485427737,    0.2993991375,    0.4388726652,  -0.03581370786]
[   0.6045030355,    0.2140464187,   0.06253561378,   -0.8384700418,    0.5414488912,    0.7467375994,    0.8113384843,   -0.4709764421,   -0.5350439548,     0.464989543,   -0.6839822531,     0.628099978,    0.4768055379,    -0.503916502,   -0.7730131745,   -0.3898166716]
[   0.8306714296,   -0.9673454165, 0.0005860392703,   -0.6242112517,   0.04526718333,    0.6454811692,   -0.0452760458,   0.09031162411,    0.1693184972,      0.31280756,     1.000426769,   -0.2927051187,    0.6482547522,    0.2588923275,  -0.05671040714,    0.4244433343]
[  -0.5979100466,   -0.5141427517,    0.9583724737,    0.3199408054,     0.354813695,   -0.3517761827,   -0.5782034993,   -0.1886268705,   -0.5108919144,    0.9345248938,   -0.5910986662,   0.09452537447,    0.8332181573,   -0.5417487025,    0.1853817254,   -0.6346131563]
[  -0.3228396177,   -0.7254322171,   -0.4026170373,    0.7759091854,    0.0818810612,   -0.5540992618,    0.8909422755,    -0.681615591,   -0.6949514151,    0.2785856426,    0.7801139355,    0.1487424672,     0.729575038,    0.4011590779,    0.8888933659,    0.2439132631]
[   0.5428702235,    0.6084647775,    0.5546120405,   -0.3048293889,    -0.903465569,     0.775057137,     0.831019938,    0.7934600115,    0.4646097124,    0.5191901922,   -0.7488783002,   -0.1046161205,    0.6456270814,   -0.3663402498,  -0.09787584096,   -0.9180575609]
[  -0.4384726584,   -0.6865285635,   0.06462114304,   -0.8719406724,   -0.1078362167,    -0.310315311,   -0.7134491205,   -0.8125735521,   -0.7487851381,   -0.8133085966,    0.9957710505,    0.3655742705,    0.9433556795,   -0.3425112665,   -0.3270314336,   -0.1717943847]
[   0.1135698259,    -0.198066622,    0.5502932072,   -0.9581165314,    0.8796073198,     0.362860471,    0.7538118958,   -0.7657380104,    0.5871785879,   -0.7304545045,   -0.8917388916,   -0.8094587922,    0.4728141129,   -0.5372152328,     0.695600152,    0.3922010958]
[  -0.0397984907,   -0.7403302193,   -0.1894469261,  -0.08102528006,    0.8770576119,    0.9028023481,    0.2740958333,  -0.02635096572,   -0.6715217829,   0.04015104473,    0.7412281036,   0.05315098539,    0.7923926115,     -0.85174793,   -0.1307195723,    0.3480962813]
[    0.262802273,   -0.7823025584,    0.7926006317,   -0.8680243492,    0.4564730823,    0.1676065475,   -0.1437666714,    0.5046794415,    0.4903918505,   -0.8437916636,   -0.8551900387,    0.5065464377,    0.9534894824,    0.2661058009,    -0.993287921,     0.275474906]
[  -0.2656291127,    0.9979179502,   -0.4243150949,   -0.5157160759,   -0.4174951613,    0.3053012788,    0.2318028957,    0.9538713694,   -0.8507012725,    -0.860421896,   -0.9915366769,   -0.3991312981,    0.3205345273,   -0.5527570248,   -0.3098916709,   -0.3055771589]
[  0.03128193319,   -0.5634307265,    -0.286570251,     0.950954318,    0.4901797175,    0.7085211277,   -0.4449142814,    0.8553477526,    0.9004427791,   -0.5909301043,    0.8462631702,    0.9771029353,  -0.01805869117,    0.3022304177,    0.1971779168,   -0.6305667758]
[   0.9085310102,   0.02590475045,    0.6232821941,    0.8163126111,    0.2920710146,   -0.1291333586,    0.5654746294,    0.3552951813,   -0.8946983218,  -0.07737822831,     0.187932387,    0.1471274048,   -0.6838459373,   0.02134561539,    0.6667019129,    0.2183909267]
[   0.8361858726,    0.6782640219,    0.8453837633,    0.7157440186,   -0.2804756165,    0.8400637507,   -0.3913551569,   -0.2464241087,   0.04332227632,    0.6391653419,   -0.6391123533,    0.7487763166,     0.648775816,    0.9428856373,   -0.5320063829,    0.2544676065]

biases:
[ 0.4612455964, -0.3432528973,  0.4804395437, -0.5927622914,  0.8411758542,  0.3699240088,  0.3066187203, -0.4847505391, 0.06486625224, -0.8247006536, -0.4790079892,  0.7551076412,  0.3728701174, -0.8125183582, -0.7774605751, -0.2767956555]

1
weights:
[ 0.2569983304]
[ 0.1855523437]
[ 0.4195910692]
[-0.4808597565]
[ 0.5894876122]
[-0.3258764148]
[-0.2426320612]
[ -0.672472477]
[ 0.9680034518]
[-0.9930794239]
[ 0.6545133591]
[-0.2905463874]
[-0.4218424261]
[-0.1274443865]
[ 0.9171566963]
[ 0.8376734853]

biases:
[0.5286170244]

2
weights:
[   0.3981698751,   -0.7371097803,    0.3880909979,   -0.2326634526,    0.5485436916,    0.8863137364,    0.8325676918,    0.7238297462,   -0.5926294923,    0.5873722434,   0.09383660555,   -0.4038856924,    0.8062115908,     0.798615396,    0.7564383149, -0.003848352004,    0.1524885893,   -0.6838101745,     -0.45576334,    0.6921229362,  -0.01482487749,  -0.07259746641,    0.6976386905,  -0.00811398495,   -0.4160811007,   -0.6467359066,    0.3682584763,    0.4549722075,   -0.7218405604,    0.2064280808]

biases:
[ -0.01490736753,    0.5901018381,    0.4038095176,    -0.642835021,   -0.5554935336, -0.002837330801,   -0.7579002976,   -0.7234883308,   -0.2763410211,   -0.3505321145,     0.857734859,    0.8389204741,     0.219845891,    0.7043040991,    0.6147106886, -0.007668759208,   -0.3303389549,   -0.2074315846,    0.3106115162,    0.2465360612,   -0.4830621481,   -0.6978031397,   -0.8541921377,   -0.7844654322,    0.3627916276,  -0.02886160463,   -0.4230582714,   -0.3371098936,   -0.8174893856,   -0.1463401467]

3
weights:
[    0.8689893484,      0.442011565,    -0.6603547335,     0.3492102027,     0.2853886783,   0.006921119988,     0.5898202062,    -0.1738443971,   -0.04490021244,     0.1853824407,     -0.755348444,     -0.618581593,    -0.6854502559,    -0.3856633008,     -0.280115515,      0.845144093,     0.7613453865,    -0.6457341313,    -0.9410426617,     -0.534303844,    -0.4556214511,    -0.9105423689,    -0.1118056849,     0.6052298546,     0.9251144528,      0.248119235,    -0.7741776109,   -0.07121375203,   -0.07311765105,    -0.9132300615,     0.5765388608,     0.1743937433,    -0.3750187755,     0.1173010096,    -0.9955758452,     0.5846228004,     0.2704853714,   0.002959592268,     0.1574106365,     0.3532570302,     0.2607071996,     0.6787008047,    -0.2259878367,    -0.8796647787,    -0.4071146846,     0.9639596343,     0.9912281632,     0.4555523992,     0.6863580346,     0.1032657996,      0.386621207,    -0.6772967577,    0.08632975817,    -0.1461926699,     0.7866210341,     0.3553302586,     0.1895610988,       0.32193169,     0.7658552527,    -0.1067567319,    -0.7796338201,    -0.9690093398,    -0.5270213485,    -0.3576615751,     0.0269852858,     0.7047927976,     0.3061865568,    -0.1606809944,      0.323831439,     0.2557297349,    -0.3582858443,    0.06008680165,    -0.3767842352,    0.01772251353,    -0.5653166175,      0.766007781,    -0.5513237119,      0.995760262,    -0.9400995374,   -0.06542000175,     0.3012518287,     0.7468006015,   -0.07158362865,    -0.9901219606,    -0.2258674502,    -0.6148253679,    -0.3597157001,     0.8001310825,    0.07072081417,    -0.1146702915,     0.8044406176,     0.2850420475,    -0.5124941468,    0.06633108109,     0.5107889771,    -0.8282771707,     0.5652606487,       0.97453022,    -0.2811178267,    -0.8132683039,    -0.1145178527,    -0.5880271792,    0.06178482994,     0.2200840861,      0.666205585,    -0.1667846143,      0.710098207,    -0.8617110848,     0.2116546631,     0.1591466665,     0.8220734596,    -0.5834426284,    -0.1658980846,    -0.1183687374,    -0.3144743741,    -0.2292429954,    -0.6828237176,    0.03405601159,     0.5472031832,     0.4330968559,   -0.08608822525,    -0.4289146364,   0.003688606201,    -0.8556112647,     0.3196524084,    -0.3604476154,    -0.4514830709,      0.365483284,    -0.2634043694,     0.6142281294,      0.237614125,    -0.8507594466,     0.1426498741,    -0.0344302319,    -0.8820830584,    -0.2483258247,    -0.6875542998,     0.4464541674,    -0.5190243125,    -0.7817788124,     -0.620973289,     0.5574346185,     0.4544191658,      0.882148385,     0.9856849909,    -0.4936442971,     0.4590177536,     0.8216864467,    -0.1465851963,    -0.9785111547,      0.601508975,    -0.8651588559,      0.792067349,     0.2561770678,    -0.7095584869,    -0.4895932674,    0.07285926491,      0.646686554,    -0.1029169261,     0.1386266798,     0.2481393665,    -0.6587036252,    -0.1740331799,     0.6156390309,    -0.9576134086,   -0.04538342729,     0.8896179199,     0.5412960649,     0.2462359816,     0.4176037014,     0.5864165425,    -0.7375046015,     0.7952696681,     0.6267590523,     0.5925021768,      0.268840611,    -0.8356441259,     0.3147420287,    -0.8872030973,    -0.1721463799,     -0.192770794,   0.009228708223,     0.5328742266,    -0.9235085845,     0.1257148534,    -0.2401656359,     0.1396131814,    -0.7799279094,    -0.3872242868,     0.3286693096,    -0.1922954321,     0.2628425956,      -0.89757967,    -0.8862826228,     -0.671266973,     0.1389429718,    -0.4556350708,    -0.5624713302,    -0.8114782572,     0.2381151915,    -0.5060786009,     -0.958607316,    0.04492723569,      0.670550704,    -0.1357965469,     0.2951338887,     0.2984783649,     0.2167351991,     0.7385230064,    -0.3737718761,     0.2928302586,     0.9759170413,     0.8120719194,     0.2719342411,      0.413752526,    -0.7827033997,    -0.0883249566,    -0.4755492508,    -0.3795337081,    -0.8496106863,    -0.1295828372,    0.07710918784,    -0.8324248195,    -0.2989464998,     0.1633297503,    -0.6669635773,    -0.4420740306,     -0.865021348,    -0.7798174024,     0.3492985666,    -0.2047489434,     0.8398661017,    -0.7431228757,    -0.1203777865,     0.6835677624,     0.4922234118,     0.6374701262,    -0.9902186394,      -0.75867033,    -0.2854067683,    -0.3047257662,    -0.7491229177,      0.628180325,    -0.2437550277,    -0.9118340015,     0.8301882148,    -0.7718610168,     0.5831928849,    -0.3331728876,    0.04044152051,     0.7945833206,    -0.9920215011,   -0.05533980578,     0.6595073938,    -0.4329819679,     0.6529203057,    -0.9374610782,     -0.315867275,    -0.4373780787,     0.7288227081,     0.1498193145,    -0.6725814939,   -0.03696494922,     0.3731741309,     0.4667234123,     0.5840244889,       0.54462111,    -0.8819440007,     0.8401913643,    -0.9736660719,    -0.3034929633,    -0.7766099572,    -0.3335954547,    -0.4062858522,    -0.3626073301,     0.4034922421,    -0.8206097484,    -0.8630575538,    -0.7800369859,    -0.1167495772,     0.4812943935,     0.8281819224,     0.5846326947,     0.8740441203,     0.8867369294,    -0.1520726383,     0.1824114174,    -0.8965811729,    -0.2414594889,     0.1149974465,    -0.9332906008,     0.4234856367,    -0.7204166651,     0.8696382642,    -0.7226107717,   -0.04317368194,    -0.4856318235,   -0.04785693064,    -0.5384727716,     0.6972048283,    -0.7753023505,    -0.4533952773,     0.7179504633,     0.1680257171,   -0.02807235904,    -0.3394604325,     0.7647861242,    -0.4381209016,      0.113400735,    -0.6555336714,    -0.4091998041,    -0.3875050843,    -0.4491690993,     0.3549169004,     0.8502208591,    -0.1574112922,     0.6889753342,     0.8342524171,    -0.7200955153,     0.2604729235,    -0.1751111597,    -0.1179035157,     0.1385511607,     0.7506979108,    -0.1626786739,     0.8032721281,    -0.1361602247,    -0.1598139852,    -0.4373717308,    -0.6028479338,     0.3582531512,     0.2432306409,    -0.7126527429,     0.8696584702,    -0.5577514768,    -0.7558068633,      0.390730679,     0.5380037427,    0.08616727591,     0.7113863826,    -0.2534837425,    -0.7388539314,     0.6025643945,    0.08775274456,     -0.353196919,     0.7229550481,     0.6690531969,    -0.8218237758,    -0.5211799145,     0.6694249511,     0.3476707935,     0.2209451348,      -0.28897205,     0.9192792177,     0.2218092829,     0.3020932972,    -0.8790179491,    -0.8784918189,     0.2987609506,     0.9411303401,     0.6222417355,     0.8510291576,    -0.8177619576,    0.06108414009,    -0.4416657686,   -0.07012660801,     0.1263976842,    -0.7944487333,   0.009798624553,    -0.9595957398,    -0.3312115967,   -0.03661184013,    -0.6606420875,    -0.9085909724,     0.1223474815,     0.3140425682,    -0.6309897304,     0.8957690597,    -0.6419785023,     0.8113414049,    0.06708889455,    -0.7163758278,     0.9502206445,    0.06616156548,    -0.5992457867,      0.631155014,     0.6635224819,     0.3824321032,     0.6223143339,   -0.04049446434,    0.04856785387,     0.5803245306,    -0.1349511147,    0.04266607016,    -0.2616807818,    -0.6600660682,    -0.8306569457,     0.3755539656,     0.1971798241,     0.9076302648,    -0.6469643116,     0.7568433285,     0.1525361985,      0.593332231,    0.02302369289,      0.546642065,    -0.9162409902,     0.8595222831,    0.08643238246,    -0.5278395414,    -0.5432435274,     0.4636153579,     0.8421528935,    -0.2901765108,     0.5241757631,     0.4959796667,    0.03495115787,   -0.02271244489,    -0.9863492846,     0.1464638561,     -0.181872949,    -0.9954098463,   -0.01145771798,    -0.9135722518,    -0.6312303543,   -0.08996914327,     0.2776881754,    -0.1193780303,    -0.9473060966,     0.5522796512,    -0.3191531003,     0.7093245983,    -0.1847609431,   -0.09484729916,     0.4778062999,     0.1526805311,    -0.9742991924,     0.2344813049,     0.2978300154,     0.8046817183,     0.1684524566,     0.7331892848,    -0.7420150638,     0.5563250184,     0.4707471728,     0.5917443037,     0.9297187328,    -0.8701850772,     0.5212326646,     0.3665702045,     0.4847002029,     0.4032100439,      0.275560528,    -0.8600029349,     0.7706286907,     0.5863895416,  -0.006318140309,     0.4598903656,    -0.3663898706,    0.02782908268,    -0.6741956472,     -0.444660604,    -0.1033253148,     0.8660281897,      0.683765769,    0.03958752751,      0.448618114,     0.4487593472,     0.2222577333,   -0.07071276754,      0.541300118,     0.2021738291,     0.6900139451,    -0.8736291528,    0.03794184327,  -0.003705250798,     0.7712951899,     0.5434839129,    -0.9664185643,    0.03508097306,   0.005102423485,    -0.8180239201,     0.9763056636,     0.5674951077,    -0.1683552712,    -0.2130434364,    -0.5309445858,    -0.1520007998,    -0.1753896028,   -0.01377085038,    -0.3821878135,    -0.4154754281,     0.7737259865,    -0.9419413805,    -0.8442429304,    -0.2816026509,      0.978126049,     0.6535083652,    -0.7410741448,    -0.8938239217,     0.2617075443,    -0.6982104778,    -0.3816516101,     0.9239356518,    -0.6666812897,    -0.7338278294,    -0.8450140953,    -0.4119570553,    -0.8192227483,    -0.8334639668,    -0.5117459893,    -0.7157407999,    -0.4660917819,    -0.2003958374,     0.9853738546,     0.6816262007,    -0.8856852651,     0.6948350072,     0.7228081822,     0.4349962771,    -0.6466159225,    -0.8012180924,    -0.2311616391,    -0.5202492476,     0.2494955361,      0.238471806,     0.3732625544,    -0.4286696613,     0.8698759675,    -0.7751523852,    -0.8447910547,    -0.1450978518,      0.316434592,     0.4178379476,    -0.6751116514,    -0.1446579695,     0.8562974334,    -0.1319824457,    -0.6842780709,    -0.9578357935,    -0.4832157791,     0.7452421188,     -0.989872992,     0.1262750328,   -0.04482837766,     0.2589095533,     0.6073709726,    -0.6508451104,     0.2081126422,    -0.8956611753,    -0.2965320349,    -0.8894897699,  -0.003667765297,     0.4596279263,    0.06477947533,     0.9450150132,     0.4028425515,    -0.5544882417,    -0.8785306811,    -0.9627691507,    -0.3220355809,     0.4834811091,     0.7241833806,    -0.6770284176,     0.5377533436,     -0.127195254,    -0.9194785357,    -0.9246926308,    -0.7597872615,    -0.1359817833,     0.2175766379,     0.0681611523,     0.6880049109,    -0.5787846446,    -0.5102522969,    -0.4383600056,     0.1041025668,     0.5734843016,     0.4027540982,      -0.49988994,     0.9955075383,     0.7083849907,     0.8829723597,    -0.2313427925,     0.8197955489,     0.3455358446,    -0.9374229908,    -0.5466735363,     -0.322085619,     0.9637993574,      0.867054224,     0.3351813853,    -0.5726587176,     0.4934842288,    -0.9721352458,    -0.1041822955,    -0.8969154358,    -0.1204635575,    0.03005653992,    -0.1765257269,     0.2538099587,     0.4754274189,    -0.2817091346,    -0.9930579662,    -0.2868390083,     0.9661861658,      0.395054698,    -0.6542509794,    -0.1877070814,     0.9381260872,   -0.08132050931,    -0.2292289585,    -0.2974275351,    -0.1840867698,     0.6829527617,     0.9552594423,     0.4556575716,     0.5377617478,    -0.2055197805,    0.01743323356,    -0.0422604382,   -0.01345269103,    -0.6477049589,    0.02583433315,     0.3739649355,     -0.690644443,     0.3982696533,    -0.4903617501,     0.5786466599,     0.7462909222,     0.1023483947,     0.2290237397,     0.3427089155,     0.9539601803,     0.3138625622,      0.970816195,     0.8499890566,    -0.2464573979,     0.7529770136,    -0.1978842616,   -0.08015604317,     0.9473284483,    -0.7766789794,     0.7662772536,     0.6055418849,    0.07895895094,    -0.1115954071,     0.3606318235,    -0.5639187694,     0.8094147444,     0.9757407904,    -0.7066217661,    -0.8534488678,    0.06782102585,     0.9795855284,     0.5944684148,    0.09109977633,    -0.6601054668,   -0.01655605063,    -0.4718841016,     0.3210736811,      0.432025522,    -0.9701721668,    -0.3399190009,    -0.2828233242,    -0.6535449028,     0.5162244439,     0.4174108505,     0.4181150496,    0.05747536942,    -0.7761827111,    -0.4446241856,     0.7767750025,    -0.2589998543,    -0.7678242326,    -0.1660631299,     0.3309721649,    0.04041110352,     0.1595456451,    -0.2455673367,     0.6723043919,     0.4651407897,     0.7971782684,    -0.8996180892,    -0.4406446218,        0.2047472,     0.4441230297,      -0.76188761,    -0.4599090517,     0.9008625746,     0.7198966146,   0.008696151897,     -0.904728055,     0.8501937389,     0.6569741964,    0.08384491503,     0.9720799327,     -0.262730211,     0.8522151709,      0.817201376,     -0.404676199,     -0.977835536,     0.9607043862,     0.1035068557,    -0.1858505607,    -0.6759844422,     0.8646373153,     0.3806271553,     0.9494294524,     0.2080027759,    -0.9048530459,     0.5890101194,     0.1071539596,     0.7897893786,     0.6679927707,     0.5171183348,     0.6080000997,    -0.3505826592,    -0.6350319386,     0.7400798202,   -0.03700072691,    -0.2114878595,     0.2232017666,    -0.6652500033,    -0.6885743141,     -0.908629775,    -0.8705964684,     0.5010475516,    -0.4248904288,     0.7119207978,     0.6204144955,    0.03554236889,   -0.03209370375,     0.1503669471,    -0.9870612621,     0.9134780169,     0.6657222509,     0.1067325324,    -0.5630453825,     0.2502255738,    -0.8570196629,    0.02094795927,     -0.307377249,     0.7433699369,     0.2338252813,    -0.6505890489,     0.2664759457,    -0.3275960386,     0.2311316431,     0.7634807825,    -0.5385617018,    -0.8445800543,     0.2826850414,    -0.4105444252,     0.4540059268,    -0.2229730785,     -0.114917703,     -0.927780807,     0.2446470559,     0.4098637402,    0.04672730342,     0.2386780679,     -0.772213459,     0.7839441895,     0.9526007175,     0.9079940319,     0.5276665092,     0.4219126701,     0.7566846013,     0.9571538568,    -0.7626320124,    0.03428647667,    0.00720634358,      0.482504636,    -0.2831133008,     0.7304393053,     0.8204368949,     0.3112205267,    0.03577085957,     0.5773091316,    -0.7586096525,     0.0946976319,   -0.04641862959,     0.6640765071,    -0.1045321375,    -0.5468971133,    -0.2163893431,     0.4250922799,    -0.1688270569,   -0.07372017205,     -0.160900712,    -0.6289664507,     0.2759739161,     0.2107495964,    -0.3386820853,    -0.1493698955,    -0.5759786963,    -0.6420709491,    -0.7607271671,    -0.4569352269,    -0.1318925321,       -0.1223903,     -0.196261853,    -0.8163360357,    -0.6425222158,   -0.03389084339,     0.3211879432,    -0.2683479786,     0.9802078009,     0.7766615748,     0.4917903244,     0.1580890417,     0.4835551977,     -0.602088809,    -0.7594917417,    -0.5764529705,     0.6568281651,    -0.8533402085,    -0.9436489344,       0.42617926,     0.4542280138,    -0.4253719747,    -0.4586778283,     0.6154214144,     0.2867964208,     0.3359895349,     0.5917653441,     0.8921615481,     0.6800899506,    -0.7493464947,     0.2467921525,    -0.4858961701,    -0.3980399668,     0.7119166255,     0.3004986048,     0.7232506275,     0.2382593304,     0.1978172511,     0.2724240124,      0.147207424,     0.6895356774,     0.8548350334,     -0.511013031,     0.1625288576,     0.1789495945,     0.3544044495,    -0.5205426812,    -0.3890537322,      0.207128644,     0.3987649381,     0.2423690856,  -0.007470093668,    0.08873811364,   -0.08311558515,    -0.2883682251,   -0.01885552518,     0.2513076961,     0.8593497872,      0.033947438,     -0.315120697,     0.5856874585,     0.1940441877,    -0.2515485585,     0.1410097927,     0.6910303831,     0.5330241919,     0.7591323256,     0.2812019587,     0.7316809297,    -0.3353542686,    -0.3256029189,     0.1191047132,    -0.5462468863,    -0.1354220659,    -0.6079669595,    -0.9246516824,    0.08710882068,   -0.07142022252,     0.9045680165,    0.03981946036,    0.07347519696,     0.3673048615,    -0.2257034034,    -0.6625589728,      0.288246125,   -0.07400082052,     0.6919141412,    -0.9746912718,    -0.2224095017,     0.1915034205,    -0.4924987257,     0.4055832326,     0.9377535582,     0.2508342266,     0.5066079497,    -0.9646229744,     0.5019696355,     0.5953812003,    -0.2173542529,     0.5736458898,    0.02356464602,     0.1112864539,    -0.2417231649,    -0.5648498535,    0.01313832588,     0.9350168705,     0.7298154831,  -0.003538310295,    -0.4030103087,    -0.1366487741,    -0.6975415349,    -0.6230021715,    -0.6388711929,    -0.6210347414,    -0.3360514939,    -0.9731813669,    -0.9395853281,    -0.8012635708,   -0.01069979277,   -0.06379626691,      0.752753973,    -0.5147639513,    -0.5451159477,    -0.2739463747,    -0.4489412606,     0.2543126047,    -0.2401428819,    -0.4459149837,     0.6210254431,    -0.6708734035,     0.5642538667,        0.3466959,     0.7321928144,    -0.1124615371,      0.276763469,    -0.9552845955,    -0.4957487583,     0.7643113732,     -0.340398252,     0.3834476173,     -0.751930654,     0.3402167857,     0.7016487122,     0.9623767138,     0.3950637877,      -0.52667588,     0.3423570096,     0.6245727539,     0.8439999819,     0.8827813268,   -0.05399087444,     0.9609732628,     -0.176442638,     -0.594825387,    -0.6649698615,    -0.7438598275,     -0.849696219,    -0.9909387827,    -0.1776469797,     0.7428606749,    -0.3587570488,     0.8781753778,   -0.01908254065,   -0.05813037977,     0.3730587363,     0.9946395159,    -0.6607925892,     0.5214464068,    -0.7116848826,     0.5869627595,    -0.3196438849,    -0.5406165123,    -0.5468187928,    -0.8140143156,    -0.2151839733,    -0.4533541799,    -0.6198314428,     -0.722211659,    -0.4080019295,    -0.9209135771,     0.1761194766,    -0.6454464197,     0.5217810869,     -0.473933965,      0.928966403,    -0.3557657897,    -0.6946459413,     0.7849072814,    -0.2636860907,    -0.3840925097,    -0.2690538466,     0.1411386579,     0.5142229795,     0.7146591544,    0.02726433799,     0.4956710041,      0.348207444,     0.3285911381,    -0.5247534513,     0.6310976148,    -0.9846513867,    -0.3732869923,     0.5133770704,    -0.9129673839,   -0.05048101023,      0.214556545,     0.3737171888,    -0.4390079677,     0.2706723511,     0.9897364974,     0.1392025352,     0.2446855605,      0.209229663,     0.1639849544,    -0.9550167918,    -0.5901789069,    -0.5153761506,    -0.6491006017,     0.4177335799,     0.5837029815,     0.8581428528,     0.1702556014,     0.6464974284,    -0.3990122676,    -0.4803442359,     0.1826129258,    -0.5027547479,     0.7234575152,     0.9889898896,    -0.8989466429,      0.514519453,     -0.250813365,     -0.240972802,     0.8443618417,    -0.7192028761,    -0.6691224575,     0.3964077532,    -0.9867436886,     0.5823069215,     0.8880442381,     0.4415972233,     0.1748910248,    -0.6180650592,     0.7742458582,      0.838128984,     0.7869076133,    -0.9641214013,    -0.6233055592,    -0.6328173876,    -0.7137249708,    -0.7389011383,    -0.7451738119,    -0.2994943857,      -0.77676934,    -0.9288771749,     0.6509891152,    0.04042460024,    0.01796261594,     0.4765360951,    0.04589803517,    -0.3042116463,     0.4384222031,    -0.5698223114,     0.4408133626,    -0.3540795743,     0.3471436203,     0.2465733439,    -0.7232049704,    -0.5715540051,    -0.2509568036,    0.08632934839,    -0.6960793138,    -0.2075264007,    -0.9848291278,     0.4025813937,    -0.4294883311,     0.3215814531,    -0.1356741935,     0.5797758698,     0.3747650087,     0.8000119328,    -0.9880949259,     -0.345384419,     -0.441491425,     0.5662633777,    0.05489464849,     0.3283280432,    -0.2550537288,     0.2205101401,    -0.7349926233,      0.351893127,     0.8561933637,     0.2421468347,    -0.4556456506,     0.5970550179,    -0.4335391819,     0.9302297831,    -0.6420153975,     -0.616084516,    -0.8958838582,    -0.3201907873,     0.3525586128,     0.8087437153,     0.4121915698,     0.4529035389,    -0.9977732897,     0.9209186435,    -0.6413360238,     0.3370872438,     0.5132206082,     0.3910077214,     0.1550234407,    -0.1517769545,      0.370932132,    -0.6584791541,    -0.1811471432,  -0.008565056138,     0.5361171961,    -0.1368747205,     0.1371535063,    -0.4199963808,    -0.2169394642,    -0.6711958051,     -0.359087646,     0.7285772562,     0.4516653121,    -0.1879958063,    0.01730605215,     0.1240857765,    -0.4920471609,     0.8920022845,     0.2591161132,      0.438678652,     0.3903670013,     0.8487591743,    -0.5939790606,    -0.7014192343,    -0.4446727335,   -0.03868250176,    -0.5657919645,    -0.7243695855,    -0.9278495908,      0.407130748,     -0.185836181,    -0.9467290044,     0.3008427024,     0.1016430408,    -0.9710608721,    -0.5829604864,     0.1004429087,    -0.4747903049,     0.9781621099,   -0.01886267401,     0.1050074548,     0.5479286313,    -0.5417578816,     0.2224843651,     0.5611773729,     0.2957315147,    -0.4061928689,  -0.006478736643,     0.9925075769,     0.7461339831,    -0.8162055612,     0.1454419494,    -0.1628467739,    -0.4678924382,     0.4417725205,    -0.8697152734,   -0.09567138553,     0.7035595179,    -0.7087994814,   -0.06460697204,    -0.7437300682,    0.01933240518,     0.7930054069,    -0.3209563494,     0.6973672509,      0.785099864,     0.6916652322,      0.373210758,    -0.9489089251,     0.1507669538,     0.0579918772,      0.561493814,    -0.6946810484,    -0.8686774373,    -0.5089656711,    -0.6703398824,       -0.8317433,     -0.920556128,     -0.636652112,     -0.998259902,     0.4024217129,    -0.3541513979,     -0.377302587,    -0.5798472166,     0.5216860175,     0.4782369733,    -0.9325231314,    -0.6927612424,     0.7139256001,     0.2743933797,    -0.9161646366,    -0.8136991858,     -0.493034333,    -0.9459045529,     0.6808002591,     0.6252284646,   -0.03216149285,    0.03965145722,    -0.5691218376,    -0.9288145304,    -0.6272675991,     0.7366345525,     0.6507388353,   -0.09490629286,      0.534763813,    -0.1360919029,     0.5718788505,     -0.913110733,     0.3611769378,     0.2368556857,     0.2588273585,    -0.5296954513,    -0.9254940748,     0.7542684674,    -0.3370387554,    -0.2253556401,     0.5888992548,     0.6907237768,    0.08479374647,     0.1719148755,   -0.04284562171,    -0.0286579784,    -0.7656294703,     0.2796245217,     0.7739696503,    -0.6913143396,    -0.8195902109,    -0.4294407964,    0.07588911057,     0.2550052404,     -0.443644762,     0.9452003241,   -0.04834235087,    -0.9456279278,     0.6031349897,     0.7311991453,    0.03496495634,     0.1339609623,    -0.4441773891,   -0.08656493574,     -0.493497014,     0.5321924686,    -0.4279191196,    -0.1686080545,    -0.7104080319,     0.5777780414,    -0.8050061464,    -0.8308785558,     0.7588974833,    -0.2763708234,     0.4352767169,     0.4800700545,     0.8077691793,     0.3464964628,     0.3539094329,     0.1051358208,    -0.8313673735,    -0.4374869764,    -0.8816506267,     0.1740823835,    0.04797063395,     0.3290072381,     -0.174148798,    -0.6643412113,    -0.7330153584,    -0.5474019051,    -0.2925507128,     0.9241738319,   -0.03215302154,    -0.6655954719,     0.4477720559,     0.5295882821,      0.115358755,     0.9335591197,     0.1420085728,     0.2436262667,     0.9473140836,    -0.7340226769,    -0.6123198867,   -0.01987533085,    -0.5389299393,     0.6571933031,    -0.5762938261,     0.4616329968,    0.01902971044,     0.4952547252,    -0.8798418045,    -0.4758794904,    -0.3740638793,     0.4432627857,     0.6367326975,    0.02331401035,    -0.7214582562,      0.492200166,    0.00725666387,    -0.8443439603,    -0.3406460285,     0.8906132579,    -0.8614060879,    0.05023607984,    -0.3499474227,   -0.09159234166,    -0.7425393462,    -0.6138936877,     0.5606982708,     0.8777553439,     0.2023123056,   -0.04028384387,     0.7771447301,     0.2032155842,    0.04101730511,    -0.8012555838,     0.5343825221,    -0.2685907781,    -0.1249497756,     0.9645078778,     0.7323498726,     0.1488962471,    -0.5536965132,      0.374968797,    -0.5537097454,    -0.4062839746,    -0.1616829634,     0.9199765325,     0.4477880597,    0.03545130417,    -0.8895747066,    -0.3894443214,    -0.8427231908,     0.9216448069,      0.912330687,     0.8700066805,    -0.4720769823,    -0.2746574283,     0.2612537444,    -0.5470230579,    -0.4270270765,    -0.3570402563,     0.9543557763,      0.387906462,     0.9799352288,    -0.3113425374,     0.9858148694,    -0.4586826861,    -0.7226094007,     -0.509537518,    -0.2273643166,    -0.4094577134,    -0.6102695465,    -0.7929935455,    -0.6555520296,    0.07258725911,    -0.4027997255,    -0.7599676847,     0.8346049786,    -0.1164672971,    0.00459294999,     0.8565955162,   -0.08703690022,     0.9710182548,    -0.7336937189,     0.9118734002,    -0.0982626155,     0.7953242064,     0.6330948472,   -0.04304755107,     0.4931538105,    0.07854144275,     0.7663725615,     0.2604342997,     0.2251396179,    -0.3946049809,    -0.3135863543,     0.9841506481,     0.5525659919,    -0.9682699442,      0.635743916,    0.08705101907,    -0.7313514948,    -0.1147715375,    -0.9563723803,     -0.883102417,      0.347373575,    -0.1130749062,    -0.9192968011,    -0.3133298457,    -0.4932126999,    -0.3095847368,     0.3990227878,    -0.4134018719,     0.2799624205,    -0.8227870464,     0.7441862822,     0.9678872228,    -0.9731106758,     0.3493233025,    -0.1366412193,    -0.6124817133,     0.1051875576,     0.4134386182,      0.484213829,     0.6313144565,    -0.6121454239,    -0.6439597011,    -0.1027039364,    -0.4810041487,     0.7740657926,     0.7764371634,     0.7229418159,    -0.5531736612,     0.7628332376,     0.4467301071,     0.3316521645,     0.7059573531,      0.793576479,     0.8216932416,    0.02916467749,    -0.6671575904,     0.8886765838,     0.9460576177,     -0.594319284,     0.3638595641,     0.1810772717,     0.9041389823,   -0.06317083538,    -0.2480132282,     0.8384709358,    -0.7685539126,     0.2912346125,     0.4315399528,     0.4935495853,    -0.1210628971,     0.3725061417,     -0.268969804,    -0.9214279652,     -0.748734951,    -0.6986572742,     -0.840569675,    -0.5748901367,    0.04375877231,    -0.1835837364,    -0.0924725756,    -0.7247231603,     0.4400099218,    -0.5947316289,   -0.01942029223,    -0.8072627187,     0.8877269626,     0.7405275106,    -0.2237830758,     -0.458853364,     0.7623307109,     0.9234638214,    -0.9855114222,    -0.1704146564,   -0.06301117688,    -0.2485960722,       0.25764817,      0.662665844,     -0.163403362,     0.3351600468,     -0.145542562,    -0.1267177761,     0.3203009069,     -0.833055675,     0.7444780469,     0.9306017756,     0.3918986022,    0.04640154541,     0.9565727711,     0.2510408163,     0.7426257133,    -0.5086138844,    -0.9904954433,     0.1672487259,     0.9381060004,     0.8676845431,    -0.3511394858,    -0.9914668798,     0.8541954756,     0.1093543768,    -0.9718237519,    -0.6779597402,    -0.4746621549,    -0.1269546449,      0.707038343,    0.02699160948,    -0.4827261269,      0.367542088,    -0.9646926522,     0.6869852543,     0.3290023506,    -0.8269422054,     0.6859521866,     0.4678625762,    -0.1284196377,     0.1743510514,    -0.7806081176,     0.4443651438,   -0.04812434316,     0.1217832565,    -0.8553293347,    -0.8996116519,     0.2770513594,    -0.5814540982,    -0.5977729559,     0.9532687664,     0.9837961197,     0.9744951725,    -0.7954622507,    -0.9192519784,   -0.07278397679,    -0.6178965569,     0.6657556891,    -0.9894925356,     0.2602046728,     0.1752231717,      0.423725605,    0.07042186707,     0.9520289302,     0.1041108146,     0.4061921537,     0.3284932077,     0.2205906808,    -0.1624499708,    -0.7304469943,     0.3041937649,     0.2853455842,      0.781770587,      0.793377459,     0.5369482636,   -0.02595184185,     0.8103132248,    -0.7962184548,     0.1824340373,     0.7816330791,     0.1443980783,     0.7636350393,    -0.8473336697,    -0.1172593608,     0.3112824261,     0.3425667882,    -0.1089812443,   -0.09336741269,     0.0309028402,    -0.0149446493,     0.6541835666,     0.9092870951,    -0.4759539366,     0.6080390215,      0.828433454,    -0.2536834478,     -0.525333643,     0.1067640856,    -0.9349198937,     0.1453737915,     0.2743287981,   -0.09359920025,     0.1397671849,    -0.9627728462,     -0.587834537,    -0.8113154769,    -0.4781494439,    -0.1550288349,     0.2854655981,      0.710075736,    -0.9254553318,    -0.5930818319,     0.4664223194,    -0.9775993228,     0.5207880735,     0.3364307284,   -0.08699576557,    -0.2536692321,    -0.4668098986,     0.3572503328,     0.6635286212,    -0.8061131239,    -0.6096032858,     0.3170666397,     0.5180126429,     0.8275585771,     0.9714409113,     0.6288633943,     0.9860687852,    -0.7900489569,      0.468041271,    -0.1745405197,     0.5808804631,    -0.3943388462,     0.1770770401,    -0.4694617987,     -0.151491791,    -0.9494516253,    -0.5403135419,    -0.9669547081,    0.05069912225,    -0.2894969285,     0.9555512071,     0.1805675179,   -0.01895689592,    -0.8035520911,   0.003221371677,     0.3217934072,    -0.9739829302,    -0.5002515316,     0.6340047717,   0.006018374581,     0.2096345127,     0.8859690428,    -0.3829171956,    0.03807099164,    -0.8497129083,     0.7013970613,     0.4260370433,    -0.5734383464,     0.5625712872,     0.5461546183,    -0.8743901849,    -0.9138581753,     0.1421617419,     0.2898840904,     0.3697247505,     0.5245936513,   -0.09154959023,     0.2193816453,    -0.1022803113,    -0.7101641297,    -0.9656050801,     0.8994836807,    -0.3065381944,    -0.5600819588,     0.1366307139,      -0.75944525,    -0.4661360681,     -0.333308816,    -0.5527924299,     0.2234338373,     0.4292390645,   -0.06570387632,     0.9029565454,    -0.4180896282,     0.2992534935,    -0.5478410721,    -0.1027260944,     0.5082041025,    0.06006629765,     0.3900076151,     0.9696318507,    -0.4721355736,    -0.5061135888,     0.7804437876,    -0.8845791817,     0.7544283271,     0.3704144061,    0.04160903022,    -0.4300924242,    -0.6654738784,     0.7239797115,    -0.9453264475,    -0.5418519378,     -0.925176084,    -0.5324958563,    -0.9449692369,    -0.8036838174,    -0.9745898843,     0.4881358445,   -0.06693659723,     0.0464313142,     0.5535825491,     0.3461955786,     0.2346895188,    -0.5282993317,     -0.816203177,     0.7825798392,     0.8465033174,      0.913607955,     0.3231441975,      0.866851151,     0.1975349635,     -0.858345449,     0.6529906392,     0.4227388203,     0.4044981897,      0.968957901,     0.5557717085,     0.2294111848,     0.3958727717,     0.7202084661,    -0.1850777268,    -0.7118224502,    -0.2828308344,     0.8094660044,     0.3571258783,     0.6014576554,    -0.3945327401,     0.2834045589,    -0.6967057586,    -0.1349714398,     0.7885001302,     0.9491910934,    -0.5953568816,    -0.5755215287,     0.5917149782,    -0.9915661216,   -0.09395489842,    -0.9383423924,     -0.417729944,       0.27945292,     0.4792799354,    -0.2611581087,     0.9228582978,     0.2236103415,    0.08556094766,    -0.8947787881,    -0.4699496329,   -0.03409060836,     0.2733988464,     -0.962270081,    -0.8445004821,    -0.0892701298,    -0.6636524796,   -0.05510545522,     0.4381509721,     0.5304123759,     -0.978685379,    -0.4420215786,     0.1966749579,    -0.4442195594,     0.6412057281,    -0.8846656084,     0.6895840764,    -0.6221728921,    -0.1872909069,     0.1049374044,    -0.2435801625,   -0.07915370166,    -0.9947878122,    -0.7231402993,    -0.1932397187,     0.3084615767,     0.2675049305,    0.09604822099,   -0.08818750083,    -0.7527758479,      -0.57313025,    -0.5167269111,    -0.6058818102,    -0.2882471383,     0.1119090244,     0.2830397487,    -0.8842438459,     0.3384538591,     0.6704882979,     0.4475194812,     0.1771343499,      0.380230397,     -0.809360683,    -0.9298573732,     0.4787653685,    -0.7098967433,     0.1681817472,    -0.3969374895,     0.1960698813,    -0.2760455608,    -0.9066354036,     -0.521017611,     0.7663231492,     0.6142284274,      0.742158711,     0.8754382133,    -0.1984757632,     0.2345145941,    -0.3828706443,    -0.9905549288,      0.686081171,     0.8166921139,    -0.1386857927,     0.9245270491,     0.9656839371,     0.4099709094,    -0.3265567124,     0.7398068309,    -0.2395084351,      0.254339546,     0.1538645625,    -0.8461167216,    -0.2905966043,    -0.9534204006,     0.7743054032,     0.1159930378,    -0.5080463886,     0.8382838368,    -0.8772123456,    -0.4168117344,     0.1938092113,    -0.9306681156,     0.7753892541,     0.5468006134,     0.2806310654,    0.05072639138,    -0.3082762659,     0.6471914649,    -0.7968887687,     0.1175482199,     -0.226501897,    -0.3817294538,     0.5935797691,   0.003792267991,     0.7282856703,    -0.1733587384,    -0.7466360927,     0.3216247261,    -0.5790193081,     0.8627054095,    -0.1909736544,     0.2163622826,     0.3810385168,     0.4795323908,     0.6919445992,     0.1087458208,     -0.807352066,    -0.9712448716,    -0.7872843742,     0.4831925929,     -0.152895093,    -0.6716521978,    -0.6416794658,    -0.3957095742,    -0.6150833368,     0.8557343483,   -0.07101779431,    0.04590941966,     0.3214175999,     0.8610479236,     0.5859906077,    -0.8690500259,    0.02340114862,      0.257819891,     -0.659308672,     0.1244535819,    -0.3672391176,     0.8486119509,    -0.1063567773,     0.4099236131,     -0.669518292,    -0.9470437169,     0.7916151285,    -0.7202902436,    0.06127555296,     0.3031539917,     0.5716689825,     0.7881371379,    -0.2772834897,      -0.32423684,     0.1105693504,     0.2210443169,     0.9194754362,    -0.8163900375,     0.2319780737,   -0.01148845069,    -0.2760827243,    -0.4763866365,     0.5902459621,      0.590516746,     0.2996090651,     0.6960316896,    -0.9514763951,    -0.1877795458,    -0.1715116799,     0.8074240088,     0.4513523877,     -0.942908287,    -0.1975827664,     0.4064277709,     0.2527907193,     0.9193438292,    -0.4035874903,      -0.58587569,    -0.5535134077,     0.7788651586,     -0.134882167,    -0.9600673318,     0.2634281218,    0.06998109072,    -0.3546947241,     0.7046865821,     0.8226502538,     0.9224643111,    -0.2885467112,    -0.9025980234,     0.1457937062,     0.8520622253,    -0.6571345329,    -0.2468677461,     -0.284912169,    -0.4072517753,     0.3343303502,    -0.2389467508,    -0.9364418983,     -0.024767261,     0.9692948461,     0.2241386026,    -0.2675488293,     0.7381278276,   -0.09998762608,    -0.5922051668,     0.6956930161,     0.6394726634,    -0.2932638824,    -0.7197266221,     0.6209363341,     -0.484046787,      -0.17222251,     0.3842504919,    -0.2180181146,     0.9594711661,     0.8272867203,    0.01306395885,     0.5084111691,    -0.9775147438,     0.4526664615,     0.3521034718,     0.8924304247,     0.4049596786,    -0.3531679809,   -0.01292505022,     0.4931898117,     0.3261292279,     0.8166684508,      0.858502686,    -0.8730298877,     -0.489274174,      0.132032603,      0.325466603,    -0.3645431399,     0.4117493927,    0.05835737288,     0.9852349758,    -0.3423624933,     0.7619063854,     0.3388005793,     0.3299786448,     0.1949762106,    -0.8319196701,     0.7818542719,    -0.9116764665,     0.2229934335,     0.2805281878,   -0.03709508851,     0.9658362269,     0.8628261089,     0.1763965935,    -0.5656135082,    -0.4784079492,     0.3377662897,    -0.3955807984,    -0.3094561994,    -0.1170570329,    -0.5462588668,     0.4250878692,     0.3998264074,      0.892421782,      -0.39514184,     0.6727509499,   -0.05148557574,     -0.826490581,     0.9289219379,    -0.8992317319,     0.3176801205,    -0.4925954342,    -0.4556697011,     0.1082866266,      0.924481988,    -0.2167190462,     0.6814399362,     0.3411108553,    -0.6482232809,    -0.7903149128,    -0.9189109802,    0.03070426732,    -0.8251277804,     -0.428952843,     0.1433156878,     0.6962597966,     0.4926667511,     0.9618080258,    -0.7928725481,     0.7266907692,    -0.3740698993,   -0.06370917708,     0.2140830457,    -0.6003893614,     0.7232472897,     0.1689021587,     0.7821056247,     0.8248307109,    0.05129573122,    -0.4410765767,    0.08711197972,    -0.2210712582,     0.9326120019,     0.9188016653,     0.6029254794,    -0.2393419594,    -0.4930558801,     0.4651441574,      0.482272923,     0.9620612264,    -0.5566694736,     0.4351607263,    0.05957660079,    -0.3592782021,     0.5308443904,     0.2504707575,    -0.5251343846,    -0.5164040327,    -0.8385238051,    -0.5813780427,     0.9040057659,     -0.339189142,    0.02809099108,    -0.9134728909,    -0.1559936851,     0.6866471767,    -0.7874851823,    -0.6717940569,    -0.3721950352,     0.8913460374,     0.4875502288,   0.009278761223,    -0.8257507086,    -0.5069093704,    -0.4360666275,     0.3865303695,        0.6680969,     -0.951957047,     0.4201944172,     0.7473098636,     0.3100115955,     -0.529614985,    -0.5343716145,     0.8240408301,     0.8686206937,     0.7817614675,    -0.2250219584,   -0.07635840029,     0.5805923343,     0.8048958778,     0.5052514076,     0.4217163622,     0.2116715014,     0.8731110096,    0.01633465104,     0.5823961496,     0.6894803047,     0.6110813022,     -0.125732258,      0.238421455,     0.7684620023,    -0.5995915532,    -0.8256331086,    -0.7006372213,     0.7203192115,     0.6629093885,     0.5107738972,    -0.4422900379,    -0.3169958591,    -0.7959634662,    -0.6113264561,    -0.5244444609,    -0.5115271807,    -0.2165353298,     0.4957615435,    -0.2162458301,     0.2725239992,    -0.3606616855,     -0.914308846,     0.7255415916,    -0.7685011625,    -0.5500090122,    -0.8753519058,     0.2634013891,     0.6856321096,    -0.5758877993,     0.4057404697,     0.5020148754,     0.6559045911,   -0.08755683899,    -0.9762426615,     0.2473214269,     0.3985718489,    -0.7703956962,    -0.6319789886,     0.3434123397,     0.8631388545,     0.1472681314,   -0.03226268291,     0.8929598927,     0.1548873186,     0.5836023688,     0.8530101776,     0.1422448307,     -0.862586081,     0.8020250201,     -0.989948988,    -0.5607763529,    -0.2484127879,     0.9373546839,     0.7873108387,     0.5145935416,    0.07713164389,    -0.5019705296,     0.7411109209,     0.6641388535,    -0.9310306907,    -0.9066974521,    -0.5451413989,     0.9429250956,     0.6043614149,     0.7651769519,     0.9227186441,     0.4968677461,    -0.2476082295,    -0.5731592774,     0.8336159587,     0.5892248154,     0.0603624694,    -0.1460674703,     0.6617670059,     0.7753958106,    -0.7360568047,    -0.4965046346,     0.4751135111,    0.01045219041,  -0.002938752063,     0.2548761666,    -0.1210648715,     0.3816120625,    -0.4001690149,    -0.8659461141,     0.8689801693,    -0.3246150315,     0.2061792612,     0.1133231595,     0.2283292711,    -0.2594592869,     0.6948987842,    -0.1368702203,     0.0219690688,     0.8578906655,    -0.7428984046,     0.7012428045,   -0.03813817725,    -0.2244834751,     0.7923968434,     0.7313215733,     -0.903260529,     0.1948123574,      -0.55128932,    -0.2096111327,     0.4772298932,     -0.467037946,     0.7045378685,    -0.1464244127,   -0.08216202259,     0.2048460543,    -0.9106289148,     0.6693814397,    -0.9036769867,     0.5486681461,    0.03253565356,    -0.3515853286,     0.2097243965,     0.5215685368,     -0.623072803,    -0.5361257792,    -0.2321138978,     -0.316098392,     0.6420484185,     0.6621386409,     0.5858843327,    0.03943204507,    -0.6562091112,     0.1285069883,     0.4334439337,     0.3946247101,     0.4683973193,    -0.4536553323,    -0.7782706618,     0.6541441083,    -0.8625558615,     0.6588954926,       0.85839504,     0.5910801888,    0.05434403941,    -0.2280467898,    -0.6032886505,    -0.4718565047,     0.3368688524,     0.6856039166,    -0.2496722788,    -0.9183549285,     0.5609262586,    -0.5897145271,    0.04358777404,  -0.001986778574,    -0.1623584777,    -0.1358179003,    -0.7710080743,     0.1532501578,     0.4222551584,     0.1694211513,    0.07856266946,    -0.5203976631,    0.06988013536,     0.4995661974,      0.927418828,     0.6310996413,     0.8072006106,     0.3738318384,    -0.1486469358,    -0.7934570312,     0.5227102041,     0.5065405965,    -0.5475341678,    -0.5730336905,     -0.393692255,    -0.8665223718,     0.2284329981,    0.01406591758,    -0.6451066732,    -0.5923289061,    0.04129945114,     0.9916064739,     0.3080093563,    -0.8962908983,     0.2771675885,    -0.3582966924,     0.8642516732,   -0.06699348986,    -0.6359212995,     0.8791849613,     0.2028034627,    -0.1814046502,    -0.4403374791,   -0.03157630563,    -0.1678216159,     0.7418140173,    -0.6047480702,   -0.04053531215,     -0.484785378,    -0.6185070276,     0.3097338974,    -0.5166244507,     0.1732960939,     0.1464820951,     0.6074823141,     0.7840057611,     0.2355377376,     0.5423844457,    -0.2950362861,     0.8533141017,    -0.6780380011,    -0.8893989921,    -0.5727982521,    -0.0447473526,    -0.5130647421,     0.4934632182,     0.6749668717,     0.1784518063,     -0.291067481,    -0.5336876512,    -0.9211631417,     0.9028986096,    -0.6155536771,   -0.02148055285,     0.8849312663,     0.1561823487,    -0.5523201227,    -0.1866001189,    -0.5815411806,    -0.8803881407,    -0.3699429631,    -0.7317293882,     0.2121202946,    -0.4282558858,    -0.6459534168,    -0.2728175223,    -0.1338196844,     0.2318579108,    -0.2667606771,    -0.2983372808,     0.2643204629,     0.6640837789,     0.5544084907,    -0.2876650393,    -0.3209916651,     -0.145927757,     0.2524671853,    -0.1625549197,     0.9374565482,     0.2688944042,    -0.5738649368,      0.166373387,     0.9296848178,    -0.1760524362,     0.2303086966,     0.5969390869,     0.1234173849,    -0.4089426398,     0.4310329258,    -0.4888277352,     0.7029676437,     -0.980198741,    -0.3527269959,     0.4006815851,    -0.3794863224,    -0.8803132176,    -0.5304288864,     0.8734039664,    -0.1552908272,     0.3606248498,     0.7128767371,    -0.4859445691,    -0.7405224442,    -0.9331605434,     0.5108370781,     0.5126084089,    -0.2275290042,    -0.7627829909,     0.6636759639,     0.2370615453,     0.7796424031,     0.1722788364,    -0.9597265124,     0.2539952397,     0.2082109302,    0.05379656702,    -0.4835661352,     0.1612800062,     0.6378399134,    -0.1069609895,     -0.807104528,    -0.2440465242,     0.6482104063,     0.2402843088,   -0.02599459141,     0.4019953012,     0.6972669363,     0.7423554063,    -0.6775673628,     0.6230799556,     0.8904852271,    -0.7343943119,   -0.03547133505,     0.8030278087,     0.6907605529,      0.423602134,    -0.2829765975,    -0.2392185032,    -0.4040097594,     0.8711306453,    -0.3944486976,     0.7127464414,    -0.5801574588,   -0.05118193477,    0.07709380239,     0.3281218708,    -0.5850436687,     0.7035340667,    -0.2000017762,    -0.1469270736,    -0.2706405222,    -0.7448154092,    -0.8811580539,    -0.6943049431,    -0.9746999741,    -0.4774383903,    -0.9148349762,    -0.3959546089,    -0.5371967554,     0.9184314609,    -0.5651589036,     -0.945184052,      0.276207149,    -0.3014262319,     -0.277204901,     0.7530276179,     0.7109922767,    -0.7991133332,    -0.4149993062,    -0.9208767414,     0.3964157104,    -0.5276218057,    0.05410050228,    -0.9826031923,    -0.5538579226,      0.928422153,     0.2214374691,    -0.5628525615,    -0.9153616428,    -0.7374266386,     0.2112847865,    -0.4086759686,     -0.175298959,    -0.6897624731,     0.1105945706,    -0.5866436958,    -0.6393523216,     0.8910885453,     0.1411556304,     0.6570079327,    -0.7604300976,     0.9660835266,    -0.1204106361,    -0.8231698871,   -0.03547815979,    -0.5369623899,     0.7798092961,   0.005914456677,     0.7963719368,    -0.8986782432,     0.9546692371,     0.8216063976,     0.3433976471,    -0.8262389302,    -0.4825282991,    -0.9268858433,     -0.394898206,    -0.3112981021,     0.5987685919,     -0.694140017,     -0.560492456,     0.7581220269,    -0.7277797461,     0.9004583359,    -0.4966993332,    -0.4044459164,    -0.1256659627,     0.1951214075,    -0.9857591391,    -0.4292871356,     0.7692679167,   -0.08790025115,    -0.9227019548,    -0.2561602592,     -0.967458725,     0.2622173727,    0.01972122118,    -0.1431273073,    -0.6144739389,     0.9808402061,    -0.7621206641,    -0.4654485285,     -0.575543046,    0.01878301799,     0.8299363852,   -0.06515000015,    -0.2068065107,    -0.8458573818,    -0.1711630225,    -0.5276477337,     0.3735488951,     0.4380215406,     0.8893436193,    -0.4940580428,    -0.6024180055,     0.5123049021,    -0.1702117771,      0.138870731,     0.7752611041,    -0.7282037139,    -0.8389497399,    -0.2167637497,    -0.7003633976,     0.6972036362,     0.5520700812,     0.9722307324,   -0.07155159116,     0.2172665149,     0.3641281724,     0.3006033003,     0.9094585776,     0.9264038801,    -0.9480950236,     0.8721191883,     0.7740596533,     0.3634015024,     0.7220829725,     0.6991391182,     0.7972795367,    -0.8890091777,    -0.9492278695,    -0.2948116958,    -0.6489153504,     0.6903441548,     -0.672945857,     0.3346783817,        0.9191854,    -0.6193220019,    -0.4111089408,      0.867685616,   -0.06878452003,     0.6823228598,     0.1553478688,     0.8669157028,      0.602412343,     0.5697309375,     0.1613477767,     0.5762671828,      -0.32431373,   -0.06009001285,     0.4451082945,      0.551977396,     0.8830525875,    -0.7597058415,    0.09999248385,     0.8317120671,    -0.5020142794,    -0.8838889003,    -0.5534651875,    -0.1142772362,     0.7453768849,    -0.9455590248,     0.8125969768,     0.9602635503,     0.4413258135,     0.3636528254,     0.5098608136,     0.2038525939,     0.8164638281,     0.0829404667,     0.6456891298,     0.0673616454,     0.6845982075,    -0.5695970654,     0.1830898821,     -0.444961071,     0.1816707551,     0.7904700041,     0.3267383873,    -0.1460481733,    -0.7291379571,     -0.128439799,    -0.7925930023,    -0.8702514172]
[    0.1671325266,    -0.9016978741,     0.2175375968,     0.5657362938,    0.03995179385,     0.6585018635,    -0.4744425118,     -0.508813858,     0.9028381705,     0.3520858288,     0.7313373685,    -0.9306032062,    -0.5128078461,     0.3598241508,    -0.9121609926,    -0.8072142601,     0.1716821641,     0.8556175232,     0.5129602551,     0.3479803801,      0.199264273,     0.9198790193,    -0.5259281993,    -0.3797418177,   -0.04653069749,     0.2756127119,   -0.09465385228,     0.5763052702,     0.8847403526,     0.5774519444,     0.4441805482,     -0.465672493,    -0.9289314747,     0.5933980346,     0.5318110585,    -0.9269945621,      0.195064798,    -0.7818351388,    -0.0136357611,     0.8138938546,    -0.3964265287,     0.1482887864,     0.3696491718,    -0.4677065015,     0.8139044046,    -0.9099904299,      0.821690619,     0.4618110955,    -0.7110561728,     0.5243947506,    -0.1973632425,     0.5429465771,    -0.7352512479,     0.1814797074,     0.3617682457,    -0.8315392137,     0.4526266158,     -0.322098583,     -0.111442782,    -0.8758907318,     0.4241789281,     0.0329272151,     0.5004679561,     0.9366857409,    -0.4803372025,     0.1155428365,   0.005993110128,    -0.1325949878,     0.7909987569,    -0.8182854652,      0.851066947,    -0.8698368073,     0.7173756957,    -0.2260055393,       0.77121979,    0.04973747581,    -0.1942877024,   -0.02819337137,     0.7142782211,    -0.2350824475,    -0.4390828311,     0.4010161757,    -0.4831370711,      0.761157155,     0.5424576998,    -0.8318177462,    -0.2158347815,    -0.3583548367,    -0.5710521936,    -0.3508021832,    -0.4474359453,    -0.7067310214,    -0.4312286973,     0.6568576694,    -0.8362340331,     0.2956423163,     0.2199180126,     0.7342091799,    -0.9464108348,    -0.9419440031,     0.2610435784,    -0.6808124185,     0.3403252959,     0.7120242715,     0.8205895424,     0.9647954702,    -0.6787446141,     0.9106981158,  -0.004290894605,    -0.7199603915,     0.8358264565,     0.5254454613,    -0.5231456757,   -0.06642222404,     0.4484236836,     0.1485071331,     0.9348469973,    -0.3512911201,    -0.6765203476,    -0.9548321962,   -0.02641991526,    -0.7235682607,    0.01284176577,    -0.3430687487,   -0.04518769681,    -0.9443004131,     0.5013464689,     0.2249906659,    -0.1482723802,    0.02571039461,    -0.8016048074,     0.1935987622,   -0.08156912029,   -0.08174572885,    -0.0924570933,    -0.3302767873,    -0.4498581886,     0.4065282047,   -0.05202924833,    -0.9389797449,    -0.2820857763,        0.3574166,     0.4307334721,     -0.918956697,   -0.07935293019,      0.688577652,     0.5759057403,    -0.8503441215,     0.3656467795,     0.7372795343,     -0.380412668,     0.8087673187,    -0.3969365358,    -0.4398007989,      0.857583642,    -0.3551099598,    0.05325142667,     0.3901493251,    -0.3146222532,      0.759847939,    -0.8596670032,     0.4168494642,    -0.8864405155,    -0.1842519343,     0.8619432449,      0.704148531,    -0.8576469421,     0.7521755099,     0.8625752926,    -0.0482458137,     0.6055495739,     0.7758802176,    -0.9350453019,     0.6476151943,    -0.8552674055,    -0.1653160304,     -0.584792316,   -0.04650336877,    -0.2851063907,     0.3699973524,     0.6062603593,    -0.7289017439,  -0.003299622331,   -0.01080548484,     0.1435063332,     0.5577995777,    -0.6460515857,     0.3497878611,     0.2644197643,    -0.2289236039,   -0.02102335915,     0.4673369527,    0.04181912914,   -0.06679026783,    -0.7872298956,    -0.9470010996,     0.7096651793,    -0.3047951162,     0.6452932954,    -0.2882970572,     0.1705785096,    -0.5680721402,     -0.782792747,    -0.1100986302,    -0.5405040383,     0.6538851261,      0.272996217,     0.6538788676,     0.5235437155,     0.3031739891,     0.1579049975,      0.625335753,     0.3539832532,     0.8630940914,      0.133983478,    -0.2920426428,     0.2439068258,    -0.1386740357,    -0.6821634173,     0.3743618429,    -0.1070114747,     0.7352288961,     0.8438256979,    -0.6426331997,     0.6710777283,     0.4894763827,    -0.4959688187,     0.1921117306,    -0.2551635206,     0.3128363788,    -0.9648579955,     0.1349250972,    -0.9885735512,     0.4994834661,    -0.5459079146,    0.01395938266,     0.2800244689,    -0.3093180358,     0.4844337106,     0.2345249355,     0.9039285779,     0.7166339159,    -0.1207511574,     0.3202128112,     0.9785769582,     0.9739721417,      0.955335319,     0.9037445784,    -0.4191046953,      0.530636847,    -0.5596981645,   -0.08538345248,     0.7175654173,    -0.6196844578,     0.3227034211,     -0.150815919,    -0.2010783702,     0.3824815452,    -0.9706543088,    -0.1691226363,   0.006065403577,    -0.4273255467,     0.3573529124,     0.6014816761,     0.1019334719,    -0.8022571206,     -0.254453063,     0.2458520383,    0.02927266806,    0.03223351762,    -0.5712048411,    -0.2992690504,     0.4069721103,    -0.4278013408,     0.7151216269,       0.11024452,    -0.3990920186,    -0.3114031851,    -0.4288793206,     0.1033871844,    -0.7033612728,     0.7313129306,     0.1299152672,    -0.7887527943,     0.4107241333,     0.3334199786,     0.3613200784,     0.8693893552,    -0.9115374088,     0.9220035672,   -0.07364844531,     0.4135449827,    0.06090510264,    -0.4026610553,    -0.1424207985,     0.6407433152,      -0.54112643,    -0.7093357444,    -0.2733546495,     0.7304246426,    -0.7648354769,     0.7117322683,     0.1301854551,    -0.5073781013,    -0.8967787027,    -0.4912282228,    -0.6866617799,    -0.1318467259,    -0.8583552241,     0.9047709107,    -0.3139361143,     0.5408987403,    -0.9456463456,    -0.6334436536,    -0.5808542371,     0.7384293079,    -0.6034651995,    -0.5146906376,     -0.702429235,    -0.5807326436,     0.5545606017,     0.1195879728,    -0.5663692951,     0.4875614941,    -0.3515323699,    -0.7770778537,     0.2503397167,    0.04903743789,     0.2392950952,    -0.4617251456,    -0.2270625383,    -0.1991085261,     0.7334527969,    -0.2541801631,   -0.06633313745,    -0.3333998322,    -0.5339464545,     0.7067895532,    -0.1009122133,    -0.2509225309,     0.3384767473,   -0.01652193442,    -0.8518591523,    -0.3935613632,    -0.4167235494,     0.3443925381,     0.9911906719,     0.1899709404,   -0.04738194495,     0.9655548334,     0.7775894403,    -0.9837630391,   0.001899020514,     -0.376747191,     0.9724351764,    0.08503796905,     0.8524323702,    -0.3938137889,     0.8757025599,     0.1107470542,      0.384768486,     0.6768803596,    -0.3348480165,     0.9117785692,     0.9151582122,      0.421354413,     0.1413193345,    -0.5353830457,     0.9562339187,    0.04462182894,     0.5904229283,    0.09988895059,    -0.1103341952,    -0.3398716748,    -0.6522877812,    -0.8935480118,    -0.6928393245,   -0.01389993355,    -0.4667393565,     0.7902113199,    -0.8994835019,    -0.7781804204,    -0.7002231479,     0.5856018662,      0.704426527,     0.1569537371,    -0.8541249633,     0.5243014097,     0.4273033738,    -0.1100716442,     0.5657196045,    -0.8550831079,     0.3516362309,    -0.9574036002,      0.996714592,     0.2515393198,     0.4685065746,    -0.8523774743,     0.7828931212,      0.628169179,    -0.9361675978,    0.06578855962,     0.4137407243,    -0.3902586997,     0.6473873854,     0.5475512147,    -0.1880596876,     0.3195046186,   -0.07228660583,    -0.4471714795,    -0.2281626165,     0.7261497378,     0.7292671204,    -0.3128628433,    -0.4027639925,     0.5792427659,      -0.85860461,    -0.6849554181,     0.9724519849,     0.3797190785,     0.7602506876,       0.40102005,    -0.3979713917,    -0.8425596952,    -0.8834409714,    -0.2479735315,    -0.5310451388,    -0.7078517079,     0.7823301554,    -0.2097791731,      -0.68750453,     0.9191566706,    -0.8991043568,     0.4533930421,    -0.0605693385,    -0.8481898308,     0.3802388608,    -0.8888546824,     0.4529463947,    -0.8011941314,     0.4650824964,     0.5422148705,    -0.9674440026,     0.1012664214,      0.276717484,    -0.6580979228,     0.1024463549,    0.06983499229,    -0.7290276885,    -0.1627078503,     0.9849247336,     0.8824600577,    -0.1198348776,      0.403447479,    -0.5419303775,     0.5837602615,     0.5493882298,   -0.01283434592,     -0.884675324,   -0.08004139364,    -0.8201439381,     0.6104766726,    -0.4640749991,     0.2094854563,    -0.5676265955,     -0.513418138,    -0.7334861159,     0.3392467797,     0.1048649698,     0.6672792435,     0.8158071637,    -0.1760674566,     0.2508351803,    -0.8340224624,    0.00619610073,     0.4285365045,    -0.8789783716,    -0.1266757697,      0.499391675,    -0.8981488347,     -0.789185226,     0.1651542038,     0.8898857236,   -0.07553500682,    -0.8345683813,     0.9679042101,    -0.9426070452,     0.9237411618,     0.9197318554,    -0.9681255221,    -0.3284767866,    0.02075302601,    -0.3199146986,   -0.02324157394,     0.4079613686,     0.1613019705,    0.04479275644,    -0.1663612723,   -0.02841134183,    -0.7729615569,     0.9347770214,    -0.5957017541,    -0.9860360622,     0.4769963026,    -0.4920678437,     -0.089767389,    -0.1066301838,    0.01154493168,     0.2083214223,  -0.004642098676,     0.6932225227,   -0.03637111932,    -0.6807271838,      0.936837554,      -0.39400208,     0.4758579433,    -0.2311579436,    -0.4185486138,     0.5797503591,    -0.5736796856,     0.1262331456,    -0.8313504457,     0.6898038387,    -0.1111369953,     0.6557669044,    -0.9596948624,   -0.05493308231,    -0.2937174737,   -0.05659931898,     0.4338098466,    -0.2266333997,    -0.3396863043,     0.2954566777,     0.6656255126,    -0.2602582574,    -0.2812156677,     -0.919432044,    -0.3778815866,     0.4709128439,    -0.6973395944,     -0.366407305,    -0.2649058104,    -0.5559757352,    -0.8595501781,    -0.5983774662,    -0.2817520797,     0.9030160904,    -0.4005924463,    -0.1502955556,     0.6305881143,     0.5866433978,    -0.5315710902,     0.5832313895,     0.5819692016,     0.4154466093,     0.4709064364,    -0.1578050554,    -0.7618520856,     0.9739663601,    -0.7016426325,     0.3810320795,     0.4520759881,      0.322589606,      0.214128226,    -0.2205653787,    0.08377084136,    -0.7388065457,     0.8558303714,    -0.5726127028,     -0.216486007,     0.7164788246,     0.3216580451,     0.2305059284,    -0.7181134224,    -0.4427127838,    -0.2572178245,     0.4860976934,     0.6600949168,    -0.1160421744,     0.5605741143,    -0.2130213678,     0.4426770508,    -0.4539164007,     0.4090356231,    -0.8724199533,   -0.02481840923,     0.5721708536,     0.5853988528,     0.3206928968,   -0.02478243969,     -0.623437345,    0.01283470076,   -0.01170008071,      0.153754279,    -0.3063037694,    -0.1797840744,     0.4880946875,      0.339836657,    -0.6719652414,     0.9213880301,      0.723631978,     0.0726410374,  -0.002715456299,      1.003119349,    0.07488604635,     0.8293241858,    0.02687870339,    -0.3166323006,     0.3987793922,      0.351580739,    -0.3414164186,    -0.5361330509,    -0.5524939299,     0.8753449321,     0.4377093613,     0.8066516519,     0.8826237917,   -0.08018267155,    -0.8588578701,     0.8757153749,     0.6404572725,     0.0348270312,     0.1315708905,    -0.5547502041,     0.1545973867,     0.3995343149,    -0.9453898072,    -0.8272635937,    -0.1103064567,     0.5853729248,   -0.07634605467,     0.0423184596,   -0.04470525309,     0.7632285357,     0.4282087982,     0.7977123857,    -0.1778390706,      0.975961566,     -0.954295516,    -0.4157534242,     0.8441962004,    0.04447472841,    -0.8626828194,    -0.6531164646,     0.9617425203,     0.1204431206,     0.6507619023,    -0.3195400834,     0.7732982039,    -0.9548954964,    -0.4785103202,     -0.743211627,     -0.474493891,    -0.8574841619,    -0.3975578547,    -0.2072103918,     0.5412607193,     0.4208200276,     0.5458651185,     0.6761870384,     0.2461536229,    -0.3826793432,     0.8346258402,     0.8431696296,     0.8057291508,     0.5344958305,    -0.6140702963,    -0.2492154688,     0.8187550306,     0.6124721169,    -0.7131643295,    -0.7620949745,    -0.1878150254,   -0.02569504268,    0.07775162905,     -0.191338852,    -0.3508884907,    -0.4783999324,     -0.645255208,    -0.4586174488,     0.6534484625,     0.8132074475,    -0.3587127626,     0.2408942431,     0.1152385399,    -0.9651385546,    -0.3406462073,     0.3802611232,    -0.9046888351,    0.01879857108,    -0.1774447262,     0.7775753736,    -0.2822797894,    -0.6410511136,    -0.8575701714,     0.6959152222,     0.4035094678,     0.2573014498,     0.9489061236,    -0.7887639999,    -0.5561102033,     0.4556757212,     0.4471180737,    -0.9896205068,    -0.9569203854,    -0.7064522505,    -0.0540070273,     0.4434873462,    0.04924419522,     0.9805784822,     -0.652074337,     0.9434815645,    -0.7447403073,    -0.3229366243,     -0.508710146,     0.5869565606,    -0.9547655582,    -0.6341660023,     0.2511989772,    -0.5874932408,    -0.8073416352,    -0.7778018713,    -0.7170502543,    -0.6285640597,    -0.3146301508,    -0.5631784797,  -0.001471856842,     0.4973108172,      0.125785023,     0.6389628649,     0.3545717895,     0.8411839008,    -0.1051414311,     0.8180246353,    -0.9989339709,     0.5284661055,     0.3659642637,    -0.3841525912,    -0.9409916401,      0.415792048,    -0.7557200193,    -0.7027086616,      0.416988939,    -0.5294828415,     0.9139814973,    -0.3581449091,      -0.28958413,    -0.6302037239,    0.08355934918,     0.3629792035,    -0.9342681766,     0.2681748569,   -0.07935260981,     0.6254107356,   -0.09059003741,   -0.09967651218,     0.6714996696,    -0.5060295463,     0.3390280008,    -0.2954381108,    -0.6004846692,    -0.1382188648,    -0.4307617545,     -0.440305382,     0.2464348227,    -0.1639586091,      0.744060874,      0.861984551,     0.6012589931,     0.6026595831,     0.2238578945,    -0.4107694328,     0.9857624769,    -0.1395710409,     0.8527866602,    -0.9996802211,     0.1352349818,    -0.3940256536,    -0.8033977747,     0.7232063413,    -0.2857019603,     0.9197885394,     0.4660260379,     0.6248448491,    0.06940232217,     0.5985966325,    -0.7316891551,    -0.9791628718,     0.5907881856,    -0.5346495509,     0.1727193594,     0.3152110577,   -0.07804977149,   -0.08510936052,     0.4299147725,    -0.8293294311,      0.063053675,    -0.4421952963,     0.2682750225,    -0.1642112881,     0.5497073531,    -0.5709890127,    -0.3194464743,    -0.6200889349,     0.8016191721,     0.7422656417,    -0.6940831542,     0.5993514061,     -0.262652576,     0.2256271541,    0.03174200654,    -0.6234391928,    -0.8947285414,    -0.7668064237,     0.3682301342,      0.384295851,    -0.6133130193,     0.3164485395,     0.7126330733,    0.09372761846,    -0.2618575692,    -0.5611506104,     0.9317373037,    -0.4636459053,    -0.2918132842,     0.1993522197,    -0.4432676435,    0.03502430022,    -0.5912807584,    -0.9576092362,    -0.1083620414,    -0.1740760654,    -0.3714863062,    -0.5978168249,    -0.2958337367,     0.8893003464,      0.753141582,     0.3434863985,    -0.6799206138,     0.5283948779,     0.3024114668,    -0.5736002326,    -0.7190182209,     0.6512648463,     -0.885964036,      0.952056706,    -0.6930473447,    -0.2547548115,    -0.3190333843,    -0.4641531408,    -0.7077548504,    -0.3759134114,     0.3018641174,     0.4343562424,   -0.04578770325,     0.4216109514,    -0.4609904289,    -0.6394684315,     -0.181168735,   0.008415599354,     0.7443997264,      0.522513032,     -0.539519906,   -0.09797982872,     0.2044847757,    0.06454594433,     0.0944384113,    -0.9582107067,    -0.9278019071,    -0.4567308426,    -0.6254659891,     -0.675337255,      0.263373822,     0.1441295892,     0.6574474573,     -0.685788691,    -0.7317954898,    -0.4651060104,  -0.004910471383,     0.2337506115,     0.6375412345,     0.6719469428,    -0.9737039208,     0.1717203408,     0.9635972977,     0.8651531339,    0.07085373253,     0.7159850001,    -0.7478840351,     0.2206514329,    -0.2869536281,     0.8850055337,   -0.05969379842,      0.237029925,     0.1371768117,    -0.4685194194,    -0.4151822925,    -0.2728806734,    -0.3441693187,     0.3819930851,    -0.6016968489,     0.7631060481,    -0.5626750588,     0.7506397367,    -0.7727792859,     0.9069644809,     -0.362968415,      0.316452682,    -0.8242524266,    -0.6934164762,     0.5197227001,     0.5481665134,     -0.786705792,     0.9805653095,    -0.7301377654,     0.9128134847,    -0.5976073742,     0.3584029973,    -0.7153395414,     0.2619850636,    -0.6813717484,     0.7818644047,      0.718332231,     0.1582209915,    -0.4609827399,     0.4915466905,     0.4085072875,     0.3036272526,     0.8097926974,     0.1972624362,    -0.8806859255,     0.9736372232,    -0.8177823424,      0.741932869,     0.3473351002,     -0.314638257,     0.8195666671,    -0.6143842936,     0.3319360614,    0.04858345911,    -0.8794029951,     0.3171584606,     0.2864865661,   -0.04295509309,    -0.2579207718,     0.7270841599,    -0.6174024343,     0.1936233193,    -0.7754501104,    -0.1832727939,     0.4005263448,     0.0709412545,      0.627672255,    -0.8471300006,     0.1460468024,    -0.9885566831,     0.5277060866,   -0.07422534376,     0.6291251183,     0.4348652661,     0.3618008792,     0.8318449855,     0.7183867693,    -0.6299731135,     0.8908590674,     0.6278576255,     0.7850878239,    -0.6848763824,     0.6657052636,    -0.5308555365,   -0.08034308255,    -0.4876495004,    -0.7088381052,   -0.01697506569,    -0.9513214231,     0.9546035528,    -0.5883266926,    -0.9498867989,    0.08839318156,     0.2162176967,     0.4836785197,     0.7957457304,    -0.2036309987,     0.6346008778,    -0.3145779967,    -0.7444714308,     0.8622737527,     0.9364002943,    -0.6593651175,    -0.3448539972,     0.3327869177,     0.7519404292,     0.3568515182,     0.1688576639,    0.01000021677,    -0.4228596389,    -0.3644775152,   -0.07801160216,     0.4798950553,     0.4969500005,    -0.8380426168,    -0.5012702346,     0.5339868665,    -0.9669555426,     0.1591699421,     0.3386952877,     0.5073958039,     0.3531202674,    -0.7424665689,     0.6066532731,    -0.8313999176,     0.1583742052,    -0.6111488938,    -0.9149263501,     0.3822824657,    -0.8207559586,     -0.392562449,     0.1086974367,    -0.1018349975,     0.7398706675,     0.3515592217,    -0.3175420761,    -0.5179353356,    -0.8249766231,     0.7401325703,    -0.1222767308,      0.209878996,    -0.3937318623,    -0.5341819525,     0.8903405666,     0.9699892402,     0.9947131276,    -0.5442897081,    -0.8669906855,     0.8012695312,    -0.5341545343,    0.03277359158,     0.5345560312,     0.7404094338,    -0.9974294305,    -0.8993123174,    -0.8644967675,    -0.9800348282,    -0.3354633451,    -0.4377351403,     0.4362716079,    0.06181751937,    0.02150601149,   -0.07393809408,     0.2783297598,     0.8254439831,    -0.4146731794,     0.7682121992,    -0.7688602805,     -0.320274055,    -0.2394147515,     0.5889102817,     0.9658531547,       0.36303249,   -0.05049649999,     0.6477618217,     0.7430979013,     0.2382342517,     0.8227933645,     0.4041502178,    -0.7796808481,     0.4478468895,     0.5794175863,     0.4312439263,     0.6262030602,     0.8500012159,    -0.8336527348,      0.974068284,     0.4959573448,    -0.2040444165,    -0.4592070878,    0.08000908792,    0.02236226015,    -0.2126184106,      0.775508523,     0.5662795305,   -0.06200807542,    -0.7802069783,     0.6647927761,    -0.9866042733,     -0.580939889,    -0.7440909147,    -0.2909224629,   -0.07698316872,      0.736145556,    -0.6540743709,    -0.7191644907,    -0.5640413165,    -0.3897658288,    0.08087047935,      0.737482667,     0.1656897366,    -0.5456718802,    -0.5953976512,      0.719091773,     0.6669484377,     0.8003646135,    -0.7695225477,     0.6752789617,    0.04849987477,     0.4244470298,     0.7901017666,     0.3625014722,     0.4618692398,    -0.3910312355,     0.9573531151,     0.8646427989,     0.3206731677,    -0.1425172538,      0.910782814,     0.8746444583,    -0.7127206922,     0.6870545149,     0.5480213761,    0.08657023311,     0.6986808181,     0.9115573764,     0.5769142509,     0.9578814507,     -0.791192174,    -0.9497035146,     0.4736926854,      0.900895834,    -0.5057970285,     0.3543461263,     -0.477930963,     0.4116449058,   -0.01773584262,    -0.1047563553,   -0.02283276245,    -0.3687311113,    -0.5400150418,    -0.5298007131,      -0.53662467,     0.2440837473,     -0.522651732,    -0.7395428419,     0.6630972028,    -0.6318584085,     0.7151550651,     0.8178732991,    -0.7594119906,     -0.623085618,     0.4731168449,     0.3975306153,    -0.6822693348,     0.5835843682,     0.9267807603,     -0.570766449,     0.3132106364,    -0.6390506029,   -0.06358212233,     0.4242922068,    -0.1657720059,     0.4247729778,    -0.5057611465,     0.5102539659,     0.1213260219,       0.56703794,    -0.2794801295,     0.7113388181,    -0.4047266245,     0.7972416282,     0.3856147528,     0.8077372313,     0.3732257783,    -0.4203391969,    -0.5758900642,    -0.5623370409,    -0.5526814461,   -0.08963118494,     0.6419866085,     0.1162056252,    -0.6226266026,    -0.3201335371,    -0.7227373123,     0.3168850541,     0.2762007713,    -0.6657217741,    -0.2727843821,     0.1422296017,     0.4000549316,      0.405115217,     0.4114480913,    0.06563639641,     0.4702761769,   -0.07060408592,     0.2760200202,    -0.8303143978,    -0.7469295859,     0.5188895464,     0.6355358958,    -0.6298069358,    -0.3208942711,    -0.4120906293,     0.6732810736,     -0.472750932,    -0.2595746815,     0.8283910155,     0.9469709396,     0.9242155552,    -0.8406561017,      0.114644587,     0.1696256697,      -0.04550476,    -0.5967571735,     0.8766003251,   -0.01602940261,    -0.3197266161,     0.5307239294,     0.2600547969,     0.3742207885,     0.6868152618,    -0.9966779351,    -0.7249051929,     0.2986568809,     0.1835303754,     0.7037730813,    -0.9548980594,     0.2838673592,     0.9324035645,     0.2004250288,     0.3996026218,    -0.5338845253,    -0.3061572313,     0.5970811248,    -0.7399300933,    -0.5806251764,     0.4629963636,    -0.4382577837,     0.1964183152,     0.4843797088,    -0.5855352283,   -0.08980584145,     0.7121398449,    -0.5916798115,    -0.8978172541,     0.6146713495,    -0.8667805195,     0.6632004976,     -0.198783204,    -0.8283275962,      0.234932512,   -0.04601804912,    -0.8599244356,     0.4865694642,     0.4733882844,     0.7901470661,    0.02113879286,     0.8805864453,    -0.1341361254,    -0.4626168013,     0.9465645552,    -0.6287516952,    -0.4953520298,     0.5281723142,     0.9578484893,    -0.9067072868,     0.3141100407,     0.4423961639,    -0.9113189578,    -0.8782195449,     0.4072874486,    0.01069627609,    -0.2130697072,    -0.4178521931,    0.03973172605,     0.1846939474,    -0.2973589897,    -0.4222962856,    -0.4229250252,     0.1301691383,    -0.8309534192,     -0.629703939,    0.02171671018,    -0.6965871453,     0.4027275443,    -0.6039813757,    -0.5770694613,      0.399455905,     0.2910047174,   -0.07545221597,    -0.1701697409,     0.8284894228,      0.414732784,     0.6486272812,     -0.668813765,    -0.1295694411,     0.3508004248,     0.8659662008,    -0.6542785168,     0.9851514101,    -0.5670093894,    -0.3253247142,    -0.2520637512,     0.2164838165,     0.9531787634,    -0.8134675622,     0.5940325856,      0.374319464,    -0.8760231733,     0.2431261986,    -0.3757047653,     -0.342208147,     -0.956910193,    -0.9373588562,    0.03269097954,  -0.007255115546,     0.9293111563,     0.3092716932,    -0.7918819189,      0.320481658,     0.1559137106,     0.1153716967,     0.8759967685,    -0.8301048279,     0.9326571822,     0.4558520019,     0.7966254354,      0.308740288,     0.8320183754,    -0.6034664512,     0.8886160254,    -0.6870714426,    -0.5792565942,     0.3474220932,     0.9585306048,     0.2949929535,     0.5015208125,     0.2423330247,     0.5572403073,     0.4429340363,    -0.7288208604,    -0.6220582128,  -0.005059197079,     0.3477555215,     0.3545628488,    -0.9629737139,     0.7960460186,    -0.7194749713,     0.5964590907,      0.340012759,    -0.5828473568,     -0.639703691,     0.0432138741,  -0.003341395874,     0.1783213466,    -0.7665600181,    -0.6131802201,    -0.2899207175,    -0.7693557143,     0.4888165593,   -0.03952053562,     0.3039518297,     0.7657783031,     0.4311321974,    -0.6707046032,     -0.295794785,    -0.7100880146,     0.2130096108,    -0.6555453539,     0.4410406351,     0.5700770617,     0.7542006969,      0.720046103,     0.4211210907,    -0.4224804938,      0.669634819,    -0.7898426652,      0.255407542,     0.5214143991,    -0.2719730735,      0.222032994,     0.9428122044,     0.5513993502,    -0.1974215508,     0.6658078432,    -0.4387897551,    -0.1319301277,    -0.4003379643,    -0.6888456941,     0.5324602127,    -0.8978117704,     -0.199484542,     0.4022011459,    -0.1550440639,     0.8553708196,     0.2734482288,     0.7872424126,    -0.3391294181,    -0.5037268996,    -0.8048677444,    -0.1602084488,    -0.8869406581,     -0.482396692,     0.9366548061,     0.2219020277,    -0.4301396012,     0.8649196029,    -0.2268081754,     0.2821694016,    -0.9192277193,    -0.2641795278,    -0.9768770933,    -0.2311555445,    -0.4042620361,     0.2003144026,     0.5206019878,    -0.5687669516,    -0.8446659446,     0.3405707181,    0.06160652265,     0.4793714583,     -0.317637831,    -0.9739843011,     0.8275753856,    -0.6922751069,     0.7397429347,     0.8330242038,    -0.7727099657,    -0.4318247139,     0.8339373469,    -0.4292735159,    -0.5928348303,     -0.854619801,     0.4368315041,   -0.04046889767,    -0.9430499077,     0.7623369694,    -0.9287896156,     0.7740245461,     0.7647789717,    -0.0484367162,    -0.1334120035,    0.05837642774,    -0.9611312747,    -0.6657776237,    -0.1749899685,     -0.785143137,     0.8483898044,     0.1653954238,     0.8629418612,     0.2588249743,    -0.3989406526,     0.3842220604,     0.5734330416,     0.8643361926,     0.2706564665,    -0.4974788427,    -0.1553101391,    0.07285102457,      0.175862059,     0.5296212435,    -0.4771424532,     0.5030961633,     0.3956007361,    -0.2640480697,    -0.6843603253,     0.8470385075,     0.5440937281,     0.7570560575,     0.4297090769,    -0.6416660547,     0.4614089131,     0.7705818415,     0.3709457517,    -0.5347697139,    -0.4595843852,     0.8630891442,      0.904966116,    -0.3624041378,     0.9464247823,     0.2310503125,     0.7557682395,    0.04027052224,    -0.5009076595,     0.3798011541,     0.6633986235,    -0.7293124199,     0.1381196827,    -0.6976119876,    -0.3358373344,     0.6410782933,     0.2644573152,    -0.9366653562,     0.3619161844,      0.616543591,     0.8690744042,    -0.7009110451,    -0.8818897605,    -0.4359894097,    -0.3904685974,     0.4863129556,    0.07340376079,    -0.3848169744,    0.04376751557,     0.1240012124,   -0.01259359717,     0.4989697635,    -0.3870074153,     0.9354175925,    -0.6678625941,    0.01251360588,    0.05798979104,     0.5893983841,     0.5247567892,     0.9270892143,     0.1136652008,     0.5635783672,     0.2619725466,    -0.3413349688,    -0.4782565534,     0.1821288913,    -0.1392635107,    -0.2010637969,     0.4277504981,    -0.7702459693,    -0.4021881223,     0.3372134864,     0.4091199636,    -0.2486178428,    -0.5716814995,   -0.08378920704,     -0.348616004,     0.9949188828,     0.7117321491,     0.8154458404,    -0.5068383217,     0.1124526858,    -0.3556221724,     -0.209790796,      0.845892489,     0.3945187032,    -0.1527966559,    -0.6137071252,     0.5761214495,     0.5304741859,     0.4766119719,     0.1623254567,     0.9351751208,    -0.6655237675,     0.4864824414,     0.1138524935,    0.05135001987,    -0.8414407372,    -0.5795804858,     0.4040161669,    -0.9721077085,    -0.3731321394,     0.7669562101,    -0.4597030878,    -0.3334201276,    -0.6905289888,    -0.6983773112,    -0.2379725873,   -0.06598767638,      0.659398675,    -0.1888294965,     0.4976021945,     0.2982084155,     0.0924776569,    -0.8846649528,     0.4039859176,      0.641686976,    -0.9063076973,    -0.6689411402,    -0.7348240018,    -0.8913053274,    -0.6718898416,    -0.4340670109,    -0.6427977681,    -0.9349783063,    -0.9315139651,     0.4487563074,    -0.5827135444,     0.6374830008,    -0.7567461133,    0.05251856893,     0.3393305838,     0.2340229899,    -0.6759126782,    -0.6397229433,     0.3982346058,     0.3271447718,    -0.6976522803,     0.2186369896,     0.7105002999,     0.8643208146,     0.7807575464,     0.2807760835,     0.9780554771,    -0.4162999988,    -0.6165508032,     0.2089589685,    -0.8627843261,     0.3895787597,     0.6337132454,    0.02195714787,     0.4967283905,    -0.6561829448,    0.05879378319,    -0.4373672307,     0.4396813512,     0.1337253451,     0.3050028086,    -0.1810759306,     0.5315381885,    -0.6026157141,    -0.9858776331,    -0.5826097727,     0.1843725443,    -0.7231798768,    -0.5635556579,     0.9740074277,    -0.2880994081,    -0.2679608464,    -0.7959468365,    -0.7286682129,     0.7425702214,      0.335380584,     0.8026227355,    -0.1696281433,     -0.322927177,    -0.6367793679,      0.167918846,    -0.4796437919,     0.3569942415,     0.7249105573,      0.145074442,     0.6641774774,     -0.303691566,     0.6768878102,    0.01440674067,    -0.6463432312,     -0.245716393,    -0.2614526153,    -0.7697101831,     0.4359554648,     0.7966527343,    0.04325306043,    -0.6481480002,    0.02020350657,     0.1932183057,    -0.8764494658,     0.6111674905,     0.9660286903,    -0.4781441987,    -0.8737734556,     -0.656229198,     0.8818784952,     0.1600397229,    -0.8405774832,    -0.7738370895,    -0.5286828279,    -0.4091576934,    -0.5464410782,    -0.8239322901,    -0.2476389259,     0.5998107195,     0.7854135036,     0.6689714193,   -0.08115261793,  -0.005665316246,      1.000535369,     0.8186474442,     0.3653044999,     -0.205370903,      0.782957375,      0.122128427,    -0.5162445307,    -0.5055338144,    0.07583234459,     0.3518262804,     0.8034709096,     0.2665843964,   -0.09214489907,    -0.4945936203,    -0.1950181872,    -0.3994211853,    -0.9077809453,     0.4790855944,     0.6828609705,     0.8185578585,    -0.8027154803,    -0.3771104515,     0.9363604784,    0.04710945487,     0.4630498886,     0.6572861075,    -0.0941298753,    -0.2751236558,     0.0313985087,    -0.4725890458,     -0.382692337,    -0.7229716182,  -0.005283078179,     0.6765493155,    0.05361108109,    -0.3796771467,     -0.283046186,     -0.898819983,    -0.5452225208,    -0.5797814131,     -0.964645803,     0.2761449218,     0.7867896557,      0.112586163,      0.473402828,    -0.1449373662,     0.5837999582,    -0.2568078041,    -0.6559764743,     0.7512411475,   -0.03598298877,     0.1945335269,    -0.5929460526,    -0.4512295425,     0.5567546487,    -0.2253467143,     -0.217559278,     0.8072345853,     0.6044412255,     0.2446628064,   -0.01976515725,     0.6687389016,     0.5263162255,    -0.1190017611,     0.2514827847,    -0.7007442713,    -0.9013683796,     -0.547078371,      0.858917594,     0.8478221297,     0.6553281546,     0.9201472998,    0.03491324186,   0.002771971049,     0.7821577191,    0.01282590535,     0.9218729734,    -0.7525566816,     -0.518337369,     0.2975247502,     0.7749506831,    -0.6337855458,     0.9511299729,    -0.6566692591,    0.02455410361,    -0.1907337904,    -0.3734971285,     0.5583438277,     0.1982082874,     0.8703867197,   -0.03662322834,    -0.2769476771,    -0.8911602497,     0.9034911394,     0.6356852055,      0.876424253,     0.3016773164,    -0.5716603398,   -0.03513980284,      0.529543817,     0.6448791027,    -0.8328284025,     0.6225312352,     0.2014323175,     0.3208078742,     0.3440850973,    -0.1428672671,     0.4334810376,     0.1734216958,     0.7040982246,     0.6588341594,     0.7572749853,     0.5009232163,     0.6097462177,    -0.6866260171,    -0.2802645266,     0.4712510109,    -0.7356331944,     0.3464090228,     0.9895614982,     0.5099807978,    -0.6044536233,    -0.9291087389,     -0.122151047,    -0.3179718256,     0.2471430898,     0.5004065037,     0.3022147119,     0.3649018407,     0.3769530356,    -0.2143722475,    -0.9627191424,     -0.440151751,    -0.6664847136,    -0.6788791418,     0.6352969408,     0.5552034378,     0.8738181591,    -0.6890036464,     0.7639530897,    -0.7087602019,     0.5258663297,     0.7066354752,   0.003862851067,     0.2668077052,     0.4635581672,    -0.1916452348,    -0.1040988937,     0.3900985122,     0.4856599867,      -0.83610636,     0.4816685319,    0.07962708175,    -0.5186380148,    -0.6038248539,    -0.3155719638,    -0.3414126039,     0.2871598005,    -0.3906953037,     0.3748461306,     0.1671153903,     0.8581487536,    -0.9906739593,   -0.08983866125,      -0.57716012,    -0.1308748424,     0.9752182961,     0.6152290106,   -0.05950219929,    -0.2402080148,     0.8401100636,    -0.4997617304,     0.5798285007,     0.8082782626,    -0.1015185416,    -0.2843242288,     0.0861177668,    -0.9557105899,    -0.4424273968,    -0.8033263683,    0.01636685058,     0.6992942691,    -0.2520669103,     0.1292338222,    -0.8916919827,    -0.3861939609,    -0.1051965728,    0.03010289557,    -0.3690178394,   -0.05594655871,     0.7894740105,    -0.5843174458,    -0.2484415472,     0.8768071532,    -0.8390600681,    -0.4320740402,   -0.08608467132,     0.9166945815,    -0.8293224573,    -0.4832881689,     0.9197661877,     0.6436815262,     0.3042881191,    -0.2159876674,     0.1401626021,     0.4968856871,     0.8725497127,  -0.001377970795,     0.7754277587,   -0.07290606946,    -0.7123050094,     0.9143733382,    -0.5354243517,     0.4177012146,    -0.4036795199,      0.843649745,     0.1578792781,    -0.1657839268,     0.2226694673,     0.3929211199,     0.6619575024,    -0.3885481358,    -0.6280789375,    -0.4669902027,     0.7181742787,    -0.3370696008,   -0.08312856406,     0.8642038107,     0.8557964563,      -0.63898772,     0.3967254162,   -0.02504712902,   -0.05240526423,     0.6276122332,      0.212033838,    -0.8940003514,    -0.2693707943,     0.8219556808,     0.3736109436,    -0.8253303766,    -0.8008809686,     0.1318423897,     0.8634328842,     0.9338278174,    -0.9025524259,    -0.2226231843,     -0.890201211,    -0.5702701211,     0.6283884645,    -0.6199037433,     0.1348934323,     0.2732399702,    -0.8093364239,    -0.3172019124,    -0.8248332739,     0.1090478376,    -0.1154109687,   -0.08495053649,      0.962795198,    -0.8044952154,     0.5485103726,    -0.8413396478,     0.9031426907,     0.7311120033,     -0.229340896,    -0.8865698576,    0.01582533494,     0.6330563426,    -0.6002967358,    -0.1567778885,     0.7462117672,        0.4008497,      0.203565523,     0.3240044415,     0.9454289675,    -0.8476165533,     0.1931630373,     0.3158288002,     0.3560813069,     0.1953945905,     0.5682839751,     0.1549789459,     0.9947619438,      0.490300715,    -0.1228032857,    -0.7940519452,     0.4008612335,     0.3728653491,     0.2061599493,     -0.255649209,     0.1386659443,     0.2000698447,     0.1543074399,    -0.4465963542,     0.4928586781,    -0.7228650451,     0.7082589865,   -0.04762478173,    -0.8119056225,    -0.5613603592,     0.5731517076,     0.9218527079,    -0.7854058146,    -0.9338771105,    -0.6713843942,    -0.6489890218,     0.7106273174,     0.7367300391,      0.261862427,     0.5600374937,    -0.6837779284,    -0.4004917741,    -0.3152627647,     0.6722627878,     0.5768002868,    -0.8636207581,    -0.2957706153,    -0.6081893444,    -0.6298521757,    0.09260198474,     0.2257244289,    -0.3726250231,     0.3531122804,     0.8552315235,    -0.1666705161,     -0.359886229,    -0.7126715779,     0.6842592359,    -0.8487719893,    0.05992112681,    -0.8275997639,      0.683056891,     0.2331735939,    -0.3274100721,      0.731869638,    -0.7521027923,     0.2852891088,     0.9500267506,    -0.3918592334,      0.310669452,    0.08904218674,     0.9976164103,     0.8933913112,    -0.3729304969,    -0.1377325505,     0.7835754752,      -0.82345438,     0.4678482115,    -0.9936071634,    -0.5408881903,    -0.2164167315,    0.06786017865,     0.4490039945,     0.7534870505,     0.5821819305,    -0.6976967454,     0.6841446757,    -0.8103558421,     0.1237344518,    -0.8409695029,     0.2023600638,    -0.4030731618,     0.2128877342,   -0.04232050478,     0.2996792495,     0.6029974818,   -0.08261030167,     0.8051077724,     -0.102174826,     0.6839492917,    -0.2452241778,     0.7259603739,    -0.5926657319,     0.7150658369,     0.6837588549,     0.2286960483,     0.1127402186,     0.9396219254,      0.270739466,    -0.8937417269,    -0.9445539713,     0.5837984085,     0.6336360574,    -0.4752365649,    0.06529463083,    -0.9458891749,    -0.0100049125,    -0.2297308743,     0.1509663314,      0.187257424,    -0.1513609439,    -0.4766928852,    -0.3951538503,     0.1391237378,     0.2119270712,    -0.9658203721,     0.1744250208,    0.03770378605,    -0.9730380774,     -0.894577682,    -0.9649637341,    -0.4158799052,     -0.149794668,    -0.4736184776,    -0.3047584593,    -0.7378454208,    -0.1164164394,     -0.646301806,     -0.605055809,     0.5786017776,     0.3370347917,     0.1566351503,     0.7439482212,     0.3644534051,     0.7165006995,     -0.322116375,    -0.5773456097,     0.1767143309,    -0.3811441064,   -0.08293486387,    -0.2028726339,    0.02409508266,     0.2825646102,     -0.656390667,    -0.6204413176,     0.8114172816,      -0.98120749,    -0.3534133136,    0.08036661148,   -0.02346100099,   -0.09923066199,     0.9053282142,    -0.2379200459,    -0.5180438161,     0.8024642467,     0.5094444156,    0.08143155277,     0.7146117687,     0.1031745598,    0.01704987325,    -0.4651857018,    -0.2190618068,    -0.4808034301,     0.5906608701,    -0.6210413575,     0.2297146767,     0.6869008541,    -0.8320615888,     -0.359608531,    -0.1868268847,     0.2849938571,     0.2668421268,    0.04265668988,    -0.7445405722,     0.5710571408,    -0.4597138464,    -0.5919954181,    -0.6552637219,     0.9303973913,    -0.4314886332,     0.6821348667,    -0.1552291512,     0.8909046054,    -0.6136261821,   -0.01159353741,    -0.6444193125,   -0.01298240479,   -0.03789704666,     0.3100877106,     0.1060451269,     0.2258567661,    -0.1703770459,    -0.3547670841,    -0.1019387022,     0.2039745897,   -0.05494434386,     0.4984014332,    -0.6591912508,    -0.3113341928,    -0.8561012149,   -0.04194761813,     0.6728103161,     0.8623625636,    -0.6713604927,      0.693385303,     0.1004211158,    -0.7862572074,     0.3347358108,    -0.8951843977,     0.1454125494,     0.8919084668,      0.770958066,     0.6678669453,     0.1102225482,    0.05703076348,    -0.8095557094,     0.1413141489,     0.4306942225,     0.3752924204,    -0.4792559445,    -0.2971419096,    -0.8630543947,    -0.2150838822,   -0.03291270509,    -0.2600683272,      0.464538157,     0.3834274709,     -0.193135798,    -0.7798910141,     0.6160777807,     0.4219573736,      0.607015729,     0.1674675643,    -0.3053456247,     -0.552957654,     0.6350986362,     -0.134326458,     0.9046288133,     0.1400621235,    -0.3003032506,    -0.4872395694,     0.8380455971,     0.3626234233,    -0.3602207303,     0.3422549963,    0.01080442686,    -0.5985758901,     0.7298843265,      0.080361709,     0.5731830001,    -0.2134534568,     0.4987787604,    -0.1442615539,     0.7239681482,     -0.664742887,     0.3016709089,    -0.1740811914,    -0.2069121599,     0.4312770665,    -0.8391395807,    -0.6210300922,     0.0852598846,    -0.8505523801,     0.2375347018,    -0.5812830329,     0.3860168159,    -0.3893145621,    -0.4041436017,     0.2263950408,     0.4867805541,     0.3062883317,    -0.7617482543,    -0.1573101431,     0.3120430708,    -0.5895268917,     -0.662751615,    -0.8848846555,     0.7307165265,    -0.7787471414,     0.6832023859,     0.8282054663,     0.6711512804,    -0.5228554606,     0.6166419387,     0.4950836599,     0.2828347981,    -0.3550540805,    -0.4536098838,   -0.05381346866,     0.9809519649,     0.8042137623,       0.15822725,    -0.5478608012,     -0.460236609,    -0.6348503828,    -0.6978208423,     0.7031446695,    -0.7087026238,    -0.5373287797,        0.1329301,    -0.3791689575,      0.288690716,    -0.4448464811,     0.4689600766,    -0.5757961273,    -0.7869586349,    -0.4835971594,     0.3834637702,     0.6539331675,     0.3784303367,    -0.5189481974,    -0.3350455463,     0.2599383593,    -0.5522736907,     0.9168573618,   -0.03145327419,     0.9860945344,     0.8238352537,     0.2730132639,     0.0337636359,     0.6313215494,    -0.5481251478,     0.3948362768,     0.3589276075,    -0.0538953729,     0.5882014036,    -0.6544835567,     0.3390808702,    -0.4594721496,    -0.6303786039,    -0.2399433255,     0.3523834944,     0.9259055257,    0.03633537889,   -0.06554935127,       0.90826267,     0.8158659935,    -0.2982853353,     0.7313830853,      0.363166064,    -0.3272496462,    -0.3295467794,    -0.2306075543,     -0.333632797,    -0.0484544374,  -0.007035947405,     0.4394005835,    -0.9076601863,    -0.8583654165,     0.4849751294,   -0.00173383439,    -0.4005116224,     0.6558468938,    -0.7773653269,    -0.7695665359,    -0.7388185859,    -0.3169843853,     -0.392156601,     0.7489582896,     0.1976422966,    -0.4164493978,    -0.8359521031,     0.7518181801,    -0.4998998344,     0.4225797057,    -0.2600716054,     0.8626386523,    -0.5208059549,    -0.5466423631,     0.3847869933,     0.2165399939,     -0.149451673,     0.6986858249,     0.8952170014,     0.6571255922,    -0.8447493315,    0.05270596221,     0.7682811618,   -0.03659527749,     0.8206873536,      0.934240818,     0.6562230587,     0.4310187101,      0.875229001,     0.3927181661,    -0.1058896706,    -0.7477701902,     0.2579476535,     0.7125493884,    -0.4311043918,    -0.3819415867,    -0.3487746119,     0.2489552498,     -0.825114429,    -0.9906743169,     0.7315758467,     0.8093170524,     0.4382906556,     0.1477331221,     0.8026052117,    -0.8789107203,     0.4875939488,     -0.920421958,    -0.8319987655,     -0.258554697,     0.4746588469,    0.01292265859,    -0.5090712905,    -0.8076887727,     0.1643723249,    -0.7622720599,     -0.664521277,    -0.6535496712,    -0.1339677274,    -0.3966727853,     0.1326257288,     0.4965552688,     -0.765981853,     0.9520674944,    -0.4043200016,     0.0851264894,     0.1019905284,     0.9389551878,     0.3293069303,    -0.5738561749,      0.801538825,     0.4565679729,      0.392778933,     0.7438342571,    0.08890318871,     0.3388916552,    -0.5842237473,     0.4293343425,      0.697837472,    -0.9807903171,     -0.436473459,    -0.8434782624,     0.3804580271,    -0.1000249311,    -0.4443026483,    0.03634903952,     0.3238877058,    -0.5997635722,     0.6671148539,    -0.9153726697,     0.5716899037,     0.9659956694,     0.1222088337,     0.6369656324,     0.6413165927,     0.7959986925,     0.4597785175,      0.275393635,    -0.8022463918,    -0.1487965435,   -0.04014396295,     0.8913455009,     0.1105161384,    -0.2305189967,     -0.783616662,     0.8954917789,    -0.2817347348,     0.6971350312,     0.1634473205,     0.1768751442,     0.7688753009,       0.82744205,     0.2927958667,   -0.06480754167,      0.198299706,      0.440095365,     0.6160737276,    -0.4638904333,     0.3992456794,    -0.8096095324,     0.7407516837,    -0.2676910162,     0.2712563276,   -0.05969938636,     0.8106664419,     0.9480416179,    -0.8042994142,     0.1114802957,    -0.4335212708,     0.2914277613,     0.3618194461,     0.2468001992,     0.1588039547,    -0.3173772097,      0.568749547,    -0.5261896253,      0.824860394,     0.3658667505,    -0.4739904702,       -0.4654468,     0.5028710961,     0.8009724021,    -0.3772629499,     0.4347186685,     0.6536094546,     0.6594800949,     0.8690687418,    -0.8520528674,    -0.7096334696,     0.4446958005,     0.9138934016,     0.8424848318,    0.08565240353,    -0.1814457923,    -0.7638970613,   0.008423060179,     0.7549734116,     0.5933186412,     0.2781997919,     0.9576170444,   -0.03471255675,     0.8406316638,     0.1735903621,    -0.1405629665,     0.4818427861,     -0.459621489,     0.2900929153,     0.2698642612,     0.2808675766,    -0.4604870379,    -0.1672914177,    -0.7560875416,     0.5740349889,   -0.00879075937,    -0.1253775358,      0.700025022,     0.7603102922,     0.4186217785,     0.4926132262,    -0.4716942906,    -0.8823333383,     0.8539225459,     0.7840992808,     0.4843645394,     -0.726252377,     0.3570615649,    -0.7335730195,     0.8874387741,    -0.2780187428,     0.1725973785,     0.5026167035,      0.213333115,   -0.06189660728,     0.9633234143,     0.3345579505,    -0.8805881739,     0.2736746669,    -0.1554098427,    -0.1001954973,     0.1122895777,     0.1736463457,    -0.4002839327,     0.2523411512,     0.2172960043,     0.7175415754,    -0.4003404379,     0.8917877078,    -0.3525824249,   -0.03119910322,    -0.9589817524,    -0.7447770834,     0.1366398484,    -0.9592890143,     -0.143547073,     0.1942362934,   -0.01899856143,    -0.9191140532,     0.2582915723,     0.1330399662,     0.4875855446,     0.8602306843,    -0.4060506225,   -0.05775086582,     0.7635242343,   -0.04931949824,      0.984434545,    -0.7678486109,     0.6702300906,     0.3557997048,    -0.4758153856,     0.1276141852,    -0.1941434592,    -0.7876623273,    -0.3678376377,    -0.5897874832,   -0.07977806777,     -0.124296464,     0.3072679341,     0.4892551601,     0.8884046078,     0.3293870091,     -0.511950314,    -0.5265297294,    0.09558951855,    -0.2383107394,   -0.09134373814,    -0.5898746252,    -0.7123308778,     0.1991961598,   0.008909228258,    -0.6868818402,      0.200746268,     0.4078814685,    -0.7612736821,    -0.6643800139,    -0.1203815937,    -0.4785276651]
