0
weights:
[  0.9134107232,   -1.887636423,   0.2598386407,    1.980003595,   0.9990251064,  -0.6048972607,  -0.3295544982,  -0.4596782029,  -0.4444505572,  -0.8915358782, -0.08262865245,  -0.8479748964,  -0.2704310417,   -1.657001615,   0.7968363762,    1.633459806,  -0.5355145931,  -0.1638416052,  -0.7167948484,  -0.8171069622,  -0.9673988819,  -0.5142264366,  -0.7255368233,   0.4107289016,   -3.260112524,  -0.1981112361,  -0.7404191494,   -0.782382369,   0.8081088662,  -0.5634862185]

biases:
[  0.1154266298,    1.298311353,  -0.4962003827, -0.05876430869,  -0.1873292923,  0.04857432842, -0.01283401251,   0.9000306129,  -0.4149664044,   0.9192906618, -0.02833357081,      1.1158427,  -0.1995427608,    1.436437607,  -0.7263076901,  -0.2341279387,    0.630684495,   0.8175020218,   -0.860489428,   0.9370494485,  0.05199074745,    -0.82788831,  -0.6155723333,  -0.3560276926,    1.211613059,  -0.3022141457,  -0.8716573715,  -0.9599539042,  -0.3004393578,  -0.8738083243]

1
weights:
[    -0.533008635,     0.9022883177,    -0.7791198492,     0.2783893049,    -0.2779173851,     0.2969737947,     0.3533322513,     -0.773457408,    -0.4114077389,     0.8075149059,     0.1151212454,     -0.399540633,   -0.03174630553,      0.106754981,    -0.6289383173,    -0.5237054229,     0.1937980652,    -0.8434526324,     0.5188143849,     0.2105737627,    -0.7466615438,     0.3984355628,     0.1750725359,    -0.9823388457,    -0.6096451879,    -0.6551773548,    -0.2014002204,     0.8709971905,    -0.3740527928,    -0.4314214587,    -0.4888328016,      0.784647584,     0.7634049058,     0.7945313454,     0.8547543883,    -0.6346614361,    -0.5150989294,     -0.577106297,      0.757512331,     0.6155083776,     0.7346429825,    -0.5248759389,    -0.2390856594,     0.4071413279,    0.06774515659,     0.4480840862,     0.6011313796,     0.1891072541,     0.4624797702, -0.0005797490594,     0.5074794292,     0.4866679609,    -0.5535516143,     0.1599309444,    -0.5112470984,   -0.07846343517,   -0.06115145981,    -0.7660109401,    -0.6012917161,    -0.5962591171,    -0.9647722244,    -0.9175953865,     0.7925589681,    -0.5991048217,     0.4669794142,     0.1714888811,   -0.09324122965,     0.2097437829,    -0.3994508982,     0.5619744062,    -0.4060397148,     -0.357845515,     0.7385179996,     0.7962391973,     0.2861938775,   -0.01640467905,     0.3121397793,    -0.9368659258,    -0.2695913017,     0.3107700646,      0.920039773,   -0.02372748032,     0.8638416529,     -0.595380187,    -0.5678668618,      0.911243856,    -0.9463257194,    -0.1883787066,    -0.2706107497,    -0.7189935446,   -0.08859801292,   -0.07958587259,     0.8534981012,     0.1659637988,     0.7637172341,     0.9862191677,     0.8755501509,   -0.05756990239,     -0.881849885,     0.2696392536,     0.9880755544,    -0.9442049861,     0.1371542662,   0.005963545293,     0.7176060677,     0.1473965049,     0.7324552536,    -0.4150117636,    -0.1227300465,    -0.2286403179,     0.2377628684,    -0.1283259243,    -0.6416431069,     0.1083848178,     0.8497177958,     0.9575016499,    -0.4667602777,    -0.3380888999,     0.7369502783,    -0.4757977426,      0.555939734,    -0.1572182178,    -0.6741752625,    -0.9470894933,    -0.7813106179,     0.6662610173,    -0.3071923852,     0.7517940402,      1.006727219,    0.08040963113,    -0.2091740817,     0.3029393852,    -0.5747899413,     -0.167182669,   -0.08896124363,     -0.696270287,    -0.9697875381,   -0.01199634653,    -0.6874356866,    -0.6205742359,    -0.4453089535,    -0.7104222178,     -0.176094383,    -0.3615352213,     0.1365677118,     0.3097988367,     0.2921444178,     0.5807321072,    -0.7378987074,     0.2241484225,     0.7288331985,     0.1370791793,    -0.8210529685,     0.3102889955,    -0.9226896167,    -0.9475919008,     -0.508061409,     0.9562221766,     0.3811509609,     0.2052957267,    -0.3200585842,    -0.7729711533,      0.364803195,    -0.2861152887,     0.5407583714,     0.7949769497,    0.04587173462,     0.6807076335,   -0.06759476662,     0.9162282348,     0.6218996048,     0.9073314071,    -0.5986796021,    -0.9941486716,      0.404273361,    -0.9079595208,    -0.9874457717,    -0.6649360061,    -0.8807095289,    -0.7839792967,    -0.8687564731,     0.5405086279,    -0.4934534431,    0.03628227487,     0.4498972595,     0.7409437895,     0.3738188446,   -0.08395418525,     0.9851311445,     -0.187732175,    -0.9270092249,    -0.7006285787,   -0.06499111652,     0.1215493828,      0.224329412,     0.7513683438,    -0.9195459485,   -0.06494051218,     0.1121295691,    -0.7565888166,    -0.5514272451,     0.5212167501,     0.1950310469,     0.5577042103,    0.05361456051,      0.705955267,      -0.43695122,     0.4115486145,     0.4915768504,    -0.4095431566,    -0.8289779425,    -0.4776781797,     0.6253011227,   -0.07394398004,      0.863493681,    -0.6518695951,   -0.09548281878,     0.2201037407,     0.6101633906,     0.8819963932,    0.06101346016,    -0.5100430846,    -0.5487542152,     0.3766934276,    -0.2318406701,    -0.1618572623,    -0.8937681317,     0.7144566774,     0.2275167555,   -0.08193528652,     0.2171534598,    0.03950562701,     0.5007864237,     0.2054018527,     0.9851606488,    -0.0729637742,     0.7571892738,     0.2728490829,    -0.9724183083,    -0.3650592566,     0.1108709425,    0.04890182987,     0.1772288084,     0.4136778116,    -0.5569726229,    -0.7915731668,      0.568975687,    -0.7234358191,     0.2085006088,    -0.8338853717,    -0.9582489133,     0.3372661173,    -0.5073358417,    -0.6171694994,     0.5597457886,    -0.8067907095,     0.2337041199,     0.8330823779,    -0.5189276934,     0.7169909477,     -0.815094173,     0.9106594324,     0.7256436348,     0.1135028377,    0.06589261442,     -0.165922001,    -0.6087886691,     0.3688961864,   -0.00925278943,    -0.1703122109,    -0.8169669509,      0.674382627,     0.2016957998,   -0.09048339725,     0.2155851126,    -0.7856551409,    -0.6083148122,     0.1372293532,     -0.181535244,    -0.9414452314,     -0.763205409,      0.501095295,     0.4604002535,    -0.9127246141,    -0.9939325452,     -0.287987262,    -0.3577343225,    -0.8616443872,     0.5034631491,     0.7108761668,    -0.4166042209,   -0.06650695205,    -0.4028906822,     0.4085664451,      0.354883492,    -0.1197075844,     0.5730791092,    -0.8695521951,    -0.8004893064,    -0.3948219419,     0.5720104575,    -0.9625982642,    0.01768529415,       0.75922966,     0.6357402205,     0.5083424449,    -0.1450526267,    -0.8901081681,      0.089134112,    -0.6502107382,    -0.2622860074,    -0.5908726454,    -0.6550635099,    -0.8552156687,    -0.3996189237,     -0.622487843,    -0.5908486843,    -0.6490515471,    -0.6040445566,    -0.4575859904,    -0.6516975164,     0.1140878201,    -0.7556422353,    -0.2951037586,     0.8063400984,    -0.5059356689,     0.7907326818,    0.07001198083,    -0.7723180056,     0.3634874225,     0.4553929567,     0.3610392511,    -0.7811113596,    -0.8086668253,     0.9530839324,    -0.3099118471,    0.05858813971,      0.471185416,     -0.555547297,    -0.6939166784,    -0.6657598615,     0.9828334451,     0.4609787464,     0.3326076865,     0.5713286996,     0.7887256145,     0.4367907047,     0.5346215367,      0.727648735,    -0.5414403677,     0.1153308675,     0.6491362453,    -0.2584764361,    -0.5187681913,     0.9261288643,    -0.4689789414,    -0.5223761797,   -0.08464943618,      0.973647356,    -0.6916825771,    -0.5843919516,    -0.4563381672,     -0.538936317,     0.2362156659,    -0.7454390526,     0.2123675495,    -0.1563239694,     0.6025586128,    -0.7838999629,      -0.49849087,    -0.1307836771,  -0.006347537041,    -0.1774779558,    -0.9400940537,    -0.7619168162,     0.0626488924,      0.849254787,      0.722756803,     0.2993500829,    -0.2088487893,     0.3807851076,     0.2127998471,      0.654615283,     0.5105646253,    -0.8769500852,      0.742284894,     0.6575583816,     -0.125934571,    -0.7225703001,    -0.7071384788,     0.1095217466,    -0.3872298598,    -0.3099771142,    -0.9260057807,     0.9390931726,     0.4536949396,     0.1808227003,    -0.8450201154,     -0.430290103,    -0.4927515388,   -0.01304958388,    -0.8142135739,    0.07527914643,    -0.3676114976,     0.1220799685,     -0.415358901,     0.4446566999,    -0.3045392632,     0.6779851317,     0.3773708045,    -0.6226152182,     0.6473949552,    -0.7387279868,     0.4470129311,     -0.566290617,    -0.2660260201,    -0.9876937866,    -0.5821092129,     0.6415932775,     0.9862733483,     0.5880355239,    -0.4990752339,     0.9348518848,    -0.2125124782,    -0.8793288469,     0.4836505651,    -0.5793953538,    0.05533755198,    -0.7058593035,     0.4566671252,     0.5730080605,    0.01759599708,     0.2991535366,      0.796391964,    -0.5190250874,    -0.8844379187,     0.7879710793,    -0.4083372355,    -0.9134762883,     0.5009080172,     0.7958167195,    0.05959597975,     0.4786713421,    -0.3485776782,     0.2684885263,    -0.1812087595,    -0.8218019605,     0.2465309203,     -0.936416328,     0.8589397073,     0.6898118854,    -0.2015841156,     0.1921917349,    -0.1147019193,     0.8014335036,      0.908955276,    0.03668868542,    -0.7721978426,    -0.8322567344,    -0.3331515789,     0.7328807712,     0.7805604935,    -0.6219374537,     0.9434411526,    0.07667055726,    -0.9878641963,     0.4840854704,    -0.6144212484,    -0.4242120087,     0.7788002491,    -0.8409047127,    -0.7190362215,     0.1607564837,    -0.2648622394,    -0.6832993627,    -0.9068806767,     -0.604422152,    -0.8653200865,     0.5253921151,     -0.328887254,    -0.2846832573,    -0.1252883673,     0.6145957708,     0.6489052773,     0.7186874151,      0.142021969,    -0.9507803321,    -0.7600753903,     0.1779162884,    -0.4083894789,     -0.245171085,     0.3454632163,    -0.5692080259,    0.09297231585,    -0.5147767663,    0.08777784556,  -0.006890340708,    0.02388221025,    -0.2250966877,    -0.3820227683,       0.50860852,     0.3517099619,    -0.8764686584,     0.8481406569,    -0.3389924467,     0.5380340815,     0.7295011282,     0.5268594623,     0.8144836426,     0.7739676237,    -0.3065705895,    0.05105768144,     0.7346755862,    -0.2001222521,     0.3270444572,   -0.05625872687,     0.4358136654,     0.9044706821,      0.411640048,    -0.9129265547,     -0.108923912,     0.4480521381,     0.9087939858,     0.9900128841,      1.009927154,     0.3297137022,    -0.6935347915,    -0.5467197895,    -0.7769595981,    -0.7220267057,     0.1249339208,     0.5343651175,    -0.6156873703,     0.4396512806,     0.8458802104,   -0.07034174353,     0.6925514936,    -0.6412129998,     0.9232289791,    -0.1947243214,     -0.242377907,     0.5258201361,     0.2551436126,      0.255020082,    -0.3500190377,     0.5352704525,     0.6908758283,     0.4857856333,     -0.332002461,     0.8060250282,    -0.5879423022,      0.322303921,    -0.4308633804,    -0.9980562925,     0.2591356635,      0.604023695,     0.6897598505,   -0.06132759154,     0.4441651106,    -0.9936050177,   0.007210652344,    -0.5251322389,     0.2812190652,    -0.6568306684,     0.4580278397,    -0.6256611943,     0.5780420303,     -0.235690698,   -0.03576322645,     0.5247910619,      0.427636236,     0.4855456054,    -0.8449416757,     0.2184867859,     0.7595732808,    -0.9188844562,    0.05744097754,   -0.06045449898,    -0.2553663254,     -0.538918972,     0.1914355457,    -0.7249327302,    -0.7175396681,     0.4181971252,    -0.9290627241,     0.9120185375,    0.07500328124,     0.9304443002,     0.3257699013,    -0.2659682035,     0.3772158921,      0.450327456,     0.2038427889,     -0.354617089,     0.7915078998,      0.606046319,    -0.6974000335,     0.9861608744,    -0.3390372396,    -0.8020094633,     0.8139687181,    -0.3009585738,     0.9366522431,    -0.4564267695,      0.278673172,     0.2148468345,     -0.082508035,     -0.112336047,     0.5832855105,    -0.1253652126,    -0.2309085131,       0.79294312,    -0.7691915631,     0.4185464084,     0.5975157619,    0.06032298878,     0.1803555787,      0.381424576,    0.01916143671,    -0.8433930874,     0.9011877775,    -0.3466129899,    -0.4756836891,     0.2200638056,    -0.3749732673,   -0.02535403706,     0.1526683569,     0.1453246921,     0.3453859389,      0.159432739,   -0.03436379135,    -0.6377077699,     0.6957998872,    -0.4399068952,    -0.7471005917,     0.4201880693,     0.4338845313,    -0.4914216697,     0.7682548761,    -0.5668893456,     0.0886272043,     0.2852137089,    -0.5022643209,    0.03656506538,   -0.09575419873,     0.7196683288,     0.3234651685,     0.3417690992,    -0.2578221262,   0.007577910554,       0.30535537,    0.02216112614,     0.8748512268,    -0.4170268178,    -0.3788111508,    -0.1248623729,    -0.6350318193,    -0.3235813379,     0.6129171848,    -0.3878896236,     0.5756826997,    -0.5206323266,     -0.733294487,      0.814913094,     0.9938405156,    -0.6560820341,     0.1820247173,     0.5135751963,    -0.4415782094,      0.778052032,    -0.8536065221,    -0.9537807107,   -0.01869551092,    -0.9218353033,     -0.479433924,    -0.8325263262,    -0.3031057119,     0.1327582598,     0.6759499907,    -0.1348885894,    -0.6418557167,     0.1530386358,    -0.0827389434,     0.1675410271,      0.901550591,    -0.5129830241,     0.8725472689,     0.4538307488,    -0.9725999832,     0.2786531448,     0.4389418066,  -0.002827347023,    -0.2767065167,     0.4488811493,     0.3683652878,    -0.8497467041,    -0.9530387521,    -0.4452807903,    -0.3683790565,    -0.4528770447,    -0.6878119707,     0.5789262652,       0.80198735,    0.06448471546,     0.0639231205,     0.7448414564,    -0.8820230961,   -0.07351320982,    -0.9366926551,     0.4427166581,    -0.6166770458,    -0.3308192194,     0.6211080551,    -0.4325574338,    -0.5574321747,     0.9013882279,     0.4578095376,    -0.5535330176,     0.8987751603,   -0.08930834383,     0.2841957211,   -0.01629709639,    -0.3340704739,    -0.5355970263,   0.001701754867,     0.4913464487,     0.9554619789,    0.01581835747,    -0.9331545234,     0.6546968222,     0.2175964415,     0.1937420964,    -0.1209913045,    -0.2111489177,   0.007866051979,    -0.6035619974,    -0.8908772469,     0.9653077126,    -0.6596783996,    -0.7545922995,    -0.2297087312,    -0.8088995218,    0.09092766047,    -0.8730064631,     0.9202578664,    -0.2255049348,    -0.6457844377,     0.2145726681,     0.9867602587,     0.3645664155,    -0.8182349205,    -0.2034775466,     0.9323214293,     0.4081305265,    -0.3753632307,    -0.4877883494,     0.7479341626,    -0.5074849129,   -0.02264444157,  -0.006171681453,    -0.8510062695,    -0.9178757071,     0.9606327415,     0.7183853388,    -0.6868184209,     0.2919779122,     0.5606126785,     0.5184059739,     0.3820834756,    -0.3212204874,     0.3505774736,     -0.114348866,     0.6568369865,    -0.1513863355,    -0.7795571089,    0.04114940763,    -0.3160345852,     -0.767829299,     0.2660253644,    0.08779685944,     0.5411852598,    -0.9957509041,     0.8167566657,    -0.9565083385,     0.8575438261,     0.9748851657,     0.6152656674,    -0.9882993698,     0.9103668928,     0.7870224118,    -0.1299594641,     0.5158648491,    -0.5038027763,     0.6343721747,    -0.3305425644,     0.7546901107,    -0.5779926777,     0.7232384682,     0.2872663438,    -0.2444649637,    -0.4194087982,     0.3316067457,    -0.4104388058,    -0.5573176146,     0.1476865262,     0.9803497195,    -0.3067362905,     0.1063716561,     0.5072420239,     0.2179829329,     0.6482824087,    -0.6510519981,    -0.1725434661,    -0.4724576771,    -0.6697266698,    0.07026118785,      0.780852437,     -0.102209948,    -0.5435979962,     0.5866776705,    -0.7959874272,     0.4850613177,      0.132932514,    -0.8888658881,    0.06979202479,    -0.7117646933,    -0.7437548041,    -0.1500031799,     -0.400758028,     0.1667715162,    -0.9044315815,    -0.6371753812,     0.5106033683,     0.4726439714,    -0.2954182923,    -0.5703800321,     0.4991012216,    -0.4208150506,    -0.1877634525,     0.2440705299,     0.2499347925,     0.2839851975,    -0.4861954749,    -0.9896293879,    -0.5118865967,    -0.1106154323,     0.2905108929,     0.3391392529,     0.6835435629,    -0.7480916977,    -0.2184549868,     0.1277793348,     0.5118429065,    0.07833341509,     0.3569016755,     0.4796209633,    -0.3900378048,    -0.5860033631,    -0.4701232612,     0.1932006478,    -0.1304406822,   -0.08998960257,    -0.9035797119,    -0.4711658955,     0.1867877096,    -0.6932115555,    -0.3017078638,    -0.1371279657,    -0.9763251543,    -0.9953605533,    -0.1817467809,     0.9125648141,     0.9405030012,     0.9047374129,     0.7805030346,    -0.4906328022,     0.5534376502,     0.5817052126,     0.4574800432,     0.7226104736,    -0.3744246364,     0.8225777149,    -0.8571777344,    -0.6182030439,    -0.1662563682,     0.4499861896,     0.5013426542,      0.830630362,    -0.8306473494,    -0.8504961729,    -0.2317159176,    -0.7801603079,    0.01803851128,    -0.9803207517,     0.3731534779,    -0.1041364521,     0.5987596512,      0.120441623,     0.6191976666,     0.8727860451,   -0.04343515262,     0.1970442683,     0.3601023257,  -0.007126267068,    -0.2101662755,    -0.2030784935,    0.07460776716,     0.8241569996,    -0.3949708939,    -0.4477849603,    -0.1702864021,    -0.7829837799,     0.8552565575,    -0.6686933637,    -0.4912095368,    -0.4367964268,     0.9234022498,    -0.9655872583,    -0.2459807247,    -0.3205142915,    -0.7493726015,    -0.3276599646,    -0.8808577657,    -0.3591071963,     0.6257510781,    -0.1014638618,    0.07685355842,     0.7283702493,    -0.6321642399,     0.5350576043,     0.2360306233,    0.05950532854,    -0.5541117191,     0.3141458631,    -0.3181993067,     -0.892350316,     0.4565474689,     0.1969049126,    -0.7861620784,    -0.7611564398,    -0.8231419921,    0.08385986835,     0.8051977754,     0.1764822304,     0.9899966121,     0.5728396177,     0.3129717112,    0.05904841423,   -0.09669059515,    -0.7331523299,    -0.5959239006,     0.2216071934,    -0.3049721122,     -0.558539927,     0.6330600381,    -0.5940930247,       0.47134763,    0.02661134303,    -0.4318007231,     0.6952089071,    -0.5665729046,     0.2220835239,     0.4156538248,    -0.1761551499,     0.2346163094,     0.5040248036,      0.373039782,   -0.08243888617,    -0.7391471267,    -0.4644167423,     -0.725913763,    -0.6057198644,    -0.7085833549,      1.002307057,     0.9944874644,     -0.227902472,     0.3958117962,    -0.5520003438,     0.7692399025,    -0.9420574903,    -0.1946713626,    -0.8183626533,    -0.6992468238,    -0.6831519604,   -0.06738873571,     0.5805203319,     0.1293402612,     0.3867276609,    -0.5538030863,     0.8459200263,     0.2560253739,   -0.07821631432,     0.7066979408,     0.8589705229,     0.8338864446,    -0.1259875447,    -0.6801691651,     0.9317388535,    -0.7804154158,     -0.522354126,   -0.02639078908,    -0.2403870672,      0.312807858,    -0.7184328437,      1.001560926,    -0.9325943589,     0.3445695639,     0.4805802107,     0.6758716106,     0.8346706629,      1.001900554,    -0.3909309804,    -0.8737059832,     -0.223807171,    0.02737879753,     0.3601790071,    -0.5982417464,     -0.810360074,    0.04371840134,     0.8547980785,    -0.7764406204,    -0.9895251989,    -0.8488622308,     0.7986524105,    -0.9100068212,     0.8498474956,     0.1250140667,    -0.3127951324,     0.3030121922,    -0.9554610252,     0.4342436194,    -0.3377050757,    -0.7935502529,    -0.5934298038,    -0.4514869452,    -0.4141146541,    -0.6655781269,     0.1034541205,    -0.4227071702,     -0.886085093,    -0.1535859704,     0.4201740324,   -0.02879346348,    -0.8346585035,    -0.4960340261,    -0.9619758129,     0.2410190105,    -0.2866617739,    -0.8156479001,    -0.5021893382,    -0.7015231252,     0.5780422688,    -0.6747586727,     0.5416733027,    -0.6230153441,    -0.4599015117,     0.1326905787,    -0.6467777491,     0.8128034472,     0.7067303061,    0.02773684449,     0.2826198339,    -0.6440796852,     0.7976858616,    -0.7147854567,     0.4782301188,     -0.748547554,     0.1391434669,     0.5863027573,     0.9549301267,    -0.8120359182,     -0.196129337,     0.4429520369,    -0.2274931222,     0.7735452056,     0.5966822505,     0.8207447529,    -0.9096195102,    -0.1279255152,    -0.5226915479,     0.7474836111,     0.2441672534,     0.9862163067,    -0.6833802462,    -0.9841194749,     0.9740637541,   -0.01509530097,    -0.3179631233,     0.8675307035,   -0.01512257196,    -0.4501981437,    -0.4501287937,     0.6240462065,    -0.7460206151,    0.03843838722,    -0.5033127666,    0.05324434862,    0.09579825401,    -0.2916856408,     0.6016529799,    0.07137581706,     0.9017401934,     -0.764647305,    -0.1403227597,   -0.04899266735,     0.6904970407,    -0.6910516024,     0.2216322869,    -0.9337656498,     0.7833785415,    -0.4095283151,     0.8718962073,   0.005503768101,     0.3001173437,    -0.2445576191,     -0.601685524,     -0.404410243,     -0.811060667,    -0.1206983328,     0.8177016973,     0.7349312305,    -0.7826913595,    -0.8567261696,    -0.6840254664,    -0.9427719712,     -0.594019711,      0.630831778,     0.6083636284,    -0.2488330007,    -0.8886211514,      -0.74457407,     0.4233689606,    -0.7189333439,     0.4587168396,    -0.2822300792,     0.6698340774,    -0.0241471678,   -0.04417826608,     0.6776218414,   -0.06064332649,    -0.3708828688,     0.5622496605,     0.2328147888,    -0.7491108775,     0.1418582946,    -0.8103346229,     0.9625471234,     0.8848199248,    -0.5190945268,     0.7149028182,     0.3322629631,    -0.7566669583,     0.8465631008,      0.129253149,     0.6296742558,    -0.9365992546,     0.7403855324,    -0.1973846555,     0.7980119586,     0.1413114071,    -0.3382504582,    -0.2193962783,    -0.9005535841,    -0.4258849621,    -0.6450762749,     0.9026802182,    -0.7647433877,     0.7777532935,     0.5496809483,     -0.215330556,   -0.09687098116,     0.6882457733,    -0.8966456056,    -0.3395931721,    -0.5048261285,    0.05253430456,    -0.6619119644,    -0.6461403966,    -0.2891471982,      0.593840003,    0.08377141505,    -0.2918362021,    -0.9055444002,     0.8785460591,      0.483460933,    -0.3909248114,     0.6961710453,     0.4235787094,    -0.2298668772,    -0.7228533626,     -0.620372057,    -0.3036327362,    -0.8639574647,    -0.6073254943,     0.2539398074,     0.8752955198,     0.9210329652,     0.6353470683,    -0.9121893644,    -0.3910245895,    -0.5176209211,    -0.7696859837,    -0.3996704817,     0.7321059108,    -0.7982950211,   -0.05812913179,     0.4739328325,     0.3430161774,     0.4730283022,     0.3167692423,     0.4404069185,    -0.3538660407,    -0.1607442051,     0.5295941234,     0.1234495044,     0.5747858882,     0.6730124354,   -0.09107676148,    -0.3095036447,     0.1114578694,    -0.1745575368,    -0.6807070971,     0.8385896683,     0.4149845839,     0.7893022299,     0.2147649378,     0.8620111942,    -0.1514057219,    -0.9611104131,     0.9045128226,    -0.8233596683,     0.5735545158,    -0.3440186083,      0.360687077,    0.01296055596,     0.9899501204,    -0.6351404786,   0.004079781473,     0.6830673814,    -0.5991571546,     -0.395319432,    -0.4670221806,    -0.7538717985,     0.3323836029,    -0.2947177887,     0.7515870929,     0.3205806017,     0.8860497475,     0.5184462667,   -0.07100060582,    -0.5359671712,     0.7920894623,     0.3632015288,    -0.8935101628,    0.04523391277,    -0.3325147331,     0.4565810263,    -0.4044201672,     0.4762119055,    -0.2535728812,     0.4569886327,    -0.7728210092,     0.6871781945,    -0.5043712258,     0.3255610466,    -0.7411635518,   -0.02905142307,     -0.168100059,    -0.7821078897,    -0.3143074811,    -0.2326163948,    -0.6760059595,     0.1223398894,    -0.1806027144,      0.953409493,   -0.09792152792,    -0.4702768028,     -0.136757493,     0.1665920019,     -0.829675138,     0.3705432415,   -0.03524141386,      0.678853333,     0.8392778635,     0.8869653344,     0.9762116671,     0.3308025002,    -0.7632689476,    -0.5349287987,    -0.1178157181,     0.8570660949,    -0.8244330883,     0.2057005465,     0.5318059921,    -0.4374369085,    -0.6048214436,     0.2724808156,     0.7878620028,    -0.4060282409,    -0.9443371892,    -0.2283029854,    0.03841586038,    -0.3429637551,     0.6210967302,     0.5135705471,     0.9484556913,      0.543598175,    -0.5293067098,    -0.6192774177,     0.7225382328,     0.7531016469,     0.7699609995,    -0.8125253916,    -0.3513545692,     0.9634233713,    -0.2424875349,   -0.04874104261,    -0.4370975792,  -0.008499146439,    -0.3218130767,     0.5669162273,    -0.3523150086,      0.932693541,   -0.05760392174,     0.8290266395,     0.8134687543,     0.7254661918,    -0.9768975377,    -0.8221902251,      0.227089867,     0.7813226581,    -0.5218310356,    -0.5527870655,     0.4369369447,    -0.3767099679,    -0.6441688538,     0.8823379874,    -0.9787517786,      0.987855494,    -0.2654135227,     0.2929318845,     0.8662000299,    -0.5728039742,    -0.7764251232,      0.350728333,     0.7461182475,     0.7945183516,     0.4887093902,    -0.7147426009,    -0.3462557793,    -0.4162605405,     0.9148010015,   -0.08876481652,    -0.5756732821,    -0.2578293979,     0.7800073624,    -0.9999380112,    -0.2885074317,     0.6664414406,     -1.009172678,     0.3706484139,     0.2369688749,    0.01618631743,    -0.1855778098,    -0.7979127169,     0.4345657229,     0.5865924358,     -0.541092813,    -0.8730713725,     0.8092048168,     0.7514787912,    -0.5464193225,     0.8967467546,     0.8025144935,    -0.3155238926,      0.363720566,     0.5050445795,    -0.4631524086,    -0.1824971586,    -0.6191380024,    0.09772241116,   0.008805828169,    -0.1813584566,    -0.4510679841,    -0.9352140427,    -0.4332944751,    -0.3857566118,    -0.4277635515,    -0.7972188592,     0.2878485322,      0.714773953,     0.7484967113,     0.6463671327,    -0.7279297709,     0.8133710027,    -0.3318037093,    -0.1438558549,    -0.4670484662,      0.820168972,    -0.2370920628,     0.5597603321,     0.1526448727,   -0.01504125539,    -0.7458625436,   -0.06250014901,     0.6460229158,     0.0901722908,     0.7447185516,    -0.4699678123,     0.5255053043,     0.6188799143,    -0.1012535468,     -0.118673034,    -0.6191798449,      0.908352077,    -0.9023897052,     0.8450604677,    -0.6448726654,    -0.7973875999,    -0.5229642391,    -0.2189653665,     -1.007401466,    -0.9672036767,    -0.6228773594,    -0.4363530278,     0.5535271764,    0.06172789261,     0.2961691618,     0.7913336754,    -0.9998839498,     0.9333004951,     0.9971621037,     0.7435273528,     0.7663149834,    -0.4243686199,    -0.8085764647,     0.4613596201,    -0.6988371611,     0.9667087197,    -0.1245538592,   -0.05211931467,    -0.6306120157,    -0.4538292289,    -0.4285776913,     0.7057852149,    -0.5892903805,     0.3909877241,   -0.09490790963,     0.1530885547,     0.3289938867,    -0.2408675104,     0.8810940385,   -0.00973032508,      0.357547611,    -0.4415098429,  -0.001822302234,    -0.3713618517,    0.03470551968,   -0.07477910072,    -0.9771687984,      0.648368001,    -0.9775078893,     0.1095106602,     -0.467179805,    -0.2712315321,    -0.6971329451,      -0.71950984,     -0.119689554,    -0.3353109956,     -0.253072083,    -0.8545398712,    -0.8601736426,     0.1688305587,    -0.6209607124,     0.8679742217,    -0.6188341379,    0.07001471519,     0.3995656371,    -0.1010877267,  -0.000464290526,    -0.9007644653,     0.6859647632,    -0.8925287724,      0.161711067,    -0.1153550297,     0.1063806936,     0.6982601881,     0.3432486355,    -0.9794766307,     0.5061490536,      1.017018914,    -0.6018227339,     0.0412902832,     0.9189439416,    -0.7499418259,     0.2898248732,     0.8915889859,    -0.1706130952,     0.5892212391,     -0.282106787,    -0.1110947877,     0.8924255967,    -0.6449015141,    0.01008963399,     0.5838787556,     0.8566322327,     0.9270762801,     0.8971144557,     0.7800238132,    -0.9145014286,    -0.8477265835,     -0.721100688,     -0.171226263,    -0.7656895518,     0.9023965597,     0.4526017904,   -0.08513015509,    -0.1265700758,     -0.658575356,   -0.02617886476,    -0.8062487841,    -0.5273815393,     0.2527512312,     0.7457104921,      0.224845618,     0.2896898985,     0.5475295186,     0.4704976082,     0.7764546275,     0.1741118729,    -0.6338853836,    -0.9360302687,      0.530139327,    0.02193045802,      0.851757884,    -0.8906095624,    -0.7997501493,     0.2999435961,    -0.7020437717,     0.1570653766,    -0.0570445843,     -0.729341805,    -0.1648343354,    -0.8703506589,    -0.7215512395,    -0.9842113853,     0.6269012094,     0.8381693363,    -0.4545101821,    -0.1525706947,     0.8599883318,      0.164015308,    -0.8576783538,     0.1152775288,    -0.1852796376,     0.7390859127,     0.4394622743,     0.4157401919,     0.1183476895,      0.606759131,     0.3186435401,     0.8096730709,     0.3067189753,    -0.6385160089,     0.7019517422,    -0.8865982294,     0.4320388436,    -0.8203243017,    0.07665847242,    -0.8768616915,    -0.8391905427,      0.698995173,     0.1326301843,    -0.8062146306,     0.2148280144,     0.6254175901,    -0.5623465776,     0.5708842874,    -0.2390352637,     0.6378667355,     0.8131513596,      0.102556631,     0.5507375002,     0.5446023941,    0.05593845248,     0.6317226291,    -0.8979349136,     0.3983856738,    -0.2172209471,    -0.7640871406,     0.2434858978,     0.3647290468,     0.6245513558,    -0.7113523483,     0.8996286988,    -0.2833195329,     0.8357337117,    -0.9744054079,     0.5521844625,     0.7120636702,     0.5013026595,    -0.7969391942,     0.6073741317,    -0.8400995731,     0.5439891219,     -0.242502138,     0.3473651707,    -0.3739275932,   -0.09287363291,     0.6628697515,      0.590713203,    -0.8040924072,     0.8380796313,    -0.2871260047,     0.8902128339,     0.8507004976,    -0.8204442263,    -0.8339248896,     0.8393400908,     0.9568169117,    -0.8785360456,    -0.1739156693,    -0.4028416574,    -0.8797476888,     0.4997579455,    -0.3524396122,     -0.949485898,    -0.5532304049,      0.809438169,     0.8533661366,     0.7807422876,     0.1570057869,     0.8473389149,    -0.8465030789,    -0.5015583634,     0.6213128567,   -0.09055274725,    -0.8254795074,     0.3499478102,   -0.05276563391,    -0.3856027722,    -0.7837570906,    0.01929888502,    0.02263714932,      0.171334669,   0.004331640899,    -0.9810401797,    -0.3836031854,   -0.04252970219,       0.89001894,    -0.1391350478,    -0.4869489968,    -0.1089074686,     -0.100296922,    -0.7591189742,     0.8522391915,    -0.3203713298,      0.820700407,    -0.3191589117,    -0.8096954823,    -0.9760966301,    -0.1122794375,    0.03067829274,    -0.5210636258,    -0.9687469006,    -0.8081099987,    -0.1738222837,    -0.3576208651,    0.03315389156,     0.5174332261,      -0.70072335,    -0.6664969921,     0.3249255419,    0.01055807155,    -0.4444327652,    -0.6871106625,    -0.4212606847,     0.1783905029,    -0.4839120507,    -0.4856343865,    -0.1690527052,     -0.957023561,     0.3313920498,     0.9472759962,    -0.2002562881,    -0.1522473544,    -0.5026015043,    -0.9407801628,      0.706001997,     0.3405930698,     0.7978894711,     -0.415438056,     0.6846753359,    -0.3807148933,    -0.4133873582,    -0.1058313102,      0.190236032,     0.9401640892,     0.2457078844,    -0.2468087226,     0.2081215233,     0.2170408368,    -0.7348666191,     0.8215100169,     0.2186773866,     0.8682457209,     0.5909252167,     0.6260613799,     0.8335601091,      1.004018307,    -0.4801628888,    -0.1929799169,    -0.7320250273,    0.09344481677,    0.04877747223,       0.91228652,     0.9947181344,    -0.3653180897,     0.6492016315,     0.3149425685,    -0.1879685521,    0.04453532398,    -0.4408895373,     0.8030683994,     0.4343043566,    -0.2124813497,    -0.7048838139,    -0.6979470849,    -0.4852882326,     0.6541062593,     0.1199065223,    0.05086638406,    -0.3300130367,    -0.4048306048,    -0.9031024575,    -0.7785491347,    -0.6702846885,    -0.9184645414,    -0.6223759055,   -0.04250387102,   -0.03673452139,    -0.8924114704,     0.8661532402,    -0.6468382478,     -1.006631374,     -0.230693087,     0.8277480006,     0.5131721497,     0.5638077259,    -0.9336726069,    -0.5818215013,    -0.4273288548,    -0.1968005896,    -0.3608606458,    -0.1556038857,     0.6906689405,    -0.7530223727,     0.4680296481,    -0.3402016461,     -0.229814291,    -0.3302385211,     0.5842872262,     0.7038664818,     0.8925988674,   -0.08295924217,    -0.4921850562,    -0.1508763582,     0.8695197701,    -0.8914587498,    0.04680261016,    0.03732505068,     0.3021990359,    -0.8458675146,    0.04752310738,    -0.3242038488,     0.6898447275,     0.1120754778,     0.6572256088,     0.5747361779,      0.637319386,    -0.8026896715,     0.8476471901,    -0.7469742894,      0.051785402,     0.6828445792,     0.1773431748,    -0.4997333288,     0.8404968381,    -0.6250156164,    -0.7718360424,     0.9701523185,    0.07962762564,      0.273173213,     -0.938305974,    -0.3851698339,    -0.8070738316,    -0.2496771216,    0.08275889605,    -0.8726645708,     0.5955793262,     0.5077162981,     0.3836102188,    -0.6004518867,    -0.6025842428,    -0.6681149006,     0.6258946061,    -0.4764057994,   -0.08109723032,    -0.4036232233,    0.02047753334,     0.5065717101,     0.1172536165,       -0.4175843,     0.8160582185,     0.4248366654,     0.1908694506,     0.7202928662,   -0.05779786408,    -0.1241369247,     -0.965007782,    -0.6093100905,   -0.03655773774,     0.5788778067, -6.095161007e-05,    -0.2373574972,     0.1938557923,    -0.5335283875,    -0.6754020452,      0.356515646,    -0.5091728568,     0.1704393476,     0.1051424071,     0.3935212791,     0.5918129683,     0.8977083564,    -0.8453652859,    -0.9806500077,    -0.2704170346,     0.9599527121,     0.5643832684,    -0.1676114053,     0.1517628282,    -0.8176164031,     -0.313123405,     0.5850434303,     0.7728325129,      0.586696744,    -0.6214345098,     0.8801225424,    -0.9324523211,     0.7611728311,    -0.3307296634,     0.6902557611,     0.3176627755,     0.3721254468,    -0.2402646393,     0.5833739042,     0.1163808107,    -0.3340012431,      0.830324173,    -0.3216371238,    -0.5846937895,   -0.03308090568,      0.711155951,     0.2261229008,    -0.7501147985,    -0.9927558899,    -0.5306425691,    0.05104780197,     0.1523913592,    -0.9388897419,    -0.5923069119,    -0.1698369533,    -0.5058271885,    -0.9401387572,    -0.8789048195,      0.723833859,    -0.4675780535,     0.6385939717,    -0.9763913155,     0.6931755543,    0.09577120841,    -0.3451263607,     0.1702094972,    -0.4043501318,     0.7910954952,    -0.3056213856,    -0.3691002727,    -0.4260365069,     0.9055782557,      1.007201672,      0.319437623,     0.5216895342,    -0.9002484083,    -0.6891997457,    0.03802260756,    -0.9692457914,    -0.1188576818,    -0.5166298151,    -0.9290679097,    -0.3950373232,     0.1853634715,    -0.3512439132,    -0.8070392609,    -0.8572773933,    -0.2291314453,    -0.5939555764,     0.4296881855,     0.8499433398,    -0.6639108062,     0.9828960896,     0.8709326386,     -0.307556361,   -0.07735679299,    -0.7934064865,     0.6106470823,    -0.8741112351,      0.157717064,     0.7194615602,     0.1638235748,    -0.7930222154,     0.8628756404,     0.6712386608,    -0.9891730547,    -0.9610396028,    -0.1350043714,     0.5764187574,    -0.6486369371,    -0.4397457242,    -0.7440184355,     0.7023837566,    -0.4044629037,    -0.3858221769,    -0.2320770621,    -0.3406433761,    -0.3214575648,     0.5172893405,     0.3013255894,    -0.7963407636,     0.6369359493,     0.1158345863,     0.4835090637,     0.9983847141,     0.5292736888,     0.6097202897,    -0.5441750884,     0.3925163746,    -0.5347213745,    -0.3466428518,      0.321195364,    -0.5297105312,    -0.7924531102,    -0.3398362994,    -0.2364706546,    -0.1980555654,     0.9588621259,    -0.9734939933,    -0.2445511222,     0.4175350964,     0.3862365186,    0.07720280439,     0.7822380066,    -0.6823845506,     0.4707124233,    -0.9215542078,    -0.6161365509,    -0.9174027443,     0.6038771272,      0.969496727,     0.8593853116,    -0.1307540536,     0.7983078361,     0.6499404311,     0.1002330035,    -0.5873437524,     0.8293677568,     0.8320462108,   -0.06223047152,    -0.9230427742,     -0.983817935,    -0.4252352118,     0.5268702507,    -0.1032968685,     0.3079842627,     0.3215035498,    -0.0104477955,    -0.2897035778,    -0.4106844068,    -0.2961515486,      0.380396992,    -0.8015227318,    -0.6168782711,    -0.6789406538,    -0.5449064374,     0.3414449096,     0.1717133224,     -0.914940536,     0.9003293514,     0.4864414334,    -0.5980976224,  -0.001193416538,    -0.8855458498,    0.08848284185,     0.4504663348,    -0.2636237741,    -0.8493923545,    0.02709395997,    -0.1869371533,     0.1719159484,     0.9560264349,      0.624589324,   -0.02127794921,    -0.6543464065,     0.5103547573,    -0.9332291484,    -0.1587207466,    -0.1842212826,    -0.8528926373,     0.1668565124,    -0.4525626302,     0.8917066455,     0.1693512052,     0.2685668766,     0.1454285532,    -0.2323990464,     -0.445123136,     0.1663989574,     0.6588501334,     0.4654600322,     0.4170731902,     0.9811440706,     0.9288047552,     0.8203744888,    -0.2776659429,    -0.5077102184,     0.4441648722,    0.07724332809,      0.880628407,     0.3121732771,    -0.1573789716,    -0.9241273403,    -0.0550468564,     0.2806499898,     0.7828686237,     0.6355732679,    -0.8948859572,    -0.9467930198,     0.7119814157,    -0.4674113989,      0.114609167,     0.4240591824,     0.2836687863,    -0.8782584071,     -0.465739429,    -0.9832229018,   0.001411398989,    -0.1947892159,    -0.2516278625,    -0.8074908853,     0.5563052893,     0.9026893377,     0.6181775331,     0.3395301998,     0.9438762069,    -0.6509939432,    -0.6877821684,     0.6211098433,    0.06396783143,    -0.9891523719,    -0.8493029475,    -0.4687148631,     0.7288715839,    0.04705937579,    0.02419819869,    -0.4113857746,    -0.3297675848,    0.06012292951,    -0.5482993722,     0.1474908143,    -0.5205926299,    -0.4406673908,     0.4935074449,     0.4837631881,     0.9908183813,    0.08422553539,     0.8873043656,     0.8429182172,     0.3351603448,     0.7807967067,     -0.384916693,    -0.4229567051,     0.8481078148,    -0.9901987314,    -0.4012991786,     0.9210478067,    -0.1139375642,     0.3433675766,     0.6261370182,     0.4958250225,    -0.3656461239,     0.3007340133,     0.7089920044,     0.1984653175,     0.5365831256,      0.447937727,    -0.5347024202,    -0.4694912434,    -0.1357536316,    -0.5903853178,     -0.684207499,     0.2280189395,     -0.791965127,     0.1461698711,   -0.01915685833,    0.06131854281,    -0.1875364482,    -0.5746950507,    0.07689726353,    0.01812689938,    -0.2572442293,     0.6702700853,     0.9683808088,    0.02211966924,    -0.1695181131,    -0.6514697075,    -0.1928884387,   -0.09757071733,    -0.5085161328,     0.7734242678,     0.4411276877,    -0.2532064319,    -0.7498034239,    0.08364094794,     0.1048945934,     0.1369719505,    -0.4303749502,     0.3511805236,    -0.8686174154,     0.1367858052,    -0.1831357926,    -0.6989288926,     0.8761847019,      -0.86196661,     0.5697469711,   -0.06469635665,     0.8755777478,    -0.1539652795,     0.9053223133,    -0.1473252922,    -0.5692973137,     0.3680554032,    -0.8521831036,    0.06275676191, -9.226934344e-05,    -0.1467509121,    -0.1417134106,      0.398548007,     0.3382754922,     0.3589763641,    -0.6504619122,    -0.6957725286,     0.7571772337,     0.2482582331,     0.1859787554,     -0.312254101,    -0.5552068353,     0.1219908893,    -0.6341102123,   -0.07671457529,    -0.8762277961,   -0.08485321701,    -0.7323000431,      0.507578671,      0.381978482,    -0.9815578461,     -0.888217926,     0.8854560256,    -0.8813941479,    -0.7046273947,    0.04528045654,    0.01994968764,    -0.8176982999,     0.0364898257,     0.3002056777,    -0.8258894682,   -0.08281064034,     -0.778781414,     0.9016180038,     0.2120966762,    -0.5136108398,    -0.4454318881,     0.5389710665,     0.7881239057,    -0.6008121967,    0.04869191349,     0.3088845611,    -0.1587533802,    -0.4913879931,   -0.08197868615,     0.5412797928,   -0.08767143637,    -0.4161673486,     -0.443415314,     -0.749227047,     0.7628439665,    -0.6051822901,     0.6996928453,    -0.4301987886,     0.2604407668,    -0.4885139763,    -0.4190424979,     0.6476829052,     0.6521425247,    -0.4900559187,    -0.8688114882,     0.5899067521,    -0.2509215176,     0.8545805216,     0.8248822689,      0.830881238,     0.1397168189,    -0.2169517875,    -0.1649259925,     0.4507704079,     0.2698629797,    -0.2104874104,    -0.4990726709,     0.8254528046,    -0.7639553547,     0.6934853196,     0.3905395269,     0.1199166775,     0.9227323532,   -0.06053380296,     0.9534715414,   -0.09926661104,    -0.7567471266,    -0.1911880821,    0.08596176654,     0.1791572124,      0.330599308,     0.9892506003,     0.6224716306,    -0.5820009708,    -0.4562875926,    -0.3613494337,    -0.1970860213,    -0.1817504168,    -0.6389389634,    -0.3018372059,     0.4046916962,     0.9566455483,   -0.04106259346,     0.1768610775,   -0.08799555898,     0.7361370325,     0.6079107523,    -0.4158075452,    -0.9187200069,     0.6249939799,    -0.8822415471,    -0.6981896758,    -0.6637376547,    -0.5417574644,    -0.4705561996,     0.7806528807,     0.5114501715,    -0.6684890985,     0.7917419672,    -0.2155394256,    -0.4039133489,     0.3752906322,       -0.2752572,    -0.7660654783,     0.5574382544,     0.7123637199,    -0.2907103896,    -0.7129287124,     0.9838386774,     0.6562616229,     -0.617987752,    -0.2631959915,     0.6890687943,     0.7116956115,   -0.09474292397,     -0.458794117,     0.4583469033,    -0.8042498231,   -0.09714090824,    -0.2733995318,    -0.7157401443,     0.5359326601,    -0.4087387621,    -0.5322842002,     0.5052722692,      0.549680829,     0.1943513304,    0.07377111912,     0.3369715214,     0.1345818788,     0.9507620931,      0.786187768,    -0.7470105886,     0.8969715834,     0.5937739611,     0.7945122123,    -0.9214003086,     0.9741338491,     0.6875386834,    -0.8931575418,     0.6871997714,     0.9818195105,    -0.8521347642,     0.1432510912,    -0.5405973792,    -0.1057180166,    -0.5274763703,    -0.5930176973,     0.5974335074,     0.0467264764,    0.07874034345,     0.5022531748,     0.7610811591,    -0.2400687188,    0.06409435719,     0.5349794626,   -0.05575865507,    -0.9902834892,    -0.1620496362,    -0.5924524665,     0.1073070094,   -0.04582619667,    -0.8235729933,    -0.4860526919,     0.7510439754,     0.6200199127,    -0.3269308209,    -0.5288389921,     0.1404150873,     0.5854922533,     0.6784113646,    -0.8739675879,   -0.07565256208,     0.3269942999,   0.001072121668,    0.03847221658,     0.9482426643,     0.3555243015,    -0.9317969084,     -0.464286387,     0.5884289742,   -0.06357383728,     0.6902973056,    -0.3536536992,     0.9535723925,    -0.6822035909,     0.3798764348,    -0.8070985079,    -0.2852659225,     0.1066031307,    -0.8850157857,    -0.6604881287,    -0.4160071015,    0.08965438604,    -0.8551563025,     0.4088914394,    -0.5728693604,    -0.6113482118,    -0.1440997422,    -0.4773496687,     0.6572936177,     0.6731017232,    -0.3806816041,    -0.8827123642,    -0.1482802182,      0.282962203,    -0.6276937723,    -0.1688783616,    -0.2985579371,     -0.871873498,     0.2235247046,    -0.4182017446,    -0.1724512875,     0.6902295351,     0.3575997353,     0.9397394061,    -0.1452915817,    -0.2885639668,     -0.655452013,     0.8617784977,     0.3023281097,     0.2999136746,    -0.2594069541,      0.827737391,    -0.4422157109,    -0.1272840947,    -0.5746218562,    -0.9958145022,     0.1568102688,     0.5305649042,    -0.4560918212,    -0.8975923061,    -0.8694474101,    -0.8315662742,    -0.2363139838,     0.8945134878,    -0.2637048364,      0.808878243,    -0.4868230224,    -0.4273534119,    -0.7530755997,     -0.822467804,     0.7716806531,     0.6076210737,    -0.3191434741,     0.3143872023,    -0.7907118797,    -0.4722664356,    -0.5004748702,     0.5531071424,     0.7781650424,      0.476167202,    -0.9183362126,    -0.6867950559,     0.2930462658,     0.5341445804,     0.3290816247,    -0.7058452368,     0.1541269869,     0.8716592789,    -0.1920713931,    -0.6517522335,     0.4250146449,    -0.2762704194,    -0.9484289289,     0.6336137652,     0.5237803459,     0.6402865052,     0.5573094487,     0.1256985366,    -0.1918320805,     0.3023684919,    -0.9546119571,    -0.8995438218,     0.1883580834,   -0.07934723049,     0.5625414252,     0.5524555445,    -0.5046855807,    -0.7953959107,    -0.6622678638,     0.8022279143,    -0.1874190569,   -0.09758734703,     0.0155364275,  -0.006649197079,     0.3672573566,      0.721781373,     0.7998896837,     0.1044026241,     0.6667894125,    -0.6626594067,     0.8751835823,    -0.4330630302,     0.6899508238,     0.1487284601,     0.6509206295,     0.1319228262,    -0.9396612644,       0.16715087,    -0.9112661481,     0.7358480096,    0.02218084037,     0.5158065557,     0.5423254967,    -0.5844234228,    -0.4818837345,      1.000797391,     0.6783952713,    -0.2552504539,    -0.8395082951,     0.2227742076,    -0.1256556958,    -0.8243908882,     0.9358636737,     0.3043574989,    -0.9987984896,   -0.04991388321,     0.8160043955,    -0.5967786312,    -0.8438623548,    -0.3193385005,     -0.407435149,    -0.9865548015,     0.5810047388,     0.6291236281,     0.5497455597,     -0.951985836,       0.76431036,    0.01391731855,     0.8473500013,     0.7547349334,     0.9319682121,     0.5606716871,     0.4835814834,     0.4672598839,     -0.278434366,     0.6130301952,     0.4112362564,    -0.1838750988,   -0.07800495625,     0.6737183332,    -0.6147530675,    -0.9054714441,    -0.4994573593,    -0.4349883497,     0.5631899238,    -0.2507929504,     0.5690868497,    -0.1708666384,       -0.3130337,     0.3951068521,     0.2789218128,    -0.3587065935,     0.9876472354,     0.9637928605,     0.3765377402,    0.03229089081,     0.2741573751,    0.05344414711,    -0.4190802574,    -0.9230189919,     0.3101507127,     0.6874490976,     0.3278774917,     0.8029417992,     0.4664038122,     0.3390718997,    -0.5727158189,     0.3289379478,     0.7355145216,     0.6990970373,    -0.9087525606,    -0.6079679728,     0.4039734006,    -0.4789541364,     0.6199277639,     0.7965120673,     0.1771573126,     0.7268906236,     0.9252521396,     0.3330921531,    -0.4418033361,     0.6438555717,    -0.4423618317,     0.1245573312,     0.3416600227,    -0.7303937674,    -0.2715766728,    -0.6259099245]
[    0.9598429799,     0.1997395307,    -0.7314760685,     0.5205013752,    0.08723860979,    -0.4930507243,   -0.03409945965,    -0.2710699439,     0.8310147524,     0.2380253375,    -0.1476012468,     0.3170289695,    -0.5599551201,    -0.9975900054,     0.2616799474,     0.8231441975,      0.291203022,    -0.8390667439,      0.947735846,     0.5546168089,     -0.544896245,    -0.3502193093,    -0.6623256803,     0.7226058245,   -0.04856506363,     0.8681841493,    -0.5768690705,    -0.5709693432,    -0.7547083497,    -0.8464932442,     0.1548058242,     0.4238119125,     0.9583882689,     0.7849413157,    -0.8257305026,     0.4690707624,    -0.2847160995,     -0.219268322,    0.01608758047,   -0.09821495414,    -0.7164072394,    -0.5916714072,     0.8779267073,    -0.5586429238,     -0.203923583,    -0.2362231612,     0.6815249324,    -0.2984763682,     0.4638837874,    -0.0403309688,     0.2206944972,    -0.9234214425,     -1.022667646,     -0.911267817,     0.7634798288,   -0.08565878868,     0.3392512798,    -0.4176235795,    -0.4898556471,     -0.354606539,     0.8797571659,     0.5936611295,     0.4573092163,     0.3923545778,     -0.622949779,     0.5384173989,     0.4151856899,    -0.9767239094,    -0.7946335673,    -0.7186319828,    -0.6211972833,     0.5627766848,     0.4240593612,    -0.8389101624,    -0.5825300813,    -0.6050692201,     0.7893185019,    -0.7805171609,    0.08212967217,     0.2447374463,   -0.01184015721,    -0.9497363567,    -0.0602447167,     0.5434459448,     0.9707832336,     0.9856433868,    -0.2699583769,    -0.7685591578,     0.5337250233,     0.4564487636,    0.02581238747,     0.7676482797,     0.6749078035,     0.0544709824,    -0.6707719564,     0.9514232278,   -0.02616865933,    -0.9848435521,    -0.9669863582,    0.08289077133,     0.4470187426,     0.1382423639,     0.3026540875,     0.1636749953,    -0.3624100685,    -0.5478640199,    -0.6582645774,    -0.1099102721,    -0.9978999496,    -0.6730931401,    -0.7395923138,   -0.08604901284,     0.5058717132,     0.6446906328,      1.044872284,     0.2901984155,    -0.9482938647,    -0.8663646579,    0.02401506901,    -0.3565323949,     0.3011107445,     0.7326532602,    -0.7600723505,     0.9452567697,     0.5802490711,    -0.9334543347,     0.3754022717,     0.8319076896,     0.4399436116,     0.5662910938,     0.6626901627,    -0.3450416028,      1.000054121,     0.3606740236,     0.4073375463,    -0.6038337946,    -0.6784350872,     0.1862360537,     -0.496078074,     0.1193431616,      0.732943356,    -0.3969222605,   -0.05718592554,     0.1536492109,    -0.1323165298,     0.5210716724,    -0.3760994971,    -0.4468217492,    -0.5566895604,     0.3436078131,    0.04908453301,     0.5480051041,    -0.4934536219,      0.749563694,      0.759814918,    -0.7305617929,    -0.5700936317,     0.2159253359,    -0.4622197151,     0.6845940948,    -0.8410018682,    -0.6886255741,    -0.1765670031,    -0.5336060524,     0.5458667278,    -0.1687723249,     -0.953967154,      0.356814146,     -0.397025466,     0.6572891474,    -0.4817230105,     0.1355764866,     0.2340964675,    -0.5869743824,    -0.1387856007,     0.1771286577,     0.7785503268,     0.3447015285,    -0.2240695655,     0.3982501328,    -0.6116170883,     0.5136793256,    -0.1169935316,     0.8904830813,     0.4181089103,     0.3976351321,    -0.7939451933,     0.3228026032,    -0.2708112001,     0.4042928815,     0.9467602968,    -0.8428707719,      0.548781693,     0.6240122914,    -0.2525067925,     0.7477708459,    -0.9680972695,    -0.5388378501,   -0.07807090133,    0.07001268864,   -0.00343054533,     0.1664344966,     0.4112750292,     0.6083108783,     0.5451166034,    -0.7660130858,     0.6723674536,     0.2495901585,     0.6585305929,     0.4884046316,     0.9724251628,    -0.1472195387,   -0.06628935784,     -0.912789762,    -0.6710640788,    -0.4234451056,     0.4069631696,     0.2478218079,    -0.4121920168,    -0.7131968737,     0.7464327812,     0.6032271981,     0.4650933743,      0.453453511,    0.01355278492,    -0.5152757168,    -0.2483487725,   -0.09741748124,    -0.2756792605,     0.7490489483,     0.2567070127,    -0.4864915609,    -0.7251992822,    0.06705367565,    -0.9373540878,    -0.1662501693,    -0.4092119336,    -0.8651578426,    -0.1979418546,     0.9651153684,    0.08277156949,    -0.4615579247,    -0.4400861561,     0.2885796428,    -0.3930885792,     -0.610503912,     0.3563085198,    -0.6469308734,     -0.404989332,    -0.1015038341,    -0.1309924722,    -0.5857223868,    0.01247987337,     0.5724253654,    -0.2118701339,     0.8856568336,      0.898018837,     0.9202108979,    -0.3068290651,    -0.2696752846,     0.2155494094,    -0.1754784584,    -0.3946882486,    -0.9656794667,      0.906042099,     0.7998197675,     0.2666311264,    0.01235459186,     0.7080237865,     0.9256239533,    0.01954617724,     0.3567047715,     -0.299838841,     0.4361117482,     0.8110741377,     0.8246759772,   -0.07302218676,    -0.3118441999,     -0.341137439,    -0.7538390756,    -0.1841261387,     -0.243369326,     -0.606780827,    -0.2898155153,    -0.1826216727,    -0.3519389331,    -0.3908774257,     0.2370092869,     0.6353199482,    -0.5939469934,     0.1014636606,     0.4071961343,    0.03749642894,    -0.1401492953,     -0.895296216,     0.7823849916,    -0.4552510381,     0.4615462124,     0.8483372331,    -0.2097749263,     0.4780554771,    -0.9707459211,    -0.6210945845,     0.0636876598,      1.003027201,    -0.3834967613,    -0.1946589351,     0.7125633955,    -0.6948402524,     0.7327449918,    -0.2233917415,    -0.2303026021,   -0.09257334471,    -0.5478813648,     0.6054862738,     0.9244990945,    -0.1339769363,   -0.01999649592,    -0.6027061343,     0.7015230656,    -0.3156674802,    -0.6795396805,    -0.8013473749,    0.02517787367,    -0.5222476125,     0.8406687975,     -1.007658482,     0.5588670969,    -0.8106160164,    0.09524813294,    -0.9548131227,    -0.6910033226,    -0.8524363637,    -0.7708915472,    -0.7488491535,     0.5609564781,     0.7054101825,     0.9582784772,    -0.8276075721,    -0.9764972329,     0.0177664943,     -0.456877172,     0.1028301716,     0.6454272866,     0.4791446626,    -0.4528417885,    -0.6499055624,    -0.1933726966,    -0.5137344003,    -0.4799591005,     0.5299460888,     0.8825836182,      0.598451972,     0.4264104664,      -0.18560265,   -0.02999901772,     0.5229356289,    -0.1353185326,    -0.8836085796,    -0.8828513622,  -0.007253885269,    -0.3757222891,    -0.7324674726,     0.2521876991,    -0.0689656809,   -0.01641586237,     0.2377686501,    -0.6807060242,    -0.7351943851,  -0.008541248739,     0.7584784627,    -0.8632193804,    -0.9747868776,    -0.3110156357,    -0.3726726174,     -0.928625226,     0.0648605898,     0.7234324217,    0.07169604301,     0.6576238871,    -0.8029479384,   -0.03573159501,    -0.3620874286,     0.3691041172,    -0.1683278233,    0.03356571496,     0.9260113239,    -0.2291299254,     0.2184802294,    -0.1935899854,      0.849809885,     0.3175820112,    -0.6922950745,   -0.08643400669,    -0.7807293534,    -0.3214398324,    -0.3334853649,     0.9922119379,     0.3395687342,     -0.635229826,    -0.3768384457,    -0.9282113314,     0.7787140012,     -0.805544436,   -0.08623939753,    -0.7356689572,    -0.2764252424,    -0.3748334944,     0.2016010731,    -0.1316233873,    -0.9240143895,    -0.8623239398,    -0.2380604595,     0.6056422591,     0.3900251687,     0.8815165758,     0.5066437125,   -0.02089750767,    0.04000535235,   -0.06969129294,    0.08764088154,    -0.8664462566,    -0.8194355965,     0.3421978056,     0.9741950035,    0.06410665065,     0.1238627806,     0.9714808464,    -0.2412945181,    -0.1796346456,     0.1382358074,     0.6253787875,     0.6071693897,    -0.5270277262,    -0.7849011421,    -0.5812214613,    0.06691682339,    -0.2879114151,     0.6148858666,     0.6939967871,     0.7806911469,     0.6451871395,    -0.9212135673,    -0.6583565474,     0.7461850047,      0.751159668,     0.5838863254,     0.4618861675,    -0.2104775012,     0.6956077814,    -0.6945345998,   -0.02893151343,    -0.9914742112,    -0.2155136913,     0.4067936838,    -0.7329655886,    -0.2788333297,    0.01901063137,     0.6555880308,    -0.7471464872,      0.629770875,    -0.1994114667,    -0.2927992344,    0.04441189021,     0.2390324771,     -0.462900281,    -0.1000801846,     0.2877509892,    -0.9737917781,    -0.8949031234,         0.831882,    -0.7036527991,    -0.3448506594,     0.4710590839,   -0.01915355399,    -0.6565986872,     0.5798677802,      0.207635805,   -0.09735799581,     -0.418130964,    -0.8131816983,    -0.6194566488,    -0.3090293407,     0.7931724787,    -0.3010798693,     -0.244304955,    -0.7700000405,    -0.7823573351,     0.4280383587,     -0.804526329,    -0.1529615968,    -0.9632114768,    -0.7088062167,    -0.6550004482,    -0.3345446587,    -0.6753546596,    -0.2908214331,     0.7435198426,    -0.4988264143,   -0.04246124625,    -0.5820251107,    -0.9433230162,    -0.2849109173,   -0.09326022863,     0.8159487844,     0.9568459988,    -0.5320400596,    -0.2976409495,     -0.397284925,     0.2575263679,    -0.1472670883,    -0.0455455333,    -0.2665705085,     0.3484861851,     0.8031849861,     0.5622569323,     0.1157525256,     0.2285310179,     0.3917853236,     0.7603209019,    -0.1193003654,     0.1697685719,    -0.8422265649,    -0.7580119371,    -0.3467926979,     -0.764708519,     -0.605909586,    -0.3327772021,     0.6098892093,     0.7949538231,     0.5391764641,     0.7169320583,    -0.8062909245,     0.4146232307,    -0.8633469939,    -0.2857123911,    -0.6540681124,    -0.7155784369,     0.6383118629,    -0.6378302574,     0.9891214967,    -0.2519240677,     0.8593848348,      0.944933176,     0.7720551491,    -0.3774523139,     0.9171853662,      0.839155972,    -0.7646831274,     0.7607800961,     0.6103570461,     0.0901966095,      0.167652607,    -0.6687263846,     0.4122769535,    0.03272402287,    -0.6637035012,    -0.9831020832,    -0.6145679951,      0.405184567,     0.4439601898,    -0.4202124476,    -0.9532244205,     0.5753471255,    -0.2760068178,     0.5566117764,     0.7888826132,     0.8859724402,     0.3276251256,    -0.2085100114,     0.3804258406,   -0.03053584881,    -0.1857641488,     0.2611923218,     0.1190866306,      0.725716114,     0.7542892694,     0.9542939663,    -0.5370935202,     0.6673415899,    -0.7088605762,     0.4906648993,   -0.09886243939,    -0.8513474464,     0.4252473116,    -0.6099719405,    -0.3520965278,     0.7561520934,    -0.2191616297,     0.7985160351,    -0.9124246836,    -0.5989977717,     0.5950663686,    -0.5786164403,    -0.7316181064,    -0.3148573637,     -0.595862329,      0.499145031,     0.3389384151,    -0.7502397299,     0.8182741404,      0.490470767,     0.1839310825,     -0.846049428,     0.9408487678,     0.2675588131,    0.05001986772,     -0.801913321,     0.6091700196,     0.6427518725,    -0.1011731625,    -0.5078244209,    -0.5361737013,    -0.9215916395,    -0.1017577276,    -0.8909350038,     0.8267540336,    -0.2446215004,     0.7267503738,    -0.8693405986,    -0.1203724444,    -0.9494268894,    -0.5885627866,     0.8191174269,     0.8628512025,     0.1089443937,     0.2245835066,    -0.2248274684,     0.5589089394,     0.8584539294,    -0.6288274527,      0.503564477,    -0.3154876828,    -0.1890624762,    -0.9542114735,   -0.08648091555,     0.7544550896,    -0.7798607349,    -0.3942539096,     0.9315453768,     0.6242349148,     -0.292873621,     0.6752122641,    -0.3925779462,     0.2406492978,    -0.8798003197,     0.9127937555,    -0.9259500504,   -0.09712602198,     0.3698922694,    -0.3246662915,    -0.4383093119,     -0.817527473,     0.8309952021,   -0.08417276293,    -0.7223321199,   -0.02840329148,     0.8864364624,     0.9690670967,    -0.3131754398,    0.03024533205,    -0.5754069686,    -0.8870487213,   -0.09133961052,    -0.6851222515,    -0.1658023745,     0.9192321301,     0.4862199724,     0.1274328232,     0.8027415872,     0.1364259422,     0.5569245815,    -0.0313282609,     -0.102291584,     0.6793006659,     0.1522440612,    -0.3426598907,    -0.2610461116,     -0.796010375,  -0.005823107436,      0.104377389,  -0.003771611722,     0.2804633379,    -0.4174965024,      0.741119802,    -0.6642948389,    0.09625652432,    -0.4834656417,   -0.03651863337,    -0.2541882694,    -0.0864584595,   -0.03025545552,    -0.6313637495,  -0.004937977064,     0.4664366245,   -0.01847433299,  -0.007241028827,      0.194943592,    -0.5732824206,   -0.02688884735,     0.2675078809,    0.07454263419,    -0.1982358396,     0.2396417856,     0.9867844582,    -0.5106615424,     0.4926962256,    -0.7949753404,    -0.4238100946,      0.272780776,    0.05419051647,    -0.8195841908,    -0.6342298388,    -0.8221587539,    -0.7417055368,    -0.1937381774,    -0.2019905895,    -0.1363812238,     0.1368424296,     0.1472078115,     0.5951207876,     0.6651949286,     0.4118035436,     -0.481161505,     0.1862169504,     0.8604091406,     -0.349357903,     0.4363732338,     0.6252309084,    -0.3609209061,     0.3472939432,     0.1982359439,    -0.6395527124,    -0.6801432371,     0.4203395844,    -0.5568234921,    -0.1817551404,   -0.09316993505,     0.9131872654,    -0.2571389675,     0.3632619381,     0.5868800282,     0.7626767755,     0.0626758337,      0.622805953,    -0.4211427867,     0.5723999739,     0.5451804996,     0.6664663553,     0.4023517072,     0.3487875462,     -0.528989017,    0.09418144077,    -0.3302848339,      0.105721809,     0.6840649843,     0.6727832556,     0.8726217747,     0.8087536693,     0.8232733607,    -0.5634615421,    -0.6406406164,    -0.4942649305,     0.8196510673,     -0.718126297,     0.4307657182,     0.7911844254,    -0.6010707021,    -0.1342369616,    -0.3347881734,     0.5883919597,     0.7595053315,    -0.3920069635,    -0.7302224636,     0.5296617746,    -0.6220507026,      0.882101059,    -0.6216660142,    -0.6830635071,    -0.5583838224,     0.5340137482,    -0.9634460211,     0.5629670024,       1.01439333,    -0.2301975638,    -0.6217968464,    -0.4900291264,     0.7412301898,     0.8915945888,    -0.3869870007,     0.9828962088,    -0.2019303739,     0.2190749645,    -0.9577043653,     0.6243215203,     0.2485946566,     0.7779518366,     0.2938623428,    -0.4457502961,     0.4568268061,     0.3831648827,      -0.86975348,     -0.672444582,     0.9343105555,    -0.3798787594,    -0.2160241306,     0.2706594467,     0.4528681338,     0.4375702441,    -0.2838903368,    -0.9546690583,     0.1267102659,    -0.1684963107,      0.684504509,     0.8216928244,     0.4104228318,    -0.2532798052,     0.5252347589,    -0.2105161548,    0.04699802399,    -0.7949707508,      0.239227131,     -0.185071066,      0.846785903,    -0.6414573193,     0.8302839994,     0.2875774801,     0.2344512939,     0.4333013296,     0.3767527938,     0.2479398251,     0.5359397531,    0.08800814301,   -0.01244516112,    -0.2617140114,    -0.5336359739,     0.5583682656,      0.666221261,    -0.6350362897,     0.7582559586,    -0.2342602611,     0.8054766655,    -0.8525111675,    -0.4044548273,    -0.4597461224,    -0.5055522919,    -0.1467621326,    -0.2349715978,     -0.675499022,    -0.2650239468,     0.7978318334,     0.2617731392,    -0.1606282443,    -0.4277582169,     0.6963807344,     0.1101749316,    -0.7820054293,    -0.4737695158,    -0.4869947433,     0.7130571008,     0.5575274229,     0.1942230463,    -0.6416472197,     0.9746227264,  -0.005621368997,     0.1219743267,     0.9507216811,     0.2856401205,     0.1713752449,    -0.7495129108,   -0.09335696697,    -0.8750749826,     -0.130576998,   0.006251055747,    -0.5711303949,    0.03355661035,     0.4178857803,     -0.264313221,     0.7151021361,     0.1383954287,     0.9153099656,     0.2602902651,    -0.9904668331,    -0.6064238548,   -0.04358506203,    -0.0735302791,       0.30173105,     0.2199174613,    -0.4462051392,    -0.1738245487,    -0.5568910241,     0.8508344889,     0.2098314762,     0.9114878178,    -0.2271928936,     0.1472091675,    -0.3529263735,    0.05870985985,    -0.8483303189,    -0.8235943317,     0.1898311973,     0.1602487415,     0.6307029128,    -0.7450924516,    -0.4201731086,    -0.6697219014,     0.3773983121,     0.4576197267,      0.535184443,     0.6187615991,    -0.2033082098,     0.3051806688,     0.8496400118,      0.158723861,    -0.2075732499,    -0.4053070247,     0.7504194975,    -0.4787524343,    -0.6914092898,    -0.1762197167,    -0.9691932797,     0.5123679638,     0.6441029906,     0.7999582887,     0.5357224345,     0.0743117407,    0.01857245341,    -0.7421699166,    -0.3097816706,    -0.1699163467,     -0.808606565,      0.905945003,    -0.8884567022,    -0.4505403936,     0.6479970813,     0.1774692535,    -0.9447112679,     0.8764647841,     0.6758214235,    0.03985599056,    -0.5816993713,    -0.2433785349,    -0.8143118024,     0.4529299736,    0.04319552332,     0.5968075395,    -0.3736815155,     0.2965481281,     -0.640345633,      0.871037364,     0.4492901564,     0.9710611701,    -0.5721815228,    -0.8359596729,     0.7776027918,     0.8876956701,    -0.3213900328,     0.3767732084,    -0.4818658531,    -0.1259774417,     0.2855547667,    -0.1752118468,     0.4858865738,     0.4314413667,     0.3350801766,     0.6138761044,    -0.7907309532,    -0.5145109892,     0.2385389805,     0.6934044361,     0.2809297144,     0.8326519132,     0.5808002949,    -0.5023226142,    0.02088510618,    0.01339972019,     0.7512531281,     -0.660523355,    -0.6410605907,     0.2386561632,     0.2743515074,    -0.8332493901,     0.3581012487,    0.08996791393,     0.5215240121,     0.3453724384,     -0.489464581,     0.5865941048,     0.8009374142,    -0.4242359996,    -0.2480423003,     0.8597464561,     0.3146277964,     0.9548728466,    -0.4798811376,    -0.2377046347,    -0.8878188133,      0.324085921,    -0.8263379931,     0.9517616034,     0.7957804799,     0.9803474545,     0.1947904676,     0.6132766008,    -0.6186638474,     0.9169895053,     0.3041059673,    -0.3127672672,    -0.7430958152,     0.6909943819,     0.5209692121,     0.7275496721,   -0.01584422588,     0.4074192345,    -0.3834521174,     0.2055959255,    -0.2736332417,     -0.490498662,     0.7857760787,    -0.5403607488,     0.1790967286,     0.2975886464,     0.2355846465,    -0.7515770197,    -0.1645469517,     0.8912280202,    -0.7070528269,     0.8681039214,    -0.8860404491,    -0.6677069068,    -0.1904351562,   0.009720317088,     0.7209823728,     0.8967140913,    -0.5964714289,     0.8194721937,     0.2300228626,    -0.1230817512,     0.2293512076,    -0.2590586245,    -0.8411633968,    0.09796351194,    -0.8073085546,    -0.2135870457,     0.8646303415,    -0.7253760099,   -0.06131434441,    -0.7020291686,     0.4027353823,    -0.1416250765,     0.2172535509,    -0.4762436748,    -0.8018996119,    -0.7927618027,    -0.9191501737,    -0.9517288804,     0.3460998237,     0.2501052916,     -0.458514154,   -0.01332733314,       0.51521492,    -0.7773903608,    -0.2476171851,    -0.9279522896,     0.4149720371,    -0.3257466555,     0.9948424101,    -0.8179345727,     0.4078439176,    -0.1651008278,    -0.7543974519,   -0.09305483848,     0.1954611838,     0.4492699802,     0.8525477052,     0.8484805226,    -0.4880941808,    -0.8661767244,   -0.03742843866,     0.4185574055,     0.4903097153,     0.5085117817,     0.4227519035,    -0.2299089134,    -0.8487247825,    -0.1475069225,     0.6165513992,     0.3553899229,      0.961599946,    -0.2143525332,    -0.1253129393,    -0.1814573407,    -0.3686931133,     0.8697134256,    -0.9311668277,     0.9446499348,     0.6263530254,     0.4284108877,    -0.0129789114,    0.09983748198,     -0.287190944,     -0.603577733,    -0.6182882786,    -0.1472863853,      0.617990315,     0.5402612686,    -0.3896065354,     0.8050397038,     0.6927237511,   -0.08494378626,    -0.5373317003,    -0.2236576974,     0.5257685781,     0.5498079062,     0.6963950396,     0.1429102868,    -0.6700685024,     0.5956421494,    -0.6274684668,     0.3389199972,    0.05930647627,    -0.6250863075,     0.4501836598,    -0.7766703367,     -0.499432534,     -0.112970151,     0.4460152984,     0.8786969185,    -0.8747686744,    -0.6494036317,     0.8562486172,       0.95814538,    -0.8827605247,    -0.7125714421,     0.4526655674,      0.601957202,    -0.4127571285,    -0.5365816355,    -0.8076220751,    -0.4342542887,    -0.5703005195,     0.1726110876,     0.1709705144,    -0.2888656259,    -0.4455197453,     -0.226436913,   -0.01940792799,     0.9412322044,    -0.8929064274,     0.6565292478,    -0.5089461803,    -0.9820385575,    -0.3652030826,     -0.440392077,      0.497040689,     0.4333113432,    -0.6067270041,     0.2793970108,     0.4983381331,    -0.4845740199,     0.2984072268,     0.9868683219,     0.1466264874,    -0.6703178883,    -0.9069450498,    -0.1660537124,    0.01869926043,    -0.3465014994,     -0.663264513,      0.633924365,    -0.3279661536,    -0.1586727649,     0.6486407518,     0.1912666559,    -0.0430518277,     0.5251096487,     0.9950162172,     -0.807151258,    -0.8501564264,     0.8895196915,     0.7054030299,   -0.07102404535,    -0.1908020377,     0.7845491171,     0.8706924319,    -0.3103418648,     0.2775053978,    -0.0401850976,   -0.04733988643,    -0.2251180261,     -0.331605792,   -0.09462425113,    -0.5122452974,     0.1497447491,    -0.5909335613,    -0.1790055037,    0.02717569098,     0.5436140895,    -0.7728481293,    -0.4421678782,    -0.4142229557,    -0.4811863303,      0.353523612,      0.468274653,     0.4882706702,     0.2992306948,     0.8812112212,     0.9204342365,     -0.516058743,    -0.2849786282,     0.4959768057,     -0.781914711,    -0.4385089278,     0.2584586143,    -0.1514073014,    -0.7332757115,      0.215923503,     0.7778750062,    -0.9561386704,    -0.1822260022,    -0.4510671794,     0.8508931994,     -0.693321228,     -0.703979969,    -0.9477496147,    0.05936217308,    -0.5202568769,    -0.6501007676,    -0.2132491171,     -0.994110465,     0.2896154225,     0.7812498808,     0.2499155998,     -1.068992138,     0.1822583228,    -0.8335565925,     0.6446423531,    -0.6775990129,    -0.2646517456,     0.4189756215,     0.3011479378,    -0.5852624774,    -0.2273668796,     0.8896035552,    -0.1304448843,     0.2343710363,    -0.8803201914,     0.7905973196,    -0.3409473896,    -0.8313974142,    -0.1395183504,     0.2489074022,    -0.4948987067,    0.07958912849,    -0.2617422342,     -0.721378684,   -0.08566346765,     0.1987415552,    -0.5082879663,     0.4443474114,     -0.804671824,    -0.3700479865,    -0.2134867311,     0.1685052514,    -0.3627517819,    -0.6247165799,    -0.4026992917,     0.1925191879,    -0.1532535553,     0.7289084792,      0.340554446,     0.5149452686,    -0.6398799419,     0.5933948159,     0.8523492813,    -0.1195062026,   -0.09675759077,    -0.4691531956,   -0.09886088222,    -0.6515316367,     0.3532275558,     0.9161128998,   -0.06160268933,    0.05189866573,   -0.05209602788,    -0.9269130826,    -0.8285778165,      0.584826827,     0.5033804178,     0.2484956235,    -0.1500427276,    -0.7176265717,    -0.8539915085,    -0.6385285258,    -0.4336048365,       1.01065433,    -0.5353990197,     0.7084972858,     0.1253447533,     0.7123500109,     0.3519129753,     0.3583946228,   -0.01565772295,     0.8717323542,    -0.9117623568,    -0.1956927031,    -0.5480828881,    -0.7077689171,    -0.4107494354,   -0.09116566926,     0.3254932165,   -0.04304249212,  -0.002194156172,     0.4987853169,     0.5978351831,   -0.06855078787,     0.1920733452,    0.04669095576,    -0.7354189157,     0.1410242766,     0.3949035704,     -0.641182065,     0.4517270029,     -0.107375361,     0.5835427046,    -0.5946933627,      0.916315496,    -0.3075562418,    -0.5071552396,     0.5272575617,     0.3687459528,     0.3388745487,    -0.6878869534,     0.7665438056,     0.7687566876,    -0.9310616255,    -0.3122970462,    -0.1589110345,    -0.3166397214,     -0.643168211,    -0.8746281862,     0.9678394794,    -0.4026201963,    -0.2586846054,     0.9384534359,     -1.002058148,    -0.5911220312,     0.7963579893,   -0.09215405583,     0.8512558341,   -0.08234997094,    0.03143825009,      0.618940115,    -0.4058243632,   -0.06095222384,     0.7570046186,     0.1848919839,      0.168797493,     0.3910684288,    -0.3230638206,     0.7676339149,     0.5284819603,      0.302424103,    -0.5535829067,     -0.961389482,    -0.6278269291,    -0.6399878263,    -0.8098886609,    0.05225584656,     0.2114019096,     0.3680406511,     -0.654466331,    -0.2115238309,    -0.5661262274,     0.5540969372,    -0.2581907809,     0.5588347912,    -0.2577405274,     0.7319229245,    -0.3197130561,    -0.8303844333,     0.3076421916,    -0.9322875738,     0.6578555703,     0.6264138222,     0.4214454293,    -0.3990590572,      0.153776601,    -0.7954713106,     0.2129885405,     0.9226785898,    -0.1471875161,     0.7030335665,     0.6417332888,   -0.06255808473,      0.113462463,    -0.3496772945,    -0.3199207783,    -0.2608341873,     0.9502153397,    -0.8178630471,     0.3494540453,     0.2408459187,    -0.6055807471,     0.8850547671,     0.8157470226,    -0.1236334443,     0.9643597603,    -0.1322130263,    -0.9138867259,     0.8877423406,     -0.420062691,    -0.8060911298,    -0.9246869683,    -0.2084989697,      0.711315155,    -0.2566850185,     0.1657199413,    -0.5190192461,    -0.3806749582,     -0.976403296,    -0.5043402314,    -0.5957673788,    -0.8683519363,    -0.6256999969,     0.8863395452,    -0.2745011151,    -0.5765067935,    -0.1929077655,    -0.2508819103,     0.7609704137,    -0.4159085751,    -0.5456734896,    -0.3794531226,     0.6541708112,     0.9658898711,    -0.5431043506,     0.4294395447,      0.232698679,     -0.172456786,    -0.9728316665,     0.9201331735,    -0.7928642631,   -0.06686607003,     0.6444445848,    -0.6386833787,    -0.3857198656,    -0.7343181372,     0.2078225017,    -0.9608159661,    -0.1344901323,     0.5010769367,    -0.7249029875,   -0.04990153387,    -0.5672762394,     0.5345118046,      0.300989002,    -0.4021279812,     0.8198343515,      0.388671577,      0.982383132,    -0.2668301463,    0.04933214188,     -0.644349277,     0.3509765863,  -0.007687845267,     -0.867028594,    -0.2165707648,    -0.5590426922,  -0.006629047915,      0.463817656,     0.1712816209,    -0.8021296263,     -0.243854627,    -0.8164644241,     0.2478728443,    -0.2498726845,     0.3646691144,     0.1392843872,     0.4973526299,       1.03701055,     0.1498169154,     0.2177212387,     0.1746015251,     0.4137202799,    -0.4380225539,    -0.3488952518,     -0.574845016,     0.7611474991,    -0.1776094884,     -0.848847568,     0.5784339905,   -0.06759434938,    -0.3470339477,     0.1314927191,     0.7663349509,    -0.6810383797,     0.8957074881,     0.4180684388,   -0.05387001485,   -0.02110910416,     0.2034257203,     -0.446380198,     0.2555311024,     0.6697584391,     0.1669182479,    -0.8710156679,    -0.7745024562,   -0.05022120476,     0.5485965014,    -0.4198141694,    0.04493296146,    -0.5094414353,     0.9412414432,    -0.6898745894,    -0.9985752106,     0.4296300411,    -0.6057495475,    -0.3046064675,    -0.6405896544,    -0.3588178754,    -0.2372161895,    -0.8944884539,     0.8506040573,     0.8013578653,      0.723253727,    -0.4497792721,      0.909817636,    -0.5503747463,     0.3477354646,     0.1478270143,    0.02025985718,      1.014778733,    -0.4122246504,     0.8657679558,     -0.433576405,    -0.2424508482,    -0.2927464247,     0.4047226012,    -0.2613625526,    -0.1513798237,     0.6055095196,    -0.5583703518,     -0.159817338,     0.5121716261,    -0.5870758295,     0.4748115242,    -0.2935326993,     0.7186374664,     0.2321862578,     0.7757320404,     0.6163843274,    -0.3364827931,     -0.998732686,     0.8972325325,      0.502143681,    -0.6495113373,    -0.9258636236,    -0.6743773222,      0.298453033,    -0.2528941333,    -0.7487250566,     0.6302090287,     0.1270695627,    -0.5792278647,    -0.1644223332,    -0.4678720534,      -0.89889431,    -0.0726096034,    -0.5875304341,     0.3535929024,    0.01395137887,    -0.8484550714,    -0.5869366527,     0.5801187754,    -0.6424203515,     0.8591951132,     0.6262560487,    -0.6692079306,     0.3246684074,    -0.6070817113,   0.005162902176,     0.4979101419,    -0.5949295759,     0.7337608337,   -0.05733285472,   -0.05714896321,     0.8549203873,      0.275341332,     0.8091735244,    -0.6449050307,     0.3805553317,    -0.3933208287,     0.8881341815,    -0.4306626916,    0.03244578466,     0.5241549015,    0.03400218487,    0.08338742703,    -0.2444671243,    -0.5190423131,     0.8407763243,      1.004728556,    -0.9392153621,     0.8155053854,     0.1398758888,     0.3088123798,    -0.5442854166,     0.4464024007,     0.3627634943,    -0.7890164256,    -0.6214473844,    -0.8378439546,     0.4626961946,    -0.4295385182,    -0.1786285043,      0.744296968,    -0.5826988816,     0.6117324829,     0.7446575165,    -0.4313373864,     0.1515646726,     0.9329358935,    -0.5230302811,     0.2572848797,    0.06706505269,    -0.8617848158,    -0.8107053041,    -0.8057123423,    -0.6309674978,    -0.7974303365,    -0.2044062614,     0.6735187769,    -0.6277121305,     0.4422707856,     0.5965753794,    0.01416003704,     0.2207581997,     0.9430223107,     0.4930597544,    -0.2875982225,    -0.3366042376,   -0.03506630287,     0.3046628237,  -0.003965641372,      1.059479356,       -0.4924061,    -0.3048453331,     0.6901692748,     0.1444892436,     -0.143565163,    0.06269703805,     0.7372348905,    -0.3944196999,    -0.3685061932,    -0.5525562763,     0.9615310431,    -0.9322077632,     0.6076391935,     0.7033002377,     0.4582954645,    -0.4748816192,     -0.419819206,     0.6982932687,     0.7440350056,     -0.103913486,     0.5084609389,     0.6709700227,    -0.8874662519,    -0.1780530661,     0.3024497032,    -0.1731281877,     -0.568821013,     0.1778293252,     0.9099582434,    -0.2130445838,     0.1844690442,    -0.4184907973,     0.7587550282,     0.5170699358,     0.6451365948,    -0.8166527748,    -0.6407474875,    -0.5203263164,     0.7085721493,     0.9788678885,    0.07991592586,      0.545663774,    -0.9956348538,    -0.4480058551,     0.3259562254,    -0.5390248299,     0.6412348747,     0.5402218699,      0.433678329,     0.5594664812,    -0.1612264067,     0.8010086417,     0.9317220449,     0.5349329114,    -0.7690752149,     0.9338082671,     0.7092382908,    0.09055263549,    0.08182287961,    -0.9808812141,    -0.1443374008,     0.4969638884,       0.43800354,     0.2355575711,     0.7753505707,    -0.7276479602,   -0.03605002165,     0.9735182524,     0.9107324481,     0.4343118668,     0.7163180113,     0.4289698005,     0.4983969033,    -0.0891636312,     -0.560567081,     0.2733801901,     0.7571057081,    -0.3169994354,    -0.7285747528,    0.01898667216,    -0.8249285221,     0.6838477254,     0.4983467162,     0.4980146885,     0.9157878757,    -0.2906220853,    -0.5807541609,    -0.5154732466,     0.1590558141,     0.2293061465,    -0.5299764872,     -0.656273067,    -0.6604972482,     0.6177788377,   0.003080844879,     0.7709647417,    -0.6041590571,   -0.08910682052,     0.6207363009,    -0.3950803578,    -0.2645229101,     0.8418104053,    -0.5753749013,   -0.00248748064,     0.5749764442,    -0.2420148253,    -0.1065824777,    -0.8823147416,    -0.4093849659,     0.3357922137,    0.08047270775,    -0.5594238043,     0.4280194044,    0.06094551086,    -0.7705659866,     0.2165704668,    0.02623144165,    -0.9794733524,     0.6128431559,    0.04798408225,    -0.9134348035,     0.6919952035,    -0.9049051404,     0.8526334167,    -0.7035506964,     0.8884077072,    -0.5607551932,     0.6870324016,     0.2160989195,    -0.8842926025,    -0.8740829825,    -0.6017566919,     0.4912115633,     0.3178390861,     0.1738737822,     0.9075433016,    -0.2876257002,    -0.9232788086,    -0.2490034103,    0.08148860931,     0.7786633968,    0.07482068986,    -0.6282491684,     0.4514287114,       0.31658566,   -0.02338879742,    -0.0564044714,     0.2375092208,     0.5143783092,    0.07157493383,     0.4951614141,    -0.2377039641,     0.1651016027,     0.6472773552,    -0.1572534889,    -0.5832589269,     -0.667227447,    -0.1061118841,    -0.9940218329,     0.6121306419,      0.761605978,   -0.09900989383,     0.4782018065,     0.7564229965,     0.4857033193,    -0.3638346195,     0.5807076693,    -0.9741317034,      0.942848444,    -0.4717649221,     0.2117055506,     0.4434738755,    -0.6782643795,     0.8129665852,    -0.4710999429,     0.9191765189,   -0.07153745741,   0.009862852283,     0.1027657986,     0.5368566513,     0.7442468405,    -0.4061108828,    -0.3119895458,    0.05138427392,    0.02802017331,    -0.7645142674,    -0.4330284595,    -0.9659197927,     0.6319823861,   -0.05676114559,      0.562302947,     -0.894865036,     0.8143030405,     0.1166884825,     0.8661491275,     0.1066787615,   -0.04037292674,    -0.6937727928,    -0.7903454304,     0.1439051628,     0.1496877223,     0.7132815123,     0.7664965987,    -0.6121723652,     0.4131875336,     0.2142065763,     0.2561759949,    -0.8585472703,    -0.6777039766,    -0.3229663968,    -0.3338714242,    -0.9439744949,     0.1590008736,     0.4201192856,   -0.04086321592,      -0.14521873,     0.7264909744,     -0.828808248,    -0.3551179767,    -0.1635734439,     0.2662903965,    0.09133776277,    -0.8955943584,    -0.5266676545,     -0.136605978,     -1.029915094,     0.9396124482,     0.9045425057,    -0.7797378302,     0.5951277614,     0.6496595144,    -0.9886770248,    -0.3697070777,     0.1570782959,     0.7300485373,     0.8205494881,    -0.4136921167,    -0.9976331592,    -0.3552051187,    -0.7900027037,     0.8245521784,    -0.4760333896,    -0.5010101795,     0.9764933586,    -0.4074181318,    -0.8509869576,    -0.6793203354,    -0.4261212349,     0.2967237532,    -0.1893074661,     -0.506706953,     0.2343225479,    0.06336605549,     0.3984081745,    -0.9158616662,     0.9992370009,     0.5612379313,      0.187699914,    -0.6455295086,     0.8419467211,    0.04183650017,     0.9433135986,     0.3026081324,    -0.2281927317,     0.1676419824,     0.7391722202,    -0.3369788826,    -0.8955905437,     0.2314086258,    -0.1908403635,     0.6525242925,     0.6519730687,    -0.8651925325,     0.3764460385,    -0.7561852932,    -0.1990717649,     0.7517443299,     0.3245346844,    -0.1618826687,    -0.2911245227,     0.3446027935,     -0.158505559,   -0.03829752654,    -0.6566315889,    -0.4004724026,    -0.9728016853,     0.7170875669,    -0.1543655843,    0.07136951387,     0.2837275267,    -0.2143547088,     0.2603991628,     0.3377330601,      0.713855207,   -0.04500088096,  -0.007967710495,    -0.6651186943,      -0.93766886,    -0.5790222287,     0.7252670527,     0.2993640602,    -0.3437820971,     0.6821227074,     0.5308222175,      1.012278438,    0.04543408379,    -0.4784151316,    -0.9073515534,     -0.531324625,      0.905328393,    -0.8376373649,      0.115198493,     0.7161412835,    -0.6800129414,    -0.2410615087,     0.0105587244,    -0.3338628411,     0.3468670845,    -0.8922814727,    -0.1697686315,    -0.3150549233,     0.3262883127,     0.4314046502,    -0.2489108443,     0.6413640976,     0.0253421329,    -0.3607048988,      0.775156498,    -0.9900369644,    -0.1051777005,      0.370795846,    -0.3973763585,      0.718660295,  -0.005195021629,    -0.7634094357,     0.4095819592,     0.3339347243,    -0.2523430288,    -0.6246520281,    -0.4079876542,    -0.9763622284,    -0.2197116613,     0.8768129945,    0.02390514687,    -0.3987593949,   -0.05686477944,    -0.9438629746,    -0.6244571209,    -0.1725179404,     0.8648142219,     0.9982815981,    -0.5428535938,   -0.09837076813,    -0.8819262981,    -0.9442484975,    -0.9729338288,    -0.3841822743,    -0.2216711789,    -0.8695328236,    -0.4747929573,   -0.06175866723,     0.3400458992,     0.8775037527,    -0.1857502311,     0.7795715332,    -0.1574278474,    -0.1178622842,     0.2431605607,    -0.2109110653,    -0.4082449973,     0.4185564816,    -0.3622072935,    -0.5697870255,      0.759670794,     0.1194443554,    -0.9410486221,    -0.0387618579,   -0.06420230865,    -0.1665094942,    -0.2448348403,   -0.08586382866,     0.3279164433,     0.3151471615,    -0.4475736022,     -0.977496624,     0.5683687925,    -0.3211968839,    -0.8888993263,     0.3785272539,     -0.975794971,     0.9362891912,      1.023268819,     0.7507573962,     0.6746953726,    -0.7407257557,    -0.5085327625,     0.6563255787,    -0.2228490412,    0.01981854439,    -0.4699918628,     0.5205659866,    -0.8035818934,     0.7070204616,     0.9467765689,     0.7755072713,     0.1676490307,     -0.958724618,   -0.04984420538,     0.7680360079,     0.3172470927,    -0.1830525845,     0.7972573042,     0.7275134921,    -0.9372854233,     -0.416133076,    -0.1174666807,    -0.9319511652,     0.9801049829,     0.3218352497,    -0.4695155323,    -0.7201889753,     0.1545936912,     0.3523341417,     0.2018960267,    0.04051239043,     0.9837626219,    -0.8936161399,    -0.1922691166,   -0.04583001509,  -0.004917838611,    -0.5311760902,    -0.7181543708,    -0.3567355871,    -0.8225482106,    -0.5416661501,   -0.04839259759,    -0.8203969598,      -0.28453058,     0.3098841906,     0.5379279852,     0.2007436007,     0.4339194596,     0.7624387145,      0.515922606,    -0.3904986978,     0.6726750731,    -0.9457499385,     0.5978012085,     0.2355520725,    -0.6012455821,     0.4374518394,     -0.990086019,     0.2886306942,     0.4690625668,    -0.1405332088,    -0.2665352821,     0.1224077567,    -0.4818758368,    -0.8340088129,    -0.8756489158,     0.4065971673,     0.8280146122,      0.513045907,     0.6746461391,    -0.9310074449,    -0.3581004143,     0.3347224295,    -0.4622445405,    -0.7353465557,    -0.4080470502,       0.69366467,     0.8426660299,     0.1607359648,     0.8348331451,     0.6596378684,     0.3759249449,    -0.1091307178,     -0.245745644,    -0.4047284126,    -0.5144762397,       0.37972188,     0.6337838769,     -1.000151396,    -0.8273577094,    -0.9459502697,     0.7195365429,     0.9639158845,    -0.8424870968,     0.3102060258,    -0.2779760659,     0.1502613574,    -0.8343197703,     0.7593508959,   -0.02694180794,    -0.3332297504,    -0.5229750276,   -0.01739656925,    -0.2217171043,    -0.8519276381,    -0.3178724945,    -0.4614112377,     0.1600881219,     0.2574504316,    -0.4651992023,     0.2019834518,    -0.6759286523,    -0.2803835571,     0.8810874224,    -0.8144118786,     0.5921139121,     0.5032799244,     0.3831372857,    -0.4301367402,     0.9263212085,     0.8594944477,    -0.2282350659,    -0.7464896441,     0.7931185961,     0.2768066525,    -0.1040991917,    -0.8860978484,    -0.8108831048,     0.9985724688,     -0.832270503,     0.8921254277,     0.9083918333,    -0.5245432258,    -0.4663054049,       0.22014153,     0.8395444155,    -0.8016190529,    -0.4892387092,     0.1661528349,     0.1911610365,      0.521592021,    -0.6116517782,   -0.06720368564,    -0.5910699368,    -0.8647851944,    -0.4724436998,     0.6641163826,    -0.4781771898,     0.7575900555,     0.1602964252,     0.7148241997,    -0.7637190819,    0.03123440407,     0.5249396563,    0.02575129643,     0.4343926609,     0.6267540455,    -0.8943844438,     0.5417541862,    -0.6746909022,     0.5053570867,    -0.5204905272,    -0.2915574908,   -0.01403020788,     0.6282231808,    0.05623902753,     0.1141359508,    -0.1543133855,     0.9889882207,   -0.06721536815,    -0.9111231565,    -0.5744833946,    -0.6768673062,       1.02031672,     0.4374891818,    -0.3803187907,     0.6715304852,     0.5443410873,      0.553365469,     0.6640417576,    -0.8719386458,    -0.7290745378,    -0.6907770634,     -0.133990407,   -0.02696815133,     0.2491233349,    -0.7678571343,     0.5625053644,     -0.180582568,     0.3491666317,     -1.000626564,    -0.3138036728,     0.6431565881,     0.7406685352,     0.8879881501,     0.8808716536,    -0.5077090263,    -0.7234272957,     0.5140493512,   -0.02304911986,     0.4391473234,     0.7197140455,    -0.2458438724,    -0.1429726481,   -0.01643789932,     0.6891047359,     0.6446216702,     0.1958982944,     0.8631587625,    -0.7876508236,   -0.05937611312,     0.1710687876,    -0.9189971089,     0.5531753898,     0.2873454392,    -0.1018577963,     0.5913984179,    -0.3488912582,    -0.9727695584,    -0.7869951725,   -0.06863316149,     0.9264286757,    -0.3198726773,    -0.4715513289,   -0.09366277605,     0.3213218749,    -0.5129141808,     0.2231653929,    -0.2225386649,     0.1644446552,     0.1190884262,     0.2485766411,     0.7040309906,    -0.7266978621,    -0.4376144707,     0.5574961901,     0.9547541738,     0.6317584515,     0.6688766479,    0.05034000054,     0.8350725174,    -0.8304302692,     0.3735668659,     0.7139556408,    -0.6281015873,     0.7221136093,     0.7159556746,     0.0704574585,     0.7599941492,    -0.9372947216,    -0.4985225499,     0.3300533295,    -0.9242105484,     0.8116798997,     0.7921462059,    -0.8745723367,     0.3722915351,     0.0857719183,    -0.8214004636,     0.4777079225,    -0.3735336065,     -0.953514874,   -0.05043184757,     0.9736636281,      1.001284838,      0.221506089,     0.4296554327,     -0.920758903,    -0.4950388372,    -0.3558124304,     0.3491637409,     0.1120083109,     0.3694085479,    -0.7878217101,    -0.9209783077,     -0.892632246,      0.454182297,    -0.5300370455,    -0.1881213635,     0.2399122417,     0.3061112761,     0.1130685806,     0.9014196992,     0.2309998125,    -0.6687642336,     0.2639995813,     -0.859405756,    -0.6846364737,     0.4930728376,    -0.1493008733,     0.7860919237,     0.8610198498,    -0.8248689175,    -0.7879215479,     0.2742623687,    -0.7751336098,     0.6163798571,     0.3102963567,     0.7566331029,    -0.6339433193,       -0.5348683,    -0.7685346007,     0.8182775378,    -0.4796414673,    -0.4627372324,    -0.8181079626,    -0.4662624598,     0.5346900225,     0.5667359233,     0.7719820738,     0.4856361747,    -0.5323790312,     0.8574988842,      0.447119534,    -0.4371567965,    -0.2587032318,    -0.9334136248,    -0.5644134283,    0.08259065449,    -0.8484572172,    -0.8049255013,    -0.3080687821,     0.6940577626,    -0.5888528228,    -0.8907327056,     0.6411516666,    -0.8138090968,    -0.9283890128,     0.2656862438,       0.58203578,    -0.7678726315,     0.5439447761,     0.6881687641,    -0.4590698183,     -0.517416656,     0.4092584848,     0.3689504266,    -0.6862661839,    -0.1565997601,    -0.4783810377,    -0.1641693562,    -0.3996204138,   -0.03989383951,    -0.6888062954,    -0.2227615714,   -0.02380390652,    -0.3716474175,    -0.9626057744,    -0.8933916688,     0.4456600249,    -0.7169851661,     0.3633296192,   -0.07924419641,    -0.7940678596,    -0.5278963447,       0.96375072,    -0.4636973739,   -0.02746503986,     0.6636645198,    -0.4027040303,      1.005293369,     0.7781392336,    -0.3628567457,    -0.1472503096,     0.1741055995,    -0.5661373734,    -0.4405865669,     0.1167909503,    -0.4324308038,     -0.626282692,    -0.7348347306,    -0.9735047221,     0.9108727574,     0.7751057744,    -0.8190194368,     0.6923309565,    -0.9420538545,    -0.6679497361,    -0.5318524837,    -0.7662737966,    -0.6945049763,    -0.7502083778,    -0.9777292609,    0.06935515255,     0.3409967124,   -0.02032778226,    -0.5344728231,   -0.04624420404,    -0.5410472751,     0.4875270724,    -0.8289787173,    -0.7640007138,     0.2843140066,     0.6217665672,     0.8851299882,    -0.1128092483,     0.1570878476,    -0.2473414838,     -0.435516119,     0.6407894492,     0.7145100832,    -0.6008618474,    0.04488062486,     0.6248022318,     0.3550089598,     0.1087475047,     0.3390726447,    -0.8423712254,    -0.8888890147,     0.5123792291,    -0.7564011216,      1.052216887,      0.218044281,     0.6280300617,    -0.3838708997,     0.7734479308,    -0.6027585268,     0.3834796548,     0.4275179207,     0.5440629721,    0.06056340411,    -0.3176670372,     0.4355984032,    -0.1271319985,    -0.8756033778,     0.1356410682,     0.9496218562,    -0.7519317269,      0.979203701,     0.1090996936,   -0.02222081274,     0.2430961877,     0.8489329219,     0.5119527578,    -0.9067217112,    -0.1245458126,    -0.2741507292,    0.07956434786,    -0.7325763702,    -0.3999794722,    -0.9069384336,    -0.7295078039,    -0.3510626554,     0.4451604784,    -0.7175961733,     -0.756660223,     0.2811185122,     -0.681522131,     0.6564027071,     0.5438674688,     0.9826399684,    0.07139232755,    -0.4910771847,    -0.4377267957,     0.7429420352,    -0.7358831167,    -0.2778204978,      0.545391798,     0.4580642879,    -0.3104173541,    -0.1526648998,     0.4071738422,      0.692075491,    -0.7319504619,    -0.2624921501,    -0.5935621858,    -0.1104423776,   -0.06498193741,   -0.07409487665,     0.1727009416,     0.1694970131,     0.3693622351,    -0.2270532399,     0.7022385597,     0.2610015869,     0.7114744186,     0.7021570802,    -0.2013720572,     0.4617734253,      0.869099915,     0.6480675936,    -0.3717713654,    -0.5419968963,     0.2394112349,    -0.4472845197,     0.8675656915,    -0.5090394616,     0.2168481797,     0.5751701593,    -0.6877593398,     0.2425599247,     0.1933914721,     0.7764214873,    0.07744193077,    -0.3258532882,    -0.7939051986,    -0.1687402427,     0.1397932321,       0.15037781,    -0.1504036188,     0.9372310638,     0.2216656208,    -0.7677110434,    -0.1059958339,     0.1263868958,    0.01021229196,     0.5368057489,      0.938950181,     0.2909947634,    -0.8599019647,     0.4258342683,   -0.01539686415,    -0.9615601301,    -0.4516550303,     0.6023599505,     0.3834179938,    -0.1070388407,    -0.8211491704,     0.3423570395,     0.2985807359]
