0
weights:
[   0.6491535902,    0.2714234591,    0.1924351752,   -0.8609073758,    -0.511102438,    0.3756542206,   -0.1866962463,  -0.09249049425,    0.4995417595,   -0.6475787163,    0.1466372013,   -0.6614463329,    0.4958328903,    0.7778974771,   -0.4399159551,      0.35095191]
[  -0.2116874605,    0.4345939159,   -0.4030871987,    0.8976414204,   0.08446516842,   -0.6904174089,    0.6040503383,   -0.5538826585,   -0.2626729012,    -0.519875288,     0.511161685,   -0.2538411021,    0.2258680612,   -0.8460106254,   0.09221374989,  -0.03409945965]
[   0.5549498796,   -0.7167948484,    0.2638086379,   0.05044109002,   -0.2569212615,   -0.1423255354,    0.3521661162,   -0.6269004941,   -0.4116792679,    0.5955960751,   -0.8961223364,    0.8007535338,   -0.9606305361,    0.2994139194,    0.4385371208,  -0.03612834215]
[   0.6032019854,    0.2139377594,   0.06396313757,   -0.8299990892,    0.5447548032,    0.7217896581,    0.7794399261,   -0.4690699577,    -0.535476923,    0.4653087854,   -0.6843857765,    0.5833180547,    0.4391411543,   -0.5039117336,   -0.7734388709,   -0.3900886178]
[   0.8009178042,   -0.9673988819,  -0.02729089186,   -0.6182057261,   0.01423223037,    0.6272930503,  -0.04938188568,   0.09573408216,    0.1689770222,    0.3131272793,    0.9999871254,   -0.3017417789,    0.6195140481,    0.2589594126,  -0.05703312159,    0.4241745472]
[  -0.6393865347,   -0.5142264366,    0.9118706584,    0.3232506514,    0.3095621467,   -0.3701671362,   -0.5711936951,   -0.1781037599,   -0.5111745596,    0.9348102808,   -0.5913428068,   0.09921372682,    0.8076396585,   -0.5417260528,     0.185079813,   -0.6348884106]
[  -0.3056192398,   -0.7255368233,   -0.3742491901,    0.7766978145,    0.1283366084,   -0.6090351343,    0.8221395612,   -0.7080900073,   -0.6952204108,    0.2789167166,    0.7799112797,   0.06425604224,    0.6470754147,     0.401239872,    0.8886362314,     0.243645668]
[   0.5637498498,    0.6083534956,    0.5932387114,   -0.3065245748,   -0.8446877599,    0.7110714316,    0.7518684864,    0.7540585995,    0.4642970562,     0.519469738,    -0.749063015,   -0.2001948506,    0.5477508307,   -0.3662657142,  -0.09816485643,   -0.9182714224]
[   -0.449364841,   -0.6866418123,   0.05985372141,   -0.8765431643,  -0.09225334972,   -0.3648403585,   -0.7582473755,   -0.8364736438,      -0.7490502,   -0.8130390644,    0.9955979586,    0.3132972419,    0.8640958071,     -0.34244591,   -0.3272977471,   -0.1720325351]
[  0.05675968155,   -0.1981112361,    0.4883174002,   -0.9653204679,    0.8330405951,    0.3243488371,     0.759837687,   -0.7706043124,    0.5869407654,   -0.7301951647,   -0.8918848634,   -0.7981508374,     0.421314925,   -0.5371440649,     0.695368886,     0.391967535]
[ -0.05076694861,   -0.7404191494,   -0.1870059371,  -0.09054759145,    0.9047512412,    0.8344706893,    0.2187805027,  -0.06842018664,   -0.6717961431,    0.0404201746,    0.7410796881, -0.009678835981,     0.690230608,   -0.8516780734,   -0.1309733987,    0.3478729725]
[   0.2387382984,    -0.782382369,    0.7806923389,   -0.8803109527,    0.4701238275,   0.09887827188,   -0.1881157905,    0.4614627957,    0.4901428223,   -0.8435357213,   -0.8553423882,     0.457297653,    0.8516885638,    0.2661443949,   -0.9935370684,    0.2752803564]
[  -0.2500305474,    0.9978489876,   -0.3825968504,   -0.5305064321,   -0.3391937315,    0.2091277987,      0.13422966,    0.8816231489,   -0.8509404063,   -0.8601871729,   -0.9916768074,   -0.5103277564,    0.1757185608,   -0.5526871681,   -0.3101140857,   -0.3057682514]
[  0.03402844816,   -0.5634862185,   -0.2603521347,    0.9336588979,    0.5542048812,    0.6121483445,   -0.5316534042,    0.7826440334,    0.9002081156,   -0.5906898379,    0.8461382389,     0.878864646,   -0.1621052772,    0.3022642136,     0.196962595,   -0.6307550669]
[   0.8609442711,   0.02586483955,    0.5831391811,    0.7962550521,    0.2860218883,    -0.206544295,    0.5359504819,    0.3083676994,   -0.8949414492,  -0.07715904713,    0.1877843142,    0.1206816286,   -0.7949731946,   0.02137196064,    0.6664866209,    0.2182117701]
[   0.8182480335,    0.6782244444,    0.8417368531,    0.6930936575,   -0.2382828444,    0.7409234047,   -0.4610343277,   -0.3133154809,   0.04312670231,    0.6393545866,   -0.6392554641,    0.6753121018,    0.5053603649,    0.9429314137,   -0.5322165489,    0.2543157339]

biases:
[ 0.3404946029, -0.3432511091,  0.2686233222, -0.5959077477,  0.6004524827,  0.4320580065,  0.4576400816, -0.3556814194, 0.06488192081, -0.8247127533, -0.4790061116,  0.8682126403,  0.5105031729, -0.8125195503, -0.7774487734, -0.2767981887]

1
weights:
[   0.01264999341]
[    0.1864229441]
[  0.009068309329]
[   -0.4221439958]
[   0.03146796301]
[  -0.01014098339]
[  -0.01764508523]
[   0.03107997589]
[    0.9687263966]
[   -0.9928428531]
[    0.6547822952]
[-0.0001201518098]
[ -0.003320620628]
[   -0.1270059943]
[    0.9172738791]
[    0.8378608227]

biases:
[-0.0007630651817]

