0
weights:
[   0.6803754568,    0.2714234591,    0.2252796888,    -0.860489428,   -0.4666684866,    0.3757227659,   -0.2031266689,   -0.1059328318,    0.4995417595,   -0.6475787163,    0.1466372013,   -0.6737369895,    0.4956185818,    0.7778974771,   -0.4399159551,      0.35095191]
[  -0.2112341523,    0.4345939159,   -0.4079367518,    0.8986541033,   0.07952070236,   -0.6680516601,    0.6295337677,   -0.5477867126,   -0.2626729012,    -0.519875288,     0.511161685,   -0.2166195512,     0.257819891,   -0.8460106254,   0.09221374989,  -0.03409945965]
[   0.5661984682,   -0.7167948484,    0.2751045227,   0.05199074745,   -0.2495860457,   -0.1197909713,    0.3684370518,   -0.6249337792,   -0.4116792679,    0.5955960751,   -0.8961223364,     0.826053381,   -0.9291582108,    0.2994139194,    0.4385371208,  -0.03612834215]
[   0.5968800783,    0.2139377594,   0.04857432842,     -0.82788831,    0.5204974413,    0.7601504326,    0.8219441175,   -0.4475306273,    -0.535476923,    0.4653087854,   -0.6843857765,    0.6393903494,    0.4956057072,   -0.5039117336,   -0.7734388709,   -0.3900886178]
[   0.8232947588,   -0.9673988819,  -0.01283401251,   -0.6155723333,   0.02507078648,    0.6584022045,  -0.03501868248,    0.1128875017,    0.1689770222,    0.3131272793,    0.9999871254,   -0.2818092704,    0.6664770842,    0.2589594126,  -0.05703312159,    0.4241745472]
[  -0.6048972607,   -0.5142264366,    0.9455500841,     0.326453805,    0.3354475498,    -0.339325726,   -0.5683500767,   -0.1669974327,   -0.5111745596,    0.9348102808,   -0.5913428068,    0.1049700975,    0.8507530689,   -0.5417260528,     0.185079813,   -0.6348884106]
[  -0.3295544982,   -0.7255368233,   -0.4149664044,    0.7804652452,   0.06321287155,   -0.5420636535,    0.9005047083,   -0.6607857943,   -0.6952204108,    0.2789167166,    0.7799112797,    0.1588599682,    0.7465426922,     0.401239872,    0.8886362314,     0.243645668]
[   0.5364592075,    0.6083534956,    0.5427154303,   -0.3022141457,     -0.92143929,     0.786744833,    0.8402564526,    0.8136078119,    0.4642970562,     0.519469738,    -0.749063015,  -0.09484833479,    0.6620750427,   -0.3662657142,  -0.09816485643,   -0.9182714224]
[  -0.4444505572,   -0.6866418123,   0.05348992348,   -0.8716573715,   -0.1247248054,   -0.2992796302,    -0.704679966,   -0.7936576605,      -0.7490502,   -0.8130390644,    0.9955979586,    0.3747748137,    0.9588682652,     -0.34244591,   -0.3272977471,   -0.1720325351]
[   0.1079399586,   -0.1981112361,    0.5398277044,   -0.9599539042,    0.8636701107,    0.3733397722,       0.7621243,   -0.7478493452,    0.5869407654,   -0.7301951647,   -0.8918848634,   -0.8007198572,    0.4876223803,   -0.5371440649,     0.695368886,     0.391967535]
[ -0.04520589113,   -0.7404191494,   -0.1995427608,   -0.0845965147,    0.8616195917,    0.9129364491,    0.2821612358, -0.009111881256,   -0.6717961431,    0.0404201746,    0.7410796881,   0.06161594391,    0.8067326546,   -0.8516780734,   -0.1309733987,    0.3478729725]
[   0.2577418089,    -0.782382369,    0.7830588818,   -0.8738083243,     0.441904664,    0.1772803068,   -0.1360931396,    0.5209504366,    0.4901428223,   -0.8435357213,   -0.8553423882,    0.5145876408,    0.9671914577,    0.2661443949,   -0.9935370684,    0.2752803564]
[  -0.2704310417,    0.9978489876,   -0.4333705306,   -0.5234401226,   -0.4314131737,    0.3146080971,    0.2391929626,    0.9695032835,   -0.8509404063,   -0.8601871729,   -0.9916768074,   -0.3914096951,    0.3337606192,   -0.5526871681,   -0.3101140857,   -0.3057682514]
[  0.02680182457,   -0.5634862185,   -0.2950832844,    0.9412682056,    0.4770686626,    0.7173526287,   -0.4378811717,    0.8700079918,    0.9002081156,   -0.5906898379,    0.8461382389,    0.9844568968, -0.005482971668,    0.3022642136,     0.196962595,   -0.6307550669]
[   0.9044594765,   0.02586483955,    0.6154490709,    0.8044161797,    0.2799576521,   -0.1208801866,     0.572004199,    0.3688900471,   -0.8949414492,  -0.07715904713,    0.1877843142,    0.1539422274,   -0.6720640063,   0.02137196064,    0.6664866209,    0.2182117701]
[   0.8323901892,    0.6782244444,    0.8380529881,    0.7018395662,   -0.2919026613,    0.8479396105,   -0.3850842714,   -0.2336233258,   0.04312670231,    0.6393545866,   -0.6392554641,    0.7552275658,    0.6600236893,    0.9429314137,   -0.5322165489,    0.2543157339]

biases:
[  0.461458683, -0.3432511091,  0.4808769226, -0.5955744386,  0.8418287039,  0.3695130348,   0.306260705, -0.4854690433, 0.06488192081, -0.8247127533, -0.4790061116,  0.7547678947,  0.3722498417, -0.8125195503, -0.7774487734, -0.2767981887]

1
weights:
[   0.15338099]
[ 0.1864229441]
[ 0.3331131935]
[-0.4224444628]
[ 0.5515345335]
[-0.4232411981]
[-0.3407158256]
[-0.6204980612]
[ 0.9687263966]
[-0.9928428531]
[ 0.6547822952]
[-0.3370418549]
[-0.6235979199]
[-0.1270059943]
[ 0.9172738791]
[ 0.8378608227]

biases:
[0.529742837]

2
weights:
[   0.3981508017,   -0.7577136755,    0.3715715408,   -0.2323361039,    0.5485470295,    0.8861025572,    0.8325458765,    0.7238342762,   -0.5929035544,     0.587313652,   0.09608411789,   -0.4054231048,    0.8098649979,    0.8192858696,    0.7479579449, -0.003712177277,    0.1523990631,   -0.6744865179,   -0.4521776438,    0.7291579247,  -0.01520234346,  -0.07267570496,    0.6978843212, -0.008045196533,   -0.4178934097,   -0.6391575336,    0.3683568239,    0.4551005363,    -0.721883595,    0.2062176466]

biases:
[  -0.0151565671,   -0.1203033775,  -0.01786329225,   -0.6435849667,   -0.5560688972,  -0.00294905901,   -0.7574824095,   -0.7235230803,   -0.2791147828,   -0.3503860235,   -0.5397222042,    -1.497296691,   -0.6747586131,  -0.02349322662,  -0.08274232596, -0.007851183414,   -0.3300566077,   -0.2113456726,  -0.03603161499,   -0.1536142379,    -0.482187748,   -0.6975400448,   -0.8549100161,   -0.7843034267,   -0.2045580298,   -0.2728034258,   -0.4234609604,   -0.3372283578,   -0.8177028298,   -0.1453445554]

3
weights:
[    0.8689893484,     0.4420115948,    -0.6603595018,     0.3492105007,     0.2853850126,   0.006922006607,     0.5898202658,    -0.1738443375,    -0.0448975563,     0.1853837967,    -0.7553483844,    -0.6185815334,    -0.6854498386,    -0.3856633306,    -0.2801155448,     0.8451440334,     0.7613663673,    -0.6457340717,    -0.9410475492,    -0.5343037844,    -0.4556214213,    -0.9105410576,    -0.1118053198,     0.6052074432,     0.9251022339,      0.248119235,    -0.7741775513,   -0.07121425867,   -0.07311600447,    -0.9132419825,     0.5765304565,     0.1743940115,    -0.3750187755,     0.1172895432,    -0.9955815673,       0.58462286,     0.2704921961,   0.002959489822,     0.1574048996,     0.3532568216,     0.2607022524,       0.67870152,    -0.2259783149,    -0.8796886206,    -0.4071193337,     0.9639595747,     0.9912409782,      0.455552578,     0.6863580942,     0.1032657623,     0.3866212368,    -0.6772943735,    0.08632969856,    -0.1461927891,     0.7866362333,      0.355309844,      0.189558506,     0.3219314814,     0.7658565044,    -0.1067566872,    -0.7796336412,    -0.9690312147,    -0.5270209312,    -0.3576570153,    0.02698171139,     0.7047829628,     0.3061853647,    -0.1606809497,     0.3238283396,     0.2557259798,    -0.3582865596,    0.06008684635,    -0.3767952323,    0.01772248745,    -0.5653076768,      0.766007781,    -0.5513237119,     0.9957491159,    -0.9400997162,   -0.06541997194,     0.3012517691,     0.7468248606,   -0.07158356905,    -0.9901241064,    -0.2258657217,    -0.6148273349,    -0.3597097397,     0.8001301289,    0.07072079182,    -0.1146702766,     0.8044329882,     0.2850420475,    -0.5124847889,    0.06633043289,     0.5107889175,    -0.8282957673,     0.5652660131,     0.9745264053,    -0.2811177969,    -0.8132683039,    -0.1145192981,    -0.5880144238,    0.06178486347,     0.2200911045,     0.6661975384,    -0.1667813659,     0.7101024389,    -0.8617243767,     0.2116546631,     0.1591466665,     0.8220661879,     -0.583444953,     -0.165898025,    -0.1183744669,    -0.3144743443,    -0.2292448878,    -0.6828157902,     0.0340512991,     0.5472056866,     0.4330968857,   -0.08609008789,    -0.4289149642,   0.003692388535,    -0.8556113243,     0.3196525574,    -0.3604475856,    -0.4514830709,       0.36548388,    -0.2634041905,     0.6142281294,     0.2376122475,    -0.8507594466,     0.1426566839,   -0.03443026543,    -0.8820846677,    -0.2483258247,    -0.6875542402,     0.4464497566,    -0.5190242529,    -0.7817788124,    -0.6209816337,     0.5574406385,     0.4544184208,     0.8821470737,     0.9856860638,    -0.4936651587,     0.4590342045,     0.8216865063,    -0.1465818286,    -0.9785216451,     0.6015111208,    -0.8651370406,     0.7920761108,     0.2561770678,    -0.7095584869,    -0.4895899296,    0.07286334038,     0.6466950178,    -0.1029168963,     0.1386258602,     0.2481393814,    -0.6587036848,    -0.1740318537,     0.6156390905,    -0.9576137066,   -0.04538339376,     0.8896179199,     0.5412960052,     0.2462366819,     0.4176037312,     0.5864037275,    -0.7375121117,     0.7952616215,     0.6267590523,     0.5925021172,     0.2688407898,    -0.8356437087,     0.3147312403,    -0.8872150183,    -0.1721416116,    -0.1927707791,   0.009228825569,     0.5328742266,    -0.9235085845,     0.1257219315,    -0.2401717901,     0.1396131516,    -0.7799278498,    -0.3871948123,     0.3286693096,    -0.1922953725,     0.2628458738,    -0.8975797296,    -0.8862838745,     -0.671266973,     0.1389430761,    -0.4556385875,    -0.5624849796,    -0.8114587069,     0.2381151915,    -0.5060800314,     -0.958607316,    0.04492557049,     0.6705367565,     -0.135801971,     0.2951337099,     0.2984781265,     0.2167351246,     0.7385133505,    -0.3737806082,     0.2928302288,     0.9759171009,     0.8120719194,     0.2719291449,      0.413761735,    -0.7827340961,   -0.08832740784,    -0.4755639434,    -0.3795526028,    -0.8496123552,    -0.1295829415,     0.0771061182,    -0.8324462175,    -0.2989464998,     0.1633355618,    -0.6669636369,     -0.442078948,     -0.865021646,     -0.779817462,     0.3492913246,    -0.2047490478,     0.8398660421,    -0.7431290746,     -0.120378077,     0.6835677624,     0.4922235012,     0.6374701262,    -0.9902185798,    -0.7586615086,    -0.2853799462,    -0.3047260642,    -0.7491253614,     0.6281803846,    -0.2437550426,    -0.9118298888,     0.8301882744,    -0.7718447447,     0.5831973553,    -0.3331941366,    0.04044163227,     0.7945833206,    -0.9920213819,   -0.05533671379,     0.6595265865,    -0.4329797029,     0.6529201269,    -0.9374610782,    -0.3158553243,    -0.4373782277,     0.7288204432,     0.1498192549,    -0.6725814342,   -0.03696495295,     0.3731826544,     0.4667059183,     0.5840245485,       0.54462111,     -0.881937027,     0.8401932716,    -0.9736660719,    -0.3035094738,    -0.7766139507,    -0.3335950375,    -0.4062856436,    -0.3626073003,      0.403501153,     -0.820609808,    -0.8630574942,    -0.7800227404,    -0.1167554259,     0.4812897444,     0.8281806707,     0.5846326351,     0.8740446568,      0.886744976,    -0.1520670056,     0.1824057102,    -0.8965795636,    -0.2414593697,     0.1150028706,    -0.9332987666,     0.4234856367,    -0.7203899622,       0.86967659,    -0.7226099968,    -0.0431740284,    -0.4856317043,   -0.04785603285,    -0.5384634137,     0.6972048283,    -0.7753024101,    -0.4533957839,     0.7179504633,      0.168025732,   -0.02807235718,    -0.3394604325,     0.7647861242,    -0.4381209016,     0.1134006977,    -0.6555307508,    -0.4091920257,    -0.3875103593,    -0.4491691589,     0.3549169302,     0.8502130508,    -0.1574026346,     0.6889717579,     0.8342524767,    -0.7200955153,     0.2604788542,    -0.1751119494,    -0.1179021597,      0.138551116,     0.7506978512,    -0.1626721621,     0.8032721281,    -0.1361743808,    -0.1598104239,    -0.4373773932,    -0.6028479934,     0.3582516909,     0.2432309389,    -0.7126463652,     0.8696485758,    -0.5577516556,    -0.7558139563,     0.3907339573,      0.538002491,    0.08616042137,     0.7113864422,     -0.253466785,      -0.73886168,     0.6025556326,    0.08775269985,    -0.3532006145,     0.7229551077,     0.6690531969,    -0.8218237162,     -0.521181047,     0.6694248915,     0.3476707935,     0.2209451199,    -0.2889720201,     0.9192854166,      0.221809268,     0.3020861149,    -0.8790207505,    -0.8785026073,     0.2987607718,     0.9411295652,     0.6222584248,      0.851023674,    -0.8177599311,    0.06108355522,    -0.4416629672,   -0.07013273239,      0.126401782,    -0.7944352031,   0.009794473648,    -0.9595957398,     -0.331227541,   -0.03661930561,    -0.6606557965,    -0.9086027145,     0.1223474741,     0.3140444756,    -0.6309896708,     0.8957691193,    -0.6419785619,     0.8113480806,    0.06708884239,    -0.7163758278,     0.9502207041,    0.06615078449,    -0.5992337465,     0.6311579943,     0.6635224819,     0.3824332952,     0.6223143339,   -0.04049766064,    0.04857206345,     0.5803245306,    -0.1349562407,    0.04266607761,    -0.2616747022,    -0.6600679159,    -0.8306581974,     0.3755539656,     0.1971794367,     0.9076328278,    -0.6469643712,     0.7568433285,     0.1525397301,     0.5933413506,    0.02302336693,      0.546642065,    -0.9162409306,     0.8595143557,    0.08643114567,    -0.5278350115,    -0.5432550311,     0.4636212587,      0.842145443,    -0.2901765108,     0.5241757631,     0.4959739447,    0.03495359421,    -0.0227124095,    -0.9863347411,      0.146473527,    -0.1818706989,    -0.9954085946,   -0.01145780087,    -0.9135722518,    -0.6312302947,   -0.08996909857,     0.2776739597,    -0.1193780303,    -0.9473060966,      0.552285552,    -0.3191530108,     0.7093390226,    -0.1847642064,   -0.09484726191,     0.4778264761,     0.1526805162,    -0.9743134975,     0.2344812155,     0.2978299856,     0.8046799898,     0.1684623957,     0.7331895828,    -0.7420151234,     0.5563130379,     0.4707597494,     0.5917396545,     0.9297187328,    -0.8701984882,     0.5212327242,     0.3665702343,     0.4847003222,      0.403208375,     0.2755604982,    -0.8599936962,     0.7706283331,     0.5864266157,  -0.006314337254,     0.4598903656,    -0.3663898706,    0.02783310413,    -0.6741956472,     -0.444660604,    -0.1033228636,     0.8660281897,      0.683765769,    0.03958785534,     0.4486182928,     0.4487498999,      0.222255826,   -0.07071137428,     0.5413035154,     0.2021738291,     0.6899940968,    -0.8736291528,    0.03794550896,  -0.003703057766,     0.7712951899,     0.5434775352,    -0.9664115906,    0.03508162498,   0.005103707314,    -0.8180086613,     0.9763163328,     0.5674958229,    -0.1683552265,    -0.2130434513,    -0.5309445858,    -0.1519972086,    -0.1753823161,    -0.0137706995,    -0.3821877837,    -0.4154804349,     0.7737259865,    -0.9419448376,    -0.8442498446,    -0.2815973163,      0.978123188,     0.6535003185,    -0.7410749197,    -0.8938239217,     0.2616983652,    -0.6982105374,    -0.3816517591,     0.9239444733,    -0.6666811705,    -0.7338278294,    -0.8450144529,    -0.4119704366,    -0.8192228079,    -0.8334639668,    -0.5117460489,    -0.7157295942,    -0.4660917521,    -0.2003959417,     0.9853663445,     0.6816446781,    -0.8856853247,     0.6948349476,     0.7228081226,     0.4349936247,     -0.646607399,    -0.8012180328,    -0.2311626077,    -0.5202326775,     0.2495144606,     0.2384645939,     0.3732625246,    -0.4286696315,     0.8698836565,    -0.7751524448,    -0.8447754979,    -0.1450979114,     0.3164346218,     0.4178419113,    -0.6751116514,    -0.1446747184,      0.856297493,    -0.1319876909,    -0.6842880249,    -0.9578555822,    -0.4832048416,     0.7452316284,    -0.9898730516,     0.1262749434,   -0.04482632875,      0.258883357,     0.6073589325,    -0.6508451104,     0.2081125975,    -0.8956699371,    -0.2965374589,    -0.8894897699,  -0.003670096397,     0.4596241713,    0.06477737427,     0.9450150728,     0.4028418064,    -0.5544882417,    -0.8785496354,    -0.9627673626,    -0.3220406771,     0.4834707975,      0.724183321,    -0.6770503521,     0.5377533436,    -0.1271952391,    -0.9194942713,      -0.92469275,    -0.7597872615,    -0.1359818578,     0.2175767422,    0.06816065311,     0.6880048513,    -0.5787782669,    -0.5102522969,    -0.4383584261,     0.1041059494,     0.5734795332,     0.4027543068,    -0.4998970628,     0.9955040216,     0.7083837986,     0.8829723597,    -0.2313427925,     0.8197954893,     0.3455308676,    -0.9374228716,    -0.5467094183,    -0.3220848441,     0.9637993574,      0.867036581,     0.3351813555,    -0.5726760626,     0.4934840202,    -0.9721353054,     -0.104182303,     -0.896916151,    -0.1204708815,    0.03006052971,    -0.1765221357,     0.2538173199,       0.47542274,    -0.2817096114,    -0.9930694699,    -0.2868340015,     0.9661929607,      0.395054698,    -0.6542406082,    -0.1877120137,      0.938125968,   -0.08132052422,    -0.2292289734,    -0.2974275351,    -0.1840919852,     0.6829527617,      0.955264926,     0.4556415081,     0.5377618074,     -0.205519855,    0.01743483543,   -0.04226082563,   -0.01345390081,    -0.6477079391,    0.02583432198,     0.3739649057,    -0.6906406879,      0.398272872,    -0.4903575182,     0.5786398649,     0.7462909222,     0.1023490429,     0.2290219069,     0.3427087069,      0.953974247,     0.3138705492,     0.9708163738,     0.8499833345,    -0.2464614511,     0.7529770136,    -0.1978943944,   -0.08015471697,     0.9473237991,    -0.7766789198,      0.766277194,     0.6055426598,    0.07895898819,    -0.1115956903,     0.3606318235,    -0.5639090538,     0.8094147444,     0.9757059813,    -0.7066217661,    -0.8534488678,    0.06782102585,     0.9795944691,     0.5944683552,     0.0910949707,    -0.6601093411,   -0.01655989885,    -0.4718776345,     0.3210736513,     0.4320255518,    -0.9701723456,    -0.3399190307,    -0.2828547955,    -0.6535428762,     0.5162243843,     0.4174101353,     0.4181287289,    0.05747532845,    -0.7761871219,    -0.4446241856,     0.7767750025,    -0.2589998245,    -0.7678320408,    -0.1660727859,      0.330960989,    0.04041111469,       0.15954566,     -0.245567441,     0.6723099947,     0.4651360512,     0.7971782684,    -0.8996164203,    -0.4406506419,        0.2047472,     0.4441230297,    -0.7618875504,    -0.4599090219,     0.9008625746,     0.7198965549,   0.008695006371,    -0.9047182798,     0.8501937389,     0.6569821835,    0.08385550976,     0.9720720053,    -0.2627319694,     0.8522133827,      0.817201376,     -0.404676199,    -0.9778420925,     0.9606842995,     0.1035068035,    -0.1858506203,    -0.6759701967,      0.864641428,     0.3806271553,     0.9494339228,     0.2080082893,    -0.9048614502,     0.5890094042,      0.107155323,      0.789789319,     0.6679927111,     0.5170973539,     0.6080005169,    -0.3505826592,    -0.6350318789,     0.7400869131,   -0.03700059652,    -0.2114812136,     0.2232017517,    -0.6652500629,    -0.6885744333,    -0.9086171389,    -0.8705965281,     0.5010364056,     -0.424890399,     0.7119208574,     0.6204066277,    0.03554236889,   -0.03209775686,     0.1503708363,    -0.9870622158,     0.9134780169,     0.6657559872,     0.1067324877,    -0.5630323887,     0.2502355576,    -0.8570196629,     0.0209479332,    -0.3073880672,     0.7433699369,     0.2338272333,    -0.6505889893,     0.2664724588,    -0.3275960684,     0.2311288118,     0.7634712458,    -0.5385617018,    -0.8445800543,     0.2826844454,    -0.4105557799,     0.4540007114,     -0.222985208,    -0.1149181128,    -0.9277842641,     0.2446471453,     0.4098728895,    0.04672729969,     0.2386747599,    -0.7722022533,     0.7839488983,     0.9526010752,     0.9079940319,     0.5276665688,     0.4219124317,     0.7566843033,     0.9571410418,    -0.7626538277,    0.03428649902,   0.007206320763,     0.4825109243,     -0.283113122,     0.7304378748,     0.8204364777,     0.3112205267,     0.0357708931,     0.5773117542,    -0.7586044669,    0.09469938278,    -0.0464040637,      0.664075017,    -0.1045321822,    -0.5468819141,    -0.2163892984,     0.4250915051,    -0.1688307524,   -0.07372045517,    -0.1609086394,    -0.6289665103,     0.2759739161,      0.210749507,    -0.3386837244,    -0.1493920088,    -0.5759786367,    -0.6420652866,    -0.7607273459,    -0.4569361806,    -0.1318956017,    -0.1223865151,    -0.1962618828,    -0.8163360357,    -0.6425067186,   -0.03388595581,     0.3211859465,    -0.2683531046,     0.9802078009,     0.7766517401,      0.491787076,     0.1580986977,     0.4835551977,     -0.602088809,    -0.7594917417,    -0.5764529705,     0.6568281651,    -0.8533295393,    -0.9436458349,     0.4261792898,     0.4542280436,    -0.4253719449,    -0.4586526155,     0.6154210567,     0.2867964506,     0.3359894753,     0.5917658806,     0.8921616077,     0.6800899506,    -0.7493464947,     0.2467842102,    -0.4859079123,     -0.398039937,      0.711909771,     0.3004999161,     0.7232433558,     0.2382529974,     0.1978151798,     0.2724342346,     0.1472088099,     0.6895356178,     0.8548350334,     -0.511013031,      0.162525177,     0.1789495945,     0.3543961048,    -0.5205395222,    -0.3890493512,     0.2071305513,     0.3987669945,     0.2423704863,  -0.007470011711,    0.08873808384,    -0.0831155777,    -0.2883720994,   -0.01885342598,     0.2513077259,     0.8593741655,    0.03394734859,    -0.3151208162,     0.5856844187,     0.1940553188,    -0.2515513301,     0.1410140991,     0.6910399199,     0.5330245495,     0.7591226101,     0.2812019587,     0.7316777706,    -0.3353542686,    -0.3256027102,     0.1191118956,    -0.5462468863,    -0.1354221106,    -0.6079676747,    -0.9246516824,    0.08710694313,   -0.07141959667,     0.9045335054,    0.03981947899,    0.07347524166,     0.3672914505,    -0.2257034183,    -0.6625589728,     0.2882289886,   -0.07400095463,     0.6919142008,    -0.9747034907,    -0.2224094868,     0.1915050745,    -0.4924987555,     0.4055866003,     0.9377331734,     0.2508342266,     0.5065872669,    -0.9646224976,     0.5019695759,     0.5953913927,    -0.2173541188,     0.5736459494,    0.02356660366,     0.1112817526,    -0.2417250872,    -0.5648498535,    0.01313829422,     0.9350185394,     0.7297894955,  -0.003538310528,    -0.4030103087,    -0.1366487145,    -0.6975237131,    -0.6230021715,    -0.6388711929,    -0.6210369468,    -0.3360514641,    -0.9731809497,    -0.9395850301,    -0.8012543321,    -0.0106998086,   -0.06378757954,      0.752753973,    -0.5147838593,    -0.5451307893,    -0.2739539742,    -0.4489412904,     0.2542952299,    -0.2401369214,    -0.4459221363,     0.6210210323,    -0.6708734035,     0.5642539263,     0.3466851711,      0.732183218,    -0.1124621034,     0.2767671347,    -0.9552872181,    -0.4957486391,     0.7643114328,    -0.3403998017,     0.3834477663,    -0.7519305944,       0.34022367,     0.7016462088,     0.9623767138,     0.3950653076,    -0.5266826153,     0.3423541784,     0.6245728731,     0.8439999819,     0.8827747107,   -0.05399429798,     0.9609627724,    -0.1764374375,     -0.594825387,    -0.6649615765,    -0.7438560724,    -0.8496983051,    -0.9909267426,    -0.1776451468,     0.7428511381,    -0.3587570786,     0.8781858683,   -0.01908022165,   -0.05812942982,     0.3730587959,     0.9946439266,     -0.660795033,     0.5214464664,    -0.7116829157,     0.5869626999,    -0.3196436763,    -0.5406165123,    -0.5468187928,    -0.8140143156,    -0.2151839733,    -0.4533569813,    -0.6198314428,     -0.722217679,    -0.4080019593,    -0.9209063053,     0.1761171818,    -0.6454787254,     0.5218018293,    -0.4739484191,     0.9289659262,    -0.3557658195,    -0.6946467161,     0.7849287987,    -0.2636861205,    -0.3840925097,    -0.2690496445,     0.1411380768,     0.5142229795,     0.7146651745,    0.02726137638,     0.4956519604,     0.3482074738,      0.328571558,    -0.5247437954,     0.6311120987,    -0.9846514463,    -0.3732867837,     0.5133680105,    -0.9129642248,   -0.05048042536,     0.2145546675,     0.3737171888,    -0.4390078783,     0.2706735134,     0.9897317886,     0.1392024755,     0.2446825504,     0.2092354298,     0.1639831066,    -0.9550269842,    -0.5901746154,    -0.5153762102,    -0.6491066217,     0.4177356958,     0.5837196112,     0.8581514359,     0.1702555418,     0.6464973688,    -0.3990122676,    -0.4803439379,      0.182612896,    -0.5027547479,     0.7234574556,     0.9889899492,    -0.8989466429,     0.5145214796,    -0.2508033514,    -0.2409728169,     0.8443617821,    -0.7192028165,    -0.6691225171,     0.3964008093,    -0.9867335558,     0.5823047161,     0.8880442381,     0.4415972233,     0.1748902798,    -0.6180649996,     0.7742197514,     0.8381294012,       0.78691113,     -0.964114666,    -0.6233055592,    -0.6328238249,    -0.7137259245,     -0.738910675,    -0.7451738715,    -0.2995049357,    -0.7767692804,    -0.9288764596,     0.6509892941,    0.04042458534,    0.01796269417,     0.4765369892,    0.04589831829,    -0.3042116761,     0.4384380579,    -0.5698113441,     0.4408237934,    -0.3540796041,     0.3471415043,     0.2465727329,    -0.7232225537,    -0.5715539455,    -0.2509570122,    0.08632969856,    -0.6960793734,    -0.2075256705,    -0.9848370552,     0.4025814533,    -0.4294916987,     0.3215868473,    -0.1356742382,     0.5797799826,     0.3747683764,     0.8000135422,    -0.9880948663,    -0.3453794122,     -0.441491425,     0.5662599802,    0.05489480495,     0.3283296824,    -0.2550549507,     0.2205101252,    -0.7349926829,     0.3518930674,     0.8561882973,     0.2421468496,    -0.4556449056,      0.597066164,    -0.4335404038,     0.9302281141,    -0.6420156956,    -0.6160845757,    -0.8958804011,    -0.3201910257,      0.352571249,     0.8087505102,     0.4121904373,     0.4529037476,     -0.997777164,      0.920922637,    -0.6413136721,     0.3370871544,     0.5132235289,     0.3910118341,     0.1550229788,    -0.1517723799,     0.3709321022,    -0.6584824324,    -0.1811448932,  -0.008568227291,     0.5361171961,    -0.1368746758,     0.1371569633,    -0.4199867249,    -0.2169399261,    -0.6711958051,    -0.3590955734,      0.728584528,     0.4516654015,    -0.1879954934,    0.01730704308,      0.124085784,    -0.4920471907,     0.8920022249,     0.2590970993,     0.4386806488,     0.3903670311,     0.8487565517,     -0.593979001,    -0.7014187574,    -0.4446820617,   -0.03869080544,    -0.5657919049,    -0.7243608236,    -0.9278496504,      0.407128334,    -0.1858361959,    -0.9467118979,     0.3008397818,     0.1016430855,    -0.9710608125,    -0.5829597712,     0.1004450321,    -0.4747902751,     0.9781607389,   -0.01885914803,       0.10500741,     0.5479285717,    -0.5417586565,     0.2224843502,     0.5611633062,     0.2957316637,     -0.406193018,   -0.00647777319,     0.9925075769,     0.7461340427,    -0.8162047267,     0.1454569101,    -0.1628414989,    -0.4678924084,     0.4417767525,    -0.8697103262,   -0.09566581249,     0.7035605907,    -0.7087994814,   -0.06460696459,    -0.7437300682,    0.01935756207,     0.7930028439,    -0.3209528923,     0.6973619461,     0.7851115465,     0.6916652918,     0.3732107878,    -0.9489089251,     0.1507669687,     0.0579918623,     0.5615152121,    -0.6946872473,    -0.8686745167,     -0.508951962,    -0.6703398824,    -0.8317494392,    -0.9205514193,     -0.636656642,    -0.9982582927,     0.4024113417,    -0.3541513681,     -0.377302587,    -0.5798467398,      0.521674633,     0.4782376289,    -0.9325230718,    -0.6927669644,     0.7139173746,     0.2743982077,    -0.9161809683,    -0.8136950731,    -0.4930309057,    -0.9459045529,     0.6808003187,     0.6252285242,   -0.03216576576,    0.03965425491,    -0.5691390038,    -0.9287809134,    -0.6272699833,     0.7366496325,     0.6507303715,   -0.09490764141,     0.5347621441,    -0.1360920072,     0.5718789101,     -0.913110733,     0.3611648083,     0.2368556261,      0.258830905,    -0.5296869278,     -0.925494194,      0.754268527,     -0.337028265,    -0.2253556252,     0.5888988972,     0.6907345057,    0.08479380608,     0.1719148159,    -0.0428442359,   -0.02865797281,    -0.7656293511,      0.279613018,     0.7739834785,    -0.6913043261,    -0.8195910454,    -0.4294407964,    0.07588291168,     0.2550228834,    -0.4436445832,     0.9451979399,   -0.04834228754,    -0.9456293583,     0.6031470299,     0.7312024832,    0.03496491909,     0.1339566708,    -0.4441791177,   -0.08655822277,     -0.493497014,     0.5321699381,    -0.4279190898,    -0.1686136723,    -0.7104079723,      0.577778101,    -0.8050061464,    -0.8308699727,      0.758897543,    -0.2763708234,     0.4352730513,     0.4800716639,     0.8077684641,     0.3464964628,     0.3539202213,     0.1051359177,    -0.8313624859,     -0.437484324,    -0.8816539645,     0.1740823984,    0.04796791077,      0.329007268,    -0.1741501093,    -0.6643462181,    -0.7330153584,    -0.5474019051,    -0.2925345898,     0.9241738319,   -0.03215306997,    -0.6655954123,     0.4477729797,     0.5295882225,     0.1153587103,     0.9335590601,     0.1420053244,     0.2436206341,     0.9473141432,    -0.7340295315,    -0.6123199463,   -0.01987570524,    -0.5389299393,     0.6571848392,    -0.5762937665,      0.461632967,    0.01902663708,     0.4952546358,    -0.8798568845,    -0.4758904576,    -0.3740584254,     0.4432628155,     0.6367245913,    0.02331507206,    -0.7214587927,     0.4922001362,   0.007256746292,    -0.8443439007,    -0.3406462073,     0.8906379938,    -0.8614060879,    0.05024051666,    -0.3499426246,   -0.09158909321,    -0.7425380945,    -0.6139039993,     0.5607235432,     0.8777554035,     0.2023140192,    -0.0402816534,     0.7771373987,     0.2032164335,    0.04101252556,    -0.8012206554,     0.5343799591,    -0.2685812116,    -0.1249520183,     0.9644991159,     0.7323498726,     0.1488951445,    -0.5537022948,     0.3749687672,    -0.5536792278,    -0.4062838554,    -0.1616847515,     0.9199768305,     0.4477882385,     0.0354514122,    -0.8895753026,    -0.3894523382,    -0.8427240849,     0.9216448069,     0.9123307467,     0.8700054884,    -0.4720770121,    -0.2746595144,     0.2612537146,    -0.5470230579,    -0.4270271063,     -0.357033968,     0.9543558359,     0.3879064322,     0.9799351692,    -0.3113399148,     0.9857956171,    -0.4586878419,    -0.7226138115,    -0.5095374584,    -0.2273762822,    -0.4094608426,    -0.6102695465,     -0.792999208,    -0.6555531025,    0.07259583473,    -0.4028127193,    -0.7599751949,     0.8346151114,     -0.116466701,   0.004592895508,     0.8565936089,   -0.08703690767,      0.971015811,    -0.7336937785,     0.9118852615,   -0.09826260805,     0.7953242064,     0.6330857277,   -0.04303556681,     0.4931653738,    0.07854044437,     0.7663370371,     0.2604455948,     0.2251396179,    -0.3946287632,     -0.313586235,     0.9841506481,     0.5525659323,    -0.9682769179,     0.6357309818,    0.08704793453,    -0.7313471437,    -0.1147715449,    -0.9563779235,    -0.8831017613,     0.3473683596,    -0.1130748987,    -0.9193016887,    -0.3133298159,    -0.4932126999,    -0.3095734715,     0.3990228176,    -0.4133954048,     0.2799524069,    -0.8227850199,     0.7441880703,     0.9678872824,    -0.9731106758,     0.3493316174,    -0.1366394162,    -0.6124817133,     0.1051875353,     0.4134390354,      0.484213829,     0.6313143969,    -0.6121461391,    -0.6439592838,      -0.10270679,    -0.4810057282,      0.774065733,     0.7764396667,     0.7229317427,    -0.5532084703,     0.7628253698,     0.4467480183,     0.3316521645,     0.7059432268,      0.793576479,     0.8216847181,     0.0291646719,    -0.6671229601,     0.8886772394,     0.9460577965,    -0.5943075418,     0.3638666868,     0.1810741425,     0.9041349888,   -0.06316959858,     -0.248013258,     0.8384815454,     -0.768553853,     0.2912354469,     0.4315398932,     0.4935495853,     -0.121063292,     0.3725064993,     -0.268971622,    -0.9214268923,     -0.748734951,    -0.6986458302,    -0.8405908346,    -0.5748900771,    0.04375874996,    -0.1835999489,   -0.09247493744,    -0.7247247696,     0.4400098324,    -0.5947502255,   -0.01942026615,    -0.8072371483,     0.8877273798,     0.7405275106,    -0.2237980366,    -0.4588397145,     0.7623324394,     0.9234638214,    -0.9855114818,    -0.1704147458,   -0.06301295757,    -0.2485940456,     0.2576483488,      0.662678957,    -0.1634032726,     0.3351639509,    -0.1455426812,    -0.1267080307,     0.3203023672,      -0.83304739,     0.7444602251,     0.9305967093,     0.3919106722,    0.04639792442,     0.9565727711,     0.2510478497,     0.7426257133,    -0.5086089373,    -0.9904953837,     0.1672520638,     0.9381046295,     0.8676846027,    -0.3511394858,    -0.9914680123,     0.8541907072,     0.1093543768,    -0.9718222022,    -0.6779426336,     -0.474658668,    -0.1269570589,     0.7070487738,    0.02699136734,    -0.4827261567,     0.3675431013,    -0.9646927118,     0.6869852543,     0.3290005922,    -0.8269298673,     0.6859521866,      0.467862606,    -0.1284195185,     0.1743534803,    -0.7806075811,     0.4443600178,   -0.04812526703,     0.1217839718,    -0.8553292751,    -0.8996140957,     0.2770513296,    -0.5814629793,    -0.5977805853,     0.9532811642,     0.9838086367,     0.9744951725,    -0.7954704165,    -0.9192519784,    -0.0727776885,    -0.6178915501,     0.6657556295,    -0.9894955754,     0.2602046728,     0.1752104759,      0.423725605,    0.07042193413,     0.9520288706,     0.1041117907,     0.4061919451,     0.3284932375,     0.2205976248,    -0.1624494791,    -0.7304469943,     0.3041937351,     0.2853490114,     0.7817822695,     0.7933799028,     0.5369483232,   -0.02594786882,     0.8103116751,    -0.7962189913,     0.1824499369,     0.7816312313,     0.1443980932,     0.7636350393,    -0.8473228216,    -0.1172593236,     0.3112823963,     0.3425700665,    -0.1089791656,    -0.0933676362,    0.03089952469,   -0.01494836807,     0.6541836262,     0.9092870951,    -0.4759539366,     0.6080390215,     0.8284330368,    -0.2536731958,    -0.5253329277,     0.1067640781,    -0.9349194169,     0.1453732252,     0.2743288279,   -0.09360277653,       0.13976717,    -0.9627728462,    -0.5878345966,    -0.8113154173,    -0.4781494737,      -0.15502882,     0.2854703665,     0.7100875378,    -0.9254553914,    -0.5930814743,     0.4664267302,    -0.9776031375,     0.5207943916,     0.3364309072,   -0.08698183298,    -0.2536610961,    -0.4668076634,     0.3572787046,     0.6635329723,    -0.8061259389,    -0.6096032858,     0.3170666695,     0.5179980993,     0.8275754452,     0.9714262486,     0.6288634539,     0.9860687256,    -0.7900525331,     0.4680365324,    -0.1745376587,     0.5809012651,    -0.3943427801,      0.177077055,    -0.4694574475,    -0.1514945626,    -0.9494516253,    -0.5403001308,    -0.9669548273,    0.05070257187,    -0.2894847393,      0.955542922,      0.180567503,   -0.01895666122,    -0.8035520315,   0.003221988678,      0.321793437,    -0.9739829898,    -0.5002293587,     0.6340047121,   0.006018280983,     0.2096344233,     0.8859541416,    -0.3829172254,    0.03807103634,     -0.849711895,     0.7013905048,     0.4260368347,    -0.5734282732,     0.5625649691,     0.5461432934,    -0.8743902445,    -0.9138535261,     0.1421616077,     0.2898806334,     0.3697247505,     0.5245968103,   -0.09154492617,       0.21938169,    -0.1022803783,    -0.7101641297,    -0.9656050801,     0.8994799852,    -0.3065518737,    -0.5600819588,     0.1366307735,    -0.7594491243,    -0.4661439657,     -0.333308816,    -0.5527924895,     0.2234338522,     0.4292439222,   -0.06570291519,      0.902956605,    -0.4180861712,     0.2992534637,    -0.5478411317,    -0.1027261615,     0.5082041025,    0.06007027626,     0.3900077343,     0.9696317911,     -0.472132504,    -0.5060969591,     0.7804443836,    -0.8845791221,     0.7544282675,     0.3704042435,    0.04161536694,    -0.4300627112,    -0.6654666662,     0.7239797115,    -0.9453353882,     -0.541862011,    -0.9251852036,    -0.5324974656,    -0.9449692369,    -0.8036797643,     -0.974588871,     0.4881168604,    -0.0669362545,    0.04643130302,     0.5535825491,     0.3461955786,     0.2346864939,    -0.5282993317,    -0.8162150383,     0.7825815678,     0.8464977741,      0.913607955,     0.3231431246,     0.8668417931,      0.197535038,    -0.8583734632,     0.6529774666,     0.4227387905,     0.4045044184,      0.968957901,      0.555762887,     0.2294126749,     0.3958755732,     0.7201980352,    -0.1850777864,    -0.7118225098,    -0.2828310132,     0.8094660044,      0.357129097,     0.6014572382,    -0.3945162892,     0.2834035158,    -0.6967051625,      -0.13497293,     0.7885195017,     0.9491701126,    -0.5953472853,    -0.5755215287,     0.5917149782,    -0.9915781617,   -0.09395486116,    -0.9383550882,    -0.4177299142,       0.27945292,     0.4792689085,    -0.2611581087,     0.9228582382,     0.2236099243,    0.08555626869,    -0.8947788477,    -0.4699496031,   -0.03409069777,      0.273404479,    -0.9622701406,     -0.844492197,    -0.0892701745,    -0.6636525393,   -0.05510544777,     0.4381309748,     0.5304119587,    -0.9786916971,     -0.442049861,     0.1966750622,    -0.4442195892,     0.6412051916,     -0.884665668,     0.6895868778,    -0.6221728325,    -0.1872909069,     0.1049360037,    -0.2435706258,   -0.07915365696,    -0.9947653413,    -0.7231403589,    -0.1932397485,     0.3084541559,     0.2675049305,    0.09604883194,   -0.08818751574,     -0.752773881,      -0.57313025,    -0.5167269707,    -0.6058818102,    -0.2882403135,     0.1119090319,     0.2830344439,    -0.8842438459,     0.3384613991,     0.6704882383,     0.4475189447,     0.1771329641,     0.3802410364,    -0.8093627691,     -0.929846406,     0.4787653685,    -0.7098616958,     0.1681807041,     -0.396930635,      0.196074605,    -0.2760465145,    -0.9066354632,    -0.5210188031,      0.766328454,     0.6142314672,     0.7421586514,     0.8754403591,    -0.1984610558,     0.2345145941,    -0.3828683496,    -0.9905567169,      0.686081171,     0.8166940212,    -0.1386911273,     0.9245270491,      0.965681076,     0.4099657536,     -0.326556623,     0.7398160696,    -0.2395093441,     0.2543531656,     0.1538610458,     -0.846116662,    -0.2905954123,    -0.9534204602,     0.7743053436,     0.1159871817,    -0.5080373883,     0.8382711411,    -0.8772084713,    -0.4168117642,     0.1938091516,    -0.9306634665,     0.7753889561,     0.5468006134,     0.2806258202,    0.05072367191,    -0.3082764149,     0.6471987963,    -0.7968888283,     0.1175488234,    -0.2265019417,    -0.3817782402,     0.5935783386,   0.003792405128,     0.7282726765,    -0.1733587384,    -0.7466370463,     0.3216097355,    -0.5790193081,     0.8627053499,    -0.1909721494,     0.2163678408,     0.3810385466,      0.479532361,     0.6919445992,     0.1087436676,    -0.8073558211,    -0.9712467194,    -0.7872857451,     0.4831924438,    -0.1528862715,    -0.6716521978,    -0.6416913271,    -0.3957131505,    -0.6150820255,     0.8557361364,   -0.07101780176,    0.04590940475,     0.3214204311,     0.8610479832,     0.5859906673,    -0.8690612912,    0.02339959145,      0.257819891,     -0.659308672,     0.1244561672,    -0.3672232628,     0.8486119509,    -0.1063567996,     0.4099344015,    -0.6695030928,    -0.9470436573,     0.7916324139,    -0.7202783227,    0.06127560139,     0.3031539917,     0.5716689825,     0.7881364822,    -0.2772823572,     -0.324236989,     0.1105724573,     0.2210444212,     0.9194703102,    -0.8163900375,     0.2319777012,   -0.01149195433,     -0.276068449,    -0.4764072299,     0.5902371407,     0.5905166864,     0.2996090651,     0.6960418224,    -0.9514784217,    -0.1877784729,    -0.1715134978,     0.8074277639,     0.4513523579,     -0.942908287,    -0.1975828409,     0.4064277411,     0.2527984381,     0.9193438292,    -0.4035874605,    -0.5858764052,    -0.5535233021,     0.7788652182,    -0.1348821521,    -0.9600673318,      0.263428092,    0.06997287273,    -0.3546944261,     0.7047045231,      0.822614789,     0.9225001335,    -0.2885515094,    -0.9025980234,     0.1457853317,     0.8520747423,    -0.6571345329,    -0.2468678355,    -0.2849127054,    -0.4072512984,     0.3343316317,    -0.2389466166,    -0.9364418983,   -0.02476871014,     0.9692947865,     0.2241369486,    -0.2675474286,     0.7381278276,   -0.09998673201,    -0.5922051668,     0.6956930161,     0.6394726038,    -0.2932638526,     -0.719725728,     0.6209363937,    -0.4840434194,    -0.1722196937,     0.3842600584,    -0.2180181146,     0.9594815969,     0.8272916079,    0.01306509972,     0.5084110498,    -0.9775147438,     0.4526671171,     0.3521034718,     0.8924304247,     0.4049596786,    -0.3531680107,   -0.01292663813,     0.4931842089,     0.3261294365,     0.8166683912,     0.8585027456,    -0.8730298281,    -0.4892827272,     0.1320334673,     0.3254663944,    -0.3645419478,     0.4117493629,    0.05835831165,      0.985249877,    -0.3423420787,     0.7619019747,     0.3388005495,     0.3299583197,     0.1949762106,    -0.8319293261,     0.7818462849,    -0.9116925001,     0.2229934931,     0.2805324793,   -0.03709560633,     0.9658316374,     0.8628257513,      0.176399231,    -0.5656092167,     -0.478407979,     0.3377662897,    -0.3955807686,    -0.3094562292,    -0.1170570254,    -0.5462778807,     0.4251050949,     0.3998271227,     0.8924132586,    -0.3951457739,      0.672757268,   -0.05148559809,     -0.826490581,     0.9289219379,    -0.8992317915,      0.317681551,    -0.4925954342,    -0.4556615949,     0.1082866192,      0.924481988,    -0.2167181969,     0.6814405918,     0.3411108255,    -0.6482605934,    -0.7903138399,    -0.9189110398,    0.03070580959,    -0.8251277208,    -0.4289530516,     0.1433156729,      0.696259737,     0.4926667213,     0.9617968798,    -0.7928725481,     0.7266907692,    -0.3740698695,   -0.06371462345,     0.2140830755,    -0.6003886461,     0.7232472897,     0.1689021587,     0.7821030617,     0.8248306513,    0.05129158497,    -0.4410765767,    0.08711791039,    -0.2210791707,      0.932611227,     0.9187926054,     0.6029285192,    -0.2393403649,    -0.4930558801,     0.4651441574,     0.4822745323,     0.9620614052,    -0.5566584468,     0.4351607561,     0.0595728159,    -0.3592780232,     0.5308427811,     0.2504806519,    -0.5251260996,    -0.5164040327,    -0.8385237455,    -0.5813781023,     0.9040048122,    -0.3391849995,    0.02809107304,    -0.9134933352,       -0.1559937,     0.6866387129,    -0.7874851227,    -0.6718221903,    -0.3722137809,     0.8913369179,     0.4875503778,    0.00928068161,    -0.8257507086,    -0.5068942308,    -0.4360668063,     0.3865303993,        0.6680969,    -0.9519581199,     0.4201971292,      0.747297883,     0.3100304604,    -0.5296008587,    -0.5343735814,     0.8240408897,     0.8686400652,     0.7817614079,     -0.225022018,   -0.07635837793,     0.5805922747,      0.804872632,     0.5052514076,     0.4217163324,     0.2116674185,     0.8731238842,    0.01633477211,     0.5823961496,     0.6894803047,     0.6110812426,    -0.1257322431,     0.2384245396,     0.7684620619,    -0.5995943546,    -0.8256331086,    -0.7006254196,     0.7203192711,     0.6629083157,      0.510782361,    -0.4422801733,    -0.3169970512,    -0.7959692478,    -0.6113222241,    -0.5244444609,    -0.5115271807,    -0.2165365219,     0.4957615137,    -0.2162284255,     0.2725143433,    -0.3606607318,    -0.9143087864,     0.7255538702,    -0.7684944868,    -0.5500237942,    -0.8753518462,     0.2634013891,     0.6856325865,    -0.5758878589,     0.4057406187,     0.5020148754,     0.6559045315,   -0.08755683899,    -0.9762408733,     0.2473222017,     0.3985660076,    -0.7703821659,    -0.6319873333,     0.3434125185,     0.8631393909,     0.1472607851,   -0.03226268291,     0.8929656744,      0.154884696,     0.5835976601,     0.8530101776,     0.1422291994,     -0.862586081,     0.8020250797,    -0.9899350405,    -0.5607848167,    -0.2484127879,     0.9373546839,     0.7873294353,     0.5146003962,    0.07713162899,      -0.50197047,     0.7410953045,     0.6641387939,    -0.9310208559,    -0.9067057371,    -0.5451414585,     0.9429255724,     0.6043614149,     0.7651798725,     0.9227186441,     0.4968687296,    -0.2476081848,    -0.5731535554,     0.8336070776,     0.5892248154,    0.06036353111,    -0.1460675597,      0.661771059,     0.7753958702,    -0.7360614538,       -0.4964993,     0.4751135111,    0.01045107841,  -0.002942860126,     0.2548766136,    -0.1210651398,     0.3816270828,    -0.4001845717,    -0.8659468889,     0.8689776659,    -0.3246116042,     0.2061792612,     0.1133232117,     0.2283270359,    -0.2594593167,     0.6949020624,    -0.1368686557,    0.02196860313,     0.8578646183,    -0.7428988218,     0.7012428045,   -0.03813499212,      -0.22448349,      0.792396903,     0.7313215733,    -0.9032604694,      0.194812417,     -0.551271677,    -0.2096093297,     0.4772293568,    -0.4670379758,     0.7045378685,    -0.1464224458,   -0.08215993643,     0.2048528194,    -0.9106270671,     0.6693814993,    -0.9036685228,     0.5486569405,     0.0325371027,    -0.3515889645,     0.2097243071,     0.5215644836,    -0.6230727434,    -0.5361617208,    -0.2321127653,     -0.316098392,     0.6420378685,     0.6621387005,     0.5858918428,    0.03943419456,    -0.6562088728,     0.1285061836,     0.4334447384,     0.3946247101,     0.4683971405,    -0.4536602497,    -0.7782719731,     0.6541440487,    -0.8625558615,     0.6588954926,     0.8583866358,     0.5910813808,    0.05434393883,    -0.2280476093,    -0.6032830477,    -0.4718565345,     0.3368686438,     0.6856137514,    -0.2496738434,    -0.9183549285,     0.5609390736,    -0.5897165537,    0.04358780384,  -0.001989006996,    -0.1623683572,    -0.1358178258,    -0.7710081339,     0.1532504559,     0.4222551584,     0.1694209576,     0.0785626173,    -0.5203815699,    0.06988453865,      0.499569416,      0.927418828,     0.6310997009,     0.8071980476,     0.3738316298,    -0.1486468315,    -0.7934569716,     0.5227086544,     0.5065596104,    -0.5475270748,    -0.5730336905,    -0.3937004209,    -0.8665342331,     0.2284328938,    0.01406753063,    -0.6451123357,    -0.5923289061,     0.0412914753,     0.9916064739,     0.3080093861,    -0.8962979317,     0.2771668434,    -0.3583115339,     0.8642516136,   -0.06699347496,    -0.6359213591,     0.8791909218,     0.2028058767,    -0.1814047694,      -0.44034338,   -0.03157383204,    -0.1678215861,      0.741848588,    -0.6047483087,   -0.04053521156,    -0.4847735763,     -0.618507266,     0.3097223043,    -0.5166223049,     0.1733031273,     0.1464762688,     0.6075029373,     0.7840095758,      0.235538125,     0.5423861742,    -0.2950362563,     0.8533129692,    -0.6780353189,    -0.8893989921,    -0.5727982521,    -0.0447384119,    -0.5131008625,     0.4934643507,     0.6749669313,     0.1784341335,    -0.2910627723,     -0.533685267,    -0.9211506248,     0.9029039145,    -0.6155536771,   -0.02147942781,     0.8849303722,      0.156185627,    -0.5523192286,    -0.1865930557,     -0.581541121,    -0.8803881407,    -0.3699429631,    -0.7317216992,     0.2121289968,    -0.4282480478,    -0.6459556222,    -0.2728170156,    -0.1338196993,     0.2318578959,    -0.2667606473,    -0.2983419895,     0.2643167973,     0.6640690565,     0.5544248819,    -0.2876650095,    -0.3209897876,    -0.1459278464,     0.2524614334,    -0.1625429392,     0.9374697208,      0.268894434,    -0.5738649368,     0.1663733721,     0.9296734333,    -0.1760524511,     0.2303073406,     0.5969390869,     0.1234172583,    -0.4089426398,     0.4310339689,    -0.4888219833,     0.7029676437,     -0.980198741,    -0.3527235389,     0.4006799459,    -0.3794921637,    -0.8803054094,    -0.5304471254,      0.873400569,    -0.1552908421,     0.3606265783,     0.7128536701,     -0.485937953,    -0.7405216694,     -0.933160603,     0.5108349323,     0.5126084089,    -0.2275264859,    -0.7627829909,     0.6636661291,     0.2370615005,     0.7796163559,     0.1722770929,    -0.9597257972,     0.2539954185,     0.2082109451,    0.05379426479,    -0.4835659266,     0.1612795591,     0.6378399134,    -0.1069576144,    -0.8071044683,    -0.2440340519,     0.6482104063,     0.2402843237,   -0.02599614859,     0.4019941092,     0.6972669363,     0.7423554659,    -0.6775672436,     0.6230821609,     0.8904889822,    -0.7344037294,   -0.03547137976,     0.8030277491,      0.690764904,     0.4236021042,    -0.2829766273,     -0.239200294,    -0.4040209651,     0.8711311817,    -0.3944364786,     0.7127394676,    -0.5801574588,   -0.05118995905,    0.07709383965,       0.32812953,    -0.5850436687,     0.7035496235,    -0.2000017762,    -0.1469255686,    -0.2706406713,    -0.7448115349,    -0.8811601996,    -0.6943050623,    -0.9747038484,    -0.4774436355,    -0.9148349166,    -0.3959711194,    -0.5371882915,     0.9184418917,    -0.5651687384,    -0.9451798201,     0.2762067318,    -0.3014252186,    -0.2771998644,     0.7530276775,     0.7109798193,    -0.7990782857,     -0.414999485,    -0.9208641052,     0.3964157104,     -0.527616322,    0.05409920216,    -0.9825801849,    -0.5538672209,     0.9284360409,     0.2214369774,    -0.5628647804,    -0.9153541923,    -0.7374064922,     0.2112828493,    -0.4086759686,     -0.175303936,    -0.6897538304,      0.110594511,    -0.5866405964,      -0.63935256,     0.8910870552,     0.1411496401,     0.6570034027,    -0.7604340315,      0.966078639,    -0.1204109788,    -0.8231711984,   -0.03547412157,      -0.53697294,     0.7798092365,   0.005914449692,     0.7963719368,    -0.8986706138,     0.9546722174,     0.8216065168,     0.3433976173,    -0.8262313008,    -0.4825390577,     -0.926877737,    -0.3948979974,    -0.3113161922,     0.5987679958,    -0.6941398382,    -0.5604931116,     0.7581247091,    -0.7277841568,     0.9004539251,    -0.4966993332,    -0.4044459462,     -0.125666678,     0.1951215267,    -0.9857562184,    -0.4293063879,     0.7692754269,   -0.08789509535,    -0.9227019548,    -0.2561644316,     -0.967458725,     0.2622103691,    0.01972138882,    -0.1431273222,    -0.6144735813,     0.9808402061,    -0.7621206045,    -0.4654506445,    -0.5755097866,    0.01878523827,     0.8299363852,   -0.06517446041,    -0.2068050504,    -0.8458573818,    -0.1711785793,    -0.5276477337,     0.3735488653,     0.4380215406,     0.8893533945,    -0.4940546751,    -0.6024180651,     0.5122797489,     -0.170214057,     0.1388707161,     0.7752578259,    -0.7281929255,      -0.83895576,    -0.2167637348,     -0.700371027,     0.6972036362,     0.5520535707,     0.9722367525,   -0.07155203819,     0.2172626257,     0.3641278744,     0.3006032705,     0.9094668627,     0.9263936281,    -0.9481074214,     0.8721191883,     0.7740596533,     0.3634058237,     0.7220926285,     0.6991281509,     0.7972794771,    -0.8890144825,    -0.9492481947,    -0.2948024869,    -0.6489135027,     0.6903588772,     -0.672945857,     0.3346784115,     0.9191734791,    -0.6193221807,    -0.4111067653,     0.8676856756,   -0.06878340244,      0.682313323,     0.1553277969,     0.8669157028,     0.6023987532,     0.5697309971,       0.16134727,     0.5763007402,    -0.3243134022,   -0.06010222435,     0.4450978041,     0.5519770384,     0.8830522299,    -0.7597059011,     0.1000001431,     0.8317127228,     -0.502014339,    -0.8838721514,    -0.5534652472,    -0.1142798662,     0.7453768253,    -0.9455454946,     0.8125970364,     0.9602637291,     0.4413076639,      0.363650322,      0.509860754,     0.2038496733,     0.8164638281,    0.08294045925,     0.6456991434,    0.06736159325,     0.6845982075,    -0.5695970058,     0.1830937862,    -0.4449495077,     0.1816580296,     0.7904721498,     0.3267389536,    -0.1460310817,    -0.7291378975,     -0.128439784,    -0.7925996184,    -0.8702514768]
[    0.1824110448,    -0.9016751051,     0.2231066376,     0.5645245314,    0.03348874301,     0.6553416252,    -0.4744308591,    -0.5181563497,     0.8686959147,     0.3471313417,     0.7310954332,    -0.8857483268,    -0.5117756724,     0.3598074913,    -0.9121693969,      -0.80430758,       0.16489923,     0.8493459821,      0.510745883,     0.3479921818,     0.1992888451,     0.9144389033,    -0.5326907039,    -0.3780810833,   -0.05389574543,     0.2756124735,   -0.09463769197,     0.5764627457,     0.8762144446,     0.5740410089,     0.4397029877,    -0.4657312632,    -0.9289613962,     0.6002588272,     0.5283102989,    -0.9269679189,     0.1921153218,    -0.7818260193,   -0.01357518509,     0.8107275963,    -0.3982022703,     0.1473423541,     0.3676655293,    -0.4703257084,     0.8309013844,    -0.9100179672,     0.8148265481,     0.4618550539,    -0.7110353708,     0.5245980024,    -0.1981102228,     0.5382726192,    -0.7377303839,     0.1815061569,     0.3573790193,    -0.8312903047,     0.4513022006,    -0.3221429586,    -0.1112416983,     -0.872120738,     0.4284659624,    0.03383330628,     0.4900587797,     0.9336869121,    -0.4810633957,     0.1007586941,   0.006296157837,     -0.132625103,     0.7920516729,    -0.8235788941,      0.851637125,    -0.8698729873,     0.7157306075,    -0.2264054865,     0.7777940631,    0.04908026382,    -0.1942715049,   -0.03054249659,     0.7143186331,    -0.2350867987,    -0.4587146938,     0.3945001066,    -0.4831735492,     0.7582978606,     0.5198724866,    -0.8391419649,    -0.2173482776,    -0.3607569337,     -0.568834424,    -0.3508172631,      -0.47689116,    -0.7067178488,      -0.43696329,     0.6644223332,     -0.836253047,     0.3048183918,      0.214482069,     0.7300556302,    -0.9464315176,    -0.9419209957,     0.2615462542,    -0.6816614866,     0.3403037786,     0.7079982758,     0.8186146021,     0.9477747679,    -0.6463655233,     0.9059684277,  -0.005505234934,    -0.7199332714,     0.8419176936,     0.5262733698,    -0.5231100321,   -0.06236571074,     0.4484100342,     0.1595404893,     0.9327263832,    -0.3299410343,    -0.6814554334,    -0.9548103809,   -0.03043369763,     -0.725417316,    0.02152250707,    -0.3436269164,   -0.05251494795,    -0.9443345666,     0.5013587475,     0.2208299786,     -0.148249507,    0.02571606636,    -0.8067799211,     0.1936241388,   -0.08601873368,   -0.08174312115,   -0.09406433254,     -0.330291152,    -0.4498474598,     0.4079203606,   -0.01775004156,    -0.9461183548,    -0.2856813073,     0.3614041209,     0.4312272072,    -0.9241980314,   -0.08820646256,     0.6765805483,     0.5736298561,    -0.8512729406,     0.3491242826,     0.7318074703,     -0.378382504,     0.8131530881,     -0.395345062,    -0.4398009181,     0.8523896337,    -0.3551815748,    0.06319817156,     0.3859439194,    -0.3146045804,     0.7593302727,    -0.8566277027,     0.4483424425,    -0.8931782842,    -0.1842209697,     0.8609088659,     0.7041205168,     -0.856747508,     0.7521402836,      0.848747611,   -0.04826402664,     0.6080025434,      0.769233644,    -0.9999735355,      0.647631526,    -0.8552369475,    -0.1695005298,    -0.5848066807,   -0.04809108377,    -0.2895731032,     0.3666870296,     0.6048380733,    -0.7288700938,  -0.003301918507,   -0.01031597145,     0.1394106299,      0.547267139,    -0.6460540295,     0.3497451544,      0.256909281,    -0.2289479375,   -0.02100765705,     0.4818506539,    0.03672186285,   -0.06822736561,    -0.7872177958,    -0.9469956756,     0.7065035701,    -0.2933631539,     0.6459829807,    -0.2883004546,     0.2056254148,    -0.5680458546,    -0.7843866944,   -0.09906984866,    -0.5455753207,     0.6538823843,      0.271782577,     0.6537569761,      0.518981576,     0.3012019098,     0.1579155922,     0.6299812794,     0.3539642096,     0.8611002564,     0.1359145641,    -0.2920420766,     0.2437096834,    -0.1409127563,    -0.6846851707,     0.3665114045,    -0.1070274115,     0.7375448942,     0.8428871036,    -0.6426305771,     0.6694605947,     0.4894527197,    -0.5044525266,     0.1886955351,    -0.2487917542,     0.3044271469,    -0.9332748055,     0.1276891977,      -1.01043582,     0.5181607008,    -0.5458850861,    0.01398849487,     0.2800447941,    -0.3092951775,     0.4821045399,     0.2186758369,     0.9040595293,     0.7175530195,    -0.1249456182,     0.3201980591,     0.9733284116,     0.9739624262,     0.9375413656,     0.8988420963,    -0.4189549088,     0.5305969715,    -0.5667011738,   -0.09970549494,     0.7168154716,    -0.6191259027,     0.3225974739,    -0.1521107703,    -0.2011089921,     0.3779170513,    -0.9707123637,    -0.1729903519,    0.00605070591,    -0.4495072961,     0.3573433161,      0.596919179,     0.1003418267,    -0.8022338748,    -0.2848502398,     0.2434223294,    0.02650765143,    0.03222775459,    -0.5677310228,    -0.3020997941,     0.4062650502,     -0.427760005,     0.7151453495,      0.106823802,    -0.3990501761,    -0.3510300517,    -0.4296429753,     0.1232922748,    -0.7090698481,     0.7286634445,     0.1299030781,    -0.7905266285,     0.4081524611,     0.3073941171,     0.3542148471,     0.8716329932,     -0.911539793,     0.9170234799,   -0.07428471744,     0.4135303497,    0.04999427497,    -0.4080303609,    -0.1460419297,     0.6268750429,    -0.5410867333,    -0.7097399831,    -0.2783344388,         0.721322,    -0.7648354173,     0.7118418217,     0.1302103996,    -0.5073537827,    -0.8975829482,    -0.4912186861,    -0.6866359711,    -0.1318510175,    -0.8583807349,     0.9034301043,    -0.3146783113,     0.5362170339,    -0.9456324577,    -0.6379768848,    -0.5842856765,     0.7333515286,     -0.603485465,    -0.5146644115,    -0.7024047375,    -0.5832826495,     0.5627516508,     0.1191159487,    -0.5418906212,     0.4796630442,    -0.3515560031,    -0.7752272487,     0.2492113113,    0.04590205476,     0.2207900137,    -0.4616944194,    -0.2576472461,     -0.200683251,     0.7318511009,    -0.2540233135,   -0.06834535301,    -0.3334404826,    -0.5367483497,     0.7017574906,    -0.0951314345,    -0.2504247129,     0.3346577883,   -0.02109556459,    -0.8600769639,    -0.3935770988,    -0.4192981124,     0.3444161415,     0.9911775589,     0.1899923086,   -0.05071993917,     0.9655737877,     0.7775563002,    -0.9837622643,   0.001882195473,    -0.3816275001,     0.9724450111,    0.08844720572,     0.8467708826,    -0.4008434117,     0.8757023811,     0.1055932865,     0.3790480196,     0.6509822011,    -0.3348498642,     0.9119083881,     0.9036693573,     0.3902507722,     0.1362352967,    -0.5439401865,     0.9565259814,    0.04290029034,     0.5905267596,     0.1025024652,     -0.129482463,    -0.3454266787,     -0.652310729,    -0.8972566724,    -0.6928117275,   -0.01388210058,    -0.4667385817,     0.7872488499,     -0.899490118,    -0.7781705856,    -0.7002055049,     0.5926920176,     0.7006681561,     0.1409706771,    -0.8541268706,     0.5237686634,     0.4273087978,    -0.1140908152,     0.5559914708,    -0.8550679684,      0.350861907,    -0.9574146867,     0.9929220676,     0.2467062324,     0.4685636759,    -0.8523701429,     0.7796239257,     0.6268624663,    -0.9361983538,    0.06578874588,     0.4155267477,    -0.3936641216,     0.6423351765,     0.5475219488,    -0.1880378127,     0.3152054548,   -0.07267477363,    -0.4628818631,    -0.2289589792,     0.7277379036,      0.724309504,    -0.3128515482,    -0.4026476443,     0.5805135965,    -0.8619397879,    -0.7174802423,     0.9669092894,     0.3760232627,     0.8044423461,     0.3966413438,     -0.414291501,    -0.8425591588,    -0.8834429383,    -0.2331665158,    -0.5303393602,       -0.7078529,     0.7788748741,    -0.2135250419,    -0.6874803305,     0.9169697762,    -0.8966563344,     0.4533740282,   -0.06984724104,    -0.8482122421,     0.3909088373,    -0.8888015747,     0.4529385567,    -0.8067338467,     0.5076310635,     0.5361589193,    -0.9621178508,     0.1054165885,     0.2717970014,    -0.6620858908,    0.09728888422,    0.05618578196,    -0.7290304899,     -0.162694931,     0.9782617688,     0.8999405503,    -0.1187212616,     0.4026810825,    -0.5405536294,     0.5983701348,     0.5419360995,   -0.01284945011,    -0.8846498728,   -0.08107662201,    -0.8201702833,     0.6104764938,    -0.4640800059,     0.2117719948,    -0.5676521659,    -0.5131810308,    -0.7334666252,     0.3387966454,     0.1037946567,     0.6655965447,     0.8138973117,    -0.1760732532,     0.2456813902,    -0.8257365823,  0.0008788498817,     0.4218516648,    -0.8789656758,    -0.1283860803,     0.4897153676,    -0.8983594775,    -0.7947244644,     0.1618884802,     0.8896099329,   -0.07677391171,    -0.8346061707,     0.9656661749,    -0.9425963163,     0.9198841453,     0.9242254496,    -0.9681331515,    -0.3284346461,    0.01133705769,    -0.3219466805,   -0.02797544003,     0.4045825005,     0.1599734873,    0.04577040672,    -0.1694381833,   -0.02822838165,    -0.7738451362,     0.9454631805,    -0.5956530571,    -0.9961680174,     0.4672406018,    -0.4934633374,   -0.08977681398,    -0.1102464646,   0.008584750816,     0.2592812777,  -0.004642903805,     0.6931986809,   -0.04187713563,    -0.6806916595,     0.9341753125,     -0.388450563,     0.4792014658,    -0.2311800122,    -0.4185407758,     0.5797519684,    -0.5712190866,     0.1223379597,    -0.8331999779,     0.6884310842,    -0.1108172238,      0.649386704,    -0.9561167359,   -0.05491816998,    -0.2937300205,   -0.06030593812,      0.433789134,    -0.2287154496,    -0.3551364541,     0.2954636812,     0.6529292464,    -0.2646317482,    -0.2806146443,    -0.9408916831,    -0.3800418079,     0.4676241279,     -0.737205565,    -0.3763622344,    -0.2667576969,    -0.5559401512,    -0.8594961762,    -0.5978605747,     -0.283118546,      0.902758956,    -0.4005842209,    -0.1503244042,     0.6296090484,       0.59364748,     -0.531547904,     0.5853340626,      0.579613924,     0.4123688638,     0.4709330797,    -0.1588954628,    -0.7618299723,     0.9706668258,     -0.702047348,     0.3810549378,     0.4427801371,     0.3225756884,     0.2148640007,    -0.2205740809,    0.08377313614,    -0.7395452261,     0.8561114073,    -0.5726343393,    -0.2165019512,     0.7151022553,     0.3207616806,     0.2304844856,    -0.7327857018,    -0.4456627667,    -0.2586083114,     0.5034037828,     0.6572415233,    -0.1160044074,     0.5534564257,    -0.2208005041,       0.44313097,    -0.4551457763,     0.4090554714,    -0.8724541664,   -0.02311688662,     0.5722289085,     0.5842829347,     0.3189948797,   -0.02477955818,    -0.6305872202,      0.012809515,   -0.01738607325,     0.1537253857,    -0.3284463584,     -0.179774344,      0.483825624,     0.3431364298,    -0.6754032373,     0.9184149504,     0.7518045902,    0.07149617374,   -0.01677188464,       0.99585706,    0.07335698605,     0.8234516382,    0.02687847614,    -0.3225839734,     0.3941814303,     0.3524920642,    -0.3414393067,    -0.5373725891,    -0.5525224209,     0.8731029034,      0.437697053,     0.8046457767,      0.885648191,   -0.07137361169,    -0.8588359952,     0.8675112724,     0.6351801157,    0.03331269324,     0.1257064939,     -0.555034101,       0.15457654,     0.3981047869,     -0.955981791,    -0.8255184889,    -0.1175746322,      0.585347414,   -0.07991495728,    0.03633427992,   -0.04473894835,     0.7572358847,     0.4149835408,     0.7981313467,    -0.1780260652,     0.9725522995,    -0.9543069601,    -0.4209954143,     0.8353598118,    0.03091170453,    -0.8688753247,    -0.6530784369,     0.9588990808,     0.1204311848,     0.6495125294,    -0.3184835017,     0.7670084238,    -0.9680145979,    -0.4775091708,    -0.7428996563,    -0.4745245576,    -0.8574845791,    -0.4006868899,    -0.1798657477,      0.545018971,     0.4178644121,     0.5193637609,     0.6696336865,     0.2397026718,    -0.3826950192,     0.8316690922,     0.8431992531,     0.8086883426,     0.5212062597,    -0.6063907146,    -0.2492274493,     0.8160850406,     0.6241114736,    -0.7153376937,     -0.762103796,    -0.1911988258,   -0.02568548918,    0.07706986368,    -0.1850239038,    -0.3504393101,    -0.4783866405,    -0.6452354193,    -0.4585803151,     0.6506103277,      0.808106482,    -0.3608120382,     0.2376119047,     0.1122917756,    -0.9651223421,    -0.3406549096,     0.3802722692,     -0.904673636,     0.0187984705,    -0.1774771214,      0.775690496,    -0.2884073555,    -0.6410281658,    -0.8621499538,     0.6817280054,     0.4137086868,     0.2553258836,     0.9456571341,    -0.7887445092,      -0.55607903,     0.4573966265,     0.4452187717,    -0.9896193743,    -0.9873241186,    -0.7112320662,   -0.05625030398,     0.4435081482,    0.04299215227,     0.9778478742,     -0.647652626,     0.9410789609,    -0.7489328384,    -0.3229535818,    -0.5086559057,     0.5815080404,    -0.9557514191,    -0.6341609955,     0.2478889227,    -0.5862907171,     -0.807397306,    -0.7829141021,    -0.7170191407,    -0.6286013126,    -0.3166029155,    -0.5736362338,  -0.001494169235,     0.4972002804,     0.1153020933,      0.638990283,     0.3511284888,     0.8411941528,    -0.1028671712,     0.8138099909,      -1.01338315,     0.5284324884,     0.3621639013,     -0.384104073,    -0.9667444825,     0.4131419361,    -0.7556869984,    -0.7026748061,     0.4172807932,    -0.5415121913,     0.8613024354,    -0.3432669044,    -0.2803754807,    -0.6773535013,    0.07605221123,     0.3486283422,    -0.9342643619,      0.265330404,    -0.0848306492,     0.6213707924,   -0.09192243218,    -0.1050427929,     0.6681263447,    -0.5074076056,     0.3390380144,    -0.3144623935,    -0.6004728675,    -0.1439305991,    -0.4347811639,    -0.4406336844,     0.2466148138,    -0.1639639735,     0.7643426657,     0.8567438126,     0.5994535089,      0.600074172,     0.2346183658,    -0.4107733369,      0.980789423,    -0.1402119845,      0.844986558,     -1.000801086,     0.1367984861,    -0.3940256834,    -0.8002693057,     0.7159389853,    -0.2953234315,     0.9008590579,     0.4597444534,      0.587739408,    0.06941664219,     0.5982491374,    -0.7439354062,    -0.9840559363,     0.5894620419,    -0.5363922715,     0.1774399281,     0.3152089119,   -0.07804715633,   -0.08511990309,     0.4280178547,    -0.8179701567,    0.06307601929,    -0.4446831942,     0.2685591578,    -0.1662103087,     0.5507234335,    -0.5743349195,    -0.3194386959,     -0.610712409,     0.8020572662,     0.7325049043,    -0.6945266724,     0.5967050195,     -0.262645781,     0.2260073423,     0.0315300487,    -0.6307278872,     -0.894759655,    -0.7680324316,     0.3703975677,      0.384290576,    -0.6132838726,     0.3133336902,     0.7107220292,    0.09687010199,    -0.2618042231,    -0.5611307621,     0.9132635593,    -0.4635131061,    -0.2917654514,     0.1993656158,    -0.4491102695,    0.03659673035,    -0.5912877321,    -0.9575847387,    -0.1175056696,    -0.1735320091,    -0.3714901805,     -0.597563684,    -0.3167742193,     0.9052235484,     0.7520675063,     0.3493137658,    -0.6834156513,     0.5249446034,     0.3024512529,    -0.5735988617,    -0.7190086842,     0.6516273022,    -0.8859724402,     0.9572635889,    -0.6960430145,    -0.2554988265,    -0.3103033304,    -0.4644866586,    -0.7095124125,    -0.3759155273,     0.3018488884,     0.4253860414,   -0.04654382914,     0.4163190126,     -0.460989356,    -0.6427559257,    -0.1811386943,   0.008386135101,     0.7457306385,      0.522520721,    -0.5394063592,   -0.09932038188,     0.2037492841,     0.0746159479,    0.09067198634,    -0.9582118988,    -0.9290704727,    -0.4567198157,    -0.6254122853,    -0.6823120713,     0.2633159161,      0.144102335,     0.6584923267,    -0.6857776046,    -0.7361487746,    -0.4680170715,   -0.01126050483,      0.234384656,      0.637526989,     0.6702195406,    -0.9736944437,     0.1717289686,     0.9634931087,      0.866258502,    0.07087624073,     0.7059946656,    -0.7479076385,     0.2227662802,    -0.2869372964,     0.8670309782,    -0.0602591522,     0.2370074987,     0.1689740568,    -0.4689417481,    -0.4151480198,    -0.2764015794,    -0.3266389072,     0.3819998503,    -0.6094833612,     0.7615449429,     -0.563960135,     0.7506635189,     -0.772782743,     0.9058635235,     -0.365821749,     0.3164532185,    -0.8230792284,    -0.6977362633,     0.5103206038,     0.5481805801,    -0.7866718173,      1.001682758,    -0.7301585674,     0.9091556668,     -0.599006772,     0.3515411913,    -0.7223331928,     0.2577351332,    -0.6813137531,     0.7765648365,     0.7177876234,     0.1826343387,     -0.460989356,     0.4409171939,     0.4280107617,     0.2986305058,     0.8081811666,      0.197254777,    -0.8807300329,     0.9739741683,    -0.8201875687,     0.7422586083,     0.3419906199,    -0.3150424659,     0.8227623701,    -0.6144394875,     0.3263130188,    0.04861700535,    -0.8793894649,     0.3131839931,     0.2822842896,   -0.04296189547,    -0.2673419118,     0.7275158167,    -0.6206238866,     0.1895402819,    -0.7754186392,    -0.1872634739,     0.3904553652,    0.07084833831,     0.6215327978,    -0.8556579351,     0.1473725587,    -0.9890305996,     0.5232082605,   -0.07731378078,     0.6264196038,     0.4219090939,     0.3663415611,     0.8286517859,     0.7112051845,    -0.6345059276,     0.8880788088,     0.6234157085,     0.7801201344,    -0.6849163175,     0.6562374234,    -0.5308247805,   -0.08030664921,    -0.4876958132,    -0.7081426978,   -0.01696950197,    -0.9514276385,     0.9539854527,    -0.5865530372,    -0.9533209205,    0.08836627007,     0.2123959661,     0.4798073769,     0.7990642786,    -0.2095655352,      0.640717268,    -0.3146563172,    -0.7444440126,     0.8614478111,     0.9269238114,    -0.6593573093,    -0.3446745574,     0.3365208209,     0.7489194274,     0.3521193862,     0.1701648384,     0.0088771265,    -0.4205272198,    -0.3644704223,   -0.07842516154,     0.4772025049,     0.4969310462,     -0.860054493,    -0.5012327433,     0.5281352401,    -0.9851334095,     0.1588534117,     0.3404810131,     0.5074311495,     0.3531811237,    -0.7557651401,     0.6067835093,    -0.8314149976,     0.1600636244,     -0.584499836,    -0.9193953872,     0.3772236407,     -0.827563405,    -0.3925771117,     0.1090864614,    -0.1017937437,     0.7025730014,     0.3446908295,     -0.317548573,    -0.5155714154,    -0.8279694319,     0.7347965837,    -0.1222493649,      0.209879756,    -0.3937452435,    -0.5341640711,     0.8903323412,     0.9691252708,     0.9852230549,    -0.5442783833,    -0.8728272915,     0.8012865782,    -0.5341137648,    0.03135286272,     0.5132567883,     0.7338224053,    -0.9975410104,    -0.8993166089,    -0.8699715137,     -0.980066359,    -0.2910344601,     -0.436755687,     0.4305488169,    0.06322280318,      0.021515131,    -0.0806889236,     0.2755376101,     0.8204238415,    -0.4146888852,     0.7352564931,    -0.7688359022,    -0.3182229102,    -0.2407542467,     0.5889358521,     0.9658839703,     0.3625111878,   -0.04811939225,     0.6477940083,     0.7336467505,     0.2209433466,     0.8155420423,     0.3782401085,    -0.7838120461,     0.4437205791,     0.5856928825,     0.4321271181,     0.6261897087,     0.8487942815,    -0.8336275816,     0.9700806737,     0.4723869562,    -0.2040726542,    -0.4615902901,    0.08991173655,    0.02238619328,    -0.2201876491,     0.7697047591,     0.5627484322,   -0.06198644638,    -0.7830012441,     0.6648236513,    -0.9868440628,    -0.5830398798,    -0.7452064753,    -0.2907005847,   -0.07698959112,     0.7336655259,    -0.6540443897,     -0.722858429,    -0.5640354156,    -0.3923834562,    0.08447484672,     0.7348820567,     0.1834374815,    -0.5478352904,    -0.5859797597,     0.7177417278,      0.664383173,     0.7924386859,    -0.7584483027,     0.6696734428,    0.09050253779,     0.4265544713,     0.7841740251,     0.3593149781,     0.4618157148,      -0.39573434,     0.9541400075,      0.862260282,     0.3191223145,     -0.142498374,     0.8871731162,      0.872656405,     -0.713711381,     0.6868286729,     0.5479850769,    0.08546924591,     0.6925759912,     0.9060903788,     0.5769304037,     0.9702289104,    -0.7841204405,    -0.9496722221,     0.4752325118,     0.9000979662,      -0.50578022,     0.3501969278,    -0.4779474735,     0.4071045518,   -0.01833613217,    -0.1138926297,   -0.02400366776,    -0.3785305619,    -0.5468398929,    -0.5187690258,    -0.5561346412,     0.2427813262,    -0.5296415091,    -0.7395727634,     0.6232683063,     -0.631844759,     0.7086809874,     0.8000086546,    -0.7666778564,    -0.5804058313,     0.4710674286,     0.3966106176,    -0.6822850704,     0.5794160962,     0.9202558398,    -0.5858784914,     0.3131917715,    -0.6447016597,   -0.06357693672,     0.4199117422,    -0.1657446623,     0.4247277975,    -0.5101395249,     0.5102117062,     0.1212871075,     0.5640923381,    -0.2847304642,     0.7096922398,    -0.4047388434,     0.7939019203,      0.388400048,     0.7977585196,     0.3719298542,    -0.4203336835,    -0.5758968592,    -0.5665288568,     -0.568725884,   -0.09444967657,     0.6373748779,     0.1180722713,    -0.6269655824,    -0.3308679461,    -0.7246579528,     0.3168671131,      0.278924197,    -0.6656999588,    -0.2802971303,     0.1392372102,     0.3962887824,     0.4044078588,     0.4114532471,    0.06231502444,      0.469588995,   -0.06411509961,     0.2693877816,    -0.8303833604,    -0.7453668118,     0.5179714561,     0.6286455393,     -0.632789731,    -0.3245529532,    -0.4033612013,     0.6729351878,    -0.4712346792,    -0.2579124272,     0.8294788599,     0.9417897463,     0.9216977358,    -0.8406689167,     0.1106189042,     0.1696456671,   -0.04911995679,    -0.5976716876,     0.8777582645,   -0.02154050209,    -0.3219943643,     0.5235104561,     0.2546022236,     0.3630305231,     0.6847485304,    -0.9966673255,    -0.7258167267,     0.2987083197,     0.1860413402,     0.7037909031,    -0.9554806948,     0.2823233306,     0.9289569855,     0.2003946304,        0.3959243,     -0.538084209,    -0.3046794534,      0.597207427,    -0.7399176359,    -0.5805949569,      0.461078316,    -0.4382656813,     0.1931352615,     0.4871118069,    -0.5906503797,    -0.1074410528,     0.7092887163,    -0.5916466713,    -0.8987504244,     0.6110637188,     -0.866763711,     0.6607812047,    -0.1988073587,    -0.8328419328,     0.2383674532,   -0.04913055524,    -0.8599389195,     0.4857504964,     0.4727312624,     0.7836226225,    0.02114236355,     0.8867710829,    -0.1341226101,    -0.4585003257,     0.9546985626,    -0.6287352443,    -0.4953599572,     0.5219435692,     0.9578740597,    -0.9067267179,     0.3120258749,     0.4346136451,    -0.9028230906,    -0.8724942207,     0.4023396075,   0.007371217478,    -0.2160298228,    -0.4198938012,    0.03428545222,     0.1846836805,    -0.3020964861,    -0.4223201871,     -0.429736346,     0.1269579232,    -0.8309772015,    -0.6076415181,    0.01550636627,    -0.6965923905,      0.402731657,    -0.6039443016,    -0.5746463537,     0.4026406407,     0.2910321951,   -0.07546615601,    -0.1726172715,     0.8272325397,     0.4146956205,     0.6574449539,    -0.6687772274,    -0.1297873259,     0.3503158391,     0.8791111708,    -0.6633555889,      0.985075295,    -0.5951084495,    -0.3253696561,    -0.2582138479,     0.2021942586,      0.950245142,     -0.800498724,     0.5875892639,     0.3695604801,    -0.8779774308,     0.2422361076,     -0.379920274,    -0.3422198892,    -0.9587862492,    -0.9450622797,    0.03267657757,   -0.01133311726,     0.9244466424,     0.3099829853,    -0.7945860624,      0.316637665,     0.1484970599,     0.1153903008,     0.8698600531,    -0.8353393078,     0.9308732152,     0.4579492807,     0.7986465096,     0.3029772043,     0.8327227831,    -0.6064171195,     0.8894416094,    -0.6868575215,    -0.5792943239,     0.3387145102,     0.9560105801,     0.2894474268,     0.5049827099,     0.2401067019,     0.5597715378,     0.4433356524,    -0.7300488353,    -0.6220867634,  -0.002707700012,     0.3237303495,     0.3501372635,    -0.9629465342,     0.7909799814,    -0.7193403244,     0.5905460715,     0.3354062736,    -0.5828265548,    -0.6369781494,    0.04318594933,  -0.006535327062,     0.1828141958,    -0.7396526337,    -0.6132038832,    -0.3139670491,    -0.7894941568,     0.4721554518,   -0.04578093439,      0.306068182,     0.7553497553,     0.4489417672,    -0.6725245714,    -0.2997883856,    -0.7120471597,     0.2118208408,    -0.6543738246,     0.4550236166,     0.5604841709,     0.7803616524,     0.7200572491,     0.4225665331,    -0.4194005132,     0.6673574448,    -0.7898597121,     0.2525353134,     0.5214319229,    -0.2719572783,     0.2211059332,     0.9421842098,     0.5475966334,    -0.1692708582,     0.6729431152,    -0.4433123171,    -0.1319329739,    -0.4006224275,    -0.6888045073,     0.5083996654,    -0.8975980878,    -0.1977420449,     0.3986019492,    -0.1570835859,     0.8516359329,     0.2734611034,     0.7841367722,    -0.3404283524,     -0.506940484,    -0.8048376441,    -0.1652374417,     -0.886961937,    -0.4843903482,     0.9290906787,     0.2218824625,    -0.4526961148,     0.8642718196,    -0.2331857234,     0.2819475234,    -0.9239623547,    -0.2579317689,    -0.9691560864,    -0.2483512312,    -0.4034090936,     0.2003338337,     0.5204412937,    -0.5687685013,    -0.8446449041,     0.3337188363,    0.06134691834,     0.4633454084,     -0.317715615,    -0.9740181565,     0.8241601586,    -0.6981862187,     0.7463077307,     0.8270899057,    -0.7790288329,    -0.4318314791,     0.8337988257,    -0.4292703271,    -0.5950346589,    -0.8612823486,     0.4323482811,   -0.04666413739,    -0.9522799253,     0.7584407926,     -0.931746304,     0.7656078339,     0.7651418447,   -0.04913878441,    -0.1334326267,    0.05995857716,    -0.9610999823,    -0.6656045318,    -0.1774878204,    -0.7844874859,     0.8564822674,     0.1649955213,     0.8635362387,     0.2585473955,    -0.3989382982,     0.3868499696,     0.5786095858,     0.8642866611,     0.2706830502,    -0.5064442158,    -0.1547682285,    0.07345831394,     0.1825147271,     0.5273874998,    -0.4771603346,      0.497472167,     0.3954274654,    -0.2640519738,    -0.6758351922,     0.8470606208,     0.5422343612,     0.7570582628,     0.4296987057,    -0.6416649818,     0.4625654817,     0.7755430341,     0.3709776402,    -0.5419872999,     -0.459618628,     0.8595532179,     0.9070833921,    -0.3659979105,     0.9421843886,     0.2372864485,     0.7519872785,    0.04030456021,    -0.5173195004,     0.3804483116,     0.6634171009,    -0.7312098742,     0.1381253004,    -0.6990427971,    -0.3387117684,     0.6409673691,     0.2573933899,     -0.936627686,     0.3564026654,     0.6144676208,     0.8705357313,     -0.701651752,    -0.8795127869,    -0.4346345365,    -0.3939049244,      0.468718946,    0.07173787057,    -0.3847697377,    0.04375684261,     0.1207544506,   -0.01261866093,     0.4989657402,    -0.3897650838,     0.9351370931,    -0.6678535938,    0.01253986359,     0.0579559803,     0.5859817266,      0.523543179,     0.9201791286,     0.1078974083,     0.5570322275,     0.2619982958,    -0.3465949595,    -0.4783041477,      0.178750366,    -0.1426032484,    -0.2052919269,     0.4048172534,    -0.7702997923,     -0.401773572,     0.3372215033,     0.4040334225,    -0.2391579598,    -0.5764894485,   -0.09165961295,     -0.348626852,     0.9931179285,     0.7117331028,     0.8350052238,    -0.5068175793,     0.1100252569,    -0.3556595445,    -0.2097945213,     0.8434271216,     0.4005983472,    -0.1528393179,     -0.613732338,     0.5698148608,     0.5184938312,     0.4744135737,     0.1633611917,     0.9314126372,    -0.6662489176,     0.4871538579,     0.1066277027,    0.05059296265,    -0.8414482474,    -0.5767873526,     0.4015741944,    -0.9859650135,    -0.3731768131,     0.7646995187,    -0.4616566002,    -0.3314568102,    -0.7158672214,    -0.6969336271,    -0.2379408479,   -0.06598669291,     0.6534963846,    -0.1888340116,     0.4936880767,     0.2885855138,      0.093900159,    -0.8846766353,     0.4013730288,      0.636518836,    -0.9063144326,    -0.6667972207,    -0.7348017693,     -0.891282022,    -0.6718502045,    -0.4203193486,    -0.6427697539,    -0.9349635839,    -0.9374562502,     0.4473493695,    -0.5827540159,     0.6364213824,    -0.7630935311,    0.05020857602,     0.3394926488,     0.2331033647,    -0.6860868931,    -0.6459975243,     0.3956077099,     0.3375187516,    -0.7018107772,     0.2171396166,     0.7104834318,     0.8744889498,     0.7898175716,     0.2739031017,     0.9796108007,    -0.4064241946,    -0.6136143208,     0.2056991309,    -0.8501072526,     0.3918669224,     0.6295740604,    0.01800023392,     0.4967344999,    -0.6595922709,    0.05120538175,    -0.4386994243,     0.4146972895,     0.1320690513,     0.2923569083,    -0.1886575669,     0.5209817886,    -0.6025890112,    -0.9859295487,    -0.5825992227,     0.1772262454,     -0.723195076,    -0.5635010004,     0.9671278596,    -0.2915929854,    -0.2680063248,    -0.7638349533,    -0.7293798327,      0.742598772,     0.3353904486,      0.823344171,     -0.177606985,    -0.3229663372,    -0.6422072053,     0.1675662249,    -0.4815806746,     0.3569581509,     0.7166330218,     0.1371234804,     0.6637658477,    -0.3036899567,     0.6724592447,   0.007477099076,    -0.6490839124,    -0.2372455448,    -0.2876431346,    -0.7696961164,     0.4332183301,       0.79115206,    0.04041638225,    -0.6521831155,    0.02126979828,     0.1726533771,    -0.8779873848,     0.6084403992,     0.9473386407,    -0.4753010273,    -0.8928594589,    -0.6562498808,     0.8875540495,     0.1600331068,    -0.8405277133,    -0.7800810933,    -0.5286916494,    -0.4159930944,    -0.5377310514,    -0.8238941431,     -0.221159786,     0.5995588899,     0.7814744711,     0.6689705849,   -0.08211037517, -0.0002818637004,     0.9954615235,     0.8013964295,     0.3622916639,    -0.2053759694,     0.7829774618,     0.1342856884,    -0.5004678369,    -0.5059888959,     0.0758292675,     0.3485647142,     0.7823242545,     0.2628849149,   -0.09606915712,    -0.4930177927,    -0.1930656135,     -0.399404645,    -0.9103491306,     0.4791469574,      0.676441431,     0.8144364357,    -0.8034274578,    -0.3751049936,     0.9358772039,    0.05520706251,     0.4630715847,     0.6529203057,   -0.09528112411,    -0.3003440201,     0.0105770994,    -0.4726024866,    -0.3847120702,    -0.7246394753,  -0.006983367261,     0.7007911205,    0.05359864235,    -0.3809008598,    -0.2719818652,    -0.9009830952,    -0.5423395634,    -0.5829133391,    -0.9682818055,     0.2727597058,     0.7827374935,     0.1111604944,     0.4727522433,    -0.1499761343,     0.5785664916,      -0.25680691,    -0.6559380293,     0.7445268631,   -0.03595983982,     0.1926198751,    -0.6157187223,    -0.4510827661,     0.5516335964,    -0.2253491879,    -0.2175784707,     0.8064337373,     0.6022427678,     0.2446268797,   -0.01973867416,     0.6616372466,     0.5173254013,    -0.1190240383,     0.2522875965,    -0.7007567286,    -0.9013941288,    -0.5525807142,      0.867200017,      0.844270587,     0.6630598903,     0.8944789767,    0.03488028049,   0.002764344215,     0.7815957069,    0.01286005974,     0.9192243814,    -0.7525213361,     -0.518358469,     0.2949020863,      0.770209074,    -0.6425721049,     0.9536283612,    -0.6566357613,    0.03588331118,    -0.2169531435,    -0.3768906891,     0.5592386723,     0.1978990287,      0.864915967,   -0.03665089607,    -0.2769629359,    -0.8911482692,     0.8961797953,     0.6356841326,     0.8753839731,     0.3031305373,    -0.5734484196,   -0.03515928984,     0.5298137665,     0.6411466599,    -0.8361817598,     0.6228820086,     0.1940869987,     0.3208196163,     0.3396449089,    -0.1511076242,     0.4141620994,     0.1723016351,      0.705412209,      0.658793807,     0.7606525421,     0.4957934916,     0.6061760783,    -0.6866644621,    -0.2758003175,     0.4685722888,     -0.735912025,     0.3455814123,     0.9856680036,     0.5099542141,    -0.6102089286,    -0.9281747937,    -0.1221791506,    -0.3195262551,     0.2574716806,     0.5004367828,     0.2752887309,      0.366389662,      0.370908618,    -0.2226402611,    -0.9627468586,    -0.4418033957,     -0.670909524,    -0.6788915992,     0.6367897391,     0.5497188568,     0.8711448908,    -0.6922308207,     0.7639375925,    -0.7087413073,     0.5249555111,     0.7052718401,   0.001379818423,     0.2640294731,     0.4486030042,    -0.1916715503,     -0.105286777,     0.3900774717,      0.485456109,    -0.8361362815,     0.4929235578,    0.08112946898,    -0.5173214078,    -0.6098213196,    -0.3173432052,    -0.3462460339,     0.2545237839,      -0.39258039,     0.3748226166,     0.1535379887,     0.8460026383,    -0.9906976819,   -0.08985060453,    -0.5771731138,    -0.1247970983,     0.9728631377,     0.6251703501,   -0.05187333003,    -0.2402382493,     0.8352128863,    -0.4997736216,     0.5715067983,     0.8098716736,    -0.1045547649,    -0.2854319513,    0.08295559138,     -0.955689311,    -0.4214693606,    -0.8033263087,    0.01638388634,     0.6941370368,    -0.2615568638,     0.1292405128,     -0.894212842,    -0.3883231878,    -0.1085047722,    0.03011214733,    -0.3690021038,   -0.06847440451,     0.7936187983,    -0.5852040052,    -0.2440054417,     0.8793330193,     -0.847702086,    -0.4322851598,   -0.08609700203,     0.9134632349,    -0.8307594061,     -0.483325541,     0.9166061282,     0.6436600685,     0.3043867648,    -0.2159940004,     0.1387224197,     0.4978753626,     0.8730301857,  0.0001564047125,     0.7768426538,    -0.0728610754,    -0.7123448253,     0.9156736135,    -0.5337888002,     0.4194331169,     -0.406938374,     0.8409692645,     0.1578549147,    -0.1657897234,     0.2226529121,     0.3919591308,     0.6583616734,     -0.388581872,    -0.6306139231,    -0.4686377048,     0.7083492279,    -0.3370256424,   -0.08311867714,      0.864174366,     0.8558148146,    -0.6355454326,     0.3929796517,   -0.03020049445,   -0.05622357875,     0.6193526387,     0.2078845948,    -0.8940215111,    -0.2683680654,     0.8150133491,      0.375334233,     -0.810754478,    -0.8017171025,     0.1264153272,     0.8629527092,     0.9311317801,    -0.9024986029,    -0.2225720733,    -0.8902332187,    -0.5722449422,     0.6235665083,    -0.6198939681,     0.1313673407,     0.2732396126,    -0.8096094131,    -0.3172402978,    -0.8307888508,     0.1094168425,    -0.1154509783,   -0.07510767132,     0.9634415507,    -0.8115627766,     0.5485098362,    -0.8405603766,     0.8486276865,     0.7275829315,     -0.230180338,    -0.8866000175,    0.01672697067,     0.6330622435,    -0.6002957821,    -0.1510706246,     0.7462426424,      0.398383528,     0.1992702186,     0.3240430355,     0.9454095364,    -0.8522301316,      0.193179965,     0.3119008541,     0.3511122167,     0.1953710318,      0.568017602,     0.1550079584,     0.9938100576,     0.4857680202,     -0.128796652,      -0.79002285,     0.4008756876,     0.3746412694,     0.2061675787,    -0.2521800399,     0.1337786615,     0.1926715523,     0.1542912722,    -0.4481224716,     0.4931204617,     -0.725456059,     0.7090405226,   -0.05444934219,    -0.8141464591,    -0.5613855124,     0.5731824636,     0.9218825102,    -0.7854349017,     -0.935733974,      -0.67097193,    -0.6521788239,     0.7059828639,     0.7412872314,     0.2482775003,     0.5586082935,    -0.6837556362,    -0.3990823627,    -0.3152622581,     0.6722341776,     0.5766154528,    -0.8636219501,    -0.2850256562,    -0.6095426679,    -0.6298699975,    0.08798728138,     0.2162270397,     -0.377163887,     0.3589063287,     0.8513829112,    -0.1666855216,    -0.3664525449,    -0.7126927376,      0.684235692,    -0.8487949371,    0.05989968777,    -0.8328558207,     0.6793703437,     0.2224402428,    -0.3274125457,     0.7318636179,    -0.7536657453,     0.2853076458,     0.9446809292,    -0.3918476701,     0.3106749058,    0.08520697057,     0.9977047443,      0.889862597,    -0.3729037642,    -0.1411470324,     0.8048647642,    -0.8227733374,     0.4635973275,    -0.9993975163,    -0.5440813899,    -0.2078420967,    0.06786131859,        0.4490107,     0.7461503148,      0.582347095,    -0.6976882815,     0.6818150282,    -0.8094950914,     0.1333910525,    -0.8493723869,     0.1888283044,    -0.4094357193,     0.2129141092,   -0.04234087467,     0.3001073301,     0.5972164869,   -0.08262974024,     0.8066508174,    -0.1047009528,     0.6891410947,    -0.2506446838,     0.7286331654,    -0.5960370302,     0.7153719664,     0.6837348938,     0.2248847336,     0.1127287149,     0.9407970905,     0.2354230136,    -0.8937192559,    -0.9462537169,     0.5842007995,     0.6294035316,    -0.4759881794,    0.05441558361,    -0.9502993226,  -0.004978070967,    -0.2339740843,     0.1464978755,     0.1872264147,    -0.1513410211,    -0.4767107368,    -0.3951645494,     0.1484861225,     0.2113534957,    -0.9657848477,     0.1746707708,    0.03588072583,    -0.9730636477,    -0.8945826888,    -0.9649919271,    -0.4158380032,    -0.1498038173,    -0.4828574955,     -0.304741025,    -0.7952496409,    -0.1191331595,    -0.6513491869,    -0.5920063853,     0.5731727481,     0.3495187461,     0.1514972746,      0.744510293,     0.3651044667,      0.732609868,    -0.3221282959,    -0.5773892403,     0.1774537712,     -0.381200552,    -0.0894619748,    -0.2036565542,    0.02173062414,     0.2790756226,    -0.6784631014,    -0.6442921162,     0.8055525422,    -0.9812636375,     -0.353384912,    0.08109692484,   -0.02699458599,   -0.09109928459,     0.9052904844,    -0.2379391789,    -0.5180597305,      0.796076417,     0.5611184239,    0.07671551406,     0.7081658244,    0.09240806103,    0.01708483696,    -0.4900581837,     -0.221811682,    -0.4808244109,     0.5830998421,    -0.6196519732,     0.2371658832,     0.6908831596,    -0.8298476338,    -0.3595555425,    -0.1914677471,     0.2847520411,     0.2806383371,    0.04265737534,    -0.7445514202,     0.5654454827,    -0.4625088573,    -0.5933594108,    -0.6553106308,     0.9284379482,    -0.4315157533,     0.6778407693,    -0.1560123414,     0.8908658028,     -0.615655005,   -0.01162469387,     -0.646709919,   0.001458872459,   -0.03655230999,     0.3093126416,     0.1010573283,     0.2270357609,    -0.1703682542,    -0.3425537944,    -0.1015484482,     0.1999743432,   -0.04818178713,     0.5026608109,    -0.6542500854,    -0.3127308488,    -0.8579891324,   -0.04206812382,     0.6714178324,     0.8624526262,       -0.6760481,     0.6645362973,    0.09897810221,    -0.7933693528,     0.3336960375,    -0.8951846361,     0.1453815699,     0.8898959756,     0.7709921598,     0.6624493599,     0.1070751771,    0.05673217773,    -0.7881449461,     0.1405107677,     0.4307084084,     0.3639521003,    -0.4792659879,    -0.2975579202,    -0.8630816936,    -0.2276126891,   -0.03294020891,     -0.259948194,     0.4642884731,     0.3767601252,    -0.1931136847,    -0.7798597813,     0.6141060591,     0.4168002307,     0.6126788259,     0.1629020721,    -0.3112428486,      -0.55694139,     0.6327701211,    -0.1387019306,     0.9047735333,     0.1400467157,     -0.325099051,    -0.4872503281,      0.838091433,     0.3622618914,    -0.3602210879,     0.3435606658,    0.01082730293,    -0.6013156772,     0.7218238711,    0.07626837492,      0.574219048,    -0.2106615901,     0.4987710714,    -0.1442840695,     0.7177193165,    -0.6724867821,     0.3007369041,     -0.174050808,    -0.2086961418,     0.4418166876,    -0.8401423693,    -0.5993826389,    0.07754471153,    -0.8707209826,     0.2375586033,    -0.5812851191,     0.3812746108,    -0.3978606462,    -0.4195269346,     0.2223592997,     0.4854959548,     0.3062726259,      -0.75940907,     -0.159138307,     0.3120715618,      -0.58953619,    -0.6647182703,    -0.8831236959,     0.7279943228,    -0.7787235975,     0.6828944683,     0.8225882053,     0.6656461358,    -0.5228698254,     0.6101270914,     0.4929468334,     0.2827972174,    -0.3619319499,    -0.4535995722,   -0.05667831376,     0.9815894961,     0.7951048017,     0.1582329273,    -0.5576301813,    -0.4688756466,    -0.6348309517,    -0.6993622184,     0.6982403398,    -0.6706120372,    -0.5344959497,     0.1321645677,    -0.3791531324,     0.2897613049,     -0.450868547,     0.4707354307,    -0.5824791193,    -0.7869380713,    -0.4836142659,     0.3799791932,     0.6497840285,     0.3784759045,     -0.520637095,     -0.336388886,     0.2599291801,    -0.5562962294,     0.9170305729,   -0.03148138523,     0.9797456264,     0.8200995326,      0.274749279,    0.02932369336,     0.6261848211,    -0.5536448359,     0.3903731704,     0.3702216148,   -0.06150217354,     0.5848181248,    -0.6545072794,     0.3385373056,     -0.461996913,    -0.6312480569,    -0.2415454537,     0.3534753025,     0.8822029233,    0.03211508319,     -0.080060184,      0.927190423,     0.8444595933,    -0.2932595611,     0.7294843793,     0.3598810434,    -0.3272844553,    -0.3359331191,    -0.2252158225,    -0.3402716219,   -0.04726082459,   -0.01605927385,     0.4329566956,    -0.9058790803,     -0.858330965,     0.4813380539,    -0.0336734131,    -0.4015137255,     0.6512211561,    -0.7831011415,    -0.7718392015,    -0.7388311625,    -0.3169417381,    -0.4037772417,      0.746121347,     0.1936571598,    -0.4347647429,      -0.87511307,     0.7499443889,    -0.4998607635,     0.4159353673,    -0.2633570433,     0.8525874019,    -0.5208426714,    -0.5466523767,      0.384803772,     0.2108816653,    -0.1494526863,      0.698035121,     0.8952018023,     0.6572109461,    -0.8455709219,    0.05033821613,      0.748030901,   -0.03662037849,     0.8207086325,     0.9306038618,     0.6517543197,     0.4295505285,     0.8745535612,     0.4064845741,    -0.1024282202,    -0.7462925911,     0.2451685667,     0.7192904949,    -0.4352677166,    -0.3883983493,     -0.395206213,     0.2438076437,    -0.8250989914,    -0.9829516411,     0.7316023111,     0.8099327087,     0.4383474588,     0.1680655032,     0.8116733432,    -0.8759939671,      0.487555027,    -0.9204041362,    -0.8435023427,    -0.2585099339,     0.4672015309,    0.01289355755,    -0.5061252117,    -0.8076981306,     0.1533150673,    -0.7624557018,    -0.6645445824,    -0.6550940275,    -0.1366447657,    -0.3966789842,     0.1327676773,     0.4948550165,    -0.7691015005,     0.9524158239,    -0.4095686376,     0.0851637125,     0.1019791365,     0.9369165301,     0.3292920589,    -0.5738772154,     0.7959657907,     0.4457345605,     0.3890060484,     0.7364867926,    0.06967678666,      0.338903904,    -0.5742965937,      0.429325819,     0.6950014234,    -0.9809866548,    -0.4420346022,    -0.8434768915,     0.3760336339,    -0.1000548005,    -0.4453573227,    0.03396737948,     0.3205791414,    -0.6017413735,     0.6726827025,    -0.9153950214,     0.5759532452,     0.9648298025,     0.1176416725,     0.6167584658,      0.633947134,     0.7961239219,     0.4594705701,     0.2811440527,    -0.8022281528,    -0.1677836329,   -0.04751754552,     0.8912936449,     0.1087901443,    -0.2305133939,     -0.766073525,     0.8744185567,    -0.2897161245,     0.6927374601,     0.1583654433,     0.1773834229,     0.7708170414,     0.8219237924,     0.2934407592,   -0.06685642898,     0.1983098984,     0.4346643686,     0.6110429168,    -0.4638291597,     0.3983303308,    -0.8099166751,     0.7405862808,    -0.2692630887,     0.2665328085,   -0.06368588656,      0.805703342,     0.9443788528,    -0.8044761419,     0.1061126292,    -0.4592387378,      0.313256681,     0.3495583534,     0.2468287945,     0.1542249322,    -0.3234297931,     0.5667694807,    -0.5262147188,     0.8221578598,     0.3524014652,    -0.4824540913,    -0.4654037952,     0.5022590756,     0.7982314229,    -0.3608598411,     0.4333756268,     0.6462494135,     0.6593308449,     0.8634516001,    -0.8540793657,    -0.7096387148,     0.4469147027,     0.9138445854,     0.8510584831,    0.07181291282,    -0.1860268265,    -0.7403959036,   0.008409976959,     0.7510256767,     0.5933185816,     0.2739281952,     0.9545139074,    -0.0347019434,     0.8362012506,     0.1735932827,    -0.1405356526,     0.4785166681,    -0.4653620124,     0.2850421369,     0.2698518038,     0.2792029083,    -0.4596140385,    -0.1672995687,    -0.7581806183,      0.573996067,  -0.008771598339,    -0.1253740191,     0.6925792694,     0.7575373054,     0.4186272621,      0.495649606,    -0.4710739851,    -0.8823109269,     0.8499408364,      0.787114799,     0.4786123633,    -0.7262595296,      0.357591033,    -0.7522295117,     0.8799598813,     -0.282872051,     0.1686045676,     0.5017713308,     0.1977701932,   -0.06187331676,     0.9584165215,     0.3321053982,    -0.8816159964,     0.2736774683,    -0.1577007025,   -0.09221506119,     0.1067396328,     0.1713680476,    -0.4003095031,      0.249292329,     0.2191321105,     0.7199648619,    -0.4072933197,      0.891012907,    -0.3525750041,    -0.0311871171,    -0.9580076933,    -0.7720006704,     0.1318806559,    -0.9613390565,    -0.1466183066,     0.1951128691,   -0.01616055332,     -0.917509377,     0.2581523955,     0.1330641508,     0.4867756665,     0.8543893099,    -0.4151808918,   -0.03478266299,      0.764349997,   -0.05018295348,     0.9811426997,    -0.7678692341,     0.6631895304,      0.355597496,    -0.4757740498,     0.1247424185,    -0.2038378567,    -0.7935298681,    -0.3678483963,    -0.5878002644,   -0.07980781794,    -0.1222063974,     0.3054389954,     0.4889137447,     0.8884385824,     0.3275625706,    -0.5119661689,    -0.5265390873,     0.0954438448,    -0.2382833958,   -0.09134727716,    -0.6033471823,    -0.7173082232,     0.1943549514,   0.007431168575,     -0.684967339,     0.2018922269,     0.4049416482,    -0.7613033056,    -0.6644033194,    -0.1419080943,     -0.478521049]
