0
weights:
[   0.6803754568,    0.2714234591,    0.2252796888,    -0.860489428,   -0.4666684866,    0.3757227659,   -0.2031266689,   -0.1059328318,    0.4995417595,   -0.6475787163,    0.1466372013,   -0.6737369895,    0.4956185818,    0.7778974771,   -0.4399159551,      0.35095191]
[  -0.2112341523,    0.4345939159,   -0.4079367518,    0.8986541033,   0.07952070236,   -0.6680516601,    0.6295337677,   -0.5477867126,   -0.2626729012,    -0.519875288,     0.511161685,   -0.2166195512,     0.257819891,   -0.8460106254,   0.09221374989,  -0.03409945965]
[   0.5661984682,   -0.7167948484,    0.2751045227,   0.05199074745,   -0.2495860457,   -0.1197909713,    0.3684370518,   -0.6249337792,   -0.4116792679,    0.5955960751,   -0.8961223364,     0.826053381,   -0.9291582108,    0.2994139194,    0.4385371208,  -0.03612834215]
[   0.5968800783,    0.2139377594,   0.04857432842,     -0.82788831,    0.5204974413,    0.7601504326,    0.8219441175,   -0.4475306273,    -0.535476923,    0.4653087854,   -0.6843857765,    0.6393903494,    0.4956057072,   -0.5039117336,   -0.7734388709,   -0.3900886178]
[   0.8232947588,   -0.9673988819,  -0.01283401251,   -0.6155723333,   0.02507078648,    0.6584022045,  -0.03501868248,    0.1128875017,    0.1689770222,    0.3131272793,    0.9999871254,   -0.2818092704,    0.6664770842,    0.2589594126,  -0.05703312159,    0.4241745472]
[  -0.6048972607,   -0.5142264366,    0.9455500841,     0.326453805,    0.3354475498,    -0.339325726,   -0.5683500767,   -0.1669974327,   -0.5111745596,    0.9348102808,   -0.5913428068,    0.1049700975,    0.8507530689,   -0.5417260528,     0.185079813,   -0.6348884106]
[  -0.3295544982,   -0.7255368233,   -0.4149664044,    0.7804652452,   0.06321287155,   -0.5420636535,    0.9005047083,   -0.6607857943,   -0.6952204108,    0.2789167166,    0.7799112797,    0.1588599682,    0.7465426922,     0.401239872,    0.8886362314,     0.243645668]
[   0.5364592075,    0.6083534956,    0.5427154303,   -0.3022141457,     -0.92143929,     0.786744833,    0.8402564526,    0.8136078119,    0.4642970562,     0.519469738,    -0.749063015,  -0.09484833479,    0.6620750427,   -0.3662657142,  -0.09816485643,   -0.9182714224]
[  -0.4444505572,   -0.6866418123,   0.05348992348,   -0.8716573715,   -0.1247248054,   -0.2992796302,    -0.704679966,   -0.7936576605,      -0.7490502,   -0.8130390644,    0.9955979586,    0.3747748137,    0.9588682652,     -0.34244591,   -0.3272977471,   -0.1720325351]
[   0.1079399586,   -0.1981112361,    0.5398277044,   -0.9599539042,    0.8636701107,    0.3733397722,       0.7621243,   -0.7478493452,    0.5869407654,   -0.7301951647,   -0.8918848634,   -0.8007198572,    0.4876223803,   -0.5371440649,     0.695368886,     0.391967535]
[ -0.04520589113,   -0.7404191494,   -0.1995427608,   -0.0845965147,    0.8616195917,    0.9129364491,    0.2821612358, -0.009111881256,   -0.6717961431,    0.0404201746,    0.7410796881,   0.06161594391,    0.8067326546,   -0.8516780734,   -0.1309733987,    0.3478729725]
[   0.2577418089,    -0.782382369,    0.7830588818,   -0.8738083243,     0.441904664,    0.1772803068,   -0.1360931396,    0.5209504366,    0.4901428223,   -0.8435357213,   -0.8553423882,    0.5145876408,    0.9671914577,    0.2661443949,   -0.9935370684,    0.2752803564]
[  -0.2704310417,    0.9978489876,   -0.4333705306,   -0.5234401226,   -0.4314131737,    0.3146080971,    0.2391929626,    0.9695032835,   -0.8509404063,   -0.8601871729,   -0.9916768074,   -0.3914096951,    0.3337606192,   -0.5526871681,   -0.3101140857,   -0.3057682514]
[  0.02680182457,   -0.5634862185,   -0.2950832844,    0.9412682056,    0.4770686626,    0.7173526287,   -0.4378811717,    0.8700079918,    0.9002081156,   -0.5906898379,    0.8461382389,    0.9844568968, -0.005482971668,    0.3022642136,     0.196962595,   -0.6307550669]
[   0.9044594765,   0.02586483955,    0.6154490709,    0.8044161797,    0.2799576521,   -0.1208801866,     0.572004199,    0.3688900471,   -0.8949414492,  -0.07715904713,    0.1877843142,    0.1539422274,   -0.6720640063,   0.02137196064,    0.6664866209,    0.2182117701]
[   0.8323901892,    0.6782244444,    0.8380529881,    0.7018395662,   -0.2919026613,    0.8479396105,   -0.3850842714,   -0.2336233258,   0.04312670231,    0.6393545866,   -0.6392554641,    0.7552275658,    0.6600236893,    0.9429314137,   -0.5322165489,    0.2543157339]

biases:
[  0.461458683, -0.3432511091,  0.4808769226, -0.5955744386,  0.8418287039,  0.3695130348,   0.306260705, -0.4854690433, 0.06488192081, -0.8247127533, -0.4790061116,  0.7547678947,  0.3722498417, -0.8125195503, -0.7774487734, -0.2767981887]

1
weights:
[   0.15338099]
[ 0.1864229441]
[ 0.3331131935]
[-0.4224444628]
[ 0.5515345335]
[-0.4232411981]
[-0.3407158256]
[-0.6204980612]
[ 0.9687263966]
[-0.9928428531]
[ 0.6547822952]
[-0.3370418549]
[-0.6235979199]
[-0.1270059943]
[ 0.9172738791]
[ 0.8378608227]

biases:
[0.529742837]

2
weights:
[   0.3981508017,    0.2669222355,    0.3715715408,     1.528754473,    0.5485470295,    0.8861025572,    0.8325458765,    0.7238342762,     1.666457057,     0.587313652,    0.5053405762,     1.577489614,    0.8098649979,    0.8192858696,    0.7479579449,   0.02626527101,    0.1523990631,   0.03152774647,     1.456394792,    0.7291579247,  -0.01520234346,  -0.04738530144,    0.6978843212, -0.008045196533,     1.999496698,     1.060537577,    0.3683568239,    0.4551005363,    0.1519992054,    0.2062176466]

biases:
[ -0.0151565671,   0.3857957721,   0.4485039711,  -0.7490669489,  -0.5560688972, -0.00294905901,  -0.7574824095,  -0.7235230803,  -0.3670376241,  -0.3503860235,   0.6872292757,   0.9474228024,   0.2441909313,   0.6736555099,   0.6362552643, -0.01021856721,  -0.3300566077,  -0.5173293352,  -0.1343169212,   0.2177656889,   -0.482187748,  -0.6999077797,  -0.8549100161,  -0.7843034267,    0.300822258, -0.05361199379,  -0.4234609604,  -0.3372283578,   -1.041852474,  -0.1453445554]

3
weights:
[    0.8673731089,     0.4405994415,    -0.6600695252,     0.4016599655,     0.6252779961,   0.007799441461,     0.5867952704,    -0.1746395379,   -0.04178612307,     0.2116879523,    -0.6771875024,    -0.6208407283,    -0.5674344301,    -0.3842216432,    -0.2506272495,        1.0247823,     0.8588379622,    -0.4497808814,    -0.8110057712,    -0.5361611843,    -0.4576846957,    -0.7284392715,     0.2916390896,     0.6065014005,     0.9281611443,     0.3011745214,    -0.7772256732,    0.03006335907,     0.2717336714,    -0.9108836055,      0.756495893,     0.2324042171,    -0.3742253482,     0.1707048565,    -0.8638346195,     0.5818701982,      0.271897316,     0.1313495785,      0.159421593,     0.4135780334,      0.342620343,     0.8117516041,    -0.2182672918,    -0.8736428618,    -0.4064188004,      1.144373775,      1.074323654,      0.455552578,     0.7574005127,     0.1637329459,     0.3866212368,    -0.5245395303,     0.2044486403,   -0.07448346168,     0.9183393121,     0.3820330203,     0.1901933998,      0.372585535,     0.8437429667,     -0.106496729,    -0.6506201029,    -0.9718595743,    -0.5264740586,    -0.3555006087,     0.1057256684,     0.7041176558,     0.3061853647,    0.02413695864,     0.3241459131,      0.548445642,    -0.3580826223,     0.2050107569,     -0.376453191,    0.08069999516,    -0.4159825146,     0.7660358548,    -0.4982050359,     0.9967657924,    -0.8942353725,    0.08346719295,     0.4009243548,     0.9328439832,   0.008089066483,    -0.7734794021,    -0.2252191603,    -0.4853328466,    -0.3496743441,     0.8766928315,     0.2637061477,   -0.06138204411,     0.8066514134,     0.3655379117,    -0.1263104826,    0.06517840177,      0.513010323,    -0.4892056286,     0.8743156195,       0.97430408,    -0.2009466738,    -0.7641989589,   -0.06511415541,    -0.5876017809,    0.06279166788,     0.2198849767,     0.6674326658,    -0.1648187488,      1.217144251,    -0.7084948421,     0.3031585217,     0.1591466665,     0.8200199604,    -0.5291073322,    -0.1674315035,   -0.08927468956,    -0.1592252702,    -0.2308538407,    -0.6358696818,    0.02745604143,     0.5471824408,     0.5783320665,    -0.0233032722,    -0.4295069277,     0.1063418314,    -0.7659363151,     0.6810594797,    -0.2430360913,    -0.4333197773,     0.3670141399,    -0.2647247314,     0.6142281294,     0.5079897046,     -0.687689364,     0.4172786772,   -0.03397794068,    -0.8767999411,    -0.2277441025,    -0.4691330194,     0.4674524367,    -0.5190862417,    -0.7807375789,    -0.6197238564,     0.5574330688,     0.4517513514,     0.8858702779,      0.999591589,    -0.4872089922,      0.452080667,     0.8977211714,   -0.04984645545,    -0.9002360702,     0.8556388021,    -0.7878625989,     0.7892520428,     0.2561970353,    -0.5029182434,     -0.487146914,    0.07107350975,     0.6658266187,    -0.1029168963,     0.1376614273,     0.2910680473,    -0.6631839275,    -0.1751202047,     0.6836412549,    -0.9574261308,   -0.04538339376,     0.8901771307,     0.7033214569,      0.258790195,     0.4861401021,     0.7436856031,    -0.7349709868,     0.8541325927,     0.6269090176,     0.5947170854,     0.4649025798,    -0.4052076638,      0.314101994,     -0.886294961,   -0.02259856276,   0.008354811929,   0.006667878944,       0.62913239,    -0.9235615134,     0.2342687696,   -0.02197274752,     0.1909776032,    -0.7787980437,    -0.1857905984,     0.3317335248,   -0.05101808906,     0.2623314857,    -0.8715099096,     -0.887075603,    -0.4455731511,     0.1381266713,    -0.4551641941,    -0.4861034453,    -0.8144232631,     0.3106997311,     -0.186961323,    -0.8136919141,     0.2052817494,     0.9768508673,    0.05243301392,     0.6975908279,     0.3480064869,     0.3083868623,     0.8510330319,    -0.2750763297,     0.2884661257,      1.047160387,     0.9340167642,     0.2717881501,      0.506955266,    -0.7789921165,    0.09283647686,    -0.4513275325,    -0.3170232773,    -0.8475432396,     -0.126757279,       0.10699296,    -0.7919073701,    -0.2988850772,       0.18807365,    -0.5321466327,    -0.2789463401,    -0.7652238011,    -0.5855169892,     0.3493393064,    -0.2047490478,     0.8398660421,    -0.7298851013,    -0.1195969582,     0.8874637485,     0.7877877355,     0.6363034248,    -0.5811262727,    -0.6555317044,    -0.2783223093,     0.2039165199,    -0.7490172982,     0.6616978645,   -0.09398122132,    -0.8788372278,     0.8469126821,    -0.7695426345,     0.5837557316,    -0.3106720448,    0.04261044413,     0.8002081513,    -0.9901004434,   -0.05549677089,     0.7265632749,    -0.4345401525,     0.7132888436,    -0.8660006523,    -0.3135558367,    -0.4373782277,     0.8401350379,     0.1498192549,    -0.6680448055,    0.06831463426,     0.7347189784,     0.4656217694,     0.5811006427,       0.54462111,    -0.7683316469,     0.8385862708,     -0.809736073,    -0.2312401831,    -0.7752811909,     -0.291965127,    -0.3217843175,    -0.2327548265,     0.4772498608,    -0.8258442283,    -0.7938569188,    -0.7808899283,    -0.1206107736,     0.5119326115,     0.9695007205,     0.6102207899,     0.9179105163,     0.9439570904,    -0.1150263399,     0.3441062868,    -0.8624045253,      -0.21956788,      0.115111731,     -0.934183538,     0.5033259392,    -0.5338174701,     0.8724515438,    -0.6847296357,      0.144105047,    -0.3910979629,   -0.04722613096,    -0.3273576498,     0.6984255314,    -0.7741796374,    -0.2776224613,     0.8277046084,     0.2764598131,   -0.02825323865,    -0.3401188552,     0.9207268357,    -0.3857675791,      0.114573665,    -0.6555307508,    -0.3071967363,    -0.2247336954,    -0.4523545206,     0.3602566123,     0.8484710455,    -0.1544267684,     0.6922898293,     0.8331933022,    -0.6302849054,     0.4548539817,     -0.177383095,    -0.1155929789,     0.2353664637,     0.8680375814,    -0.1049206853,     0.9826371074,   -0.07150926441,    0.03372203186,    -0.3500199616,    -0.5551520586,     0.6014422774,     0.2528844476,    -0.7128163576,     0.8752114773,    -0.5577516556,     -0.757527709,     0.3907339573,     0.5409557819,    0.08805048466,     0.7113864422,    -0.2542123199,    -0.6233830452,      1.151187539,     0.2744567394,    -0.3511678874,     0.7677607536,      1.040414572,    -0.8254972696,     -0.521165967,     0.8723153472,     0.3486624658,     0.3363389373,    -0.1443590522,     0.9192854166,     0.5599766374,      0.338796258,    -0.8794270754,    -0.7531806827,     0.3144053221,      1.079505801,     0.8524417877,     0.8622974753,    -0.7885332108,    0.06118977442,    -0.4402058423,    0.02151163854,     0.1266964227,    -0.7926505804,    0.06084007025,    -0.8080796599,    -0.3309139311,    0.01894074678,    -0.6585122347,    -0.5973582268,     0.2795608044,     0.4793293774,    -0.5617810488,     0.8934409022,    -0.4829606116,      1.213989735,     0.1972720921,    -0.6504957676,     0.9733109474,     0.1106850579,    -0.5698529482,     0.6308482885,     0.7821779251,     0.3822172284,     0.6222974062,    0.08849127591,     0.2744016647,     0.6891913414,    -0.1354429573,    0.04223641753,    -0.1597885638,    -0.4695835412,       -0.7695207,     0.3762242794,     0.2254620939,     0.9072726965,    -0.5368096828,     0.7610117197,     0.1512689292,     0.7005195618,     0.1423520297,     0.7391678095,      -0.82637012,      1.116962671,    0.08525000513,    -0.4385138154,    -0.4741405845,     0.5274319649,     0.8411874175,    -0.2904870212,     0.5241757631,     0.5183124542,     0.1236342937,   -0.02078201063,    -0.9849720001,     0.3813464046,       -0.1850584,    -0.9517526627,   -0.01508571208,     -0.878703177,    -0.6312302947,     0.2725864947,     0.3130952716,    0.02717846818,    -0.8776339293,     0.6990298629,    -0.3249493241,     0.7078217268,    -0.1847642064,  4.437563985e-05,     0.4778264761,     0.1653862894,    -0.9742167592,     0.2329497784,     0.2956049442,     0.8047643304,     0.1637693197,     0.9111563563,    -0.7388661504,     0.5695133805,     0.4742167294,     0.5933932662,      1.001594067,    -0.8642652035,     0.5212327242,      0.667414546,     0.4881196022,     0.4031414986,     0.4379525483,    -0.8176301718,     0.7713447213,     0.5882686973,  -0.003575680312,     0.4618803561,    -0.1811911613,    0.02672439441,    -0.4143638313,    -0.2566579878,   -0.00353197637,     0.9034850001,       0.82033813,    0.05341270566,     0.5125277638,     0.4580531716,     0.2224154323,   -0.05903868005,     0.6126825213,     0.3397614658,     0.7672176361,    -0.7936863303,    0.03724972159,  -0.002296569292,      0.908970058,     0.6037423015,    -0.7915955186,    0.03614301607,     0.2013357133,    -0.7633315325,      1.212745547,      0.618855536,    -0.1637493223,    -0.2143801749,    -0.5312899351,     0.1699148566,    -0.1784300804,   -0.01461608335,     -0.277187407,    -0.3296059072,     0.7737259865,    -0.7584380507,   -0.05822129548,    -0.1342762262,      1.179588795,     0.7826722264,    -0.7333346605,    -0.8935113549,     0.3111253679,    -0.6501228213,     0.3803271353,      0.918892622,    -0.6081010103,    -0.7326007485,    -0.6926741004,    -0.3827506602,     -0.821248889,    -0.7977136374,    -0.4925397038,    -0.5474594235,    -0.4679526389,    0.04176518694,     0.9842236042,     0.6787059903,    -0.7835133672,     0.8337525725,      1.165343046,      0.745811522,    -0.4806897044,    -0.8042696714,    -0.2236542702,    -0.5244495273,      0.554343164,     0.6100074053,     0.4417358637,    -0.2842260301,     0.8714459538,     -0.699865222,    -0.7840906382,    -0.1457089186,     0.3818176091,     0.4804568589,    -0.6740407348,   -0.02948332578,     0.8585768938,    -0.1123688668,    -0.6431336403,    -0.9543881416,    -0.1598656029,     0.7697038651,    -0.8338846564,     0.2035419643,    0.03379767761,     0.2609247565,     0.6380941272,     -0.552862823,      0.373781383,    -0.8961302638,    -0.2985689044,    -0.8871083856,   0.005255106371,     0.5872266889,     0.1335265189,     0.9570478797,     0.4031121731,    -0.5533550978,    -0.8744964004,    -0.9645048976,    -0.3220509589,     0.4818339944,     0.7341368198,    -0.5816316605,     0.5375999212,    -0.1279503703,    -0.9205651879,    -0.9244965911,    -0.6568482518,    0.04530114308,       0.21759516,    0.06782373041,     0.6910412312,    -0.5647808909,    -0.1244219467,     -0.331718564,      0.101663053,     0.5735391378,     0.5304313302,    -0.4217039943,      1.166847348,      0.769130528,      1.044312477,    -0.2294312567,     0.9372525215,      0.455226779,    -0.8153275251,    -0.4910959005,    -0.1379408389,     0.9925588965,     0.8691541553,     0.3349644542,    -0.4299863875,       0.49125278,    -0.9680605531,    -0.0260200128,    -0.8963853121,    -0.1216821373,    0.03285884485,    -0.1532010436,     0.2851578295,      0.717240274,     -0.282820344,    -0.9020454288,    -0.2488494664,       1.25802815,      0.395054698,    -0.5007352829,   -0.05512345582,     0.9384214282,    0.07839413732,    -0.1028949991,    -0.2595629394,    -0.1565524936,     0.7161237597,      1.004811525,     0.4527922571,     0.5747174025,     -0.095277071,     0.2354150712,     0.2402157038,   -0.01525682677,    0.01837209426,     0.1293889433,     0.3780485988,    -0.6090545058,     0.5440397859,    -0.4212791324,     0.8032528758,     0.8259281516,     0.1007370204,     0.6858703494,     0.5149133801,     0.9986330271,     0.5029694438,      1.044808269,     0.8505238891,    -0.2018224448,      1.160859466,    -0.1499498039,  -0.006041218527,      1.034652948,    -0.7077221274,     0.7657778859,     0.6054341793,     0.1999054253,    -0.1127677411,     0.3603500128,    -0.3959305882,     0.9538521171,     0.9732179046,    -0.7066704035,    -0.7459839582,     0.1919658333,     0.9824389219,     0.8152146935,    0.08963506669,    -0.6586325765,  -0.005105187185,    -0.2650973499,     0.3183906674,     0.4896448553,    -0.9698655009,    -0.2390479743,    -0.1932142526,    -0.6420881748,      1.088777184,     0.5316191912,     0.7914508581,     0.1270077378,    -0.6212683916,    -0.2956184149,     0.8398094773,    -0.2338635176,    -0.7690728903,   -0.04434655234,     0.3294335306,    0.04138691351,      0.160733819,    -0.2488293797,     0.7534287572,     0.6651724577,     0.9058064222,    -0.8988538384,    -0.4418572187,     0.2043076605,      0.465913713,    -0.6667763591,    -0.4599090219,      1.084921241,     0.7238129377,    0.00870597735,    -0.8182514906,     0.9369306564,     0.7505674958,    0.08247298002,     0.9725292921,    -0.2628344297,      1.011121631,     0.9549673796,    -0.3737293482,    -0.9206571579,     0.9617083073,     0.1015628055,    -0.1767048985,    -0.6568146348,     0.8639382124,     0.3807573617,      1.155157328,     0.2159488797,    -0.8494770527,     0.5889232159,      0.107155323,     0.7890331149,      0.664188087,      0.519030571,     0.6224141121,     -0.351056695,    -0.6369418502,     0.8536895514,    0.07468375564,    -0.2114812136,     0.3686920702,    -0.6626958251,    -0.4252047241,    -0.9095742106,    -0.7176496983,      0.500463903,    -0.3234663606,      0.969758451,     0.6217864752,    0.03631878644,     0.0676022172,     0.2742818594,    -0.9841465354,     0.9171480536,     0.6685089469,     0.1076392308,    -0.5558691621,     0.3982001841,    -0.8596114516,     0.1000874713,    -0.3096026778,      1.129179716,     0.3094522059,    -0.6076071262,     0.2706560194,    -0.2228616029,     0.3760435581,     0.7764510512,    -0.4325812757,    -0.7443753481,     0.5462753773,    -0.3379113674,     0.4540007114,    -0.2194939107,    -0.1146087945,    -0.8974880576,     0.2428620309,     0.5919560194,      0.107595548,     0.2431962639,    -0.7711800933,     0.8102680445,      0.953397572,     0.9127269983,     0.6949703693,     0.4280085266,     0.8055248857,      1.010469913,    -0.7664735317,      0.206643939,   0.007481061388,     0.5390864611,    -0.2828980088,     0.8998590708,     0.8202955723,        0.4402107,     0.1661058813,      0.574840188,    -0.1545465142,    0.09615084529,   -0.03870150819,     0.6986724734,    -0.1066047773,    -0.5485372543,    -0.1530432701,      1.037387729,    -0.1698969752,   -0.02743576653,   -0.08537629247,    -0.6008470654,     0.4325917363,     0.2132941186,    -0.3179124296,   -0.09810209274,    -0.5721102953,    -0.6429531574,    -0.7590518594,    -0.4554159939,    -0.0480184406,     0.4959238768,    -0.1189294755,    -0.7250719666,    -0.5431283116,     0.1911046058,     0.5394688249,    -0.2648942769,     0.9779636264,     0.7822656035,      0.526797533,     0.1541553885,     0.5768716931,    -0.4530608952,    -0.7604733109,    -0.4934571683,     0.7577635646,    -0.7761904001,    -0.7427127957,     0.4247246385,     0.6166236401,    -0.4257061481,    -0.3697293997,     0.6418021321,     0.4255670011,     0.3521237671,     0.7431775331,      1.008149266,     0.9166356921,    -0.6749670506,       0.43701756,    -0.4891019464,    -0.2589223385,     0.8324109912,     0.3642730713,     0.7977938056,     0.2364085466,     0.2003499418,     0.2691943944,      0.557684958,     0.6927579641,     0.8548350334,    -0.5088194013,     0.2727167308,     0.2712199688,     0.3543361723,    -0.5164926648,    -0.2882731855,     0.2538681328,     0.4267586768,      0.265319705,  -0.005207430106,     0.2943907082,   0.009943439625,    -0.2895270586,     0.4206529856,      0.264187634,     0.8619567752,     0.1915258169,    -0.1747980863,     0.9081962109,     0.2167465091,    -0.2530018091,     0.1430271119,     0.6902174354,     0.5315486193,     0.9158916473,     0.2812019587,      1.030817747,    -0.3353542686,     0.1434293836,     0.1191118956,    -0.5360510349,      0.141910255,    -0.6070864797,    -0.9140045047,    0.08891632408,     0.3766235113,     0.9783928394,     0.2061037272,    0.07519609481,     0.4617122412,    -0.2257034183,    -0.6628628373,     0.2889769971,   -0.04883024469,     0.7479788661,    -0.9730793238,    -0.2245981544,     0.2878340483,    -0.4550669193,     0.4965679646,      1.224946022,     0.2519396842,     0.6819154024,    -0.9648206234,     0.5309250355,     0.6467899084,     -0.143651545,     0.6417996883,     0.2322645783,     0.1993783116,    -0.2416254133,      -0.53916049,    0.01313829422,     0.9818444848,     0.7284548283,  -0.003562174039,    -0.3596988022,   -0.02637635358,    -0.5328412056,    -0.6029567719,    -0.6391960979,    -0.6237034798,    -0.2594525516,    -0.9718254209,    -0.7960733771,    -0.5851979852,    0.08359864354,   -0.06447670609,     0.8860402107,    -0.5146641135,     -0.447445035,    -0.2758185267,    -0.2818211019,     0.3202124238,    -0.2387553304,    -0.2913624644,     0.6203513741,    -0.5851355791,     0.5738664865,     0.3609563708,     0.7318392396,   -0.09178870171,     0.2793483138,    -0.9549745321,    -0.4959149659,     0.7637076974,    -0.1066218168,      0.445466727,    -0.6686983109,     0.3418737352,     0.7091988921,     0.9665997028,      1.456441164,    -0.2923018336,     0.3402119577,     0.6865252852,     0.9263008833,     0.8841555715,    0.09971828759,     0.9560235739,     0.2181956172,    -0.5212794542,    -0.6655271053,    -0.7447001934,    -0.6834599376,    -0.9941267371,    0.08775277436,     0.7447635531,    -0.2670638859,     0.8947258592,     0.1697020233,     0.0841980949,      0.373118639,      1.184205174,    -0.6611362696,     0.5490081906,    -0.6463366151,     0.7397183776,     -0.324675113,    -0.5229762197,    -0.5469539762,     -0.814984858,    -0.2152872682,    -0.4534107447,    -0.5728571415,    -0.6206666231,    -0.4080019593,    -0.9192172885,     0.2938239872,    -0.5954532623,     0.9078416824,    -0.4271587729,     0.9492163658,    -0.2410107255,    -0.6367619038,     0.7876935601,    -0.1299822927,    -0.3769096732,    -0.2384224683,     0.3826965988,     0.5142365694,     0.7156105638,    0.04740527645,     0.4956519604,     0.3460853398,     0.3969585001,    -0.5274140239,     0.6284099817,    -0.9730104804,    -0.3722602129,     0.8244684935,    -0.8268220425,    0.05443177745,     0.2146730572,      0.534758985,   -0.04234388471,     0.2717367113,      1.077534318,     0.1392024755,     0.2446390837,     0.4741131365,     0.4253562093,    -0.8530297279,    -0.5642127991,    -0.5130186081,    -0.6491712332,     0.4307508469,     0.5896103382,      1.064713597,     0.1726814508,     0.6506111026,    -0.3946236074,    -0.4154773057,     0.2551449537,    -0.4635617137,     0.7234574556,      1.087808013,    -0.7494453788,     0.6917623281,     -0.247879833,    -0.1610940844,     0.8443617821,    -0.6503667235,    -0.6716436744,     0.4539197981,    -0.9845705032,     0.6605360508,     0.9627631307,     0.4622025788,      0.464751929,    -0.6000853777,     0.7718967795,     0.9956630468,     0.9354082346,    -0.8951644301,    -0.6190184355,    -0.5146018267,    -0.7140468955,    -0.7058589458,    -0.5437494516,    -0.2824777961,    -0.7767692804,    -0.9057819247,     0.7636602521,      0.124125056,     0.1094826758,      0.534165442,    0.04592127725,    -0.1896909028,     0.4408602715,    -0.5568005443,     0.6201127172,     -0.251853615,     0.4493226409,     0.3238843679,    -0.3299095035,    -0.5444475412,    -0.2271184921,     0.1251421869,    -0.6086186171,     -0.203065455,    -0.9752020836,     0.5482084155,    -0.2865609527,     0.3208346367,   -0.04789254069,     0.7346017957,     0.5370441675,      1.004884243,    -0.9216594696,    -0.3442955613,    -0.2716918588,      0.565735817,     0.1583295912,     0.3346116245,     0.1905814558,     0.4446595311,    -0.7350860238,     0.5299628973,     0.9746569991,     0.3540666997,    -0.2336891145,     0.5976109505,    -0.3138951659,      1.193018079,     -0.548869133,    -0.3772370219,    -0.8791369796,     -0.231797412,     0.3561294377,     0.8117916584,     0.4239822328,     0.4478186369,    -0.9680789709,        1.4090482,    -0.6395891905,     0.3732887506,     0.7236094475,     0.4490277767,     0.2653462291,   -0.05840140209,      0.468770951,    -0.6437770724,    -0.1277347952,   0.007529937662,     0.7543362975,     0.0131176915,     0.1386451125,    -0.2176705599,    -0.2123971283,    -0.5609201789,    -0.3614320159,     0.9200229645,       0.45424366,   -0.08586285263,    0.05419592932,     0.1249575168,    -0.4409860969,     0.8890944719,     0.2918947339,     0.4425435066,     0.6238585114,      0.951126039,    -0.4517008066,    -0.4073212445,    -0.3860856295,   -0.04084717855,    -0.5657365322,    -0.7222145796,    -0.7829281688,     0.4110759497,    -0.1118487641,    -0.9484959841,     0.3017213047,     0.1038527563,    -0.9710608125,    -0.5829321146,     0.1014514789,    -0.4656409621,      1.047049999,     0.2274811119,     0.2429997921,     0.5993775725,    -0.5003724098,     0.2224843502,     0.5649138093,     0.4056373537,    -0.3872797191,     0.1519567668,      1.006739855,     0.7497521043,    -0.8162499666,     0.4169219732,    -0.1639686525,    -0.4012716413,     0.4833779335,    -0.7600236535,    0.09896033257,     0.7029179335,    -0.6108599305,    0.01045750082,    -0.7322068214,     0.1742378771,     0.8592318892,   -0.04038803279,      0.697573483,     0.9261578918,     0.9096835852,     0.3724593818,    0.06799318641,     0.1983768493,     0.2057468295,      1.306501865,    -0.6903141141,    -0.8117106557,    -0.5089763403,    -0.6707174778,    -0.7934280038,    -0.7938064337,    -0.3003833592,    -0.6442410946,     0.4012689888,    -0.3538705409,     -0.311044395,    -0.4100111127,     0.5198258162,     0.5166791081,    -0.8827483058,    -0.6787511706,     0.7262722254,     0.2749572992,    -0.9149470925,    -0.5202341676,    -0.4326043725,    -0.9464280605,     0.9224421382,     0.7465833426,   -0.01949421689,     0.2732888162,     -0.569649756,    -0.6601626277,    -0.5593816042,     0.7488057017,      1.140185952,   -0.09619604051,     0.7486887574,    -0.1349841207,     0.5687785745,    -0.7958337069,     0.4161691666,      0.329146862,      0.258830905,    -0.5308170319,     -0.879106164,      0.754268527,    -0.3362947702,    -0.2237356603,     0.7282288074,     0.6952360272,    0.08479379863,     0.3508745432,   -0.04236616567,    0.06847264618,    -0.7656399012,     0.2782003582,     0.7784599066,    -0.6228845716,    -0.6971443892,    -0.2757519186,     0.1760002226,     0.2519515753,    -0.4488801956,      1.043114781,   -0.02252915874,     -0.734351635,     0.6266332865,     0.7375345826,    0.03496491909,     0.1343559176,    -0.3021767139,    0.05220156163,    -0.4933595955,     0.6091645956,    -0.4297925532,    0.09381914139,    -0.6038318276,     0.6130700111,    -0.8043566942,     -0.752004385,     0.8403521776,    -0.0955747664,     0.5463297963,     0.6196436882,     0.9792696834,     0.3464964628,     0.5700799823,     0.3015062213,    -0.5540926456,    -0.3750678897,    -0.8129333258,     0.1833621562,    0.04769092426,     0.3509540856,    0.07161588222,    -0.5234971642,    -0.3729405999,    -0.4445298612,    -0.1625834405,      1.108473539,    0.05729454383,    -0.5705601573,     0.4472437501,     0.5881714225,     0.1136791781,      1.056019902,     0.1430659443,     0.2432665527,     0.9482141137,    -0.7356375456,    -0.5441441536,   0.006820497569,    -0.5389299393,     0.6561558843,    -0.5717306733,     0.4605154991,     0.0168360658,     0.5351904631,    -0.7589488029,     -0.423985064,    -0.2555000186,     0.5632281303,     0.7393381596,     0.2292859107,    -0.5898401141,     0.5434342623,    0.08295166492,    -0.8465054035,    -0.2506789863,     0.9579936266,    -0.7717329264,     0.1143322438,    -0.2269167304,   -0.09163661301,    -0.6489157677,    -0.4659635723,      0.625639081,      0.946629107,     0.3054838777,     0.1295498461,     0.7838966846,     0.4323191941,     0.0391635336,    -0.7266148329,     0.5377919078,   -0.09453970939,     0.1686907709,     0.9663516879,     0.9341802001,     0.1457901895,    -0.5534077287,     0.3720507622,    -0.3430372477,    -0.3935715258,    -0.1589758396,      1.009441972,      0.450048238,    0.03545141593,      -0.75731498,    -0.2430260032,    -0.6404091716,     0.9204397798,     0.9934981465,      0.870698452,    -0.3214296103,    -0.2728752792,     0.3398762941,    -0.5474172235,    -0.4270271063,    -0.3580694795,      1.090756297,     0.3879064322,      1.106555581,    -0.2741173208,      0.993083477,    -0.3485853672,    -0.7220925093,    -0.4710887969,    0.05329436064,    -0.4134047329,    -0.5511544347,    -0.7926635146,    -0.5721509457,    0.07135869563,    -0.1282808334,    -0.7615639567,     0.8346341252,     0.1198165789,     0.1296914667,     0.8562375307,   -0.03661325946,      1.335899949,    -0.6599003077,     0.9114564657,   -0.09757760167,     0.7935183644,     0.9384739399,      0.220187217,     0.4928769469,    0.07706286758,     0.7662739754,     0.2629144192,     0.5052725673,    -0.3924295604,    -0.3047417402,     0.9841506481,     0.5545778275,    -0.9695606232,     0.6388839483,     0.1230050325,    -0.7321199775,    0.01980457269,    -0.6340380311,    -0.8831017613,     0.4855476022,    -0.1137502939,    -0.9179903865,    -0.2946957648,    -0.4931207299,    -0.3100790083,       0.40048787,    -0.4094904661,     0.3474619389,    -0.7391331792,     0.7766690254,      1.100129247,    -0.8592045903,     0.3521366715,   -0.01474618167,    -0.4532233477,     0.1055066735,     0.5202327371,     0.6984191537,     0.7536134124,    -0.4592824876,    -0.5648331046,   -0.04157473147,    -0.4829757214,      1.040372849,     0.7806996703,      1.081714511,    -0.4686384201,     0.9259189367,     0.9474532604,     0.4790460765,     0.8092739582,     0.8607764244,     0.8209273815,    0.02996446006,    -0.5289117098,     0.8886772394,      1.006634831,    -0.4643972218,     0.4503928125,     0.1808963269,     0.9041087031,    0.05377587304,     -0.248013258,     0.8365037441,    -0.7041891217,      0.289482832,     0.4819019437,     0.4944788218,    -0.1184193343,     0.3738008738,     -0.271061331,    -0.8175668716,    -0.6594098806,    -0.6908195615,    -0.7843040824,    -0.2954412997,      0.042144835,    -0.1294548512,    0.07301367819,    -0.6168827415,     0.4400098324,    -0.5947502255,    0.04558078945,    -0.8085299134,     0.9034799933,      0.822663188,    -0.2234815657,    -0.4587398171,     0.7613749504,     0.9399618506,    -0.8666760325,    -0.1709543169,    0.03246494755,    -0.2485195696,     0.5782983303,      0.889297545,   -0.01979856193,     0.4786386788,    -0.1456724852,    -0.1248040125,     0.3647155166,     -0.730404377,     0.8585258722,     0.9299221635,     0.5838016272,    0.04707322642,     0.9577410817,     0.2622901499,     0.8256893158,    -0.5041031241,    -0.9905281663,     0.1654751748,      1.179549932,     0.8773193955,    -0.3504719436,    -0.9914598465,      0.943374753,     0.1124783009,    -0.9386230707,    -0.6808602214,    -0.3659852445,    -0.0398975648,      0.706082046,     0.1402149498,    -0.4376271665,     0.5958844423,    -0.9185643196,      0.700081408,     0.4850124121,    -0.7949001789,     0.6846101284,     0.5242933631,    -0.1273899972,     0.4892290533,    -0.7806076407,     0.4429859221,   -0.04875547811,     0.2411492616,    -0.7338320613,    -0.8632706404,     0.2779681981,    -0.5814008117,    -0.4727367759,       1.16993022,     0.9838086367,      1.105976343,    -0.7971020341,    -0.7410702109,    0.01711894572,    -0.4176756144,     0.7875560522,    -0.9596633911,     0.3501233757,     0.1923677027,     0.5125803351,     0.0691505298,     0.9989789724,     0.1713177711,     0.4097467959,     0.4644949734,       0.22011213,    -0.1285070926,    -0.7304423451,     0.3565679789,     0.2849625349,     0.7878371477,     0.9562267065,     0.5367770195,   -0.02516197041,     0.8097853065,    -0.7962189913,     0.1816241294,     0.8170198202,     0.1615169346,     0.8308754563,    -0.8345165253,    -0.1146712974,     0.3769722581,     0.3441040218,   0.003317066934,   -0.09334709495,     0.0561808534,   -0.01865161397,     0.6541836262,     0.9295530319,    -0.2151210904,     0.7138205767,      0.960609436,    -0.1216421276,    -0.4767542183,     0.1067640781,    -0.9345867038,     0.3760945499,     0.3685470223,   -0.00973685924,     0.1424018294,    -0.8488106728,    -0.4363304675,    -0.8084852695,    -0.4808036983,   -0.06602673978,      0.286526233,     0.7059189677,    -0.9220952988,    -0.5132395625,     0.6121934056,    -0.9579821825,      0.638291657,     0.3988615572,     0.0706390515,   -0.05715425685,    -0.3596693277,      1.021692395,     0.6647797227,    -0.7627531886,    -0.4978804588,     0.3226410151,     0.6972073913,     0.8308820724,      1.031777978,     0.7024773359,      1.112893462,    -0.7880346179,     0.4665264785,   -0.04300890863,      1.007519603,    -0.3947423697,     0.2418978959,    -0.4686514735,   -0.02775808237,    -0.9105277658,    -0.5403001308,    -0.9665171504,    0.05222769454,   -0.04742480814,     0.9540028572,     0.1790499389,    0.05680491403,    -0.8061233163,   0.002661858685,     0.3989527524,    -0.8139731288,    -0.3465046883,     0.6674720645,    0.01250393968,     0.4868336022,     0.9246284962,    -0.2246008217,    0.06290892512,    -0.8512805104,     0.7138375044,     0.6775070429,      -0.36669752,     0.5776558518,     0.5463190675,    -0.8761737943,    -0.9106525779,     0.3386755288,     0.2885899842,      0.403123498,     0.6235952973,     0.1957751513,      0.219538331,    -0.1032075882,     -0.709279418,    -0.8306040168,     0.8988972306,    -0.3093557954,    -0.5611816049,     0.1404199153,    -0.7370755672,    -0.4686491787,   -0.08057191968,    -0.3537518084,     0.2277854234,     0.4287944734,   -0.06158652529,     0.9040529132,    -0.1875681132,     0.3189066648,    -0.5467885733,    -0.1058112904,     0.7424744368,    0.06254221499,     0.4348422885,      1.138534665,    -0.2934324741,    -0.5092580318,     0.7811822891,    -0.6184644699,     0.7845697999,     0.4065321386,     0.1846579313,    -0.4300625026,    -0.5841225386,     0.8396172523,    -0.9454562664,    -0.4020952284,    -0.8507611156,    -0.2919420898,    -0.9417769313,    -0.5754606128,    -0.9724646807,      0.584277153,  -0.006757770199,     0.1735729128,     0.6184324026,     0.3744215369,     0.4045762122,    -0.4701344967,    -0.8127911687,     0.8677188158,     0.8738641739,      1.134986997,     0.3227034211,     0.9332284331,      0.289411068,    -0.8312036991,     0.6740828753,     0.5130147338,       0.42132774,      0.970487237,     0.5802211165,     0.2293564081,     0.6633714437,     0.8837988973,    -0.1331210136,    -0.6604934931,   -0.06778375804,     0.9686987996,     0.3577000499,     0.6775528789,    -0.2775155604,     0.3502441645,    -0.3047238588,      -0.13497293,     0.7855366468,     0.9486731291,    -0.4423657954,    -0.5748506784,     0.6328420043,    -0.8364604712,   -0.09395486116,    -0.8586871028,    -0.3886794448,     0.2802125812,     0.5785703063,    -0.2134478092,      0.924726367,     0.2825222015,     0.2677541375,    -0.7532019615,    -0.4745829105,     0.1071148142,     0.2959904969,    -0.7851535678,    -0.7269864678,   -0.08850065619,    -0.6636525393,   -0.05481652915,     0.4349624515,     0.5307365656,    -0.9238541722,    -0.3917872608,     0.1959049702,    -0.4435113668,     0.6405512094,     -0.887871325,     0.8300038576,    -0.5604768395,    -0.0292568095,      0.106337443,    -0.2431508303,     0.1455223709,    -0.7965982556,    -0.5390535593,    -0.1945918649,     0.3198944032,     0.2675049305,     0.0970268473,   -0.08818751574,    -0.7497285008,    -0.3562256992,      -0.51394701,    -0.6058818102,   -0.04482466355,     0.2312414199,     0.2816264033,    -0.7840409279,     0.3381532133,     0.6737709045,     0.4475906491,     0.3081337214,     0.3828323185,     -0.770190239,     -0.722494781,     0.4785481989,    -0.4635877311,     0.1707884818,    -0.3930796087,     0.2443578392,    -0.2761941254,    -0.9043089747,    -0.4955231249,     0.7769649625,     0.7388456464,     0.8237773776,     0.9661661386,    -0.1965831518,     0.3633257747,    -0.2930804491,    -0.9791283607,     0.6839060783,     0.9477527142,     -0.140304476,      1.076126099,      1.100958824,     0.9237496257,     -0.166346848,     0.7423152328,    -0.2419140488,     0.2595978379,     0.1970071495,    -0.8466801047,     -0.288349241,    -0.8040453792,      0.850786984,     0.1138434634,    -0.5068477392,     0.9575847387,    -0.8539882898,    -0.3805932403,     0.3392055035,    -0.6346920133,     0.7753154635,     0.5462722182,     0.2814428806,    0.07722698897,    -0.1898189634,      0.667598784,    -0.6888825893,     0.1769547611,    -0.1720272154,    -0.3817782402,     0.6892017722,     0.2540602684,      0.918590188,    -0.1733587384,    -0.5581590533,     0.3890022039,    -0.4930865169,      1.070960402,    -0.1611340791,     0.4383871555,     0.4568043649,     0.9429756999,     0.6927914023,     0.1985141635,    -0.8072767258,    -0.8858018517,    -0.7869614363,     0.4985093474,   -0.02941533178,    -0.5773240924,    -0.4855847955,    -0.3944148719,    -0.5751942992,     0.8563172221,   -0.07092156261,    0.08749105036,     0.6050292253,     0.8584703803,     0.6623839736,     -0.568446815,     0.2519663572,     0.2925803959,    -0.6582701802,     0.1237478703,    -0.3639409542,     0.8577256203,     0.1117198691,     0.4587891698,    -0.6715230346,    -0.9096298814,     0.8025350571,     -0.718654573,     0.1670894921,     0.3030457795,      0.741415143,     0.9358928204,    -0.1899756789,    -0.2288817614,     0.1110254154,     0.3751276135,     0.9194703102,    -0.8162711859,     0.2318844795,   -0.01472573727,    -0.2120025158,     -0.479544431,      1.093026757,      1.019276619,     0.3757376671,     0.6909663081,    -0.8880869746,    0.01495515648,    -0.1090898439,      1.044603467,     0.5089045763,     -0.942908287,     0.0334193632,     0.5496130586,     0.5423659682,     0.9299730062,     -0.325009048,    -0.5831736922,    -0.2639266551,     0.8514990807,  -0.007420815527,    -0.9600672722,     0.4522127807,    0.07327505201,    -0.3547601104,     0.7010931969,     0.8554960489,      0.925262332,    -0.2869811654,    -0.9015171528,     0.3679991066,      1.043203592,    -0.5452782512,    -0.1796038449,      -0.28246665,    -0.2108020484,     0.5810087323,    -0.2385636419,    -0.8013179898,   -0.02610328235,     0.9665316343,     0.4964064062,   -0.09932997078,     0.8282464147,  -0.004879559856,     -0.526211977,     0.6956834793,     0.7473123074,    -0.2941096723,    -0.6803331375,     0.7639219165,    -0.3112657964,    -0.1746773124,     0.5504021049,   -0.06658963859,      1.105751872,     0.8306378722,     0.2182387114,     0.5086586475,    -0.8016428947,     0.4509320557,     0.4041428864,      1.006046295,     0.5324370265,    -0.3560240865,  -0.006334105507,     0.4948150516,     0.3631434739,     0.8194691539,      1.018140793,    -0.8744681478,    -0.4883007705,     0.4614250362,      0.404311806,    -0.3550926149,     0.4201064706,     0.1183817536,      1.189849138,    -0.3467799425,     0.8611833453,      0.439705193,     0.4211062491,     0.2099171579,    -0.8204971552,     0.7813484073,    -0.9082604647,     0.3184390366,     0.3130809069,   -0.03608716279,     0.9653525352,      0.967523396,     0.2915894389,    -0.2422239333,     0.5531345606,     0.5297297835,    -0.2530733347,    -0.1064370051,    -0.0401789993,    -0.4871566594,     0.4268995523,     0.4015368819,     0.8924568892,    -0.3473852575,     0.7241791487,  -0.006117203273,    -0.7511507273,      0.951155901,    -0.8710616231,     0.3483062387,    -0.4199815094,   -0.09377676249,      0.156002149,     0.9248064756,     -0.190730989,     0.6817541718,     0.5172531009,    -0.6504548192,    -0.7095543146,    -0.7824668884,     0.2137693763,    -0.7990769148,    -0.4222567379,      0.144007504,     0.6984586716,     0.4924009442,      0.961094439,    -0.7932970524,     0.8072837591,    -0.3756042123,   -0.06568559259,     0.3226253688,    -0.3964446485,     0.7294356823,     0.1689021587,      1.232097864,     0.9375460744,    0.04880226776,     -0.443099767,     0.2991498411,   -0.05475183949,      1.063883424,     0.9891613722,     0.7512257099,     -0.240282923,    -0.4937075973,     0.4647318721,     0.4828238189,       1.14997232,     -0.527759254,     0.4334945977,    0.05999413133,     -0.364948988,     0.5792664886,     0.4545103312,    -0.5250282288,    -0.2950071394,    -0.8406282067,    -0.4726080298,     0.9041141868,    -0.2118908018,    0.09931705892,    -0.9142557383,    -0.1556451619,     0.6853023171,    -0.7874851227,    -0.6718642712,    -0.3132648766,     0.8896839619,     0.7763496041,     0.1013887748,     -0.802271843,     -0.509178102,    -0.4294981956,     0.4681479633,     0.7132714391,    -0.8703604341,     0.4225701392,     0.7551637292,     0.3133236468,    -0.5271933675,    -0.5343735814,      0.828636229,     0.8712104559,     0.7875238061,    -0.2281884402,     0.1145515442,     0.7779251337,      0.801879704,     0.5641562939,     0.4192288518,     0.2077893466,     0.8776993752,    0.01887301542,     0.5823961496,     0.6905813813,     0.6114159226,    -0.1244629845,     0.2380764186,     0.8028306365,    -0.5806604028,    -0.8245361447,    -0.6975102425,     0.7209942341,     0.6619554162,      0.509221971,    -0.2841641605,    -0.3148637414,    -0.7549393177,    -0.4143675268,    -0.5248039961,     -0.508202374,   -0.03065517545,     0.5011335015,  -0.004853498191,     0.2958643436,    -0.3393907547,    -0.7880482078,     0.8580482006,    -0.7189174891,     -0.546620965,    -0.7768600583,     0.2632173896,     0.6856325865,    -0.4833238125,     0.4068729877,     0.5757988691,     0.6587863564,     0.3525139093,    -0.9755565524,     0.2452966869,     0.5967217684,    -0.5854897499,    -0.5045104623,     0.4430327415,     0.9017179012,     0.1610465199,   -0.03280318156,      1.134621501,     0.1540628374,     0.6334261894,      1.067035556,     0.1407819092,    -0.7464181781,     0.9260540009,    -0.9892292023,    -0.5626983643,    -0.1885460019,     0.9376398325,     0.7842153311,     0.5170823336,      0.138088271,    -0.4975840747,     0.7910459638,     0.6641387939,    -0.7914565802,     -0.906222105,    -0.5424697399,     0.9924437404,     0.7199497223,     0.7639934421,      1.286775947,     0.4980107248,    -0.1093219072,    -0.4823143184,     0.8336481452,     0.5888860822,     0.1569562554,    -0.1460676491,     0.8206021786,     0.7731097937,    -0.7383146286,     -0.345308125,     0.5994076729,   0.009452419356,     0.1635123044,     0.3441562653,   -0.03036549315,     0.3835024238,    -0.3885755539,    -0.7638785839,      1.367936254,    -0.2931795418,     0.3273161054,     0.3456603587,     0.2307694554,    -0.1469130665,      1.050545096,   -0.02457462624,    0.02365576476,     0.8553071618,    -0.6990665197,     0.6997075677,     0.1011690423,    -0.2089007646,      1.178602934,     0.7315027118,    -0.8014057279,      0.282227993,    -0.5352463722,   -0.07758619636,     0.4779895246,    0.07852176577,     0.7034314275,   -0.08945596218,     0.1450681239,     0.2080086172,    -0.7615081072,     0.7175497413,    -0.9025449157,     0.5521022677,     0.2695999444,    -0.3230687082,     0.3646082282,     0.5186117887,    -0.6230726838,    -0.4968005121,    -0.2331259549,    -0.2362146527,     0.8222171068,     0.7314952612,     0.5870005488,    0.04684434831,    -0.6557076573,     0.1316652298,     0.4338454902,     0.6557725668,      0.498493731,    -0.3383260965,    -0.6906875372,     0.7047578692,    -0.4962249398,     0.7343742847,     0.8592351675,     0.8291879296,    0.05490780994,    -0.0819511041,    -0.5627447963,      -0.26448825,     0.4737069011,     0.7539153099,    -0.2376178056,    -0.9169943333,      0.558403194,    -0.5661939383,    0.05581372604,  -0.002316781785,    -0.1466232985,   -0.03658044338,    -0.7681506872,     0.1528432518,     0.4650675058,     0.2169051915,    0.07530466467,     -0.442138344,     0.5478855371,     0.6974546909,      0.927418828,     0.6312066913,     0.8055627346,     0.3857024908,    -0.1263304204,    -0.7934569716,       0.68901968,     0.5118793249,    -0.2375695556,    -0.5730336905,    -0.2955408096,    -0.4725194871,     0.3491087854,    0.02559820749,    -0.6437218785,    -0.5921755433,    0.04291739315,      1.219214559,     0.4199006259,    -0.8948879242,     0.2811120152,    -0.3221077025,     0.8642516136,   0.009401509538,    -0.6329715252,     0.9714441895,     0.2995145619,     -0.134848699,    -0.4346109331,   -0.03157383204,    -0.1601630449,      1.065681696,    -0.5234959126,     0.1645302027,    -0.4820920527,    -0.6186343431,     0.3583199382,    -0.5099323988,     0.1745620668,     0.1497740895,     0.7729999423,     0.8746201992,     0.4704066515,      0.542194128,    -0.1308148652,     0.8533129692,    -0.5849918723,    -0.8322323561,     -0.439545393,     0.1927849501,    -0.5047875047,     0.5017896891,     0.6787950397,     0.3038534522,    -0.2916460335,    -0.5304785371,    -0.9206890464,     0.9875962138,    -0.6104964614,    0.09780967236,     0.8849303722,     0.1571205109,    -0.5481105447,   -0.03976073861,    -0.4180066586,      -0.79630512,    -0.3724759221,    -0.5538185239,     0.2138619274,    -0.3632341623,    -0.5705167651,    -0.1282371879,    -0.1339915544,     0.2350536287,    -0.1796900928,    -0.2837390304,     0.3140423894,     0.8157036901,     0.5573915839,    -0.2842800319,    -0.1871177554,    -0.1375582367,     0.2542181313,    -0.1015852764,     0.9575052857,     0.2969261706,    -0.5364918113,     0.1652289033,     0.9306392074,   -0.04448252916,     0.4877793491,      0.725114882,     0.2753997445,     -0.408842206,     0.6815056801,    -0.4876661897,     0.7942382693,    -0.7775768042,    -0.1439862549,     0.5115416646,    -0.3741470575,    -0.8834921718,    -0.5334195495,      0.873400569,   -0.06165985763,     0.4064041674,     0.7136186361,    -0.4835953116,    -0.7285097837,    -0.9091152549,     0.5800307989,      0.570270896,    -0.2314954698,    -0.7638952732,     0.6628681421,     0.3089138865,     0.7768093348,      0.266364485,    -0.9606679082,     0.2538387775,     0.2143915743,     0.1540250331,    -0.3964572847,     0.1623339802,     0.6378399134,    -0.1098958105,    -0.8071044683,    -0.1463695765,     0.6944117546,     0.3746208251,   -0.02279962413,     0.4928004146,      0.754316926,     0.7421350479,    -0.6772786975,     0.6230821609,     0.8993908167,    -0.6369967461,    0.05677363276,      1.060306549,     0.7718575001,     0.4249780476,    -0.2829766273,     0.3266275227,    -0.4018541873,     0.8716025352,     -0.197140485,     0.7586313486,    -0.4286482632,   -0.05118995905,     0.1789609641,     0.3269886374,    -0.2506448328,     0.7050971389,   -0.09590861201,   -0.02363369986,   0.004089104012,    -0.6126403809,    -0.8815165162,    -0.6590198874,    -0.8715924621,    -0.4774744809,    -0.6237024665,    -0.3520365059,    -0.5279276967,     0.9206910133,     -0.522972703,    -0.8363507986,      0.326576829,    -0.3022300303,   -0.06606924534,     0.9459983706,     0.7151638865,    -0.6560686231,    -0.1845051795,    -0.9008640647,     0.3958005607,     -0.334477216,    0.05225872248,    -0.8334950209,     -0.522919476,      1.632647395,     0.2232436389,    -0.3732467592,    -0.9153119922,    -0.7365224957,     0.3163691163,     -0.304071039,    -0.1746845394,    -0.6566146016,     0.1067268029,     -0.587534368,    -0.6392387748,     0.8901761174,     0.1465322524,     0.6579999328,    -0.7619963288,     0.9661504626,    -0.1205492094,     -0.821726203,    0.08096173406,     -0.523853004,     0.9719887376,     0.2207845747,     0.9231186509,    -0.6382300258,      1.108239293,      1.014957786,     0.4557632208,    -0.8286775947,    -0.4251885414,    -0.6494510174,      -0.24330841,    -0.2773599029,      0.810862422,    -0.4814616442,    -0.4958004355,     0.7582294941,    -0.7296845913,      1.192537665,    -0.4965670705,    -0.4057112634,    -0.1247097105,     0.2189330012,    -0.8804697394,    -0.4060890079,     0.7701004148,     0.1766059548,    -0.7555274367,    -0.2490654141,    -0.9007228613,     0.4583722353,     0.0184958484,    -0.1439637989,    -0.6137456894,      1.178567052,    -0.6268767715,    -0.4657627046,    -0.3200725615,     0.2163617164,      0.879894197,     0.0301656127,    -0.1664162725,    -0.8460693359,    -0.1636517346,    -0.4790995121,     0.3712218106,     0.4869874716,      1.036048889,    -0.3918583691,    -0.5194467902,      0.568290174,    -0.1688683182,     0.2955310941,     0.8013184667,    -0.6604608297,    -0.8100989461,   -0.02425266616,    -0.7029061913,     0.7130283117,     0.7046554089,     0.9722367525,   -0.07147233933,     0.2159653455,     0.3620755076,     0.3907803595,      1.000232697,     0.9243167639,    -0.9466965199,      1.001482606,     0.9683734775,     0.3619329631,      1.068960428,     0.8835408688,     0.7994894385,    -0.8809905648,    -0.9501079917,    -0.2975989282,    -0.5229433775,     0.6874496937,    -0.5707166791,     0.3429848552,     0.9191734791,    -0.5714358091,    -0.2807665765,     0.8675464988,    0.05029425398,     0.6828816533,     0.1555324197,      1.123898029,     0.6363232732,     0.6737344265,      0.162745446,     0.5763007402,    -0.3238551021,    0.06385401636,     0.4439119101,     0.5552341938,     0.8831824064,     -0.604786098,    0.09873846918,     0.8365546465,    0.06786766648,    -0.7940802574,    -0.5559539795,   -0.02764328383,      0.747535646,    -0.9483274817,     0.8167885542,     0.9587076306,     0.4426364899,     0.3634052873,     0.5802147985,     0.2183737457,      1.045010924,     0.1736335903,      0.770160377,     0.1950804442,     0.7181639671,    -0.4619471431,     0.4598298967,    -0.4455465376,     0.2570813298,     0.7915505767,     0.6187235713,    -0.1441683769,    -0.6637439132,    -0.1237264127,    -0.7951697707,    -0.8680272698]
[    0.1672086865,    -0.9025479555,     0.2132010162,     0.6009745002,     0.3220327795,     0.6575468779,    -0.4760745466,    -0.4945034981,     0.9105273485,     0.3638644814,     0.7383674979,    -0.9229337573,    -0.4184318483,     0.3578491807,    -0.9413570762,    -0.6671863198,     0.2589619458,      1.028737307,     0.6237217784,     0.3468443155,     0.2029203922,      1.063280702,    -0.1827349514,    -0.3825933635,   -0.03872714192,     0.2709075511,   -0.07826448232,     0.6054314375,       1.20569098,     0.5848969221,     0.5953729153,    -0.4483219981,    -0.9285055399,     0.6082553267,     0.6527941823,    -0.9147830009,     0.1977123469,     -0.766902864,   -0.02315539122,     0.8672647476,    -0.3435308337,     0.1989322603,     0.3791671097,    -0.4738235474,     0.8106464744,     -0.776879847,     0.9243676066,     0.4618550539,     -0.702262342,      0.534170568,     -0.197349906,     0.6732382178,    -0.7002750635,     0.1972363293,     0.4968104959,    -0.8332508206,     0.4526847303,    -0.3195643127,   -0.06275604665,    -0.8757278323,     0.5464497209,    0.03989476711,     0.5014975071,     0.9308187962,    -0.4656069577,     0.1105482951,   0.006296157837,   0.009618946351,     0.7849373817,    -0.5534930825,     0.8496754766,    -0.8618727326,     0.7105635405,    -0.1989319772,     0.8966665268,    0.04935019091,    -0.1930355132,   -0.02546754293,     0.7313895226,    -0.1816996187,    -0.3973965645,      0.564078927,    -0.4154599607,     0.8682834506,     0.5423605442,     -0.737467885,    -0.2220024616,    -0.2982955277,    -0.4085996151,     -0.330455482,    -0.4376191795,      -0.70592314,   -0.07318142802,     0.6549376845,    -0.8292418122,     0.6135860085,     0.4589125216,     0.7333233356,     -0.910531044,    -0.9131931067,     0.2628395557,    -0.6792824864,     0.3224189878,      0.703985393,      0.822760582,     0.9674358368,    -0.2340735197,      1.031682849,    0.02418814227,    -0.7199332714,     0.8290575147,     0.5731168985,    -0.5252222419,   -0.08324338496,     0.5766118169,      0.131687209,     0.9924863577,    -0.3111426532,    -0.6785593629,    -0.9242789149,    0.05577947572,    -0.7250719666,     0.1268232763,    -0.2791466117,     0.2668070495,    -0.8555656672,     0.5009441376,       0.22486417,    -0.1247923598,    0.02571606636,    -0.5612858534,     0.2065873295,     0.1681217998,   -0.08219578117,   -0.09282018989,    -0.3099765182,    -0.3743536174,     0.4052177966,   -0.05074447766,    -0.9378710389,    -0.2796545625,     0.3566512764,     0.4305077195,    -0.9239903092,   -0.07626079768,     0.6654158831,     0.6020444632,    -0.8629335165,     0.3944789171,     0.8003582954,    -0.1827384084,     0.8914485574,    -0.4056239128,    -0.4397878051,      1.013380289,    -0.3470365405,    0.05381316319,     0.3838190734,    -0.3146045506,     0.7545894384,     -0.850528121,     0.4104308188,    -0.8805273175,    -0.1575049013,     0.8619443774,     0.7041205168,    -0.8573071361,      0.766541481,     0.8379970789,    0.01005259342,     0.7019878626,     0.7797831893,    -0.9141017795,     0.6465385556,    -0.8681018949,   0.003716147738,   -0.07374337316,   -0.04704751819,    -0.2824673355,     0.4968230128,     0.7453138828,    -0.7304522991,  -0.004062235821,   -0.01069436036,     0.2511042953,     0.7591110468,    -0.6363607049,     0.3271759152,     0.4241779149,    -0.2394353151,    0.01557019912,     0.4649527967,    0.04181873053,   -0.06533250213,    -0.7827867866,    -0.9510492682,      0.703784883,    -0.2947272956,     0.6352564096,    -0.2609031796,     0.4503037035,    -0.5208162069,    -0.6725612879,      0.142251268,    -0.3759903014,     0.7924412489,     0.3122311234,     0.6967321038,     0.6194654703,     0.3275896609,     0.1750154197,     0.6303128004,     0.3951111436,     0.8693110347,     0.2113099843,    -0.3093477786,     0.2608208358,    -0.1455273181,    -0.6547871828,     0.3680374324,    -0.1162901595,     0.7472131848,     0.8318343163,    -0.6431176662,     0.6658813953,     0.4671985805,    -0.3498541713,     0.2592542171,   -0.06901680678,     0.3113344014,    -0.9648073912,     0.1349089146,     -1.014568567,     0.4980137944,    -0.4701504707,     0.1175764054,      0.275064826,    -0.1612823755,     0.5787314177,     0.1931792349,       1.10272193,     0.7229242325,    -0.1014700085,     0.3802988231,     0.9871704578,     0.9598969221,     0.9603708982,      0.892472744,    -0.4223692417,     0.5140193701,    -0.5661235452,   -0.08178574592,     0.7205982804,    -0.6143581867,     0.3172107339,    -0.1346166581,    -0.1929904819,     0.3903851509,    -0.9707123637,   -0.06869355589,    0.00605070591,    -0.4245508611,     0.3969705403,     0.9024255872,     0.0980893001,    -0.8040412664,    -0.2545049787,     0.3305802345,    0.03397718817,     0.0641214028,    -0.5049923062,    -0.2968752682,     0.4138755202,     -0.397650063,     0.7907891273,     0.1056245193,    -0.3732864559,    -0.2810752392,     -0.433893621,    0.07588065416,    -0.7006428242,     0.8446586728,     0.1247550324,    -0.7540786266,     0.4616078734,     0.3062768579,     0.4876742661,     0.8937684298,     -0.899823308,     0.9256712794,   -0.07668246329,     0.4732478261,     0.2049893141,     -0.396240741,    -0.1070211306,      0.813731432,    -0.5379166603,    -0.7112506628,   -0.09434103221,     0.7286126614,    -0.7642349601,     0.7644176483,     0.1548214406,    -0.4848274589,    -0.8968813419,    -0.4871889055,    -0.6311437488,    -0.1016683429,    -0.8635597825,     0.9034301043,    -0.2400560826,     0.6831678748,    -0.9476042986,    -0.6331884861,    -0.5817801952,     0.7360650897,     -0.601980269,    -0.5220652819,    -0.6675713062,    -0.4434680641,     0.5524589419,     0.1124226227,    -0.5409901738,     0.5064721107,    -0.3113298118,    -0.6373109221,     0.2492885739,     0.2171397805,     0.2404311448,    -0.4606702626,     -0.162972033,    -0.2145103961,      0.732927978,    -0.2593619823,   -0.06647861004,    -0.3397830725,    -0.5359812975,     0.7145221829,   -0.08782038838,    -0.2509096265,      0.340541482,    0.05940213054,    -0.3751116693,    -0.1852573007,    -0.4116698802,     0.3547970951,       1.06812942,     0.2058110088,    -0.0492452234,      1.013451695,     0.7780951858,    -0.9403110743,    0.04655660689,    -0.3780320287,     0.9987945557,    0.07094796002,     0.8496298194,    -0.2699122727,     0.8462241888,     0.2288220823,     0.5924901366,     0.6527278423,    -0.3109378517,     0.9113092422,     0.9019582272,     0.4431854188,     0.1330489814,    -0.5301949382,      0.956715107,    0.09569942951,     0.5812420845,     0.1535879374,    -0.1084961295,   -0.05312792957,    -0.5891686678,    -0.7506050467,    -0.6797266006,   -0.01528900303,    -0.4580835104,      1.140591621,    -0.8620037436,    -0.7562013268,    -0.7066982388,     0.5914289355,     0.6917424798,      0.158809036,    -0.7879008055,     0.5268739462,     0.4268877208,   -0.02957234904,     0.7835092545,     -0.823702693,     0.3494700491,    -0.9580225348,      1.103567362,     0.4137810469,     0.4878700972,    -0.8537486196,     0.8056344986,     0.6344439387,    -0.8767826557,    0.06810627133,      0.419628799,    -0.3175249994,     0.7420258522,     0.6271388531,    -0.1835019588,     0.5434971452,   -0.07924952358,    -0.3464974761,    -0.1880129278,     0.7646778226,      0.724126935,    -0.3126063049,    -0.4027769566,     0.5797227025,    -0.8137397766,    -0.6837594509,     0.9758228064,      0.566572845,     0.7520916462,     0.4420322478,    -0.4001727402,    -0.8243842125,    -0.8834429383,    0.04415647313,    -0.5399963856,    -0.6426046491,     0.7849414349,   -0.07314803451,    -0.6594703794,     0.9135328531,    -0.8966563344,     0.4900696874,   -0.06782889366,    -0.8501519561,     0.3832511306,    -0.8998456597,     0.4517241418,    -0.8037145734,     0.4566541016,     0.7011604309,    -0.9773235917,     0.1028918102,     0.2848515809,    -0.6630798578,     0.1495437622,    0.07200323045,    -0.7290304899,   -0.07029700279,     0.9916741252,     0.8778041601,    0.02014650032,     0.3988705575,    -0.5410169959,     0.5897820592,     0.5569096208,   -0.02180384472,    -0.8429524302,   -0.08641426265,    -0.7285974026,     0.6510359049,    -0.3896438479,     0.2226056457,    -0.3969310522,    -0.5102569461,    -0.7245984077,      0.334820956,      0.103945218,     0.6709755063,     0.8768154383,    -0.1523514837,     0.3239817619,    -0.8158505559,   0.008772719651,     0.4328954816,     -0.822108984,   -0.09467616677,     0.6581677198,    -0.9002454877,    -0.6139316559,     0.2199328989,      1.107047439,   -0.03164007887,    -0.8494172096,     0.9633779526,    -0.9428121448,      1.206415534,     0.9108973145,    -0.9685852528,    -0.2990736067,    0.07161976397,    -0.3198950887,     0.1360579282,     0.6701775193,     0.2583965659,     0.0528007634,    -0.0681257993,   -0.02827484906,    -0.7739973068,     0.9468203187,     -0.570019722,    -0.3127155602,     0.4597668648,    -0.4476220608,   -0.08814385533,    0.01928079687,   0.006222242955,     0.2386348397,   0.007834894583,     0.6846181154,    0.08943127096,     -0.672442615,      1.135932088,    -0.3988095522,     0.4662551582,    -0.1570372581,     -0.316239506,     0.7388620973,    -0.3316111267,     0.2799063921,    -0.8111790419,      0.676872313,   -0.09903416783,     0.9397400022,     -0.652107358,   -0.05556108803,    -0.2254942209,   -0.05339778215,      0.428555727,    -0.1922872663,    -0.3400019109,     0.3483929336,     0.6981479526,    -0.2654105723,    -0.2053212821,     -0.913004756,    -0.3891426623,      0.484303683,    -0.6886798739,    -0.0923506394,    -0.2831830382,    -0.4929517806,    -0.8437259793,     -0.536111176,    -0.2904444039,     0.9136222601,      -0.36997509,   -0.07540152222,     0.6260303259,     0.5826275349,    -0.5301648378,     0.5874882936,     0.6592881083,     0.4502335787,     0.4778060615,    -0.1604860276,    -0.7603296638,     0.9822708964,     -0.713465035,     0.3797553182,     0.4485081136,     0.3121533096,     0.2392742038,    -0.2206561416,    0.08330661803,    -0.7372509241,     0.8572723269,    -0.5428043008,    -0.1779597253,     0.7160832286,     0.3113782108,      0.226690501,    -0.7315605283,    -0.3332801163,    -0.2349613011,     0.4817236364,     0.6612429619,   -0.08506730944,     0.5674384832,    -0.0243744608,     0.4412047863,    -0.3368365467,     0.4106126428,    -0.8291192651,    0.07812269032,     0.5659391284,     0.5791288614,      0.457785666,  -0.002273498802,    -0.6295881271,   -0.01719792373,     0.1196861044,     0.1165814027,    -0.2972265482,    -0.1489562988,     0.4877643883,     0.3440076709,    -0.6711565852,     0.9186676741,      0.714328289,     0.2415808588,  2.453004345e-05,      1.096966147,      0.110665746,      1.069681287,    0.02687847614,    -0.1908678561,     0.5118993521,     0.3522114456,    -0.2061983943,    -0.4658946395,    -0.5602584481,     0.8787156343,      0.431789875,     0.8176481724,     0.8737000823,   -0.07586959749,    -0.8680641055,      1.071965933,     0.8925251365,    0.02731919102,     0.6989765763,     -0.500221312,     0.1567955017,     0.4175355136,    -0.8266666532,    -0.7794446945,    0.09358467907,     0.5753192902,   -0.07386999577,     0.4320017695,   -0.08737879992,     0.7945817113,     0.6090607643,     0.8633945584,     -0.177832514,     0.9930986762,    -0.7961880565,    -0.3671526611,     0.9209376574,    0.07305298746,    -0.8566880226,    -0.6533455253,     0.9637440443,     0.1981972009,     0.6497502327,    -0.3181962967,     0.9126704931,    -0.9174538851,    -0.4831099212,    -0.7432410121,    -0.3794517517,    -0.8147126436,    -0.3910697997,   -0.03558164462,     0.5251609683,     0.4226446748,     0.5400828719,     0.8489182591,     0.2447143197,    -0.3700586557,     0.8344323039,     0.8760355115,     0.8442316055,       0.53333956,    -0.1120468527,    -0.2141825408,      1.250811338,     0.6257318854,     -0.617557168,    -0.7476583719,    -0.1461396366,   -0.01109485608,    0.07280385494,    -0.1690700352,    -0.3576317728,    -0.4810886085,    -0.6443981528,    -0.4665249586,     0.7194263339,     0.9756912589,    -0.2853368521,     0.2420900762,     0.1104188338,    -0.9634184837,    -0.3249719739,     0.3902845383,     -0.904673636,    0.08689688146,    -0.1753490716,     0.7757415771,    -0.2030181885,     -0.604110837,    -0.7866636515,     0.6962716579,     0.4009264112,     0.2561223209,      1.075634956,    -0.7409359813,    -0.5586901903,     0.5048847795,     0.4308006763,     -0.988180995,    -0.9820879698,    -0.7081847191,   -0.05767792091,     0.4433737397,     0.2246537805,     0.9436200857,    -0.6291864514,     0.9421310425,    -0.7459280491,    -0.3223291039,    -0.5068281293,     0.5795500875,    -0.9511686563,    -0.6317299604,     0.2500275671,     -0.533362329,     -0.709004581,    -0.7802270055,    -0.6738778949,    -0.6370773315,   -0.09502877295,    -0.5635006428,     0.1140133962,     0.4924749434,     0.2114067376,     0.7032251358,     0.3576390743,     0.8430321217,   -0.01936632581,     0.9263655543,      -1.01312089,     0.5212105513,       0.36494717,    -0.3910477161,    -0.9489276409,     0.5613161325,    -0.7591938972,    -0.6847891808,      0.408602953,    -0.1823479682,     0.9927827716,    -0.3506135345,    -0.2786026597,    -0.5791179538,     0.2144145072,     0.3593309224,    -0.8657963872,     0.3098126054,     0.1117497534,     0.6657389998,   -0.08916938305,   -0.09145800024,     0.6705602407,    -0.5009269118,     0.3361235261,    -0.1712004244,    -0.5861655474,    -0.1573079824,    -0.4154281914,    -0.4265926778,     0.2475395352,    -0.1570898443,     0.8034644723,     0.8617699742,     0.6365224123,     0.6178485751,     0.2288169861,    -0.2731797695,     0.9850124121,     -0.108868219,      0.852388382,    -0.8780490756,     0.1340795159,    -0.3638899922,    -0.6901688576,     0.7142338753,     0.4443489015,     0.8900560737,     0.4535444379,     0.6247336864,    0.06813146174,     0.5901693702,     -0.721157968,    -0.4330827296,     0.5857796073,    -0.5059133768,     0.1878638715,     0.3177192807,    -0.0563512221,   -0.08373722434,     0.4247882962,    -0.8168096542,    0.06347298622,    -0.4456315339,     0.2681278884,     -0.160701558,     0.6117642522,     0.2089563906,    -0.3114013076,     -0.593295455,     0.9041806459,       0.96093297,    -0.5275972486,     0.5902202129,    -0.2549542487,     0.2104568928,    0.05459573492,    -0.6309343576,    -0.8665803075,    -0.7253779173,     0.3651565313,     0.3807614148,    -0.5892444253,     0.3745629489,     0.8508745432,    0.09519360214,    -0.2135315537,    -0.5617534518,     0.9410795569,    -0.4523583949,     -0.254530251,     0.2097587585,    -0.3188070059,    0.06380949169,    -0.4262700379,    -0.9485313296,    0.04964081571,    -0.1702998579,    -0.4062556326,    -0.5145580173,    -0.2777325213,     0.9466764331,      0.746047318,     0.3488748968,    -0.6981018782,     0.9977823496,     0.3042736351,    -0.5735988617,     -0.723348856,     0.6724312901,    -0.8736525774,     0.9490846395,    -0.7078717351,    -0.1566152275,    -0.2723360956,    -0.4629220963,     -0.699426353,    -0.3808182776,     0.2557374537,     0.4360652864,   -0.05004133657,     0.9730693698,    -0.4522610307,    -0.6327413321,    -0.1281597614,   0.007381561212,      1.001639724,     0.5179699659,    -0.5648480654,   -0.09786012024,     0.2004865557,    0.06356525421,     0.2022008747,    -0.9582118988,    -0.6950579882,    -0.4567198157,    -0.4560423195,    -0.6806687713,     0.2471403331,     0.2339351326,     0.6575924158,     -0.679802835,    -0.7298195958,   -0.06113256514,   0.003731649835,     0.3456203043,      0.644154489,     0.7258250117,    -0.9736944437,     0.1691971123,     0.9489570856,     0.8704745173,    0.07178983837,     0.7181304097,    -0.7429884672,     0.2334349453,    -0.2777141035,     0.9390403628,     0.2889272273,     0.2412933707,     0.3091826141,    -0.4693052173,    -0.4120173752,    -0.2506864369,    -0.2764897943,     0.3975771666,    -0.4249306619,     0.8055954576,    -0.5634833574,     0.7481104136,     -0.772782743,     0.8714210391,    -0.3696050644,     0.3167986274,    -0.8067433238,    -0.6619995236,     0.6889773011,      0.570145309,    -0.7845091224,     0.9715151787,    -0.6563895345,     0.9158087373,    -0.4793947935,     0.5590283275,    -0.6611998081,     0.2485775501,    -0.6429333687,     0.7867293358,     0.7383173108,     0.1522442251,    -0.3997398317,     0.4964104891,     0.4115211964,     0.4344727099,       0.80640167,     0.1885579079,    -0.9257571101,     0.9620962739,    -0.8200030923,     0.7442597747,      0.352725178,    -0.3157134056,     0.8192935586,    -0.6144446135,     0.5670886636,    0.03735686839,    -0.8344147801,     0.3221614957,     0.2862449884,     -0.048701033,      1.135123849,     0.7917733192,     -0.610188365,     0.2274725139,    -0.7512497902,    -0.1799868196,     0.4933887422,      0.103669934,      1.155727267,    -0.8192384839,      0.141013667,    -0.9936282635,     0.6763260365,   -0.09044153243,     0.9303340912,     0.4377611279,     0.4263657928,      0.799126029,     0.9003769755,    -0.5352396965,     0.8903335929,     0.7966480255,     0.7834812403,    -0.6681007147,     0.7269347906,    -0.5848332644,   -0.07673151046,     -0.487367481,     -0.708733201,   -0.01332222112,    -0.9513338208,     0.9526270032,    -0.5785448551,    -0.8634104133,    0.08836627007,     0.2190635055,     0.5565674901,     0.8057210445,     0.1163164452,     0.6353138089,    -0.3006227911,    -0.6990631223,      0.882375896,     0.9429740906,     -0.632954061,    -0.3474513888,     0.3628851175,     0.9839148521,     0.3565922976,     0.1704024523,   0.005589341745,    -0.4171380401,    -0.3519093394,   -0.06658397615,     0.4705176353,      0.487903595,    -0.8410035968,    -0.5006837249,     0.7995257378,    -0.9094845653,     0.1663272232,     0.3367115259,     0.4825495481,     0.4988126159,    -0.7525521517,     0.5870715976,    -0.8314149976,     0.1556643695,    -0.3935831189,    -0.7105925679,     0.4646899402,    -0.8299472332,    -0.3901084661,     0.1133649349,    -0.1077927276,     0.7323008776,     0.5143919587,    -0.3162049055,    -0.5157119632,    -0.8246793151,     0.7761434317,    -0.1022756025,     0.2223080993,    -0.3937452435,    -0.5275056362,     0.9387826324,      1.119312525,     0.9998820424,      -0.55224967,    -0.8669656515,     0.8408571482,    -0.5251626968,    0.04747531191,     0.5398920774,     0.7624047995,    -0.9667467475,    -0.8872857094,    -0.6293193102,    -0.9773469567,    -0.3427787125,    -0.3204046786,     0.5901620984,    0.09512658417,    0.02291609533,    0.04504270852,     0.2752297819,     0.8423779011,    -0.4409468174,     0.7549105883,    -0.7688359022,    -0.3125540018,    -0.1548964083,     0.5919234157,      1.004688501,     0.3844398856,   -0.05175051838,     0.6778640747,     0.7444509268,     0.2360776812,     0.9814507365,     0.4028959274,    -0.7149720788,     0.5310163498,     0.8816357851,     0.4218250811,     0.6083506942,     0.8409048319,    -0.8456058502,      0.956736207,     0.5065395236,    -0.1260118484,     -0.347427696,    0.07754988968,    0.05124694109,    -0.0777926743,     0.8993182778,     0.7281576991,   -0.02812557481,    -0.7789188027,     0.7926971912,    -0.9854089618,    -0.4890169203,    -0.7476580739,    0.09921873361,  -0.001027253573,     0.7344980836,    -0.6037926674,    -0.6116858721,     -0.492808938,    -0.2242224365,     0.0902492702,     0.8102028966,     0.3958343565,    -0.4741866291,    -0.4066590965,      0.709995389,     0.7304120064,     0.8077484369,    -0.7632704377,     0.6743087173,    0.04576842859,      0.426558286,      1.229431033,     0.3682084084,     0.4597319961,    -0.2262395322,      1.016232491,     0.9616145492,     0.3601700068,    -0.1102398857,     0.8920054436,     0.8750103712,    -0.7180234194,      0.735561192,     0.6791933179,    0.08262052387,     0.8801600933,     0.9052836895,     0.6348021626,      0.956071198,      -0.62909168,    -0.9482514858,      0.507886529,     0.9207857847,    -0.5077009201,     0.3594821692,    -0.4991053939,     0.4080165923,   -0.01497303508,    0.09467878193,    0.03496068716,    -0.2900594473,    -0.3079724014,    -0.5231170058,     -0.535094738,     0.2432680577,    -0.5220131874,    -0.6266604662,     0.6687695384,    -0.5864746571,     0.6964350343,     0.8156365156,    -0.7580524683,    -0.6230543852,     0.4732978046,     0.4021330774,    -0.6924863458,     0.6278874278,      1.155255556,    -0.4924212992,     0.3246326745,    -0.6056799889,   -0.06357693672,     0.4164874554,    -0.1378405988,     0.4280743599,    -0.4170132875,     0.4766191542,     0.1188428029,     0.5676655173,   -0.06475000083,     0.7085795403,    -0.3930626214,     0.8023347855,     0.4641422927,     0.9759663343,     0.3771508634,    -0.3836239874,    -0.5169221759,    -0.5638276339,    -0.4235107005,   -0.02953580581,     0.8526215553,     0.1144577563,    -0.4907296598,    -0.1910358816,    -0.7232074738,     0.6846345663,     0.3245134354,    -0.6220579147,     0.6316142678,      0.139859587,     0.4439891279,     0.3995607495,     0.4122334719,     0.0930672735,     0.5022063255,      0.210282892,     0.6115238667,    -0.8366078138,    -0.7467622757,      0.558108151,     0.7860928178,    -0.6364582181,    -0.2979463935,    -0.4034352601,     0.6698588729,    -0.4844795763,    -0.2588685751,     0.8347198367,      1.175780177,     0.9701402187,    -0.8432673216,     0.2847398818,     0.2284884006,   -0.04809359089,    -0.3748573959,     0.8820017576,     0.2121282965,    -0.2985492051,     0.5308330655,      0.851647079,     0.3627474606,     0.8444470763,    -0.9960747361,    -0.7106685638,     0.3301417232,     0.1944239289,     0.7037140727,    -0.9560080171,      0.281614989,     0.9663876295,     0.2003946453,     0.3864439428,    -0.5401225686,    -0.1824951321,     0.5829680562,    -0.7399176359,     -0.399759829,     0.4639126956,    -0.4213873148,      0.196345374,     0.4774175286,    -0.5962408781,   -0.07810406387,     0.7914638519,    -0.5640966892,    -0.7982445359,     0.6016111374,    -0.8696086407,     0.6788535118,    -0.2118292749,    -0.6418871284,     0.2343170196,   -0.04645798728,    -0.8599389195,     0.4845800698,     0.5187965631,     0.9061195254,    0.02121585794,     0.8924405575,    -0.1261375695,    -0.2354067862,     0.9604330659,    -0.6209298968,    -0.4948947132,     0.5938049555,     0.9836075306,    -0.8272795677,     0.3709681332,     0.5862655044,    -0.7622132301,    -0.8782570362,     0.5999031663,     0.1906258017,    0.02498019487,    -0.3881053627,    0.05379632115,     0.1814102679,    -0.2990441918,     -0.441280812,    -0.2173811346,     0.2275750488,    -0.7054806352,    -0.5417042375,       0.14756383,    -0.6336051822,     0.4417638779,     -0.598910749,    -0.5785873532,     0.4230763018,     0.3015863299,   -0.08667843044,    -0.1684975028,     0.8259125352,     0.4017672241,     0.6492959857,    -0.6533076763,    -0.1288432777,     0.3508212566,     0.8624213338,       -0.6623227,     0.9799796939,    -0.5640035272,    -0.3213284314,     -0.139135465,     0.2133955657,      1.020579219,    -0.7089858055,     0.6824705601,     0.5381118655,    -0.7496082783,     0.2894695699,    -0.3657831252,    -0.3425252736,    -0.8782395124,     -0.878909409,    0.09245727956,    0.07766395807,      1.028110743,     0.3048119843,    -0.7289090753,     0.3813680708,       0.21233657,     0.1410797387,      0.966648519,    -0.7086418867,     0.9291752577,     0.6112029552,     0.7869507074,     0.3740229905,     0.8423910141,    -0.4456425607,     0.9930622578,    -0.6918612719,    -0.4274869561,     0.3395769894,     0.9564516544,     0.3006227314,     0.6826201677,     0.2322466522,     0.5630603433,     0.5048195124,    -0.7259631753,    -0.6220867634,     0.1121920794,      0.440969795,      0.512609005,    -0.9585361481,     0.8170849085,    -0.7191037536,     0.7294794321,     0.3380686939,    -0.5254428387,    -0.6343830824,    0.04318594933,   -0.01274292637,     0.2207876146,    -0.7665652633,    -0.6300673485,    -0.2792961001,    -0.7623592615,     0.5686553717,   -0.04182033241,     0.3178806305,      1.042715669,     0.4242092669,    -0.6427534819,    -0.2976439297,    -0.6693053246,      0.201055035,    -0.4270059466,     0.4336131513,     0.5710747838,     0.8258110881,     0.7510479689,     0.4203083813,    -0.4087625146,     0.9829437733,    -0.7352003455,     0.2533985972,     0.5212718844,    -0.2627408803,     0.4542014897,      1.126402378,     0.5519040227,      -0.20169954,     0.6618112922,    -0.4322580397,   -0.06109309942,    -0.3818841279,    -0.6839183569,     0.5324639082,    -0.9097622633,    -0.2053025216,     0.4099238515,    -0.1229649931,     0.8522655368,     0.3137723505,     0.8963839412,    -0.3389565349,    -0.3952701092,    -0.8043430448,    -0.1578268111,    -0.8757529259,    -0.4826236367,     0.9384174347,     0.2273690999,    -0.4300638437,     0.8783218861,    -0.1697926074,     0.3071389198,    -0.8311008215,    -0.1566552967,    -0.9714025855,    -0.1615080237,    -0.2942869961,     0.1980125308,     0.5934846401,    -0.4907465577,    -0.7482728362,     0.4554502964,    0.08110801876,     0.5080734491,    -0.3237110376,    -0.7596966624,     0.8261423111,    -0.3344167769,     0.7511951923,     0.9817169905,    -0.3377996683,    -0.3166308105,     0.8316063285,    -0.4164863825,     -0.595975697,    -0.8537989855,     0.5455548763,   -0.04515820742,    -0.9301185012,     0.8843015432,    -0.8819849491,     0.7810031176,     0.7620797157,    0.06426154822,    -0.1334326267,    0.06103007868,    -0.9459890127,    -0.6658455133,    -0.1369016767,    -0.7716659307,     0.8529935479,     0.1547103524,     0.8543093204,     0.3200844526,      -0.33648628,     0.3831776977,     0.5554559827,     0.9699036479,     0.2685028911,    -0.4772918522,   -0.03367102146,     0.1140068173,     0.1758345366,     0.5282562971,    -0.4257545471,     0.4911271036,     0.4078377187,    -0.2174711078,    -0.6805057526,     0.8502469063,     0.5403822064,     0.7546217442,     0.5361171365,    -0.6419535875,     0.5234518647,     0.7698534131,     0.4313265681,    -0.3432191312,    -0.3384207785,     0.9789313674,     0.9037212133,    -0.3800942004,     0.9885208607,     0.3089165092,     0.7738750577,    0.03751683235,    -0.3192945719,     0.3766649365,     0.6738517284,    -0.7327051759,     0.1542197317,    -0.6927138567,    -0.3364012837,     0.6357625723,     0.5017043948,    -0.9312348962,     0.3633446097,     0.6146284938,     0.8677669764,    -0.7014178634,    -0.8757357001,    -0.4454468787,    -0.3126309514,     0.5075294375,    0.07317517698,    -0.3692246377,    0.08360836655,     0.3109932542,    0.03567386419,     0.4870119691,    -0.2760761082,     0.9365488291,    -0.6644130349,    0.03893553466,    0.04079509899,     0.8380809426,     0.5244016051,     0.9263868928,     0.1203265339,     0.6980522871,     0.2978218198,    -0.3457612395,    -0.4947474301,     0.1836044043,   -0.06074748561,    0.02593653277,     0.4255098104,    -0.7131179571,    -0.4031925499,     0.3955616057,     0.4885713458,    -0.1038878113,    -0.4655681849,   -0.07521410286,    -0.2700340152,     0.9875110388,     0.7275098562,     0.8137570024,    -0.4790886343,     0.1465657651,    -0.3533709347,    -0.1699567288,      0.850938499,     0.4015759528,    -0.1528023779,    -0.5900437236,     0.5785050392,     0.5200328231,     0.6271246076,     0.1617684364,     0.9211182594,    -0.6652654409,     0.4866529703,    0.09868671745,    0.06908989698,    -0.8511942029,    -0.5780848861,     0.3920789957,    -0.9819460511,    -0.3066236675,     0.7697296143,    -0.3665073812,    -0.3341307342,    -0.6924988031,    -0.6760462523,    -0.2379408479,   -0.06104142591,     0.8737230301,    -0.1549220234,     0.5918685794,     0.4264165163,    0.09929333627,    -0.8846766353,     0.4037181437,      0.841147542,    -0.8763730526,    -0.6432343125,    -0.7433659434,    -0.8711331487,    -0.5595228672,    -0.4387099147,    -0.6339384913,    -0.8738078475,     -0.927754581,     0.4472631812,    -0.5972710848,     0.6982427239,    -0.6462466121,    0.04804045334,     0.4124025702,     0.2819105983,    -0.5421425104,    -0.4648892581,      0.372569859,     0.9158366323,    -0.7178577781,     0.2216083258,     0.7487429976,      0.861736536,     0.9319670796,     0.2878991961,     0.9816001058,    -0.4099494815,    -0.5235516429,     0.1947723329,    -0.8700872064,     0.3657310307,      1.008543611,    0.02455525659,     0.5204907656,    -0.6556388736,     0.1846127063,    -0.4077425897,     0.4431421757,     0.1342183948,     0.3072727621,    0.04977994412,     0.5541568398,    -0.6034135222,    -0.9117165804,     -0.584002316,     0.1804080009,    -0.7330902815,    -0.5487229824,      1.118038416,    -0.2617125511,    -0.2692976892,    -0.7134227157,    -0.7193183899,     0.7661733031,     0.3412653506,     0.7946471572,    -0.1688615084,    -0.1114785597,    -0.4511189759,     0.1505786031,    -0.4812669158,     0.3350152075,     0.7316604257,      0.327755332,      0.659730494,    -0.2960174382,     0.7749364376,     0.2824364901,    -0.6462076902,    -0.2503710985,    -0.2577000558,    -0.7445703745,     0.4336327016,     0.7876345515,    0.04256653041,    -0.6484337449,   0.005331051536,      0.188778773,    -0.6783571839,     0.7718830705,     0.9624162316,    -0.4799394608,     -0.871088028,    -0.6650699973,      1.067631721,     0.1556719691,    -0.8399646878,    -0.7869045734,    -0.3667909801,    -0.4033607244,    -0.5459623933,    -0.6863946319,   -0.07638745755,     0.5904510617,     0.7865893841,     0.8921653628,   -0.05490713939,    0.01633121632,      1.132756829,     0.8151307702,     0.4293822348,    -0.1631153822,     0.7835460305,     0.1589745879,    -0.4588816464,    -0.2107149363,    0.07768280059,     0.5523537397,     0.8041999936,     0.3182315528,   -0.04974970222,    -0.4069339633,    -0.1698842347,    -0.4004033208,    -0.7718502283,      0.494804889,     0.6902650595,     0.8999619484,    -0.8140982985,    -0.2083649486,     0.9343373179,     0.0585703738,     0.5008776188,     0.6545876861,    -0.1142356172,    -0.1798155159,    0.01552779227,    -0.4797518253,    -0.3861167133,    -0.7665833831,     0.3391912878,     0.8352162242,    0.06197648868,    -0.3868670762,      -0.12430574,    -0.8022592068,    -0.5548785925,    -0.5126098394,    -0.8599959612,      0.318140775,      1.117214084,     0.1129432917,     0.4533275664,    -0.1592896283,     0.7052027583,    -0.2563811243,    -0.6586639881,     0.8970600963,   -0.03595983982,     0.1980236769,    -0.5956941843,    -0.4517241418,     0.6019001007,    -0.2087333947,     -0.216559276,      0.854156673,      0.729057014,     0.3081331253,    0.01201282721,     0.8022667766,     0.5167784095,    0.03184145689,     0.3649234176,     -0.699362874,    -0.9013941288,    -0.5546934605,     0.8538680673,     0.8473936319,     0.6676424146,     0.8876454234,   0.009137648158,   0.001958581852,      0.777923882,   0.007640140131,      1.036873102,    -0.7428631783,    -0.4084968269,     0.3002507687,     0.7625596523,    -0.4553356171,      1.108118773,     -0.593724072,    0.02401177026,    -0.1962491274,    -0.3735086322,     0.5565574765,     0.1982005835,     0.8775045276,     0.1250825971,     -0.285248071,    -0.8911482692,      1.107028484,     0.6561504602,      0.870685935,      0.310236305,    -0.5811572671,   -0.03938743845,     0.5273701549,     0.7602853179,     -0.826664865,     0.6343256235,     0.3889994621,     0.3218214512,     0.5662772655,    -0.1363040209,     0.4281058609,     0.1861733496,     0.7020827532,      0.654919982,     0.7539381385,     0.4969767332,     0.7146989107,    -0.6374586821,     -0.196551308,     0.4757378697,    -0.6522080302,      0.313703388,     0.9886196852,     0.5094991922,    -0.4745591879,    -0.9350017309,    -0.1644842923,    -0.2235714346,     0.7104356289,     0.5454466343,     0.3063592911,     0.3571207523,     0.3549752533,    -0.2056778073,      -0.98102355,    -0.4390898943,    -0.5466049314,    -0.6160629988,     0.6284368634,     0.5567017198,     0.9685096145,    -0.6911218762,     0.7920274138,    -0.6718990207,     0.7907586694,     0.7061955929,    0.01034279447,     0.2677600086,     0.4716534019,   -0.09792174399,    -0.0962510854,     0.4511177242,      0.538662672,    -0.8253470063,     0.4952489138,    0.09926401824,    -0.2962564826,    -0.4425195456,    -0.3155840039,    -0.1721187532,     0.2991400957,    -0.3733495176,     0.3907414079,     0.1503680199,      1.053911448,     -0.924826324,    0.03486626595,    -0.5757827163,    -0.0589944385,     0.9775987864,     0.6056758761,   -0.06558252871,    -0.2505404353,     0.9565173388,    -0.4464760721,     0.7063989043,     0.8106205463,   -0.06267295778,    -0.2842120826,     0.0835820511,    -0.9207601547,    -0.1971851289,    -0.8047269583,    0.04263414815,     0.9410030246,    -0.1045231968,     0.1381572187,    -0.8903692961,    -0.3911927342,   -0.09653124213,    0.03474021703,    -0.3119966984,   -0.02835163474,     0.7864338756,    -0.5800322294,    -0.2626795173,     0.8721788526,    -0.7500901222,    -0.4332907796,   -0.01931689121,      1.033605099,    -0.7649821639,    -0.4129642546,     0.9202131629,     0.6642423272,     0.3058880568,    -0.2179145366,     0.1409568489,     0.4891151786,     0.8405073881,   -0.01094834693,      1.339663267,    0.07704889774,    -0.6679803729,     0.9064541459,    -0.5130677819,     0.6951315999,    -0.3544328213,        1.0321666,     0.2131560445,    -0.1657897234,     0.3908948898,     0.4494429827,     0.9169611931,    -0.3950201869,    -0.6039981842,    -0.4658766687,     0.9657309055,    -0.3172752857,    0.01151548326,      0.864174366,     0.9232714772,    -0.6316753626,     0.3965612948,   -0.01228079014,   -0.05482878163,     0.6338382959,     0.2158548236,    -0.8988602757,    -0.0709836334,     0.9796000719,     0.4547048807,    -0.7648640275,    -0.7936403155,     0.2823628783,      1.053555727,     0.9328334928,    -0.8561051488,    -0.2257456332,    -0.9097988605,    -0.3754303157,     0.7785520554,    -0.6268331409,     0.2173477262,     0.2920787632,    -0.8096269369,    -0.2428724766,    -0.8260703087,     0.1101050451,    0.02851512469,    0.06276447326,     0.9536572695,    -0.6722020507,     0.6017802358,    -0.7220262289,     0.9048886895,     0.8931145072,    -0.2300743014,    -0.8534890413,   0.009995970875,     0.6534610987,    -0.5850390196,   -0.03739733994,     0.7559748292,      0.387118876,     0.2076376975,     0.3173705935,     0.9474562407,    -0.7521210313,     0.1869589537,     0.3176936507,      0.630520463,      0.260504216,     0.5417054892,     0.1312263012,      1.037069321,     0.6675650477,    -0.1206766963,    -0.6983345747,     0.4190770388,     0.3814373314,     0.2152303457,    -0.2645428479,     0.1403719187,     0.2080161273,     0.2347687483,      -0.41783005,     0.4941104054,    -0.7250229716,     0.7321994305,    0.04558929428,    -0.5416023135,    -0.1876620501,     0.6478723288,     0.9433664083,     -0.620442152,    -0.8818958998,    -0.6514030695,    -0.6470139027,     0.7140260339,     0.7363951802,     0.2793071866,     0.5645064116,    -0.6733050346,    -0.3762004673,    -0.3073225915,     0.6683474183,     0.5717807412,     -0.823104918,    0.01810432225,    -0.5762799382,    -0.6296699643,    0.08997857571,     0.2220285982,    -0.1757192761,     0.3462221026,     0.9119974971,    -0.1650363952,    -0.1904655993,    -0.7285467386,     0.6594418287,    -0.8476713896,    0.06978873909,    -0.8277722597,     0.6786280274,     0.2439375818,    -0.2678312063,     0.7118193507,    -0.7501494288,     0.2940643728,      1.096692801,    -0.3882565498,     0.3106749058,     0.6480132937,      1.089475989,     0.8843356967,    -0.3741587102,    0.03551115096,      0.846578002,    -0.7021991014,     0.4887758195,    -0.8266313672,    -0.5464631915,    -0.2168135196,    0.06844349951,     0.4494963884,     0.9158546925,     0.5694970489,    -0.6882385612,     0.6754716635,    -0.7974939942,     0.1366263032,    -0.6464788914,       0.20920825,    -0.1236625761,     0.2100868374,    0.03427832574,     0.2990959287,     0.7230939269,   -0.03352440149,     0.8029128909,    -0.1019771993,     0.6784608364,    -0.2488752604,     0.7218394279,    -0.5761037469,     0.7112106681,       0.78210181,     0.3132074177,     0.1302309334,     0.9337363839,     0.2532206178,    -0.8843634129,    -0.9039513469,      0.601418972,     0.6383994222,     -0.491050601,    0.06552676857,    -0.9381674528,  -0.008419811726,    -0.2489051223,     0.1574158221,     0.1957951933,    -0.1311883479,    -0.4899809957,    -0.2310199142,     0.1483431458,     0.2478324622,    -0.9673937559,      0.184062466,    0.03550806269,    -0.9712321162,    -0.8945826888,    -0.9678639174,    -0.4302046001,    -0.1524631828,    -0.4734569788,    -0.2746642232,    -0.7425923347,    -0.1162749007,    -0.6396761537,    -0.6083599329,     0.5749940872,     0.3281244934,     0.2962998748,     0.7431118488,     0.3576399982,     0.8772097826,    -0.3223205805,    -0.5800620317,     0.2469657511,    -0.4139860272,    0.09732493013,    -0.2116336673,    0.02802138589,     0.3675645292,    -0.5478978753,    -0.6005170941,     0.8189828992,    -0.8939388394,    -0.3534187675,    0.08247029781,    0.05525442958,   -0.09858326614,      0.969297111,    -0.2445168346,    -0.4258214831,     0.8028733134,     0.5445338488,     0.2620273232,      0.872479558,     0.2020423412,    0.02784381434,    -0.4611282051,    -0.2210799158,    -0.4808856845,     0.8025090098,    -0.6242976785,     0.2829031348,     0.8358267546,    -0.8295187354,    -0.3282603323,   -0.08492237329,     0.2798818052,     0.2607245147,    0.06879157573,    -0.7443964481,     0.5612305403,    -0.4436568916,    -0.5452972054,    -0.6772144437,     0.9552398324,    -0.4315157533,     0.8010303974,    -0.1531606615,     0.8893515468,     -0.570035398,    0.06553662568,    -0.6420021653,      0.261079818,     -0.033452034,      0.360763967,     0.1932426244,     0.2299350798,    -0.1713900566,    -0.2626522779,    -0.1019055322,     0.3126144409,    -0.0551270768,     0.4861750305,    -0.5234326124,    -0.2266865671,    -0.8586242795,    0.06940440834,     0.7061658502,     0.9216023088,    -0.6652316451,     0.6787078381,     0.1725751013,    -0.3770764172,     0.3571717739,     -0.805351913,     0.3245846927,     0.8882352114,      0.775185883,     0.9215162396,     0.1661820114,    0.06201436743,     -0.802200377,     0.1692853421,     0.4324957132,      0.486142844,    -0.4893652201,    0.02378431708,    -0.8637300134,    -0.1956593841,    0.04323694855,    -0.2703852355,     0.5057982206,     0.3552543819,    0.02623971738,    -0.7805440426,     0.6646060944,     0.6040644646,     0.6003283858,     0.2358234376,    -0.3163170815,    -0.5505362153,     0.6295241117,    0.08662445843,     0.8979672194,     0.1116578355,    -0.2856404483,    -0.4872503579,     0.8303439617,     0.3596095145,    -0.3581877351,     0.3915496767,     0.0332784988,    -0.5950022936,     0.7254886627,    0.08073117584,     0.5751459599,    -0.2150679529,     0.5704538822,    -0.1558037996,     0.8083082438,    -0.6136133075,     0.3161331713,   -0.04767071828,       -0.1573679,     0.4147081375,    -0.6593936682,    -0.6196684837,     0.2137402892,    -0.8400526047,     0.3077918291,    -0.4571736455,     0.4588592947,    -0.4028933048,    -0.4031792879,     0.2117830366,     0.4825961292,      0.289093256,    -0.7626495361,    -0.1656659395,     0.3438993096,    -0.5821989179,    -0.6631664038,    -0.8747393489,     0.7638260722,    -0.7644067407,     0.6734589934,        1.2675879,      0.835326314,    -0.5228698254,     0.6241666675,     0.4896278381,     0.2668654323,    -0.3940183818,    -0.4535995722,    0.06723539531,     0.9789364934,      1.043780565,     0.1582329273,    -0.5345575213,    -0.1135956794,    -0.5114944577,    -0.7216470242,      0.704801023,    -0.7011098266,    -0.5291377902,      0.323851943,    -0.3418267369,     0.2856521904,    -0.4434971511,     0.4894521236,    -0.5758194923,    -0.7732741833,    -0.4833355248,     0.4466564357,     0.7443919182,     0.4242965281,    -0.5213730931,    -0.3353049159,     0.2502444685,    -0.2615514696,     0.9718724489,     0.1526408494,     0.9913743734,     0.8230951428,     0.2835671008,    0.03040088341,     0.6339763403,    -0.5402047038,     0.5278640985,     0.4583319128,     0.1683507711,     0.5924224854,    -0.5387784243,     0.3396110535,    -0.3817848861,    -0.5868343115,    -0.1456284076,     0.5560907722,     0.9205611944,    0.04182508588,   -0.06681599468,      1.029370189,     0.8123227954,     -0.291146487,     0.7289953828,     0.4232418835,    -0.3583087921,    -0.2212562114,    -0.2326458693,    -0.3331281543,   -0.05045702681,     0.1415667832,     0.5679328442,    -0.8961398005,    -0.8599697351,     0.6310688853, -7.102695236e-05,    -0.3332908452,     0.7140555978,    -0.6639840603,    -0.7696424127,    -0.7424109578,    -0.2948636413,     -0.391921103,      0.755556345,     0.3299628198,    -0.4137240946,    -0.8524649143,       0.89065063,    -0.5079513788,     0.4264144599,    -0.2077914178,     0.8456263542,    -0.5223479271,    -0.5415140986,     0.3845261335,     0.2168402672,    -0.1027964428,     0.9169721603,     0.9418556094,     0.6715201139,    -0.8446823359,     0.3343997896,     0.7686240077,    0.04762617499,     0.8527316451,      1.079544902,     0.7571025491,     0.4245229661,     0.8727903366,     0.3876852691,    -0.1011897326,    -0.6659761667,     0.2575489879,     0.7090247869,    -0.4311655462,    -0.3978788555,    -0.3577397466,     0.3063601851,    -0.8035822511,    -0.9913250208,     0.7351605892,     0.8031808734,     0.4801906943,      0.143713966,     0.8916772008,    -0.8799622655,     0.4870862663,    -0.9186410308,    -0.7546278834,    -0.2394294441,     0.4759511054,    0.01289355755,    -0.4926303029,    -0.8076981306,     0.2390974909,    -0.7205075026,    -0.6487997174,    -0.6560686827,   -0.04204703495,    -0.3794148862,     0.1326280534,     0.4967294931,    -0.7682323456,     0.9488044381,    -0.3041976094,    0.07139017433,      0.316827774,      1.002237439,     0.3302852511,    -0.5738772154,      1.313717484,     0.4493106306,     0.3925145864,       0.94023633,     0.1081773564,     0.3900452256,    -0.5804219246,      0.472089678,     0.7022685409,    -0.7106042504,    -0.4332705438,    -0.7997077107,      0.485688895,    0.09884571284,    -0.3415585458,    0.04933438078,     0.3545793593,    -0.5178077221,      0.666952312,    -0.8252037764,     0.5603787899,     0.9614911079,     0.1278254688,     0.6475357413,     0.7476996779,     0.8328544497,       0.45895347,     0.4982805848,    -0.7379305363,    -0.1468006819,    0.09937787056,     0.9026451111,    0.08713412285,    -0.2312056571,    -0.6283053756,     0.8894880414,    -0.1412035078,     0.6924538612,      1.031064749,     0.1798478663,     0.9139724374,     0.8283990026,     0.2886650264,   0.004091551062,     0.2439378947,      0.428473711,     0.6520792842,    -0.4512466192,     0.3939911425,    -0.8110468388,     0.7389656901,    -0.2660149038,     0.2734455168,   -0.06591647118,     0.8118320704,     0.9509822726,    -0.8037873507,     0.2190844119,    -0.4435840845,     0.4395240545,     0.5383349061,     0.2693078816,      0.396780014,    -0.1741981953,     0.7045550346,    -0.4603302181,     0.8179222941,     0.3940879107,    -0.2217733711,    -0.4381682873,      0.465128392,      1.078333855,    -0.2141304314,     0.4444139004,     0.6560533643,         0.652888,      1.111164689,    -0.8523817658,    -0.7113431692,      0.445749253,     0.8770934939,      0.926302731,    0.03625100479,    -0.1799110025,    -0.5237253904,   -0.02345559373,     0.7414121032,     0.6061108112,     0.4414939284,     0.9541222453,   -0.03897530958,     0.8404681087,     0.2942077816,   -0.09571009129,     0.4799829125,    -0.2584787011,     0.4861806929,     0.3127457798,       0.30725348,    -0.4321072996,    -0.1674129665,    -0.7550125122,     0.5763603449,  -0.005577528384,    -0.1100923717,     0.8422104716,     0.8278337121,     0.4514158666,     0.5051915646,    -0.4704143405,    -0.8411109447,     0.8383523226,     0.7998054028,     0.4892172515,    -0.7935081124,     0.3510662913,     -0.742184937,      1.018909574,    -0.2820494771,     0.1741809994,     0.5023519993,     0.2005235553,   -0.03138489276,     0.9992061257,     0.3271352351,    -0.8785113096,     0.2669327557,  -0.007299511228,    -0.1094328761,     0.4008891881,     0.3034749031,    -0.3990226388,     0.2417286187,     0.2342988253,     0.7080076337,    -0.2999562621,     0.8822059035,     -0.318331331,   -0.02917480655,    -0.9566662908,    -0.7468107939,     0.2381115854,    -0.9579262733,   -0.06662347168,     0.1844861656,    -0.0187436603,    -0.7155387402,     0.2482738942,     0.1512541026,     0.4703951478,     0.8576751947,    -0.4048445225,   -0.01402966864,     0.7556439638,   -0.05063579232,     0.9821918607,    -0.7620742917,     0.6760892868,     0.3547881842,    -0.2828361392,     0.1998712271,    -0.2026125789,    -0.7149182558,    -0.3656906188,    -0.5990769267,   -0.06985361129,    -0.1180477217,     0.3011559248,     0.4869938195,     0.9069693685,      0.325782001,     -0.535305202,    -0.5075396299,     0.1985259801,    -0.2110682875,   -0.07816138864,    -0.5017675757,     -0.486355722,     0.2009890079,    0.07231666893,    -0.6998076439,     0.4510654509,     0.4121230841,    -0.7614757419,    -0.6684769392,    -0.1283530295,    -0.4773077369]
